epoch,neuron1_bias,neuron2_bias,neuron3_bias,neuron4_bias,neuron5_bias,neuron6_bias,neuron7_bias,neuron8_bias,neuron9_bias,neuron10_bias,neuron11_bias,neuron12_bias,neuron13_bias,neuron14_bias,neuron15_bias,neuron16_bias,neuron17_bias,neuron18_bias,neuron19_bias,neuron20_bias,neuron21_bias,neuron22_bias,neuron23_bias,neuron24_bias,neuron25_bias,neuron26_bias,neuron27_bias,neuron28_bias,neuron29_bias,neuron30_bias,neuron31_bias,neuron32_bias,neuron33_bias,neuron34_bias,neuron35_bias,neuron36_bias,neuron37_bias,neuron38_bias,neuron39_bias,neuron40_bias,neuron41_bias,neuron42_bias,neuron43_bias,neuron44_bias,neuron45_bias,neuron46_bias,neuron47_bias,neuron48_bias,neuron49_bias,neuron50_bias,neuron51_bias,neuron52_bias,neuron53_bias,neuron54_bias,neuron55_bias,neuron56_bias,neuron57_bias,neuron58_bias,neuron59_bias,neuron60_bias,neuron61_bias,neuron62_bias,neuron63_bias,neuron64_bias
0,0.035419,0.040286,0.131242,0.204701,-0.012948,0.117571,-0.010895,0.085264,0.024602,0.000027,0.104779,-0.031061,0.070104,0.024571,0.123548,-0.048973,0.113639,0.133068,0.132190,0.212379,0.092823,0.165047,0.138762,0.113361,-0.026597,-0.020533,0.128538,0.051805,0.112825,0.177841,0.178146,0.115574,-0.019140,0.130781,0.119702,0.124716,-0.041386,0.123751,-0.033881,0.085975,0.084457,0.126293,0.114103,0.103670,-0.018794,0.029795,0.115286,0.064396,0.000033,0.104623,0.062255,0.114818,0.216389,0.100602,0.104833,0.091583,0.125996,0.065868,-0.043888,0.088271,0.188110,0.136453,-0.025036,0.111601
1,0.038004,0.070445,0.115084,0.184935,-0.012948,0.142512,-0.010895,0.086387,0.012748,-0.000000,0.114633,-0.031061,0.061749,0.012854,0.109043,-0.048973,0.097569,0.119767,0.142477,0.199681,0.099121,0.110273,0.147944,0.141941,-0.026597,-0.020533,0.082927,0.059542,0.115345,0.129803,0.137403,0.135465,-0.019140,0.136576,0.141783,0.146849,-0.041386,0.111804,-0.033881,0.096650,0.095868,0.143759,0.154077,0.127124,-0.018794,0.012324,0.138539,0.081574,-0.000010,0.111267,0.093800,0.115743,0.200865,0.103313,0.110683,0.096871,0.148454,0.102952,-0.043888,0.094890,0.193809,0.159372,-0.025036,0.139430
2,0.033280,0.077255,0.104777,0.163208,-0.012948,0.142227,-0.010895,0.088168,0.000003,-0.000000,0.098289,-0.031061,0.043428,0.000064,0.091250,-0.048973,0.092842,0.093178,0.130920,0.166605,0.094714,0.087911,0.136319,0.120974,-0.026597,-0.020533,0.055903,0.051183,0.089916,0.096100,0.108128,0.129466,-0.019140,0.138235,0.134366,0.145173,-0.041386,0.099111,-0.033881,0.095623,0.085121,0.132554,0.138623,0.118715,-0.018794,0.000175,0.122278,0.077248,-0.000010,0.089228,0.076938,0.100953,0.158036,0.089384,0.096439,0.088794,0.125522,0.088037,-0.043888,0.083687,0.156704,0.149564,-0.025036,0.120960
3,0.036115,0.069088,0.082751,0.141053,-0.012948,0.123687,-0.010895,0.082010,-0.000000,-0.000000,0.083654,-0.031061,0.070329,-0.000000,0.066072,-0.048973,0.072105,0.081076,0.120419,0.141385,0.088927,0.078380,0.122718,0.103424,-0.026597,-0.020533,0.047431,0.054312,0.078267,0.085914,0.097595,0.111175,-0.019140,0.129045,0.125349,0.139336,-0.041386,0.082606,-0.033881,0.088778,0.076992,0.120421,0.113609,0.111616,-0.018794,0.000000,0.112702,0.077818,-0.000010,0.079493,0.053474,0.075972,0.139544,0.079824,0.081908,0.066303,0.118497,0.082143,-0.043888,0.071518,0.127398,0.127459,-0.025036,0.109607
4,0.042737,0.058434,0.070304,0.110193,-0.012948,0.099641,-0.010895,0.075588,-0.000000,-0.000000,0.071915,-0.031061,0.065381,-0.000000,0.072713,-0.048973,0.061410,0.072162,0.104260,0.122991,0.075793,0.066889,0.107671,0.089397,-0.026597,-0.020533,0.039918,0.054668,0.064730,0.065046,0.072465,0.097916,-0.019140,0.102793,0.098754,0.111147,-0.041386,0.068254,-0.033881,0.079512,0.067282,0.110704,0.096243,0.090522,-0.018794,-0.000000,0.101665,0.065437,-0.000010,0.056856,0.050377,0.064596,0.111287,0.071688,0.072375,0.053020,0.093041,0.066516,-0.043888,0.066403,0.107586,0.116845,-0.025036,0.095392
5,0.052200,0.061876,0.055117,0.081056,-0.012948,0.080824,-0.010895,0.069378,-0.000000,-0.000000,0.069021,-0.031061,0.057832,-0.000000,0.061383,-0.048973,0.055110,0.057499,0.078564,0.096495,0.065485,0.059393,0.083739,0.084754,-0.026597,-0.020533,0.040331,0.050188,0.065912,0.057998,0.061119,0.087703,-0.019140,0.086767,0.074223,0.085890,-0.041386,0.069321,-0.033881,0.057759,0.052578,0.092110,0.089738,0.074704,-0.018794,-0.000000,0.085790,0.063671,-0.000010,0.062289,0.046470,0.060562,0.075650,0.058730,0.063235,0.049459,0.091121,0.064946,-0.043888,0.061579,0.086330,0.089320,-0.025036,0.081115
6,0.054960,0.060715,0.048459,0.070234,-0.012948,0.070397,-0.010895,0.053512,-0.000000,-0.000000,0.050051,-0.031061,0.053431,-0.000000,0.059258,-0.048973,0.053046,0.051707,0.071719,0.068185,0.058353,0.060386,0.076125,0.059425,-0.026597,-0.020533,0.043535,0.056168,0.061449,0.058598,0.061608,0.064859,-0.019140,0.080355,0.058129,0.079771,-0.041386,0.064057,-0.033881,0.053834,0.054423,0.084374,0.070246,0.071538,-0.018794,-0.000000,0.078466,0.052035,-0.000010,0.056834,0.038648,0.050066,0.062596,0.066870,0.056714,0.052383,0.078061,0.057614,-0.043888,0.051076,0.067543,0.069522,-0.025036,0.057938
7,0.045856,0.063328,0.053572,0.050237,-0.012948,0.049148,-0.010895,0.048677,-0.000000,-0.000000,0.049875,-0.031061,0.038173,-0.000000,0.054286,-0.048973,0.063006,0.045504,0.052702,0.060384,0.061338,0.061301,0.049615,0.045174,-0.026597,-0.020533,0.044847,0.063084,0.055120,0.052747,0.061222,0.057436,-0.019140,0.055394,0.053659,0.067412,-0.041386,0.060243,-0.033881,0.051209,0.053320,0.060200,0.066328,0.057677,-0.018794,-0.000000,0.072285,0.043477,-0.000010,0.052670,0.030933,0.053207,0.050615,0.063510,0.054652,0.053918,0.067072,0.052566,-0.043888,0.054169,0.050324,0.058547,-0.025036,0.058614
8,0.046085,0.064291,0.057161,0.051601,-0.012948,0.053315,-0.010895,0.056172,-0.000000,-0.000000,0.050527,-0.031061,0.035580,-0.000000,0.047807,-0.048973,0.057541,0.048152,0.056654,0.048846,0.054231,0.059958,0.040822,0.041637,-0.026597,-0.020533,0.044934,0.056246,0.058813,0.060722,0.049691,0.046924,-0.019140,0.049234,0.037134,0.054123,-0.041386,0.047339,-0.033881,0.044859,0.049212,0.058864,0.060160,0.043411,-0.018794,-0.000000,0.058646,0.049212,-0.000010,0.047915,0.025016,0.054293,0.041417,0.066968,0.052674,0.048328,0.054570,0.046490,-0.043888,0.050163,0.043999,0.053180,-0.025036,0.051131
9,0.048587,0.057759,0.046034,0.044933,-0.012948,0.046390,-0.010895,0.057633,-0.000000,-0.000000,0.049330,-0.031061,0.025002,-0.000000,0.041631,-0.048973,0.062324,0.054766,0.046137,0.041359,0.057902,0.051693,0.040083,0.035390,-0.026597,-0.020533,0.049336,0.053501,0.055616,0.055053,0.051269,0.043334,-0.019140,0.042569,0.030982,0.042248,-0.041386,0.050266,-0.033881,0.040184,0.046391,0.042882,0.052255,0.028235,-0.018794,-0.000000,0.042292,0.051425,-0.000010,0.045156,0.019573,0.063564,0.029047,0.059554,0.057007,0.046254,0.036372,0.042744,-0.043888,0.047098,0.044244,0.045076,-0.025036,0.051541
10,0.041764,0.058174,0.043560,0.039765,-0.012948,0.034125,-0.010895,0.059657,-0.000000,-0.000000,0.042125,-0.031061,0.021430,-0.000000,0.044379,-0.048973,0.055454,0.050035,0.035197,0.030495,0.060027,0.050380,0.027777,0.033461,-0.026597,-0.020533,0.048740,0.054963,0.057919,0.053333,0.051643,0.043130,-0.019140,0.040126,0.028997,0.036979,-0.041386,0.047966,-0.033881,0.035567,0.036514,0.037698,0.041559,0.028085,-0.018794,-0.000000,0.039832,0.058809,-0.000010,0.048207,0.017264,0.056450,0.023751,0.065752,0.056718,0.044912,0.031179,0.031346,-0.043888,0.049180,0.041263,0.032096,-0.025036,0.046391
11,0.054136,0.056126,0.036740,0.032111,-0.012948,0.031373,-0.010895,0.060226,-0.000000,-0.000000,0.040776,-0.031061,0.011144,-0.000000,0.045415,-0.048973,0.056201,0.052079,0.030050,0.030365,0.048410,0.048618,0.022686,0.030695,-0.026597,-0.020533,0.050989,0.056522,0.048764,0.051406,0.047758,0.042239,-0.019140,0.034682,0.024336,0.032748,-0.041386,0.042732,-0.033881,0.032333,0.042840,0.032396,0.033869,0.029763,-0.018794,-0.000000,0.034540,0.050059,-0.000010,0.049802,0.003090,0.050219,0.034008,0.048988,0.053717,0.047662,0.034768,0.019119,-0.043888,0.042917,0.039767,0.026654,-0.025036,0.037046
12,0.055551,0.044440,0.033540,0.029056,-0.012948,0.039022,-0.010895,0.054860,-0.000000,-0.000000,0.037449,-0.031061,0.006033,-0.000000,0.041551,-0.048973,0.043475,0.046387,0.027396,0.027399,0.052962,0.039466,0.027116,0.024163,-0.026597,-0.020533,0.047744,0.056502,0.042831,0.044003,0.051451,0.032641,-0.019140,0.027192,0.021428,0.026688,-0.041386,0.042853,-0.033881,0.029842,0.045857,0.021761,0.031648,0.027200,-0.018794,-0.000000,0.030089,0.054172,-0.000010,0.046068,0.000331,0.051578,0.032796,0.050593,0.053193,0.048778,0.028855,0.016463,-0.043888,0.050308,0.036151,0.030439,-0.025036,0.028467
13,0.054014,0.050408,0.041000,0.018671,-0.012948,0.029481,-0.010895,0.047458,-0.000000,-0.000000,0.042286,-0.031061,0.000394,-0.000000,0.054638,-0.048973,0.044685,0.049455,0.014067,0.043699,0.042461,0.043722,0.025127,0.028441,-0.026597,-0.020533,0.048415,0.048681,0.048251,0.043914,0.048073,0.025309,-0.019140,0.033369,0.016512,0.032704,-0.041386,0.044915,-0.033881,0.028967,0.049627,0.020205,0.026697,0.026312,-0.018794,-0.000000,0.027140,0.052879,-0.000010,0.045741,0.000000,0.056872,0.028106,0.046002,0.053842,0.052113,0.025900,0.010723,-0.043888,0.046001,0.028133,0.027730,-0.025036,0.023046
14,0.050547,0.040687,0.038312,0.016670,-0.012948,0.029960,-0.010895,0.048346,-0.000000,-0.000000,0.043472,-0.031061,-0.000000,-0.000000,0.048125,-0.048973,0.039100,0.047011,0.017104,0.043164,0.040601,0.045333,0.024623,0.033385,-0.026597,-0.020533,0.056440,0.040342,0.044858,0.040914,0.051588,0.017416,-0.019140,0.028242,0.018953,0.022075,-0.041386,0.041515,-0.033881,0.028342,0.050707,0.018540,0.024499,0.029956,-0.018794,-0.000000,0.030890,0.048072,-0.000010,0.048095,-0.000000,0.052430,0.031087,0.036963,0.043199,0.043588,0.021448,0.005810,-0.043888,0.041990,0.028107,0.026229,-0.025036,0.022873
15,0.045420,0.034851,0.036047,0.015702,-0.012948,0.033656,-0.010895,0.044913,-0.000000,-0.000000,0.032127,-0.031061,-0.000000,-0.000000,0.043459,-0.048973,0.047109,0.041319,0.012304,0.033072,0.033996,0.035572,0.016900,0.022592,-0.026597,-0.020533,0.046185,0.036736,0.044830,0.041809,0.050373,0.014040,-0.019140,0.035941,0.009850,0.027038,-0.041386,0.042241,-0.033881,0.022685,0.046445,0.015157,0.028105,0.027468,-0.018794,-0.000000,0.024141,0.047277,-0.000010,0.045792,-0.000000,0.047866,0.022994,0.045167,0.034785,0.047139,0.016654,0.000052,-0.043888,0.048576,0.019050,0.023231,-0.025036,0.021065
16,0.040466,0.039485,0.034414,0.010376,-0.012948,0.020024,-0.010895,0.037923,-0.000000,-0.000000,0.035101,-0.031061,-0.000000,-0.000000,0.046181,-0.048973,0.041207,0.045545,0.010367,0.024942,0.040881,0.042440,0.028598,0.025108,-0.026597,-0.020533,0.045541,0.045063,0.043486,0.041285,0.048979,0.020841,-0.019140,0.025048,0.008653,0.021353,-0.041386,0.038277,-0.033881,0.024226,0.041748,0.017273,0.026326,0.028126,-0.018794,-0.000000,0.029455,0.050716,-0.000010,0.043842,-0.000000,0.048990,0.017571,0.041761,0.032903,0.047304,0.019978,-0.000000,-0.043888,0.052643,0.022937,0.017994,-0.025036,0.018685
17,0.041481,0.039830,0.036188,0.007232,-0.012948,0.024236,-0.010895,0.046636,-0.000000,-0.000000,0.042169,-0.031061,-0.000000,-0.000000,0.041163,-0.048973,0.037159,0.047185,0.003381,0.022705,0.033353,0.045182,0.029653,0.024515,-0.026597,-0.020533,0.044083,0.044064,0.038895,0.042955,0.047614,0.017352,-0.019140,0.026631,0.003196,0.022832,-0.041386,0.036767,-0.033881,0.022326,0.042613,0.009228,0.025736,0.032096,-0.018794,-0.000000,0.023939,0.046169,-0.000010,0.047258,-0.000000,0.046341,0.014131,0.038350,0.041180,0.047242,0.025065,-0.000000,-0.043888,0.049858,0.027128,0.012537,-0.025036,0.021950
18,0.040248,0.037731,0.037443,0.012362,-0.012948,0.029349,-0.010895,0.042544,-0.000000,-0.000000,0.032356,-0.031061,-0.000000,-0.000000,0.040670,-0.048973,0.040858,0.041902,0.002163,0.017384,0.044473,0.041716,0.024496,0.021775,-0.026597,-0.020533,0.043963,0.040660,0.037585,0.042256,0.037363,0.011920,-0.019140,0.020175,0.000081,0.013190,-0.041386,0.032916,-0.033881,0.016648,0.037152,0.012641,0.030564,0.024076,-0.018794,-0.000000,0.026070,0.045511,-0.000010,0.046168,-0.000000,0.044171,0.010009,0.038379,0.043792,0.046080,0.013920,-0.000000,-0.043888,0.043298,0.026625,0.012594,-0.025036,0.020773
19,0.039186,0.042001,0.038399,0.004252,-0.012948,0.024802,-0.010895,0.036979,-0.000000,-0.000000,0.038667,-0.031061,-0.000000,-0.000000,0.036340,-0.048973,0.043958,0.048865,-0.000000,0.016987,0.039348,0.033421,0.022450,0.024068,-0.026597,-0.020533,0.043971,0.039636,0.036159,0.043514,0.034747,0.009582,-0.019140,0.024551,-0.000000,0.009903,-0.041386,0.031139,-0.033881,0.015778,0.031814,0.007597,0.025608,0.026029,-0.018794,-0.000000,0.016808,0.042396,-0.000010,0.039479,-0.000000,0.037418,0.008457,0.039370,0.039249,0.041995,0.020142,-0.000000,-0.043888,0.044213,0.016131,0.002611,-0.025036,0.018033
20,0.040144,0.043650,0.037584,0.000353,-0.012948,0.028075,-0.010895,0.034331,-0.000000,-0.000000,0.038593,-0.031061,-0.000000,-0.000000,0.031214,-0.048973,0.040012,0.048879,-0.000000,0.022143,0.043529,0.033896,0.028435,0.022279,-0.026597,-0.020533,0.042352,0.037637,0.031963,0.044372,0.035901,0.005890,-0.019140,0.017832,-0.000000,0.007355,-0.041386,0.031074,-0.033881,0.015650,0.026860,0.007781,0.021359,0.018839,-0.018794,-0.000000,0.018557,0.041309,-0.000010,0.043166,-0.000000,0.032420,0.010015,0.043827,0.048579,0.037293,0.015925,-0.000000,-0.043888,0.040940,0.021261,0.001214,-0.025036,0.021241
21,0.042982,0.043728,0.038063,-0.000000,-0.012948,0.022948,-0.010895,0.033742,-0.000000,-0.000000,0.034790,-0.031061,-0.000000,-0.000000,0.031288,-0.048973,0.034479,0.041059,-0.000000,0.016602,0.045082,0.032645,0.019927,0.022014,-0.026597,-0.020533,0.035816,0.041474,0.021388,0.046353,0.034485,0.000339,-0.019140,0.016196,-0.000000,0.000647,-0.041386,0.027435,-0.033881,0.020717,0.025773,0.012936,0.032204,0.022031,-0.018794,-0.000000,0.020551,0.035079,-0.000010,0.039740,-0.000000,0.037941,0.001471,0.047400,0.039781,0.041216,0.014428,-0.000000,-0.043888,0.034299,0.017786,-0.000000,-0.025036,0.025554
22,0.037773,0.040735,0.039529,-0.000000,-0.012948,0.014580,-0.010895,0.031644,-0.000000,-0.000000,0.033418,-0.031061,-0.000000,-0.000000,0.033340,-0.048973,0.035505,0.040590,-0.000000,0.009996,0.037372,0.036377,0.017290,0.011617,-0.026597,-0.020533,0.031169,0.039870,0.025380,0.043798,0.037901,-0.000000,-0.019140,0.012164,-0.000000,0.000001,-0.041386,0.033667,-0.033881,0.020871,0.035355,0.004834,0.020340,0.017249,-0.018794,-0.000000,0.019356,0.036315,-0.000010,0.035242,-0.000000,0.034814,0.000002,0.043952,0.036724,0.036950,0.015000,-0.000000,-0.043888,0.035078,0.014846,-0.000000,-0.025036,0.017876
23,0.029099,0.034516,0.033347,-0.000000,-0.012948,0.023110,-0.010895,0.028504,-0.000000,-0.000000,0.026883,-0.031061,-0.000000,-0.000000,0.036071,-0.048973,0.035446,0.040614,-0.000000,0.012516,0.029993,0.032073,0.021326,0.013936,-0.026597,-0.020533,0.032717,0.043979,0.030474,0.037577,0.026180,-0.000000,-0.019140,0.014990,-0.000000,-0.000000,-0.041386,0.033338,-0.033881,0.017430,0.024242,0.003909,0.018016,0.023851,-0.018794,-0.000000,0.022032,0.037489,-0.000010,0.035396,-0.000000,0.034229,-0.000000,0.034496,0.036674,0.036770,0.018270,-0.000000,-0.043888,0.038184,0.019260,-0.000000,-0.025036,0.018744
24,0.028495,0.030587,0.039272,-0.000000,-0.012948,0.014645,-0.010895,0.036240,-0.000000,-0.000000,0.031622,-0.031061,-0.000000,-0.000000,0.040316,-0.048973,0.038879,0.037922,-0.000000,0.008162,0.032690,0.029252,0.017304,0.016684,-0.026597,-0.020533,0.033208,0.035820,0.038227,0.034969,0.027955,-0.000000,-0.019140,0.008905,-0.000000,-0.000000,-0.041386,0.033309,-0.033881,0.010191,0.037024,-0.000002,0.025068,0.019013,-0.018794,-0.000000,0.017281,0.036136,-0.000010,0.028393,-0.000000,0.035139,-0.000000,0.033805,0.028462,0.035541,0.013361,-0.000000,-0.043888,0.034901,0.015821,-0.000000,-0.025036,0.019010
25,0.034735,0.028412,0.030205,-0.000000,-0.012948,0.006291,-0.010895,0.026510,-0.000000,-0.000000,0.033183,-0.031061,-0.000000,-0.000000,0.035467,-0.048973,0.034145,0.037082,-0.000000,0.008167,0.041088,0.031026,0.007792,0.018985,-0.026597,-0.020533,0.032071,0.038846,0.044298,0.038018,0.034526,-0.000000,-0.019140,0.008349,-0.000000,-0.000000,-0.041386,0.030585,-0.033881,0.014982,0.043978,-0.000002,0.017665,0.012614,-0.018794,-0.000000,0.016643,0.033724,-0.000010,0.039184,-0.000000,0.035417,-0.000000,0.039783,0.036507,0.036459,0.026503,-0.000000,-0.043888,0.039674,0.019034,-0.000000,-0.025036,0.010072
26,0.033358,0.031217,0.029245,-0.000000,-0.012948,0.005676,-0.010895,0.029233,-0.000000,-0.000000,0.031388,-0.031061,-0.000000,-0.000000,0.033420,-0.048973,0.035981,0.036676,-0.000000,0.017796,0.038766,0.035418,0.014270,0.013166,-0.026597,-0.020533,0.025935,0.044366,0.035933,0.027103,0.035618,-0.000000,-0.019140,0.012094,-0.000000,-0.000000,-0.041386,0.024665,-0.033881,0.014822,0.035707,-0.000002,0.017836,0.012898,-0.018794,-0.000000,0.024112,0.031284,-0.000010,0.033609,-0.000000,0.033366,-0.000000,0.041398,0.033191,0.025519,0.016770,-0.000000,-0.043888,0.037468,0.014686,-0.000000,-0.025036,0.011996
27,0.032749,0.032624,0.033879,-0.000000,-0.012948,0.005133,-0.010895,0.032159,-0.000000,-0.000000,0.033815,-0.031061,-0.000000,-0.000000,0.030189,-0.048973,0.032644,0.031729,-0.000000,0.017736,0.030959,0.032781,0.015252,0.010440,-0.026597,-0.020533,0.031542,0.048147,0.031228,0.036811,0.043632,-0.000000,-0.019140,0.009147,-0.000000,-0.000000,-0.041386,0.023184,-0.033881,0.011604,0.035072,-0.000002,0.015362,0.019242,-0.018794,-0.000000,0.017763,0.028342,-0.000010,0.033425,-0.000000,0.035737,-0.000000,0.031128,0.035924,0.028327,0.018929,-0.000000,-0.043888,0.036520,0.013566,-0.000000,-0.025036,0.013840
28,0.034151,0.028737,0.041235,-0.000000,-0.012948,0.002572,-0.010895,0.033821,-0.000000,-0.000000,0.034930,-0.031061,-0.000000,-0.000000,0.027784,-0.048973,0.039840,0.033249,-0.000000,0.012950,0.027834,0.030247,0.019127,0.016745,-0.026597,-0.020533,0.026744,0.039549,0.041010,0.030541,0.033761,-0.000000,-0.019140,0.007444,-0.000000,-0.000000,-0.041386,0.019925,-0.033881,0.012946,0.034842,-0.000002,0.016814,0.013379,-0.018794,-0.000000,0.016498,0.025598,-0.000010,0.029988,-0.000000,0.032332,-0.000000,0.041747,0.034520,0.033063,0.016014,-0.000000,-0.043888,0.036378,0.010749,-0.000000,-0.025036,0.016198
29,0.030369,0.036454,0.030855,-0.000000,-0.012948,0.000377,-0.010895,0.035646,-0.000000,-0.000000,0.036966,-0.031061,-0.000000,-0.000000,0.027360,-0.048973,0.037383,0.031187,-0.000000,0.010188,0.031272,0.037404,0.016767,0.016039,-0.026597,-0.020533,0.035389,0.036167,0.034953,0.029843,0.031026,-0.000000,-0.019140,0.005464,-0.000000,-0.000000,-0.041386,0.024827,-0.033881,0.011704,0.036213,-0.000002,0.018277,0.018541,-0.018794,-0.000000,0.014634,0.020824,-0.000010,0.033816,-0.000000,0.034465,-0.000000,0.034177,0.035467,0.029875,0.016659,-0.000000,-0.043888,0.034714,0.014913,-0.000000,-0.025036,0.010705
30,0.032493,0.025913,0.028153,-0.000000,-0.012948,-0.000000,-0.010895,0.031885,-0.000000,-0.000000,0.032346,-0.031061,-0.000000,-0.000000,0.024001,-0.048973,0.029107,0.034985,-0.000000,0.012140,0.031431,0.030000,0.023974,0.016361,-0.026597,-0.020533,0.030119,0.028300,0.033241,0.028126,0.031925,-0.000000,-0.019140,0.000324,-0.000000,-0.000000,-0.041386,0.025643,-0.033881,0.017776,0.031385,-0.000002,0.014189,0.020958,-0.018794,-0.000000,0.015270,0.026231,-0.000010,0.036536,-0.000000,0.019763,-0.000000,0.033314,0.030009,0.034992,0.016638,-0.000000,-0.043888,0.030240,0.016084,-0.000000,-0.025036,0.010534
31,0.029193,0.026472,0.026822,-0.000000,-0.012948,-0.000000,-0.010895,0.028927,-0.000000,-0.000000,0.036770,-0.031061,-0.000000,-0.000000,0.023266,-0.048973,0.033277,0.033598,-0.000000,0.016726,0.037751,0.028016,0.013335,0.016548,-0.026597,-0.020533,0.034911,0.033972,0.028195,0.025389,0.025408,-0.000000,-0.019140,0.000001,-0.000000,-0.000000,-0.041386,0.027695,-0.033881,0.011675,0.041827,-0.000002,0.014416,0.016723,-0.018794,-0.000000,0.010370,0.025234,-0.000010,0.040197,-0.000000,0.029241,-0.000000,0.033109,0.030970,0.031707,0.016890,-0.000000,-0.043888,0.026130,0.014337,-0.000000,-0.025036,0.012796
32,0.037842,0.029078,0.023492,-0.000000,-0.012948,-0.000000,-0.010895,0.027328,-0.000000,-0.000000,0.033839,-0.031061,-0.000000,-0.000000,0.024173,-0.048973,0.028623,0.026901,-0.000000,0.011528,0.034342,0.028278,0.015514,0.016960,-0.026597,-0.020533,0.030521,0.027406,0.027079,0.024739,0.026210,-0.000000,-0.019140,-0.000000,-0.000000,-0.000000,-0.041386,0.031490,-0.033881,0.014264,0.030781,-0.000002,0.014484,0.018874,-0.018794,-0.000000,0.017734,0.022326,-0.000010,0.029825,-0.000000,0.026670,-0.000000,0.030187,0.027403,0.031990,0.017381,-0.000000,-0.043888,0.024817,0.017763,-0.000000,-0.025036,0.015721
33,0.027339,0.026044,0.025986,-0.000000,-0.012948,-0.000000,-0.010895,0.027604,-0.000000,-0.000000,0.031732,-0.031061,-0.000000,-0.000000,0.023147,-0.048973,0.029973,0.030884,-0.000000,0.012428,0.030700,0.031826,0.015165,0.013126,-0.026597,-0.020533,0.030215,0.029960,0.025980,0.031276,0.030335,-0.000000,-0.019140,-0.000000,-0.000000,-0.000000,-0.041386,0.030002,-0.033881,0.015326,0.028570,-0.000002,0.017731,0.013426,-0.018794,-0.000000,0.015936,0.027461,-0.000010,0.029407,-0.000000,0.031636,-0.000000,0.029259,0.023511,0.030894,0.013648,-0.000000,-0.043888,0.021119,0.014365,-0.000000,-0.025036,0.013605
34,0.024812,0.028669,0.024030,-0.000000,-0.012948,-0.000000,-0.010895,0.025851,-0.000000,-0.000000,0.029506,-0.031061,-0.000000,-0.000000,0.018055,-0.048973,0.025066,0.034217,-0.000000,0.007180,0.027290,0.029763,0.016012,0.017947,-0.026597,-0.020533,0.037264,0.023102,0.022094,0.028805,0.032100,-0.000000,-0.019140,-0.000000,-0.000000,-0.000000,-0.041386,0.034506,-0.033881,0.013806,0.030132,-0.000002,0.019092,0.009960,-0.018794,-0.000000,0.015440,0.020595,-0.000010,0.025719,-0.000000,0.028540,-0.000000,0.020264,0.025074,0.028589,0.012803,-0.000000,-0.043888,0.022493,0.017060,-0.000000,-0.025036,0.014278
35,0.020163,0.031631,0.028004,-0.000000,-0.012948,-0.000000,-0.010895,0.023545,-0.000000,-0.000000,0.030246,-0.031061,-0.000000,-0.000000,0.020574,-0.048973,0.032279,0.031791,-0.000000,0.011649,0.033406,0.027646,0.011926,0.015096,-0.026597,-0.020533,0.035002,0.028875,0.031228,0.024661,0.029691,-0.000000,-0.019140,-0.000000,-0.000000,-0.000000,-0.041386,0.035960,-0.033881,0.006102,0.026451,-0.000002,0.010428,0.008260,-0.018794,-0.000000,0.015388,0.026326,-0.000010,0.025736,-0.000000,0.025460,-0.000000,0.027585,0.027091,0.030710,0.015853,-0.000000,-0.043888,0.025683,0.017330,-0.000000,-0.025036,0.008280
36,0.019567,0.025555,0.028380,-0.000000,-0.012948,-0.000000,-0.010895,0.028157,-0.000000,-0.000000,0.032113,-0.031061,-0.000000,-0.000000,0.024876,-0.048973,0.032515,0.024611,-0.000000,0.014951,0.031745,0.027086,0.012157,0.016365,-0.026597,-0.020533,0.026641,0.027099,0.031811,0.023793,0.027839,-0.000000,-0.019140,-0.000000,-0.000000,-0.000000,-0.041386,0.029396,-0.033881,0.007442,0.030574,-0.000002,0.014193,0.010628,-0.018794,-0.000000,0.021534,0.034711,-0.000010,0.025612,-0.000000,0.028580,-0.000000,0.029458,0.026173,0.028253,0.010750,-0.000000,-0.043888,0.025673,0.011710,-0.000000,-0.025036,0.011219
37,0.027588,0.025117,0.025323,-0.000000,-0.012948,-0.000000,-0.010895,0.026076,-0.000000,-0.000000,0.028852,-0.031061,-0.000000,-0.000000,0.029742,-0.048973,0.033981,0.028268,-0.000000,0.011702,0.029896,0.024872,0.010013,0.012084,-0.026597,-0.020533,0.028612,0.033368,0.028043,0.030932,0.031909,-0.000000,-0.019140,-0.000000,-0.000000,-0.000000,-0.041386,0.029344,-0.033881,0.006486,0.029894,-0.000002,0.014964,0.008286,-0.018794,-0.000000,0.014262,0.025924,-0.000010,0.028347,-0.000000,0.025700,-0.000000,0.024008,0.028604,0.032661,0.014085,-0.000000,-0.043888,0.024942,0.012642,-0.000000,-0.025036,0.010056
38,0.025936,0.024695,0.025631,-0.000000,-0.012948,-0.000000,-0.010895,0.023672,-0.000000,-0.000000,0.024122,-0.031061,-0.000000,-0.000000,0.021446,-0.048973,0.028288,0.029514,-0.000000,0.013842,0.028337,0.022776,0.008415,0.012203,-0.026597,-0.020533,0.023958,0.024969,0.028090,0.028473,0.029258,-0.000000,-0.019140,-0.000000,-0.019952,-0.029854,-0.041386,0.026052,-0.033881,0.009418,0.025297,-0.000002,0.013950,0.011749,-0.018794,-0.000000,0.008806,0.022766,-0.000010,0.023067,-0.000000,0.024936,-0.030794,0.028594,0.023951,0.032546,0.008694,-0.000000,-0.043888,0.026651,0.013133,-0.000000,-0.025036,0.012077
39,0.027552,0.023964,0.020479,-0.000000,-0.012948,-0.000000,-0.010895,0.027675,-0.000000,-0.000000,0.026048,-0.031061,-0.000000,-0.000000,0.021077,-0.048973,0.032689,0.023134,-0.000000,0.013123,0.024115,0.028814,0.010945,0.010972,-0.026597,-0.020533,0.021073,0.032840,0.029595,0.027436,0.025096,-0.000000,-0.019140,-0.000000,-0.019952,-0.029854,-0.041386,0.025475,-0.033881,0.014802,0.028418,-0.000002,0.008478,0.006731,-0.018794,-0.000000,0.012258,0.023940,-0.000010,0.024823,-0.000000,0.027568,-0.030794,0.022008,0.022911,0.022219,0.011133,-0.000000,-0.043888,0.028818,0.016398,-0.000000,-0.025036,0.014646
40,0.023753,0.025801,0.025528,-0.000000,-0.012948,-0.000000,-0.010895,0.025044,-0.000000,-0.000000,0.023544,-0.031061,-0.000000,-0.000000,0.022356,-0.048973,0.031759,0.024231,-0.000000,0.010453,0.024498,0.027463,0.011664,0.011710,-0.026597,-0.020533,0.025299,0.027333,0.027890,0.021693,0.022870,-0.000000,-0.019140,-0.000000,-0.019952,-0.029854,-0.041386,0.027804,-0.033881,0.014298,0.030292,-0.000002,0.009905,0.006879,-0.018794,-0.000000,0.011912,0.027651,-0.000010,0.024612,-0.000000,0.023495,-0.030794,0.024045,0.022893,0.027766,0.010691,-0.000000,-0.043888,0.028558,0.016702,-0.000000,-0.025036,0.009107
41,0.024651,0.019649,0.022888,-0.000000,-0.012948,-0.000000,-0.010895,0.026118,-0.000000,-0.000000,0.027051,-0.031061,-0.000000,-0.000000,0.028859,-0.048973,0.027499,0.036039,-0.000000,0.009920,0.028819,0.024991,0.008640,0.008386,-0.026597,-0.020533,0.033715,0.022078,0.031394,0.024285,0.023476,-0.000000,-0.019140,-0.000000,-0.019952,-0.029854,-0.041386,0.022942,-0.033881,0.016418,0.026861,-0.000002,0.007709,0.004982,-0.018794,-0.000000,0.008247,0.022796,-0.000010,0.026762,-0.000000,0.018838,-0.030794,0.028687,0.017255,0.023522,0.009938,-0.000000,-0.043888,0.032803,0.014199,-0.000000,-0.025036,0.014044
42,0.022855,0.021668,0.019781,-0.000000,-0.012948,-0.000000,-0.010895,0.028238,-0.000000,-0.000000,0.022779,-0.031061,-0.000000,-0.000000,0.031908,-0.048973,0.023655,0.032166,-0.000000,0.010163,0.027700,0.025737,0.015124,0.013266,-0.026597,-0.020533,0.024479,0.025226,0.026610,0.023010,0.026458,-0.000000,-0.019140,-0.000000,-0.019952,-0.029854,-0.041386,0.024020,-0.033881,0.015499,0.031335,-0.000002,0.008632,0.005923,-0.018794,-0.000000,0.009420,0.019389,-0.000010,0.028917,-0.000000,0.023439,-0.030794,0.021947,0.025953,0.025720,0.014613,-0.000000,-0.043888,0.028110,0.012650,-0.000000,-0.025036,0.011873
43,0.021222,0.021055,0.016944,-0.000000,-0.012948,-0.000000,-0.010895,0.023446,-0.000000,-0.000000,0.023207,-0.031061,-0.000000,-0.000000,0.027422,-0.048973,0.024276,0.025987,-0.000000,0.017574,0.018635,0.022960,0.015087,0.011650,-0.026597,-0.020533,0.023184,0.019876,0.024450,0.018708,0.026102,-0.000000,-0.019140,-0.000000,-0.019952,-0.029854,-0.041386,0.023298,-0.033881,0.012434,0.025741,-0.000002,0.008605,0.004084,-0.018794,-0.000000,0.007106,0.021514,-0.000010,0.029651,-0.000000,0.021099,-0.030794,0.020769,0.023611,0.028356,0.011399,-0.000000,-0.043888,0.025385,0.011487,-0.000000,-0.025036,0.012253
44,0.022744,0.026184,0.018972,-0.000000,-0.012948,-0.000000,-0.010895,0.026986,-0.000000,-0.000000,0.025249,-0.031061,-0.000000,-0.000000,0.020632,-0.048973,0.029468,0.022625,-0.000000,0.009861,0.024303,0.026288,0.011672,0.011917,-0.026597,-0.020533,0.024460,0.028194,0.028828,0.016103,0.020164,-0.000000,-0.019140,-0.000000,-0.019952,-0.029854,-0.041386,0.022822,-0.033881,0.009051,0.026479,-0.000002,0.010263,0.001472,-0.018794,-0.000000,0.011279,0.024253,-0.000010,0.033148,-0.000000,0.022100,-0.030794,0.025149,0.023725,0.026850,0.009837,-0.000000,-0.043888,0.026218,0.015021,-0.000000,-0.025036,0.017112
45,0.022420,0.020876,0.023369,-0.000000,-0.012948,-0.000000,-0.010895,0.021390,-0.000000,-0.000000,0.025014,-0.031061,-0.000000,-0.000000,0.027952,-0.048973,0.023819,0.021103,-0.000000,0.008083,0.022717,0.025376,0.008543,0.008284,-0.026597,-0.020533,0.025244,0.027297,0.026449,0.021650,0.022466,-0.000000,-0.019140,-0.000000,-0.019952,-0.029854,-0.041386,0.020914,-0.033881,0.010778,0.029522,-0.000002,0.007737,0.000053,-0.018794,-0.000000,0.009517,0.032799,-0.000010,0.026215,-0.000000,0.024136,-0.030794,0.023463,0.024932,0.029231,0.014200,-0.000000,-0.043888,0.026394,0.011173,-0.000000,-0.025036,0.010607
46,0.023800,0.015107,0.024618,-0.000000,-0.012948,-0.000000,-0.010895,0.022969,-0.000000,-0.000000,0.025408,-0.031061,-0.000000,-0.000000,0.028885,-0.048973,0.024793,0.018331,-0.000000,0.007796,0.022579,0.025940,0.008649,0.007872,-0.026597,-0.020533,0.021126,0.028903,0.028613,0.019511,0.024035,-0.000000,-0.019140,-0.000000,-0.019952,-0.029854,-0.041386,0.021993,-0.033881,0.007076,0.024733,-0.000002,0.007055,-0.000006,-0.018794,-0.000000,0.008360,0.024935,-0.000010,0.029149,-0.000000,0.016450,-0.030794,0.022389,0.022497,0.027009,0.011834,-0.000000,-0.043888,0.023594,0.012485,-0.000000,-0.025036,0.013211
47,0.024699,0.014596,0.018809,-0.000000,-0.012948,-0.000000,-0.010895,0.020617,-0.000000,-0.000000,0.024160,-0.031061,-0.000000,-0.000000,0.023674,-0.048973,0.026860,0.015484,-0.000000,0.010684,0.019193,0.021806,0.012542,0.006374,-0.026597,-0.020533,0.022280,0.033593,0.021037,0.021935,0.020300,-0.000000,-0.019140,-0.000000,-0.019952,-0.029854,-0.041386,0.025582,-0.033881,0.010703,0.026844,-0.000002,0.010772,-0.000006,-0.018794,-0.000000,0.014091,0.020969,-0.000010,0.024287,-0.000000,0.024857,-0.030794,0.023806,0.017925,0.025114,0.012091,-0.000000,-0.043888,0.018575,0.011054,-0.000000,-0.025036,0.012633
48,0.021919,0.016752,0.022844,-0.000000,-0.012948,-0.000000,-0.010895,0.028311,-0.000000,-0.000000,0.023718,-0.031061,-0.000000,-0.000000,0.023949,-0.048973,0.024592,0.019172,-0.000000,0.015694,0.018880,0.024603,0.006659,0.014296,-0.026597,-0.020533,0.022221,0.027584,0.018817,0.017829,0.021418,-0.000000,-0.019140,-0.000000,-0.019952,-0.029854,-0.041386,0.022737,-0.033881,0.003836,0.023521,-0.000002,0.013446,-0.000006,-0.018794,-0.000000,0.014766,0.026537,-0.000010,0.023127,-0.000000,0.024896,-0.030794,0.024949,0.017350,0.018619,0.010160,-0.000000,-0.043888,0.026988,0.011368,-0.000000,-0.025036,0.009588
49,0.020154,0.018174,0.021663,-0.000000,-0.012948,-0.000000,-0.010895,0.027328,-0.000000,-0.000000,0.026609,-0.031061,-0.000000,-0.000000,0.024316,-0.048973,0.021501,0.028638,-0.000000,0.007599,0.023768,0.027645,0.003567,0.011964,-0.026597,-0.020533,0.025220,0.026198,0.021354,0.024244,0.022898,-0.000000,-0.019140,-0.000000,-0.019952,-0.029854,-0.041386,0.024262,-0.033881,0.006035,0.025796,-0.000002,0.011011,-0.000006,-0.018794,-0.000000,0.012960,0.027475,-0.000010,0.023140,-0.000000,0.024154,-0.030794,0.022451,0.019289,0.024183,0.012908,-0.000000,-0.043888,0.022911,0.006952,-0.000000,-0.025036,0.011404
50,0.018186,0.024771,0.027900,-0.000000,-0.012948,-0.000000,-0.010895,0.027045,-0.000000,-0.000000,0.022493,-0.031061,-0.000000,-0.000000,0.021494,-0.048973,0.016117,0.027186,-0.000000,0.016158,0.024956,0.020168,0.010296,0.009880,-0.026597,-0.020533,0.022101,0.025739,0.024576,0.020560,0.027044,-0.000000,-0.019140,-0.000000,-0.019952,-0.029854,-0.041386,0.019864,-0.033881,0.006717,0.020087,-0.000002,0.013491,-0.000006,-0.018794,-0.000000,0.011649,0.025904,-0.000010,0.022900,-0.000000,0.018086,-0.030794,0.020702,0.022244,0.017254,0.016628,-0.000000,-0.043888,0.013422,0.006423,-0.000000,-0.025036,0.009786
51,0.021003,0.018130,0.026789,-0.000000,-0.012948,-0.000000,-0.010895,0.025737,-0.000000,-0.000000,0.021384,-0.031061,-0.000000,-0.000000,0.023013,-0.048973,0.022441,0.023972,-0.000000,0.013498,0.022180,0.021996,0.013841,0.015067,-0.026597,-0.020533,0.026610,0.024593,0.027574,0.017865,0.026321,-0.000000,-0.019140,-0.000000,-0.019952,-0.029854,-0.041386,0.029103,-0.033881,0.004166,0.020460,-0.000002,0.008610,-0.000006,-0.018794,-0.000000,0.009123,0.024124,-0.000010,0.020527,-0.000000,0.020205,-0.030794,0.018937,0.018994,0.019597,0.011952,-0.000000,-0.043888,0.017044,0.009874,-0.000000,-0.025036,0.009224
52,0.021602,0.015847,0.022765,-0.000000,-0.012948,-0.000000,-0.010895,0.024630,-0.000000,-0.000000,0.021394,-0.031061,-0.000000,-0.000000,0.025142,-0.048973,0.022223,0.025629,-0.000000,0.013816,0.020145,0.023256,0.012384,0.007027,-0.026597,-0.020533,0.020624,0.021559,0.021729,0.023286,0.028753,-0.000000,-0.019140,-0.000000,-0.019952,-0.029854,-0.041386,0.028485,-0.033881,0.006266,0.026171,-0.000002,0.008645,-0.000006,-0.018794,-0.000000,0.012004,0.025020,-0.000010,0.023497,-0.000000,0.023951,-0.030794,0.022974,0.022777,0.019043,0.014548,-0.000000,-0.043888,0.021843,0.011426,-0.000000,-0.025036,0.014134
53,0.021903,0.023768,0.029024,-0.000000,-0.012948,-0.000000,-0.010895,0.025639,-0.000000,-0.000000,0.025776,-0.031061,-0.000000,-0.000000,0.019958,-0.048973,0.018858,0.020533,-0.000000,0.010936,0.015634,0.023123,0.009798,0.008268,-0.026597,-0.020533,0.018924,0.020182,0.023360,0.019239,0.026307,-0.000000,-0.019140,-0.000000,-0.019952,-0.029854,-0.041386,0.025804,-0.033881,0.003462,0.021174,-0.000002,0.004707,-0.000006,-0.018794,-0.000000,0.010214,0.025975,-0.000010,0.026599,-0.000000,0.025038,-0.030794,0.024023,0.017033,0.022707,0.010639,-0.000000,-0.043888,0.025179,0.013615,-0.000000,-0.025036,0.009330
54,0.025137,0.024792,0.022162,-0.000000,-0.012948,-0.000000,-0.010895,0.027378,-0.000000,-0.000000,0.022834,-0.031061,-0.000000,-0.000000,0.019121,-0.048973,0.019729,0.018723,-0.000000,0.006257,0.016101,0.024820,0.012068,0.009064,-0.026597,-0.020533,0.024388,0.019321,0.014981,0.021197,0.022960,-0.000000,-0.019140,-0.000000,-0.019952,-0.029854,-0.041386,0.024017,-0.033881,0.000118,0.015164,-0.000002,0.004606,-0.000006,-0.018794,-0.000000,0.011674,0.022496,-0.000010,0.022801,-0.000000,0.025785,-0.030794,0.025431,0.020073,0.022892,0.012382,-0.000000,-0.043888,0.022311,0.007351,-0.000000,-0.025036,0.009567
55,0.025866,0.026651,0.021402,-0.000000,-0.012948,-0.000000,-0.010895,0.023662,-0.000000,-0.000000,0.023323,-0.031061,-0.000000,-0.000000,0.023067,-0.048973,0.020645,0.022940,-0.000000,0.007050,0.018107,0.030881,0.010839,0.010807,-0.026597,-0.020533,0.024981,0.019662,0.019062,0.019744,0.024093,-0.000000,-0.019140,-0.000000,-0.019952,-0.029854,-0.041386,0.021860,-0.033881,-0.000012,0.016415,-0.000002,0.007694,-0.000006,-0.018794,-0.000000,0.008192,0.023084,-0.000010,0.020705,-0.000000,0.021589,-0.030794,0.020798,0.024061,0.025475,0.007883,-0.000000,-0.043888,0.018389,0.009001,-0.000000,-0.025036,0.015442
56,0.020898,0.025278,0.022367,-0.000000,-0.012948,-0.000000,-0.010895,0.022421,-0.000000,-0.000000,0.025076,-0.031061,-0.000000,-0.000000,0.024513,-0.048973,0.026977,0.019519,-0.000000,0.008198,0.016133,0.024968,0.007124,0.009522,-0.026597,-0.020533,0.021831,0.018398,0.015511,0.024447,0.019899,-0.000000,-0.019140,-0.000000,-0.019952,-0.029854,-0.041386,0.021699,-0.033881,-0.000012,0.020235,-0.000002,0.010020,-0.000006,-0.018794,-0.000000,0.012935,0.025891,-0.000010,0.020031,-0.000000,0.022381,-0.030794,0.021014,0.020528,0.026628,0.008844,-0.000000,-0.043888,0.019730,0.008654,-0.000000,-0.025036,0.008654
57,0.021297,0.024191,0.017467,-0.000000,-0.012948,-0.000000,-0.010895,0.024995,-0.000000,-0.000000,0.024743,-0.031061,-0.000000,-0.000000,0.020383,-0.048973,0.030774,0.014396,-0.000000,0.008049,0.016919,0.024346,0.009209,0.004765,-0.026597,-0.020533,0.016051,0.016972,0.017596,0.022966,0.019910,-0.000000,-0.019140,-0.000000,-0.019952,-0.029854,-0.041386,0.018925,-0.033881,-0.000012,0.019848,-0.000002,0.010523,-0.000006,-0.018794,-0.000000,0.011546,0.027450,-0.000010,0.022805,-0.000000,0.022342,-0.030794,0.015081,0.023497,0.015106,0.004834,-0.000000,-0.043888,0.020403,0.013517,-0.000000,-0.025036,0.012640
58,0.014824,0.021522,0.022388,-0.000000,-0.012948,-0.000000,-0.010895,0.019546,-0.000000,-0.000000,0.027415,-0.031061,-0.000000,-0.000000,0.020187,-0.048973,0.027396,0.014445,-0.000000,0.008657,0.020208,0.019794,0.009126,0.006774,-0.026597,-0.020533,0.023574,0.022607,0.016714,0.020245,0.025038,-0.000000,-0.019140,-0.000000,-0.019952,-0.029854,-0.041386,0.017892,-0.033881,-0.000012,0.014540,-0.000002,0.008668,-0.000006,-0.018794,-0.000000,0.006302,0.025130,-0.000010,0.022448,-0.000000,0.024383,-0.030794,0.019097,0.019548,0.013782,0.006055,-0.000000,-0.043888,0.016309,0.011164,-0.000000,-0.025036,0.010330
59,0.024118,0.021566,0.025521,-0.000000,-0.012948,-0.000000,-0.010895,0.020460,-0.000000,-0.000000,0.022396,-0.031061,-0.000000,-0.000000,0.026124,-0.048973,0.028301,0.022140,-0.000000,0.004101,0.020593,0.026146,0.004055,0.011443,-0.026597,-0.020533,0.016347,0.016620,0.017079,0.022016,0.019271,-0.000000,-0.019140,-0.000000,-0.019952,-0.029854,-0.041386,0.021269,-0.033881,-0.000012,0.023256,-0.000002,0.010231,-0.000006,-0.018794,-0.000000,0.008304,0.025857,-0.000010,0.022439,-0.000000,0.019292,-0.030794,0.020164,0.017319,0.015833,0.006078,-0.000000,-0.043888,0.013823,0.006517,-0.000000,-0.025036,0.009651
60,0.023296,0.025363,0.023372,-0.000000,-0.012948,-0.000000,-0.010895,0.020855,-0.000000,-0.000000,0.020310,-0.031061,-0.000000,-0.000000,0.024410,-0.048973,0.024480,0.023394,-0.000000,0.008606,0.021629,0.022287,0.008364,0.006262,-0.026597,-0.020533,0.021220,0.013067,0.020525,0.026108,0.020266,-0.000000,-0.019140,-0.000000,-0.019952,-0.029854,-0.041386,0.021288,-0.033881,-0.000012,0.021508,-0.000002,0.008981,-0.000006,-0.018794,-0.000000,0.014000,0.025746,-0.000010,0.025931,-0.000000,0.023674,-0.030794,0.017147,0.015794,0.016222,0.003154,-0.000000,-0.043888,0.012040,0.010308,-0.000000,-0.025036,0.007136
61,0.019527,0.025649,0.024086,-0.000000,-0.012948,-0.000000,-0.010895,0.020823,-0.000000,-0.000000,0.019644,-0.031061,-0.000000,-0.000000,0.022872,-0.048973,0.020462,0.026761,-0.000000,0.011337,0.023892,0.024091,0.005474,0.009344,-0.026597,-0.020533,0.021768,0.016533,0.017687,0.022609,0.017001,-0.000000,-0.019140,-0.000000,-0.019952,-0.029854,-0.041386,0.019243,-0.033881,-0.000012,0.022118,-0.000002,0.010751,-0.000006,-0.018794,-0.000000,0.008549,0.021905,-0.000010,0.018805,-0.000000,0.021420,-0.030794,0.020272,0.022958,0.015780,0.006605,-0.000000,-0.043888,0.019146,0.007149,-0.000000,-0.025036,0.011632
62,0.015331,0.022127,0.024116,-0.000000,-0.012948,-0.000000,-0.010895,0.014422,-0.000000,-0.000000,0.016973,-0.031061,-0.000000,-0.000000,0.015582,-0.048973,0.022698,0.023896,-0.000000,0.006132,0.019428,0.019152,0.007385,0.009518,-0.026597,-0.020533,0.021371,0.011343,0.024105,0.016510,0.018344,-0.000000,-0.019140,-0.000000,-0.019952,-0.029854,-0.041386,0.022291,-0.033881,-0.000012,0.024545,-0.000002,0.006472,-0.000006,-0.018794,-0.000000,0.005725,0.025506,-0.000010,0.019538,-0.000000,0.022343,-0.030794,0.018141,0.024165,0.019268,0.008785,-0.000000,-0.043888,0.018464,0.005060,-0.000000,-0.025036,0.007338
63,0.021761,0.018304,0.023532,-0.000000,-0.012948,-0.000000,-0.010895,0.015459,-0.000000,-0.000000,0.022934,-0.031061,-0.000000,-0.000000,0.017957,-0.048973,0.022119,0.019273,-0.000000,0.008593,0.024165,0.017402,0.011855,0.003896,-0.026597,-0.020533,0.015277,0.017655,0.023119,0.020271,0.014261,-0.000000,-0.019140,-0.000000,-0.019952,-0.029854,-0.041386,0.024254,-0.033881,-0.000012,0.019493,-0.000002,0.013622,-0.000006,-0.018794,-0.000000,0.004844,0.019346,-0.000010,0.016554,-0.000000,0.023717,-0.030794,0.012084,0.016912,0.016532,0.007183,-0.000000,-0.043888,0.024411,0.005451,-0.000000,-0.025036,0.006868
64,0.020319,0.021847,0.022027,-0.000000,-0.012948,-0.000000,-0.010895,0.018893,-0.000000,-0.000000,0.018130,-0.031061,-0.000000,-0.000000,0.017035,-0.048973,0.018636,0.019779,-0.000000,0.011653,0.017205,0.019760,0.010472,0.007389,-0.026597,-0.020533,0.017482,0.015372,0.017100,0.015100,0.020024,-0.000000,-0.019140,-0.000000,-0.019952,-0.029854,-0.041386,0.022298,-0.033881,-0.000012,0.017177,-0.000002,0.009035,-0.000006,-0.018794,-0.000000,0.011667,0.024043,-0.000010,0.022896,-0.000000,0.020370,-0.030794,0.018116,0.023943,0.028460,0.005229,-0.000000,-0.043888,0.017145,0.010237,-0.000000,-0.025036,0.010261
65,0.017599,0.022893,0.021011,-0.000000,-0.012948,-0.000000,-0.010895,0.016562,-0.000000,-0.000000,0.021137,-0.031061,-0.000000,-0.000000,0.018709,-0.048973,0.020523,0.017564,-0.000000,0.007058,0.015126,0.020399,0.009461,0.006438,-0.026597,-0.020533,0.026398,0.013091,0.016794,0.017037,0.019529,-0.000000,-0.019140,-0.000000,-0.019952,-0.029854,-0.041386,0.021422,-0.033881,-0.000012,0.018790,-0.000002,0.008378,-0.000006,-0.018794,-0.000000,0.008591,0.023825,-0.000010,0.023618,-0.000000,0.021647,-0.030794,0.013870,0.017570,0.024753,0.008642,-0.000000,-0.043888,0.017237,0.008181,-0.000000,-0.025036,0.009478
66,0.016275,0.024740,0.025096,-0.000000,-0.012948,-0.000000,-0.010895,0.020077,-0.000000,-0.000000,0.019314,-0.031061,-0.000000,-0.000000,0.016568,-0.048973,0.017043,0.022336,-0.000000,0.011032,0.018312,0.022180,0.007644,0.005688,-0.026597,-0.020533,0.023370,0.011023,0.020573,0.018493,0.016873,-0.000000,-0.019140,-0.000000,-0.019952,-0.029854,-0.041386,0.020641,-0.033881,-0.000012,0.017430,-0.000002,0.009877,-0.000006,-0.018794,-0.000000,0.008590,0.019598,-0.000010,0.021503,-0.000000,0.019883,-0.030794,0.014025,0.018838,0.021816,0.012109,-0.000000,-0.043888,0.016723,0.004891,-0.000000,-0.025036,0.007723
67,0.017511,0.021197,0.024539,-0.000000,-0.012948,-0.000000,-0.010895,0.018504,-0.000000,-0.000000,0.017038,-0.031061,-0.000000,-0.000000,0.019110,-0.048973,0.020673,0.010445,-0.000000,0.009490,0.025260,0.021813,0.011404,0.005915,-0.026597,-0.020533,0.020131,0.008730,0.019627,0.021291,0.019112,-0.000000,-0.019140,-0.000000,-0.019952,-0.029854,-0.041386,0.018760,-0.033881,-0.000012,0.020329,-0.000002,0.007968,-0.000006,-0.018794,-0.000000,0.010381,0.016620,-0.000010,0.018301,-0.000000,0.023589,-0.030794,0.016014,0.022187,0.023781,0.009345,-0.000000,-0.043888,0.021435,0.008039,-0.000000,-0.025036,0.006723
68,0.020879,0.019697,0.022464,-0.000000,-0.012948,-0.000000,-0.010895,0.023800,-0.000000,-0.000000,0.026991,-0.031061,-0.000000,-0.000000,0.014114,-0.048973,0.019854,0.015463,-0.000000,0.007619,0.020904,0.020992,0.009162,0.008141,-0.026597,-0.020533,0.017605,0.016107,0.021044,0.020846,0.018789,-0.000000,-0.019140,-0.000000,-0.019952,-0.029854,-0.041386,0.019339,-0.033881,-0.000012,0.019962,-0.000002,0.007218,-0.000006,-0.018794,-0.000000,0.009921,0.020110,-0.000010,0.020324,-0.000000,0.026151,-0.030794,0.015634,0.019468,0.018565,0.008566,-0.000000,-0.043888,0.019271,0.011099,-0.000000,-0.025036,0.010106
69,0.022705,0.015019,0.020152,-0.000000,-0.012948,-0.000000,-0.010895,0.019683,-0.000000,-0.000000,0.018610,-0.031061,-0.000000,-0.000000,0.012492,-0.048973,0.016469,0.015749,-0.000000,0.008654,0.016248,0.017525,0.008216,0.004385,-0.026597,-0.020533,0.015972,0.010749,0.021303,0.020457,0.018076,-0.000000,-0.019140,-0.000000,-0.019952,-0.029854,-0.041386,0.022857,-0.033881,-0.000012,0.019281,-0.000002,0.008023,-0.000006,-0.018794,-0.000000,0.011248,0.020959,-0.000010,0.017036,-0.000000,0.022159,-0.030794,0.019617,0.017148,0.019184,0.008062,-0.000000,-0.043888,0.018817,0.012653,-0.000000,-0.025036,0.008201
70,0.018629,0.021910,0.025035,-0.000000,-0.012948,-0.000000,-0.010895,0.020227,-0.000000,-0.000000,0.019041,-0.031061,-0.000000,-0.000000,0.015800,-0.048973,0.021933,0.015613,-0.000000,0.009082,0.020449,0.016331,0.005010,0.007406,-0.026597,-0.020533,0.014199,0.014927,0.021540,0.022256,0.017208,-0.000000,-0.019140,-0.000000,-0.019952,-0.029854,-0.041386,0.018411,-0.033881,-0.000012,0.017506,-0.000002,0.009801,-0.000006,-0.018794,-0.000000,0.003343,0.022530,-0.000010,0.028359,-0.000000,0.021189,-0.030794,0.017826,0.020384,0.020147,0.010010,-0.000000,-0.043888,0.017620,0.011718,-0.000000,-0.025036,0.006336
71,0.016761,0.017931,0.018172,-0.000000,-0.012948,-0.000000,-0.010895,0.021079,-0.000000,-0.000000,0.020420,-0.031061,-0.000000,-0.000000,0.019388,-0.048973,0.023510,0.021696,-0.000000,0.007290,0.018589,0.012149,0.008242,0.004842,-0.026597,-0.020533,0.011347,0.021485,0.024451,0.020460,0.018794,-0.000000,-0.019140,-0.000000,-0.019952,-0.029854,-0.041386,0.018538,-0.033881,-0.000012,0.017662,-0.000002,0.005769,-0.000006,-0.018794,-0.000000,0.003678,0.018176,-0.000010,0.019200,-0.000000,0.019346,-0.030794,0.022301,0.021925,0.017618,0.006202,-0.000000,-0.043888,0.018488,0.006525,-0.000000,-0.025036,0.008385
72,0.018405,0.015110,0.018394,-0.000000,-0.012948,-0.000000,-0.010895,0.016466,-0.000000,-0.000000,0.018274,-0.031061,-0.000000,-0.000000,0.017068,-0.048973,0.022227,0.013859,-0.000000,0.006706,0.023142,0.009815,0.005131,0.007335,-0.026597,-0.020533,0.013643,0.015162,0.021592,0.016154,0.019620,-0.000000,-0.019140,-0.000000,-0.019952,-0.029854,-0.041386,0.014656,-0.033881,-0.000012,0.020176,-0.000002,0.005045,-0.000006,-0.018794,-0.000000,0.006826,0.025061,-0.000010,0.016479,-0.000000,0.022271,-0.030794,0.019137,0.019645,0.019286,0.006246,-0.000000,-0.043888,0.009139,0.008594,-0.000000,-0.025036,0.008576
73,0.016956,0.015307,0.019629,-0.000000,-0.012948,-0.000000,-0.010895,0.012692,-0.000000,-0.000000,0.016961,-0.031061,-0.000000,-0.000000,0.016716,-0.048973,0.019288,0.017109,-0.000000,0.005524,0.016875,0.015688,0.003562,0.005588,-0.026597,-0.020533,0.018961,0.010053,0.024577,0.023190,0.017574,-0.000000,-0.019140,-0.000000,-0.019952,-0.029854,-0.041386,0.017258,-0.033881,-0.000012,0.021648,-0.000002,0.006228,-0.000006,-0.018794,-0.000000,0.006544,0.022707,-0.000010,0.021736,-0.000000,0.018103,-0.030794,0.018933,0.023568,0.014680,0.009470,-0.000000,-0.043888,0.015584,0.005276,-0.000000,-0.025036,0.006860
74,0.019285,0.014373,0.017621,-0.000000,-0.012948,-0.000000,-0.010895,0.013613,-0.000000,-0.000000,0.019131,-0.031061,-0.000000,-0.000000,0.019602,-0.048973,0.023860,0.018188,-0.000000,0.006729,0.022263,0.014530,0.004592,0.007625,-0.026597,-0.020533,0.018846,0.017016,0.021620,0.023913,0.018046,-0.000000,-0.019140,-0.000000,-0.019952,-0.029854,-0.041386,0.017053,-0.033881,-0.000012,0.025194,-0.000002,0.013619,-0.000006,-0.018794,-0.000000,0.003102,0.019176,-0.000010,0.023692,-0.000000,0.022240,-0.030794,0.015106,0.024053,0.019181,0.010173,-0.000000,-0.043888,0.014671,0.009391,-0.000000,-0.025036,0.010092
75,0.024047,0.014079,0.019147,-0.000000,-0.012948,-0.000000,-0.010895,0.014653,-0.000000,-0.000000,0.023562,-0.031061,-0.000000,-0.000000,0.021640,-0.048973,0.017814,0.018279,-0.000000,0.007444,0.016474,0.013788,0.006218,0.009254,-0.026597,-0.020533,0.021833,0.017191,0.017385,0.020569,0.021960,-0.000000,-0.019140,-0.000000,-0.019952,-0.029854,-0.041386,0.019472,-0.033881,-0.000012,0.018497,-0.000002,0.006778,-0.000006,-0.018794,-0.000000,0.010431,0.016570,-0.000010,0.023887,-0.000000,0.023155,-0.030794,0.016211,0.020098,0.015250,0.005455,-0.000000,-0.043888,0.016437,0.007079,-0.000000,-0.025036,0.005525
76,0.018473,0.011849,0.020133,-0.000000,-0.012948,-0.000000,-0.010895,0.011651,-0.000000,-0.000000,0.018319,-0.031061,-0.000000,-0.000000,0.017537,-0.048973,0.017697,0.017516,-0.000000,0.008418,0.021156,0.018012,0.009695,0.010174,-0.026597,-0.020533,0.018616,0.019621,0.016374,0.019650,0.020759,-0.000000,-0.019140,-0.000000,-0.019952,-0.029854,-0.041386,0.017919,-0.033881,-0.000012,0.018994,-0.000002,0.008040,-0.000006,-0.018794,-0.000000,0.006309,0.017449,-0.000010,0.021792,-0.000000,0.020632,-0.030794,0.017455,0.020229,0.020979,0.006413,-0.000000,-0.043888,0.020520,0.004849,-0.000000,-0.025036,0.006473
77,0.017472,0.010655,0.019946,-0.000000,-0.012948,-0.000000,-0.010895,0.009455,-0.000000,-0.000000,0.020160,-0.031061,-0.000000,-0.000000,0.020922,-0.048973,0.017187,0.022813,-0.000000,0.006045,0.014249,0.019192,0.002888,0.005177,-0.026597,-0.020533,0.020168,0.017534,0.024944,0.018218,0.018451,-0.000000,-0.019140,-0.000000,-0.019952,-0.029854,-0.041386,0.018326,-0.033881,-0.000012,0.020526,-0.000002,0.005463,-0.000006,-0.018794,-0.000000,0.005582,0.022052,-0.000010,0.018160,-0.000000,0.017851,-0.030794,0.023102,0.018491,0.015688,0.003641,-0.000000,-0.043888,0.020726,0.004994,-0.000000,-0.025036,0.001766
78,0.020015,0.017302,0.015628,-0.000000,-0.012948,-0.000000,-0.010895,0.014026,-0.000000,-0.000000,0.016772,-0.031061,-0.000000,-0.000000,0.017204,-0.048973,0.021183,0.021970,-0.000000,0.010031,0.015665,0.018375,0.008581,0.007768,-0.026597,-0.020533,0.016125,0.015768,0.022457,0.021969,0.018112,-0.000000,-0.019140,-0.000000,-0.019952,-0.029854,-0.041386,0.017387,-0.033881,-0.000012,0.022084,-0.000002,0.007777,-0.000006,-0.018794,-0.000000,0.005816,0.017044,-0.000010,0.016223,-0.000000,0.016577,-0.030794,0.017407,0.016974,0.012820,0.007151,-0.000000,-0.043888,0.017919,0.009596,-0.000000,-0.025036,0.008309
79,0.015706,0.013188,0.014830,-0.000000,-0.012948,-0.000000,-0.010895,0.008139,-0.000000,-0.000000,0.018142,-0.031061,-0.000000,-0.000000,0.023349,-0.048973,0.018581,0.022506,-0.000000,0.006652,0.012626,0.014128,0.005038,0.007967,-0.026597,-0.020533,0.019935,0.014239,0.019103,0.016834,0.016039,-0.000000,-0.019140,-0.000000,-0.019952,-0.029854,-0.041386,0.019832,-0.033881,-0.000012,0.022169,-0.000002,0.003253,-0.000006,-0.018794,-0.000000,0.012409,0.017757,-0.000010,0.018858,-0.000000,0.021795,-0.030794,0.017555,0.016562,0.014887,0.005275,-0.000000,-0.043888,0.018733,0.006367,-0.000000,-0.025036,0.008736
80,0.014236,0.016943,0.015743,-0.000000,-0.012948,-0.000000,-0.010895,0.006127,-0.000000,-0.000000,0.019028,-0.031061,-0.000000,-0.000000,0.017349,-0.048973,0.013836,0.021804,-0.000000,0.006522,0.013951,0.017254,0.005393,0.005472,-0.026597,-0.020533,0.025455,0.014796,0.019305,0.018438,0.019766,-0.000000,-0.019140,-0.000000,-0.019952,-0.029854,-0.041386,0.021406,-0.033881,-0.000012,0.016021,-0.000002,0.003841,-0.000006,-0.018794,-0.000000,0.009157,0.016089,-0.000010,0.018857,-0.000000,0.021631,-0.030794,0.020888,0.017486,0.010379,0.010168,-0.000000,-0.043888,0.015057,0.005610,-0.000000,-0.025036,0.008577
81,0.017696,0.013839,0.014777,-0.000000,-0.012948,-0.000000,-0.010895,0.007994,-0.000000,-0.000000,0.020100,-0.031061,-0.000000,-0.000000,0.015458,-0.048973,0.024958,0.019174,-0.000000,0.005635,0.020707,0.019645,0.007944,0.009311,-0.026597,-0.020533,0.013852,0.014800,0.025870,0.019906,0.015493,-0.000000,-0.019140,-0.000000,-0.019952,-0.029854,-0.041386,0.020588,-0.033881,-0.000012,0.016188,-0.000002,0.008878,-0.000006,-0.018794,-0.000000,0.004297,0.015945,-0.000010,0.020726,-0.000000,0.022229,-0.030794,0.017804,0.020325,0.010243,0.007436,-0.000000,-0.043888,0.012898,0.007659,-0.000000,-0.025036,0.005582
82,0.016533,0.017616,0.019197,-0.000000,-0.012948,-0.000000,-0.010895,0.003235,-0.000000,-0.000000,0.018271,-0.031061,-0.000000,-0.000000,0.014445,-0.048973,0.023022,0.020144,-0.000000,0.006681,0.021238,0.015080,0.006450,0.006703,-0.026597,-0.020533,0.016898,0.020292,0.022189,0.020518,0.017854,-0.000000,-0.019140,-0.000000,-0.019952,-0.029854,-0.041386,0.017613,-0.033881,-0.000012,0.015505,-0.000002,0.005810,-0.000006,-0.018794,-0.000000,0.004625,0.021045,-0.000010,0.019944,-0.000000,0.023759,-0.030794,0.019690,0.017459,0.008646,0.006956,-0.000000,-0.043888,0.018744,0.009267,-0.000000,-0.025036,0.003346
83,0.015182,0.020092,0.016931,-0.000000,-0.012948,-0.000000,-0.010895,0.000158,-0.000000,-0.000000,0.020056,-0.031061,-0.000000,-0.000000,0.019660,-0.048973,0.016836,0.018776,-0.000000,0.007331,0.018816,0.018337,0.009115,0.005266,-0.026597,-0.020533,0.019868,0.013578,0.019400,0.021731,0.015169,-0.000000,-0.019140,-0.000000,-0.019952,-0.029854,-0.041386,0.019088,-0.033881,-0.000012,0.021182,-0.000002,0.006785,-0.000006,-0.018794,-0.000000,0.006845,0.017391,-0.000010,0.015169,-0.000000,0.015899,-0.030794,0.015351,0.016222,0.010162,0.005548,-0.000000,-0.043888,0.015920,0.003817,-0.000000,-0.025036,0.003482
84,0.011926,0.018344,0.010653,-0.000000,-0.012948,-0.000000,-0.010895,-0.000000,-0.000000,-0.000000,0.018544,-0.031061,-0.000000,-0.000000,0.015264,-0.048973,0.011916,0.020476,-0.000000,0.007242,0.021986,0.017597,0.005580,0.006029,-0.026597,-0.020533,0.019471,0.016164,0.018146,0.019319,0.012309,-0.000000,-0.019140,-0.000000,-0.019952,-0.029854,-0.041386,0.021491,-0.033881,-0.000012,0.020960,-0.000002,0.005854,-0.000006,-0.018794,-0.000000,0.012206,0.022481,-0.000010,0.016480,-0.000000,0.016275,-0.030794,0.017618,0.011403,0.011957,0.008213,-0.000000,-0.043888,0.016769,0.011155,-0.000000,-0.025036,0.008868
85,0.016029,0.018039,0.017599,-0.000000,-0.012948,-0.000000,-0.010895,-0.000000,-0.000000,-0.000000,0.024244,-0.031061,-0.000000,-0.000000,0.016638,-0.048973,0.016491,0.017424,-0.000000,0.004637,0.018954,0.021905,0.007182,0.007188,-0.026597,-0.020533,0.017956,0.016089,0.016011,0.019216,0.018376,-0.000000,-0.019140,-0.000000,-0.019952,-0.029854,-0.041386,0.021924,-0.033881,-0.000012,0.021103,-0.000002,0.009621,-0.000006,-0.018794,-0.000000,0.005392,0.019014,-0.000010,0.016467,-0.000000,0.017943,-0.030794,0.020142,0.015475,0.006748,0.007572,-0.000000,-0.043888,0.015697,0.009196,-0.000000,-0.025036,0.012854
86,0.016529,0.019194,0.017279,-0.000000,-0.012948,-0.000000,-0.010895,-0.000000,-0.000000,-0.000000,0.017333,-0.031061,-0.000000,-0.000000,0.019396,-0.048973,0.013169,0.014822,-0.000000,0.005840,0.019964,0.021114,0.005918,0.006710,-0.026597,-0.020533,0.012348,0.013019,0.017518,0.019099,0.016323,-0.000000,-0.019140,-0.000000,-0.019952,-0.029854,-0.041386,0.016734,-0.033881,-0.000012,0.021249,-0.000002,0.009484,-0.000006,-0.018794,-0.000000,0.005639,0.020865,-0.000010,0.013355,-0.000000,0.016481,-0.030794,0.016885,0.017471,0.004632,0.005000,-0.000000,-0.043888,0.018014,0.009101,-0.000000,-0.025036,0.007497
87,0.013429,0.018116,0.016882,-0.000000,-0.012948,-0.000000,-0.010895,-0.000000,-0.000000,-0.000000,0.018505,-0.031061,-0.000000,-0.000000,0.014326,-0.048973,0.016873,0.017337,-0.000000,0.005868,0.014965,0.019239,0.005727,0.005138,-0.026597,-0.020533,0.012808,0.015012,0.018645,0.017071,0.013238,-0.000000,-0.019140,-0.000000,-0.019952,-0.029854,-0.041386,0.016842,-0.033881,-0.000012,0.017958,-0.000002,0.006575,-0.000006,-0.018794,-0.000000,0.005840,0.017293,-0.000010,0.015504,-0.000000,0.018121,-0.030794,0.018464,0.016300,0.000999,0.006901,-0.000000,-0.043888,0.017646,0.006919,-0.000000,-0.025036,0.006640
88,0.010595,0.020003,0.012773,-0.000000,-0.012948,-0.000000,-0.010895,-0.000000,-0.000000,-0.000000,0.018385,-0.031061,-0.000000,-0.000000,0.011865,-0.048973,0.017765,0.010639,-0.000000,0.000730,0.011811,0.017868,0.004085,0.008535,-0.026597,-0.020533,0.014439,0.016768,0.018650,0.015382,0.016442,-0.000000,-0.019140,-0.000000,-0.019952,-0.029854,-0.041386,0.018662,-0.033881,-0.000012,0.015741,-0.000002,0.007175,-0.000006,-0.018794,-0.000000,0.006148,0.019532,-0.000010,0.018246,-0.000000,0.020852,-0.030794,0.018180,0.012059,0.000000,0.006728,-0.000000,-0.043888,0.019532,0.004942,-0.000000,-0.025036,0.005937
89,0.011354,0.019470,0.016566,-0.000000,-0.012948,-0.000000,-0.010895,-0.000000,-0.000000,-0.000000,0.019426,-0.031061,-0.000000,-0.000000,0.012957,-0.048973,0.015019,0.015026,-0.000000,0.007837,0.012099,0.012157,0.005095,0.006208,-0.026597,-0.020533,0.018420,0.013530,0.015254,0.011557,0.014672,-0.000000,-0.019140,-0.000000,-0.019952,-0.029854,-0.041386,0.021649,-0.033881,-0.000012,0.019177,-0.000002,0.009279,-0.000006,-0.018794,-0.000000,0.005727,0.019690,-0.000010,0.015571,-0.000000,0.018327,-0.030794,0.016770,0.013633,-0.000000,0.005136,-0.000000,-0.043888,0.017152,0.007718,-0.000000,-0.025036,0.008333
90,0.014046,0.018595,0.014993,-0.000000,-0.012948,-0.000000,-0.010895,-0.000000,-0.000000,-0.000000,0.016924,-0.031061,-0.000000,-0.000000,0.015058,-0.048973,0.017396,0.011280,-0.000000,0.009537,0.014938,0.013950,0.009261,0.008609,-0.026597,-0.020533,0.019313,0.014410,0.017561,0.015434,0.011825,-0.000000,-0.019140,-0.000000,-0.019952,-0.029854,-0.041386,0.016352,-0.033881,-0.000012,0.014152,-0.000002,0.006050,-0.000006,-0.018794,-0.000000,0.002956,0.018128,-0.000010,0.021779,-0.000000,0.018216,-0.030794,0.017710,0.015978,-0.000000,0.007186,-0.000000,-0.043888,0.016390,0.005455,-0.000000,-0.025036,0.007272
91,0.016087,0.017897,0.015263,-0.000000,-0.012948,-0.000000,-0.010895,-0.000000,-0.000000,-0.000000,0.018082,-0.031061,-0.000000,-0.000000,0.020091,-0.048973,0.019272,0.008026,-0.000000,0.009237,0.017553,0.021236,0.008637,0.006456,-0.026597,-0.020533,0.019761,0.016916,0.018374,0.016123,0.014819,-0.000000,-0.019140,-0.000000,-0.019952,-0.029854,-0.041386,0.019991,-0.033881,-0.000012,0.015248,-0.000002,0.004949,-0.000006,-0.018794,-0.000000,0.007328,0.018588,-0.000010,0.024273,-0.000000,0.018346,-0.030794,0.015859,0.012966,-0.000000,0.008253,-0.000000,-0.043888,0.020355,0.005557,-0.000000,-0.025036,0.007618
92,0.015697,0.013810,0.010862,-0.000000,-0.012948,-0.000000,-0.010895,-0.000000,-0.000000,-0.000000,0.013596,-0.031061,-0.000000,-0.000000,0.013104,-0.048973,0.025960,0.007350,-0.000000,0.007463,0.011315,0.023658,0.004837,0.006723,-0.026597,-0.020533,0.017229,0.017922,0.015544,0.012961,0.017944,-0.000000,-0.019140,-0.000000,-0.019952,-0.029854,-0.041386,0.025314,-0.033881,-0.000012,0.018976,-0.000002,0.004040,-0.000006,-0.018794,-0.000000,0.004555,0.019298,-0.000010,0.019488,-0.000000,0.013822,-0.030794,0.017647,0.019040,-0.000000,0.004947,-0.000000,-0.043888,0.018928,0.004059,-0.000000,-0.025036,0.006361
93,0.019163,0.015241,0.009276,-0.000000,-0.012948,-0.000000,-0.010895,-0.000000,-0.000000,-0.000000,0.018782,-0.031061,-0.000000,-0.000000,0.020397,-0.048973,0.017066,0.007697,-0.000000,0.006759,0.015960,0.021099,0.007385,0.004534,-0.026597,-0.020533,0.016457,0.018087,0.018772,0.017592,0.013993,-0.000000,-0.019140,-0.000000,-0.019952,-0.029854,-0.041386,0.018777,-0.033881,-0.000012,0.013262,-0.000002,0.004098,-0.000006,-0.018794,-0.000000,0.005016,0.013667,-0.000010,0.017452,-0.000000,0.022360,-0.030794,0.012567,0.016342,-0.000000,0.008594,-0.000000,-0.043888,0.015125,0.005718,-0.000000,-0.025036,0.009668
94,0.014744,0.019676,0.013137,-0.000000,-0.012948,-0.000000,-0.010895,-0.000000,-0.000000,-0.000000,0.018800,-0.031061,-0.000000,-0.000000,0.018185,-0.048973,0.017161,0.002062,-0.000000,0.003708,0.007663,0.020704,0.004890,0.006943,-0.026597,-0.020533,0.022110,0.016622,0.018104,0.017609,0.010288,-0.000000,-0.019140,-0.000000,-0.019952,-0.029854,-0.041386,0.019510,-0.033881,-0.000012,0.015790,-0.000002,0.004468,-0.000006,-0.018794,-0.000000,0.002909,0.021088,-0.000010,0.021013,-0.000000,0.015892,-0.030794,0.017865,0.018094,-0.000000,0.005035,-0.000000,-0.043888,0.015987,0.006632,-0.000000,-0.025036,0.008359
95,0.016657,0.015735,0.017026,-0.000000,-0.012948,-0.000000,-0.010895,-0.000000,-0.000000,-0.000000,0.018181,-0.031061,-0.000000,-0.000000,0.020753,-0.048973,0.020220,0.000032,-0.000000,0.003610,0.016334,0.022541,0.000982,0.004614,-0.026597,-0.020533,0.015425,0.016612,0.016023,0.016350,0.013534,-0.000000,-0.019140,-0.000000,-0.019952,-0.029854,-0.041386,0.018370,-0.033881,-0.000012,0.013582,-0.000002,0.006131,-0.000006,-0.018794,-0.000000,0.007121,0.018338,-0.000010,0.016113,-0.000000,0.015941,-0.030794,0.019216,0.020229,-0.000000,0.008399,-0.000000,-0.043888,0.018647,0.008077,-0.000000,-0.025036,0.005499
96,0.011735,0.014776,0.013057,-0.000000,-0.012948,-0.000000,-0.010895,-0.000000,-0.000000,-0.000000,0.017850,-0.031061,-0.000000,-0.000000,0.026846,-0.048973,0.016430,-0.000007,-0.000000,0.005569,0.017495,0.017571,0.009346,0.004050,-0.026597,-0.020533,0.018216,0.014392,0.013634,0.012913,0.016523,-0.000000,-0.019140,-0.000000,-0.019952,-0.029854,-0.041386,0.013642,-0.033881,-0.000012,0.015277,-0.000002,0.005268,-0.000006,-0.018794,-0.000000,0.004549,0.014383,-0.000010,0.015455,-0.000000,0.011977,-0.030794,0.016062,0.018058,-0.000000,0.007105,-0.000000,-0.043888,0.015747,0.006719,-0.000000,-0.025036,0.004011
97,0.008389,0.017010,0.012269,-0.000000,-0.012948,-0.000000,-0.010895,-0.000000,-0.000000,-0.000000,0.019254,-0.031061,-0.000000,-0.000000,0.017808,-0.048973,0.011423,-0.000007,-0.000000,0.007093,0.020872,0.015685,0.007085,0.006347,-0.026597,-0.020533,0.016661,0.015454,0.018029,0.015038,0.012828,-0.000000,-0.019140,-0.000000,-0.019952,-0.029854,-0.041386,0.013902,-0.033881,-0.000012,0.015051,-0.000002,0.004147,-0.000006,-0.018794,-0.000000,0.008283,0.012681,-0.000010,0.015043,-0.000000,0.017292,-0.030794,0.015364,0.017643,-0.000000,0.010324,-0.000000,-0.043888,0.017757,0.003700,-0.000000,-0.025036,0.007041
98,0.008834,0.019291,0.016091,-0.000000,-0.012948,-0.000000,-0.010895,-0.000000,-0.000000,-0.000000,0.019534,-0.031061,-0.000000,-0.000000,0.018773,-0.048973,0.014712,-0.000007,-0.000000,0.007144,0.019133,0.017926,0.005775,0.008421,-0.026597,-0.020533,0.013911,0.016398,0.017481,0.010935,0.015179,-0.000000,-0.019140,-0.000000,-0.019952,-0.029854,-0.041386,0.012404,-0.033881,-0.000012,0.015763,-0.000002,0.007772,-0.000006,-0.018794,-0.000000,0.007061,0.013198,-0.000010,0.014132,-0.000000,0.015943,-0.030794,0.013717,0.018041,-0.000000,0.009223,-0.000000,-0.043888,0.016014,0.005968,-0.000000,-0.025036,0.005586
99,0.010972,0.014813,0.015740,-0.000000,-0.012948,-0.000000,-0.010895,-0.000000,-0.000000,-0.000000,0.013378,-0.031061,-0.000000,-0.000000,0.016062,-0.048973,0.014018,-0.000007,-0.000000,0.007226,0.017003,0.015308,0.008297,0.005928,-0.026597,-0.020533,0.012500,0.018317,0.015911,0.015553,0.014787,-0.000000,-0.019140,-0.000000,-0.019952,-0.029854,-0.041386,0.015442,-0.033881,-0.000012,0.015629,-0.000002,0.006546,-0.000006,-0.018794,-0.000000,0.006906,0.015576,-0.000010,0.015585,-0.000000,0.015616,-0.030794,0.015705,0.016037,-0.000000,0.006407,-0.000000,-0.043888,0.012830,0.008810,-0.000000,-0.025036,0.006993
