epoch,neuron1_bias,neuron2_bias,neuron3_bias,neuron4_bias,neuron5_bias,neuron6_bias,neuron7_bias,neuron8_bias,neuron9_bias,neuron10_bias,neuron11_bias,neuron12_bias,neuron13_bias,neuron14_bias,neuron15_bias,neuron16_bias,neuron17_bias,neuron18_bias,neuron19_bias,neuron20_bias,neuron21_bias,neuron22_bias,neuron23_bias,neuron24_bias,neuron25_bias,neuron26_bias,neuron27_bias,neuron28_bias,neuron29_bias,neuron30_bias,neuron31_bias,neuron32_bias
0,0.190245,0.183256,0.201732,-0.052461,-0.043783,0.178109,0.166212,-0.030245,0.184164,-0.016175,0.180191,0.190051,0.175329,0.245407,0.220086,0.183930,-0.032804,0.177718,0.219796,0.207429,0.192703,-0.036194,0.191467,0.175358,0.194366,0.176250,0.198947,0.191902,-0.019313,0.181166,0.187128,0.190211
1,0.197457,0.208660,0.235334,-0.052461,-0.043783,0.163325,0.201031,-0.030245,0.195821,-0.016175,0.190114,0.194030,0.219275,0.234641,0.249836,0.225170,-0.032804,0.239069,0.246629,0.204771,0.177647,-0.036194,0.226708,0.229890,0.195819,0.192796,0.231885,0.234807,-0.019313,0.204440,0.226439,0.242736
2,0.173250,0.182335,0.226393,-0.052461,-0.043783,0.146403,0.197236,-0.030245,0.170698,-0.016175,0.166957,0.166866,0.206752,0.199084,0.246176,0.219181,-0.032804,0.228446,0.221962,0.171802,0.153981,-0.036194,0.202143,0.221937,0.168513,0.183846,0.216645,0.222438,-0.019313,0.177919,0.208143,0.224689
3,0.136331,0.156223,0.194704,-0.052461,-0.043783,0.117998,0.173184,-0.030245,0.139951,-0.016175,0.137369,0.140060,0.192235,0.160168,0.220316,0.187610,-0.032804,0.209984,0.195704,0.137167,0.132601,-0.036194,0.182764,0.190647,0.139038,0.176398,0.201969,0.202607,-0.019313,0.163349,0.196557,0.206940
4,0.110784,0.130878,0.177823,-0.052461,-0.043783,0.100386,0.155750,-0.030245,0.118885,-0.016175,0.104951,0.114023,0.156581,0.124966,0.187947,0.175010,-0.032804,0.192390,0.183111,0.109901,0.117229,-0.036194,0.149747,0.168266,0.112445,0.149596,0.177593,0.183329,-0.019313,0.132317,0.172673,0.179095
5,0.091184,0.102568,0.158402,-0.052461,-0.043783,0.087120,0.149841,-0.030245,0.099984,-0.016175,0.085409,0.090835,0.139610,0.102236,0.170461,0.150913,-0.032804,0.168033,0.149617,0.089158,0.088772,-0.036194,0.133437,0.157293,0.084636,0.132756,0.156968,0.161078,-0.019313,0.131619,0.156404,0.160957
6,0.076953,0.084204,0.141328,-0.052461,-0.043783,0.075056,0.134891,-0.030245,0.074141,-0.016175,0.065893,0.066900,0.126570,0.080040,0.146996,0.143425,-0.032804,0.146695,0.136830,0.076381,0.070885,-0.036194,0.123419,0.134836,0.073693,0.119782,0.138414,0.137702,-0.019313,0.130591,0.140525,0.138753
7,0.060866,0.062949,0.138855,-0.052461,-0.043783,0.055617,0.115527,-0.030245,0.063918,-0.016175,0.059006,0.062090,0.117077,0.067292,0.127230,0.120074,-0.032804,0.134027,0.120003,0.059586,0.062737,-0.036194,0.111680,0.131460,0.055647,0.108254,0.119829,0.122628,-0.019313,0.112996,0.128055,0.120795
8,0.054682,0.053149,0.115131,-0.052461,-0.043783,0.045561,0.122679,-0.030245,0.053648,-0.016175,0.044736,0.050911,0.109957,0.055302,0.116113,0.122199,-0.032804,0.132460,0.110889,0.052638,0.052269,-0.036194,0.106598,0.122459,0.045707,0.098864,0.110996,0.114522,-0.019313,0.112027,0.114473,0.121650
9,0.048588,0.043902,0.116835,-0.052461,-0.043783,0.044527,0.099645,-0.030245,0.048567,-0.016175,0.044821,0.043594,0.104397,0.046373,0.112037,0.109011,-0.032804,0.121174,0.110607,0.047668,0.042733,-0.036194,0.105936,0.104217,0.042292,0.095971,0.109031,0.108891,-0.019313,0.113084,0.105624,0.113892
10,0.039692,0.033368,0.099220,-0.052461,-0.043783,0.039933,0.099190,-0.030245,0.038893,-0.016175,0.033916,0.036893,0.103799,0.038586,0.108805,0.110975,-0.032804,0.102653,0.104541,0.037964,0.036064,-0.036194,0.102624,0.101006,0.034930,0.098935,0.104163,0.108978,-0.019313,0.096510,0.092882,0.103356
11,0.032881,0.029093,0.094359,-0.052461,-0.043783,0.033192,0.097921,-0.030245,0.034484,-0.016175,0.033717,0.030002,0.096041,0.034379,0.094135,0.089520,-0.032804,0.091087,0.100467,0.032389,0.037520,-0.036194,0.104646,0.098832,0.033184,0.098514,0.100165,0.103330,-0.019313,0.094934,0.098583,0.099785
12,0.029509,0.027451,0.087418,-0.052461,-0.043783,0.030654,0.098938,-0.030245,0.030555,-0.016175,0.029408,0.030990,0.093651,0.027336,0.091088,0.094219,-0.032804,0.085740,0.095238,0.028783,0.032105,-0.036194,0.104831,0.091514,0.026300,0.084880,0.090393,0.089139,-0.019313,0.096385,0.090759,0.092290
13,0.031788,0.029324,0.087140,-0.052461,-0.043783,0.025439,0.075454,-0.030245,0.030901,-0.016175,0.025403,0.030374,0.080658,0.029335,0.089033,0.086501,-0.032804,0.075824,0.077446,0.029031,0.030374,-0.036194,0.091065,0.091160,0.031342,0.081527,0.080259,0.089308,-0.019313,0.083762,0.086245,0.083633
14,0.020823,0.024707,0.086842,-0.052461,-0.043783,0.024690,0.075755,-0.030245,0.026481,-0.016175,0.024604,0.020779,0.085907,0.026213,0.089075,0.081010,-0.032804,0.075953,0.088261,0.027391,0.020556,-0.036194,0.080294,0.090363,0.025658,0.072372,0.083499,0.080876,-0.019313,0.077340,0.085652,0.082206
15,0.021971,0.022947,0.072277,-0.052461,-0.043783,0.023623,0.075757,-0.030245,0.020263,-0.016175,0.024914,0.021542,0.078061,0.024182,0.085269,0.084433,-0.032804,0.082704,0.077537,0.023041,0.015652,-0.036194,0.083788,0.080871,0.021666,0.076408,0.078615,0.079795,-0.019313,0.071311,0.074177,0.089680
16,0.018113,0.021366,0.074337,-0.052461,-0.043783,0.021530,0.068587,-0.030245,0.024944,-0.016175,0.018940,0.019406,0.083452,0.018989,0.080766,0.081986,-0.032804,0.080225,0.074407,0.020411,0.025101,-0.036194,0.075333,0.078161,0.020743,0.074811,0.067183,0.080835,-0.019313,0.073632,0.081512,0.079196
17,0.017674,0.018138,0.069923,-0.052461,-0.043783,0.023017,0.062021,-0.030245,0.024442,-0.016175,0.023553,0.022069,0.067776,0.020836,0.073004,0.069927,-0.032804,0.073920,0.070784,0.025076,0.025350,-0.036194,0.073292,0.069508,0.020412,0.065343,0.068679,0.081114,-0.019313,0.077531,0.071897,0.066583
18,0.019030,0.021486,0.072893,-0.052461,-0.043783,0.018802,0.068395,-0.030245,0.019966,-0.016175,0.016203,0.016563,0.064290,0.017583,0.075745,0.063079,-0.032804,0.076550,0.076871,0.017964,0.017876,-0.036194,0.064982,0.073950,0.021704,0.066471,0.073261,0.072281,-0.019313,0.062685,0.071783,0.064579
19,0.017183,0.017387,0.069077,-0.052461,-0.043783,0.016017,0.064672,-0.030245,0.014938,-0.016175,0.015826,0.012947,0.060372,0.015880,0.071168,0.059323,-0.032804,0.063255,0.075355,0.016648,0.017664,-0.036194,0.063687,0.070736,0.016450,0.066463,0.067791,0.066879,-0.019313,0.059576,0.070795,0.058730
20,0.014591,0.012581,0.067508,-0.052461,-0.043783,0.013920,0.071847,-0.030245,0.016772,-0.016175,0.014945,0.014985,0.064173,0.011608,0.067871,0.074917,-0.032804,0.060631,0.058329,0.019545,0.011887,-0.036194,0.063679,0.069369,0.016781,0.065439,0.065581,0.060468,-0.019313,0.065315,0.070310,0.062462
21,0.010633,0.013421,0.060283,-0.052461,-0.043783,0.012758,0.068071,-0.030245,0.013863,-0.016175,0.013116,0.013892,0.053075,0.012031,0.060306,0.060355,-0.032804,0.061585,0.063649,0.015411,0.013393,-0.036194,0.052385,0.062037,0.013469,0.071220,0.063487,0.070587,-0.019313,0.066756,0.069393,0.056976
22,0.011178,0.014538,0.057401,-0.052461,-0.043783,0.014742,0.058776,-0.030245,0.011595,-0.016175,0.010675,0.013486,0.056458,0.012624,0.069717,0.058492,-0.032804,0.062284,0.059977,0.012145,0.011237,-0.036194,0.059079,0.059550,0.010814,0.063079,0.055706,0.059361,-0.019313,0.057724,0.070343,0.059154
23,0.008072,0.011007,0.060455,-0.052461,-0.043783,0.009753,0.060065,-0.030245,0.012827,-0.016175,0.016283,0.009920,0.054232,0.013087,0.060553,0.061640,-0.032804,0.062911,0.064118,0.011753,0.012498,-0.036194,0.056701,0.061677,0.008623,0.053285,0.058408,0.058921,-0.019313,0.050729,0.062478,0.053963
24,0.010551,0.014974,0.052209,-0.052461,-0.043783,0.009565,0.055045,-0.030245,0.011716,-0.016175,0.011437,0.012727,0.056165,0.011762,0.055177,0.056292,-0.032804,0.055616,0.051547,0.013983,0.011762,-0.036194,0.056767,0.060337,0.011951,0.054059,0.064023,0.063333,-0.019313,0.050909,0.051906,0.050984
25,0.009524,0.012107,0.052088,-0.052461,-0.043783,0.016118,0.056234,-0.030245,0.014417,-0.016175,0.010784,0.011284,0.052301,0.014267,0.057708,0.052749,-0.032804,0.054298,0.053818,0.012630,0.012013,-0.036194,0.048073,0.052617,0.009654,0.047136,0.058251,0.062826,-0.019313,0.048896,0.058852,0.055525
26,0.008474,0.012013,0.053241,-0.052461,-0.043783,0.011809,0.050940,-0.030245,0.011555,-0.016175,0.009496,0.013064,0.050610,0.011093,0.054134,0.049595,-0.032804,0.047012,0.049478,0.009240,0.011706,-0.036194,0.050121,0.055801,0.014028,0.046441,0.051864,0.055749,-0.019313,0.049525,0.060131,0.049090
27,0.015358,0.007443,0.054132,-0.052461,-0.043783,0.015011,0.044395,-0.030245,0.013951,-0.016175,0.015815,0.008477,0.051168,0.009214,0.050898,0.045473,-0.032804,0.046844,0.048322,0.011467,0.013379,-0.036194,0.043640,0.052865,0.008071,0.049963,0.044871,0.053904,-0.019313,0.049296,0.052821,0.047059
28,0.012283,0.012053,0.050349,-0.052461,-0.043783,0.012167,0.043189,-0.030245,0.013407,-0.016175,0.011288,0.013080,0.049417,0.013132,0.047877,0.046979,-0.032804,0.047459,0.043730,0.010110,0.008998,-0.036194,0.052102,0.048673,0.011832,0.048140,0.049848,0.053008,-0.019313,0.046992,0.049873,0.048010
29,0.008320,0.007450,0.050758,-0.052461,-0.043783,0.009028,0.048391,-0.030245,0.011806,-0.016175,0.014009,0.009870,0.052248,0.010093,0.047556,0.047966,-0.032804,0.042802,0.048991,0.011539,0.013641,-0.036194,0.046965,0.047622,0.009364,0.054900,0.053736,0.050254,-0.019313,0.044028,0.048058,0.044545
30,0.006933,0.011852,0.043123,-0.052461,-0.043783,0.011813,0.046747,-0.030245,0.008420,-0.016175,0.009302,0.012183,0.045536,0.010176,0.050674,0.045376,-0.032804,0.039634,0.042689,0.007798,0.011356,-0.036194,0.046318,0.046824,0.012963,0.041002,0.047593,0.045366,-0.019313,0.042742,0.044724,0.048107
31,0.011343,0.010511,0.042990,-0.052461,-0.043783,0.009908,0.042472,-0.030245,0.009720,-0.016175,0.012762,0.008806,0.047292,0.008419,0.043183,0.044461,-0.032804,0.038001,0.045716,0.011540,0.010363,-0.036194,0.036434,0.044262,0.012533,0.048510,0.045164,0.038923,-0.019313,0.038380,0.041290,0.037492
32,0.013795,0.008076,0.050745,-0.052461,-0.043783,0.012530,0.041652,-0.030245,0.008158,-0.016175,0.009799,0.014187,0.042558,0.010828,0.041392,0.042905,-0.032804,0.038154,0.040360,0.011103,0.008695,-0.036194,0.043353,0.040398,0.013474,0.041534,0.043457,0.041600,-0.019313,0.039860,0.045347,0.037716
33,0.008679,0.010993,0.044189,-0.052461,-0.043783,0.010089,0.039601,-0.030245,0.011003,-0.016175,0.010788,0.009887,0.040816,0.011700,0.039427,0.045205,-0.032804,0.040094,0.041298,0.008526,0.013688,-0.036194,0.036467,0.036521,0.011823,0.043970,0.035910,0.047543,-0.019313,0.040525,0.046344,0.038965
34,0.010370,0.007348,0.037512,-0.052461,-0.043783,0.014370,0.040776,-0.030245,0.007110,-0.016175,0.009534,0.010415,0.037717,0.010232,0.040509,0.046033,-0.032804,0.037195,0.040969,0.009270,0.005934,-0.036194,0.036678,0.039668,0.005720,0.040599,0.039515,0.040010,-0.019313,0.048796,0.040675,0.041226
35,0.011451,0.011124,0.035626,-0.052461,-0.043783,0.013095,0.040075,-0.030245,0.013557,-0.016175,0.010912,0.011313,0.041024,0.010894,0.036322,0.037346,-0.032804,0.035180,0.036459,0.008534,0.013906,-0.036194,0.039119,0.037799,0.009832,0.040309,0.037409,0.041301,-0.019313,0.034833,0.035213,0.041278
36,0.008409,0.007677,0.034443,-0.052461,-0.043783,0.010550,0.039633,-0.030245,0.008131,-0.016175,0.007482,0.009322,0.040927,0.006855,0.030749,0.038656,-0.032804,0.037298,0.036202,0.010426,0.010441,-0.036194,0.033347,0.040224,0.010101,0.033304,0.038432,0.042841,-0.019313,0.039966,0.041863,0.046748
37,0.006182,0.010965,0.036806,-0.052461,-0.043783,0.009231,0.037312,-0.030245,0.008790,-0.016175,0.012029,0.010116,0.036664,0.007998,0.039470,0.035130,-0.032804,0.039372,0.040105,0.009355,0.004635,-0.036194,0.038279,0.033631,0.008184,0.035574,0.032241,0.039214,-0.019313,0.031985,0.037799,0.042712
38,0.008661,0.010156,0.033770,-0.052461,-0.043783,0.012581,0.033309,-0.030245,0.004820,-0.016175,0.011496,0.008217,0.032584,0.012183,0.030998,0.035647,-0.032804,0.039224,0.035729,0.012732,0.009647,-0.036194,0.035120,0.036429,0.009940,0.034252,0.028781,0.034246,-0.019313,0.036153,0.030982,0.037278
39,0.007734,0.008161,0.038846,-0.052461,-0.043783,0.011700,0.040246,-0.030245,0.011416,-0.016175,0.011445,0.012951,0.035194,0.010039,0.034173,0.034349,-0.032804,0.031671,0.031502,0.013357,0.011917,-0.036194,0.037018,0.036183,0.010761,0.029987,0.035182,0.032978,-0.019313,0.035875,0.036614,0.037731
40,0.013380,0.012687,0.037242,-0.052461,-0.043783,0.010352,0.034057,-0.030245,0.011058,-0.016175,0.011477,0.012764,0.033060,0.013794,0.033736,0.036483,-0.032804,0.031878,0.038782,0.010202,0.008753,-0.036194,0.030588,0.031327,0.007634,0.032485,0.034437,0.036216,-0.019313,0.030602,0.034766,0.027950
41,0.011462,0.008190,0.034766,-0.052461,-0.043783,0.009936,0.031532,-0.030245,0.007157,-0.016175,0.008564,0.008496,0.035547,0.009939,0.032268,0.035298,-0.032804,0.032765,0.030944,0.010194,0.010492,-0.036194,0.027295,0.033935,0.012393,0.030789,0.036666,0.029601,-0.019313,0.036908,0.038280,0.034834
42,0.007803,0.011050,0.028978,-0.052461,-0.043783,0.010263,0.030361,-0.030245,0.007913,-0.016175,0.008284,0.008925,0.031493,0.008874,0.031319,0.032742,-0.032804,0.034824,0.032533,0.009990,0.009374,-0.036194,0.027846,0.031470,0.010417,0.034597,0.036534,0.032147,-0.019313,0.038152,0.035072,0.030216
43,0.013509,0.006905,0.033849,-0.052461,-0.043783,0.005689,0.027242,-0.030245,0.008599,-0.016175,0.007072,0.009787,0.030369,0.004853,0.039308,0.035178,-0.032804,0.035633,0.029088,0.008496,0.009047,-0.036194,0.030277,0.034725,0.010978,0.032579,0.033807,0.030639,-0.019313,0.032790,0.028978,0.031005
44,0.008451,0.007743,0.037189,-0.052461,-0.043783,0.007292,0.033612,-0.030245,0.008140,-0.016175,0.006480,0.010236,0.030785,0.007493,0.034050,0.031634,-0.032804,0.031640,0.031356,0.008049,0.008682,-0.036194,0.028708,0.030333,0.010154,0.030857,0.029570,0.030160,-0.019313,0.026820,0.033248,0.034067
45,0.010537,0.009067,0.032236,-0.052461,-0.043783,0.009044,0.035436,-0.030245,0.007725,-0.016175,0.007661,0.005821,0.027424,0.010082,0.033545,0.035275,-0.032804,0.028707,0.032502,0.009838,0.007577,-0.036194,0.031244,0.031787,0.010178,0.033427,0.031257,0.031369,-0.019313,0.031142,0.031826,0.029571
46,0.007992,0.008462,0.025981,-0.052461,-0.043783,0.010419,0.028406,-0.030245,0.010939,-0.016175,0.010499,0.004879,0.029877,0.008291,0.028736,0.029987,-0.032804,0.030712,0.033469,0.010301,0.007575,-0.036194,0.034024,0.028707,0.006884,0.033169,0.031295,0.031148,-0.019313,0.027997,0.028678,0.030530
47,0.010859,0.005418,0.033301,-0.052461,-0.043783,0.007553,0.031377,-0.030245,0.009649,-0.016175,0.009177,0.003927,0.028065,0.009261,0.028686,0.030376,-0.032804,0.026003,0.031573,0.004211,0.010395,-0.036194,0.023190,0.028410,0.012129,0.036272,0.030161,0.026943,-0.019313,0.024987,0.027389,0.030362
48,0.005590,0.006719,0.029788,-0.052461,-0.043783,0.008650,0.030389,-0.030245,0.011421,-0.016175,0.010599,0.008376,0.027835,0.011917,0.028484,0.028223,-0.032804,0.028281,0.025703,0.005022,0.008314,-0.036194,0.025374,0.027795,0.009817,0.024019,0.026228,0.030539,-0.019313,0.032126,0.030486,0.027752
49,0.007648,0.010666,0.033516,-0.052461,-0.043783,0.011646,0.026433,-0.030245,0.010873,-0.016175,0.008725,0.007480,0.023606,0.008202,0.027427,0.025895,-0.032804,0.023805,0.027618,0.009840,0.012986,-0.036194,0.027490,0.030200,0.007212,0.025951,0.028160,0.024196,-0.019313,0.028470,0.025149,0.030503
50,0.007438,0.009598,0.030432,-0.052461,-0.043783,0.009379,0.029406,-0.030245,0.006663,-0.016175,0.007565,0.004319,0.032829,0.008137,0.030450,0.026550,-0.032804,0.029081,0.026892,0.006675,0.009254,-0.036194,0.033436,0.029435,0.007910,0.037629,0.029384,0.027138,-0.019313,0.027285,0.026975,0.030109
51,0.004182,0.003386,0.029642,-0.052461,-0.043783,0.005291,0.024393,-0.030245,0.007799,-0.016175,0.012684,0.007147,0.023450,0.007113,0.024823,0.025421,-0.032804,0.030792,0.026627,0.012222,0.009637,-0.036194,0.028103,0.028257,0.008921,0.029439,0.025641,0.031823,-0.019313,0.024140,0.029649,0.028748
52,0.009781,0.004515,0.027771,-0.052461,-0.043783,0.008468,0.025956,-0.030245,0.004656,-0.016175,0.005490,0.009373,0.027744,0.006493,0.023902,0.026918,-0.032804,0.022273,0.030161,0.007728,0.008797,-0.036194,0.026797,0.030124,0.006608,0.027900,0.023041,0.024895,-0.019313,0.028204,0.028060,0.029998
53,0.009194,0.003259,0.025004,-0.052461,-0.043783,0.006861,0.025248,-0.030245,0.005029,-0.016175,0.010035,0.005927,0.024772,0.006204,0.028070,0.026357,-0.032804,0.029239,0.029676,0.009870,0.008901,-0.036194,0.029554,0.032153,0.005343,0.029735,0.023915,0.027377,-0.019313,0.024069,0.024875,0.029060
54,0.008845,0.006140,0.024734,-0.052461,-0.043783,0.009047,0.022603,-0.030245,0.006227,-0.016175,0.005937,0.005043,0.025065,0.006270,0.023672,0.025329,-0.032804,0.030149,0.027653,0.010119,0.008302,-0.036194,0.027157,0.022889,0.009611,0.033973,0.022049,0.026180,-0.019313,0.028354,0.026761,0.028269
55,0.006830,0.006999,0.026446,-0.052461,-0.043783,0.007094,0.029221,-0.030245,0.008703,-0.016175,0.005404,0.010587,0.025311,0.007875,0.026696,0.028053,-0.032804,0.029902,0.025774,0.008373,0.011756,-0.036194,0.026029,0.023714,0.008234,0.027244,0.023826,0.027746,-0.019313,0.028287,0.028610,0.025504
56,0.010443,0.005663,0.024996,-0.052461,-0.043783,0.005330,0.027023,-0.030245,0.009938,-0.016175,0.008185,0.006948,0.021481,0.008877,0.029510,0.026322,-0.032804,0.022270,0.023402,0.011565,0.013217,-0.036194,0.025314,0.024405,0.006456,0.028102,0.026681,0.024094,-0.019313,0.024373,0.025831,0.025398
57,0.009256,0.006468,0.024679,-0.052461,-0.043783,0.010078,0.025411,-0.030245,0.011018,-0.016175,0.006810,0.007096,0.021307,0.007026,0.021038,0.024503,-0.032804,0.026017,0.028200,0.003866,0.009087,-0.036194,0.022413,0.022872,0.007918,0.025609,0.028255,0.025379,-0.019313,0.021303,0.026798,0.025891
58,0.011247,0.006229,0.029252,-0.052461,-0.043783,0.005746,0.026293,-0.030245,0.008069,-0.016175,0.008894,0.004646,0.024028,0.004686,0.027824,0.020544,-0.032804,0.024591,0.028146,0.005533,0.010219,-0.036194,0.024329,0.023205,0.009668,0.023653,0.018760,0.028246,-0.019313,0.022307,0.023788,0.025002
59,0.008677,0.004219,0.027890,-0.052461,-0.043783,0.006153,0.023580,-0.030245,0.006782,-0.016175,0.007173,0.008172,0.025378,0.008759,0.018455,0.026382,-0.032804,0.025438,0.026059,0.006425,0.005134,-0.036194,0.020085,0.026591,0.008313,0.019895,0.025844,0.024161,-0.019313,0.028740,0.027341,0.026941
60,0.005703,0.009880,0.024046,-0.052461,-0.043783,0.008738,0.026526,-0.030245,0.010671,-0.016175,0.008248,0.004997,0.024279,0.008630,0.024140,0.018380,-0.032804,0.025375,0.025928,0.010893,0.006632,-0.036194,0.020920,0.027181,0.005055,0.021388,0.025430,0.022794,-0.019313,0.027123,0.023919,0.022413
61,0.006826,0.007771,0.025118,-0.052461,-0.043783,0.008146,0.025819,-0.030245,0.008099,-0.016175,0.009377,0.009269,0.024926,0.007364,0.023676,0.020831,-0.032804,0.021108,0.022746,0.006179,0.007039,-0.036194,0.025128,0.025732,0.009152,0.024843,0.023808,0.021218,-0.019313,0.020488,0.021952,0.025386
62,0.010990,0.005374,0.022795,-0.052461,-0.043783,0.006940,0.022126,-0.030245,0.010403,-0.016175,0.012402,0.014677,0.019238,0.005819,0.021878,0.022128,-0.032804,0.023960,0.024510,0.004614,0.005738,-0.036194,0.020621,0.023282,0.011347,0.019450,0.023126,0.023407,-0.019313,0.018392,0.023773,0.019768
63,0.003756,0.008138,0.025820,-0.052461,-0.043783,0.009389,0.023852,-0.030245,0.006229,-0.016175,0.007192,0.010211,0.019309,0.009742,0.021468,0.022881,-0.032804,0.025647,0.023618,0.007553,0.007662,-0.036194,0.017983,0.016881,0.011283,0.022183,0.017405,0.021061,-0.019313,0.025733,0.018591,0.019068
64,0.013922,0.002815,0.020921,-0.052461,-0.043783,0.006883,0.023593,-0.030245,0.006080,-0.016175,0.009876,0.006191,0.021750,0.008937,0.021453,0.021611,-0.032804,0.023430,0.025950,0.006333,0.001071,-0.036194,0.023165,0.018985,0.007088,0.027359,0.023517,0.023778,-0.019313,0.020216,0.023310,0.020191
65,0.007459,0.008702,0.021596,-0.052461,-0.043783,0.008030,0.023874,-0.030245,0.011221,-0.016175,0.011785,0.004349,0.018730,0.008885,0.022512,0.020544,-0.032804,0.021154,0.020131,0.005146,0.008912,-0.036194,0.020778,0.022571,0.011921,0.022913,0.022058,0.020348,-0.019313,0.024165,0.021694,0.020424
66,0.007600,0.007063,0.022640,-0.052461,-0.043783,0.008500,0.021702,-0.030245,0.008475,-0.016175,0.006985,0.006099,0.026221,0.005463,0.020752,0.020933,-0.032804,0.025148,0.019838,0.006714,0.006225,-0.036194,0.021016,0.026042,0.007784,0.022123,0.018677,0.021251,-0.019313,0.020535,0.023832,0.023324
67,0.008667,0.006922,0.023955,-0.052461,-0.043783,0.007388,0.020135,-0.030245,0.006338,-0.016175,0.007601,0.006946,0.020029,0.008554,0.016502,0.020897,-0.032804,0.020847,0.022187,0.008162,0.009579,-0.036194,0.023154,0.021120,0.007998,0.018281,0.020139,0.017191,-0.019313,0.025036,0.022066,0.021629
68,0.009014,0.010673,0.022732,-0.052461,-0.043783,0.008744,0.023927,-0.030245,0.006015,-0.016175,0.008235,0.011417,0.020434,0.006319,0.020392,0.022149,-0.032804,0.021795,0.021701,0.007745,0.007428,-0.036194,0.022803,0.024910,0.008360,0.020071,0.020027,0.025045,-0.019313,0.017633,0.017164,0.021359
69,0.009382,0.009577,0.017601,-0.052461,-0.043783,0.006006,0.019608,-0.030245,0.010293,-0.016175,0.006820,0.008835,0.021098,0.004744,0.023226,0.018067,-0.032804,0.023445,0.020099,0.006584,0.008641,-0.036194,0.021595,0.021637,0.005718,0.019986,0.022683,0.020965,-0.019313,0.017537,0.027088,0.021819
70,0.009733,0.004934,0.021594,-0.052461,-0.043783,0.007680,0.019599,-0.030245,0.008020,-0.016175,0.008714,0.008799,0.019929,0.005484,0.019121,0.021983,-0.032804,0.016447,0.016605,0.005835,0.008016,-0.036194,0.017481,0.017557,0.011477,0.015200,0.021999,0.019994,-0.019313,0.019294,0.023841,0.020662
71,0.004712,0.008538,0.017558,-0.052461,-0.043783,0.007361,0.022792,-0.030245,0.013072,-0.016175,0.007147,0.009995,0.019581,0.009245,0.018530,0.019239,-0.032804,0.023636,0.019392,0.012689,0.008791,-0.036194,0.020047,0.019950,0.010927,0.021339,0.019733,0.020714,-0.019313,0.015047,0.019994,0.019630
72,0.005587,0.003551,0.024110,-0.052461,-0.043783,0.006618,0.019749,-0.030245,0.007972,-0.016175,0.008107,0.006101,0.019555,0.010453,0.018737,0.021572,-0.032804,0.019007,0.019106,0.009916,0.004194,-0.036194,0.021819,0.017885,0.007796,0.019767,0.019930,0.018353,-0.019313,0.018422,0.020160,0.019914
73,0.008136,0.005234,0.025739,-0.052461,-0.043783,0.005487,0.020250,-0.030245,0.004646,-0.016175,0.004600,0.006232,0.017928,0.007168,0.015097,0.021288,-0.032804,0.018910,0.020237,0.003904,0.008182,-0.036194,0.023330,0.021732,0.007119,0.018397,0.020986,0.019402,-0.019313,0.018017,0.018862,0.015867
74,0.006873,0.008367,0.014487,-0.052461,-0.043783,0.007512,0.022025,-0.030245,0.009345,-0.016175,0.008305,0.006409,0.021208,0.005993,0.018663,0.019742,-0.032804,0.018162,0.024580,0.004600,0.006479,-0.036194,0.020371,0.018347,0.007003,0.018263,0.020423,0.020237,-0.019313,0.015025,0.020893,0.020372
75,0.007720,0.005696,0.018341,-0.052461,-0.043783,0.009256,0.019807,-0.030245,0.006151,-0.016175,0.004762,0.005950,0.022048,0.004342,0.020270,0.023010,-0.032804,0.019097,0.018231,0.005714,0.009126,-0.036194,0.022890,0.021575,0.008873,0.023321,0.022938,0.024998,-0.019313,0.023235,0.022517,0.019892
76,0.003498,0.004911,0.015078,-0.052461,-0.043783,0.006306,0.016724,-0.030245,0.008226,-0.016175,0.010306,0.007496,0.021728,0.008955,0.018221,0.021384,-0.032804,0.016696,0.022195,0.005152,0.006474,-0.036194,0.017069,0.019804,0.007373,0.022422,0.020819,0.021368,-0.019313,0.020586,0.021450,0.018099
77,0.009407,0.007956,0.018565,-0.052461,-0.043783,0.006722,0.019140,-0.030245,0.006232,-0.016175,0.008230,0.009256,0.016745,0.006628,0.017405,0.017382,-0.032804,0.016924,0.017309,0.009376,0.004079,-0.036194,0.014210,0.018994,0.003255,0.019180,0.016140,0.016433,-0.019313,0.019934,0.016488,0.016138
78,0.006709,0.007860,0.019976,-0.052461,-0.043783,0.004939,0.017019,-0.030245,0.008834,-0.016175,0.006741,0.003977,0.017449,0.006471,0.020175,0.012384,-0.032804,0.018821,0.018645,0.003268,0.006080,-0.036194,0.016205,0.019205,0.006359,0.019824,0.015905,0.020175,-0.019313,0.020466,0.021664,0.017529
79,0.006126,0.010206,0.022460,-0.052461,-0.043783,0.005721,0.018312,-0.030245,0.008765,-0.016175,0.007870,0.008456,0.017333,0.007943,0.016188,0.017363,-0.032804,0.016815,0.017134,0.005299,0.011344,-0.036194,0.016329,0.017202,0.005229,0.019822,0.018718,0.017390,-0.019313,0.015740,0.019696,0.018737
80,0.008386,0.004959,0.019221,-0.052461,-0.043783,0.006490,0.021192,-0.030245,0.006674,-0.016175,0.008730,0.010193,0.018506,0.007309,0.018793,0.017593,-0.032804,0.018085,0.019238,0.006461,0.005097,-0.036194,0.017488,0.017120,0.006304,0.021886,0.021907,0.020915,-0.019313,0.019132,0.017000,0.017429
81,0.006559,0.005601,0.015557,-0.052461,-0.043783,0.006990,0.015680,-0.030245,0.005447,-0.016175,0.006307,0.008605,0.018809,0.009413,0.018816,0.019492,-0.032804,0.015830,0.018342,0.007662,0.006706,-0.036194,0.011921,0.019673,0.007343,0.015969,0.017150,0.014644,-0.019313,0.016992,0.017498,0.015773
82,0.008200,0.007508,0.017698,-0.052461,-0.043783,0.006707,0.017961,-0.030245,0.004019,-0.016175,0.005645,0.006222,0.018049,0.006764,0.016115,0.017102,-0.032804,0.014141,0.019119,0.006231,0.007990,-0.036194,0.014510,0.018864,0.003139,0.018017,0.017993,0.017012,-0.019313,0.015422,0.019417,0.020317
83,0.009840,0.009493,0.015277,-0.052461,-0.043783,0.005760,0.018117,-0.030245,0.006368,-0.016175,0.007875,0.007300,0.017152,0.004760,0.016725,0.016764,-0.032804,0.020177,0.020516,0.006211,0.008041,-0.036194,0.019339,0.017036,0.005981,0.016277,0.018775,0.020354,-0.019313,0.014879,0.021954,0.015054
84,0.006562,0.005124,0.015376,-0.052461,-0.043783,0.006987,0.014512,-0.030245,0.004852,-0.016175,0.005047,0.005242,0.015094,0.008539,0.019060,0.017260,-0.032804,0.017977,0.018991,0.007881,0.008190,-0.036194,0.018071,0.017436,0.006782,0.016535,0.016963,0.016552,-0.019313,0.018476,0.018439,0.017980
85,0.008069,0.009106,0.015095,-0.052461,-0.043783,0.006432,0.016409,-0.030245,0.004414,-0.016175,0.006156,0.010191,0.017211,0.004660,0.021120,0.017148,-0.032804,0.017492,0.019027,0.008226,0.008321,-0.036194,0.013922,0.018883,0.008328,0.018519,0.015554,0.019949,-0.019313,0.019920,0.018021,0.017333
86,0.009508,0.002847,0.018389,-0.052461,-0.043783,0.007054,0.019815,-0.030245,0.006313,-0.016175,0.005784,0.007546,0.018021,0.008090,0.013995,0.018393,-0.032804,0.015020,0.017675,0.010632,0.004579,-0.036194,0.012435,0.018830,0.008634,0.014309,0.016175,0.019952,-0.019313,0.019150,0.021235,0.016632
87,0.003723,0.007167,0.015517,-0.052461,-0.043783,0.008445,0.016416,-0.030245,0.010623,-0.016175,0.008631,0.009591,0.017178,0.010516,0.016096,0.015132,-0.032804,0.015534,0.017261,0.006163,0.004139,-0.036194,0.014162,0.018920,0.004356,0.018844,0.018192,0.017080,-0.019313,0.014316,0.016899,0.015538
88,0.004782,0.005526,0.015049,-0.052461,-0.043783,0.005767,0.017838,-0.030245,0.007770,-0.016175,0.009948,0.007516,0.018324,0.006898,0.017094,0.015066,-0.032804,0.018068,0.013326,0.006203,0.003948,-0.036194,0.015394,0.018619,0.008471,0.015730,0.015445,0.020598,-0.019313,0.015036,0.016076,0.016752
89,0.005889,0.004560,0.015390,-0.052461,-0.043783,0.006463,0.014443,-0.030245,0.007116,-0.016175,0.011158,0.006613,0.012702,0.006420,0.019581,0.022569,-0.032804,0.018021,0.018273,0.002845,0.005778,-0.036194,0.015315,0.017620,0.007063,0.015189,0.017616,0.018019,-0.019313,0.015595,0.018781,0.016025
90,0.006151,0.008160,0.015125,-0.052461,-0.043783,0.007748,0.019504,-0.030245,0.004922,-0.016175,0.004179,0.008664,0.020121,0.003934,0.015395,0.019605,-0.032804,0.014187,0.017333,0.004472,0.009023,-0.036194,0.015351,0.014403,0.004050,0.012607,0.016400,0.017875,-0.019313,0.022078,0.018064,0.016116
91,0.005696,0.005062,0.020510,-0.052461,-0.043783,0.008839,0.016143,-0.030245,0.005761,-0.016175,0.009546,0.004993,0.015269,0.005205,0.017986,0.012509,-0.032804,0.014209,0.016965,0.002564,0.005560,-0.036194,0.020971,0.017181,0.003809,0.016414,0.012770,0.015864,-0.019313,0.016021,0.014439,0.017947
92,0.003148,0.002571,0.017683,-0.052461,-0.043783,0.006349,0.017942,-0.030245,0.007862,-0.016175,0.005665,0.010185,0.017440,0.007573,0.021424,0.014192,-0.032804,0.016755,0.013945,0.008377,0.005443,-0.036194,0.014508,0.014322,0.003092,0.015754,0.017490,0.015720,-0.019313,0.015099,0.013208,0.017258
93,0.007436,0.007884,0.014113,-0.052461,-0.043783,0.006356,0.019314,-0.030245,0.009631,-0.016175,0.005261,0.007618,0.018498,0.005702,0.015997,0.015398,-0.032804,0.014939,0.012631,0.007897,0.007097,-0.036194,0.016284,0.017458,0.009376,0.016817,0.018844,0.014948,-0.019313,0.011657,0.017142,0.013211
94,0.004171,0.005852,0.016359,-0.052461,-0.043783,0.004646,0.021494,-0.030245,0.004954,-0.016175,0.010910,0.007321,0.017341,0.004687,0.021817,0.016572,-0.032804,0.011443,0.016323,0.004874,0.005334,-0.036194,0.016623,0.014852,0.005675,0.014384,0.013993,0.021376,-0.019313,0.018509,0.015639,0.015341
95,0.009625,0.005763,0.014930,-0.052461,-0.043783,0.006237,0.013679,-0.030245,0.005648,-0.016175,0.008377,0.009952,0.015667,0.005219,0.015462,0.016707,-0.032804,0.014961,0.015667,0.005258,0.009078,-0.036194,0.013844,0.015023,0.005890,0.016254,0.015470,0.013264,-0.019313,0.015528,0.018590,0.012943
96,0.009317,0.006376,0.015036,-0.052461,-0.043783,0.003463,0.017129,-0.030245,0.008655,-0.016175,0.009807,0.006637,0.015295,0.004448,0.019308,0.018199,-0.032804,0.013352,0.013405,0.007134,0.009290,-0.036194,0.013693,0.015117,0.004458,0.011887,0.014882,0.014729,-0.019313,0.016838,0.012633,0.020578
97,0.007591,0.003511,0.013491,-0.052461,-0.043783,0.006494,0.014452,-0.030245,0.005636,-0.016175,0.007857,0.006524,0.015136,0.008964,0.013942,0.012363,-0.032804,0.017359,0.018013,0.006719,0.004143,-0.036194,0.016672,0.014403,0.006620,0.014427,0.017618,0.015125,-0.019313,0.016912,0.014042,0.020472
98,0.005360,0.006642,0.013016,-0.052461,-0.043783,0.003181,0.017698,-0.030245,0.008737,-0.016175,0.003820,0.004671,0.015490,0.008840,0.018422,0.015649,-0.032804,0.016468,0.017271,0.008075,0.003149,-0.036194,0.015831,0.012365,0.005773,0.014626,0.013183,0.015342,-0.019313,0.016300,0.016442,0.014678
99,0.004530,0.005656,0.013600,-0.052461,-0.043783,0.006074,0.017328,-0.030245,0.006551,-0.016175,0.006219,0.009473,0.018661,0.006646,0.019242,0.014067,-0.032804,0.015319,0.016667,0.007351,0.004563,-0.036194,0.011112,0.018695,0.007121,0.013111,0.010975,0.014067,-0.019313,0.015807,0.017333,0.013215
