epoch,neuron1_bias,neuron2_bias,neuron3_bias,neuron4_bias,neuron5_bias,neuron6_bias,neuron7_bias,neuron8_bias,neuron9_bias,neuron10_bias,neuron11_bias,neuron12_bias,neuron13_bias,neuron14_bias,neuron15_bias,neuron16_bias,neuron17_bias,neuron18_bias,neuron19_bias,neuron20_bias,neuron21_bias,neuron22_bias,neuron23_bias,neuron24_bias,neuron25_bias,neuron26_bias,neuron27_bias,neuron28_bias,neuron29_bias,neuron30_bias,neuron31_bias,neuron32_bias,neuron33_bias,neuron34_bias,neuron35_bias,neuron36_bias,neuron37_bias,neuron38_bias,neuron39_bias,neuron40_bias,neuron41_bias,neuron42_bias,neuron43_bias,neuron44_bias,neuron45_bias,neuron46_bias,neuron47_bias,neuron48_bias,neuron49_bias,neuron50_bias,neuron51_bias,neuron52_bias,neuron53_bias,neuron54_bias,neuron55_bias,neuron56_bias,neuron57_bias,neuron58_bias,neuron59_bias,neuron60_bias,neuron61_bias,neuron62_bias,neuron63_bias,neuron64_bias,neuron65_bias,neuron66_bias,neuron67_bias,neuron68_bias,neuron69_bias,neuron70_bias,neuron71_bias,neuron72_bias,neuron73_bias,neuron74_bias,neuron75_bias,neuron76_bias,neuron77_bias,neuron78_bias,neuron79_bias,neuron80_bias,neuron81_bias,neuron82_bias,neuron83_bias,neuron84_bias,neuron85_bias,neuron86_bias,neuron87_bias,neuron88_bias,neuron89_bias,neuron90_bias,neuron91_bias,neuron92_bias,neuron93_bias,neuron94_bias,neuron95_bias,neuron96_bias,neuron97_bias,neuron98_bias,neuron99_bias,neuron100_bias,neuron101_bias,neuron102_bias,neuron103_bias,neuron104_bias,neuron105_bias,neuron106_bias,neuron107_bias,neuron108_bias,neuron109_bias,neuron110_bias,neuron111_bias,neuron112_bias,neuron113_bias,neuron114_bias,neuron115_bias,neuron116_bias,neuron117_bias,neuron118_bias,neuron119_bias,neuron120_bias,neuron121_bias,neuron122_bias,neuron123_bias,neuron124_bias,neuron125_bias,neuron126_bias
0,-0.000610,0.037333,0.020848,0.001011,0.016676,0.046308,0.029109,0.054213,0.133464,0.055472,-0.011838,0.030612,0.039072,0.078801,0.000072,0.099324,-0.021394,0.042710,0.014238,0.012753,0.086917,0.088314,0.000505,0.018823,-0.004951,-0.000977,0.013511,0.034728,0.064905,0.032772,0.032403,-0.024288,0.115711,0.051313,0.049112,0.020639,0.045654,0.091094,0.140464,0.095608,0.161577,0.000753,0.064855,-0.003176,0.042423,0.019328,0.002504,-0.031782,0.005199,0.039478,0.034389,0.033389,0.051569,0.036243,0.043256,-0.011437,0.030175,0.017888,0.052254,-0.016223,-0.009176,0.006605,-0.025589,-0.016195,-0.000600,0.020007,0.038098,0.071643,0.030303,-0.024817,-0.005654,0.032935,-0.021296,0.017617,0.030721,0.064150,0.048856,0.028677,0.010118,-0.021219,-0.022577,0.044778,0.046587,0.026223,0.046568,0.066324,-0.022753,0.063102,0.037748,0.016757,0.052929,0.036881,0.035599,0.052221,0.001204,0.094529,0.060997,-0.001942,0.050370,0.005977,0.059119,0.062246,0.104783,-0.038145,0.042007,-0.007148,0.054885,0.067281,0.006786,0.025603,-0.032763,0.360469,-0.001346,-0.002428,0.019823,0.164417,-0.022625,0.044142,0.133539,0.058968,0.049057,-0.026578,-0.005160,0.001753,0.005666,0.029509
1,-0.000610,0.049446,0.017402,-0.002956,0.003832,0.005007,0.036161,0.062062,0.008972,0.056347,-0.011838,0.035942,0.048519,0.080450,-0.000000,0.020957,-0.026902,0.046296,0.022393,0.006676,0.067588,0.062811,-0.009586,0.017005,-0.004951,-0.000977,0.021922,0.038341,0.030422,0.040033,0.035164,-0.024288,0.091777,0.057593,0.067109,0.031881,0.051325,0.044650,0.091305,0.089231,0.105911,0.007317,0.060934,-0.003176,0.045768,0.033248,-0.000000,-0.031782,0.012339,0.036929,0.021608,0.032944,0.034798,0.036794,0.044499,-0.011437,0.035592,0.004084,0.040060,-0.016223,-0.009176,0.000013,-0.025589,-0.016195,-0.000600,0.004054,0.037036,0.047012,0.033533,-0.024817,-0.010360,0.031797,-0.021296,0.001275,0.031342,0.075597,0.057181,0.029573,0.023221,-0.021219,-0.022577,0.044574,0.008561,0.007334,0.050905,0.066283,-0.022753,0.072877,0.045234,0.004439,0.059315,0.040529,0.037058,0.053082,0.000000,0.019291,0.064737,-0.006326,0.050436,0.000382,0.062199,0.067412,0.100384,-0.038145,0.046519,-0.007148,0.070948,0.065845,0.000085,0.013731,-0.032763,0.236595,-0.000629,-0.002428,0.024918,0.117721,-0.022625,0.050615,0.032869,0.051674,0.045793,-0.026578,-0.005195,0.000030,0.000557,0.030841
2,-0.000610,0.050175,0.005669,-0.009140,0.000113,-0.000001,0.032403,0.065075,-0.000004,0.056596,-0.011838,0.037256,0.051148,0.080879,-0.000000,0.000023,-0.029496,0.047530,0.026573,0.001827,0.056897,0.027758,-0.013929,0.006229,-0.004951,-0.000977,0.022885,0.024863,0.003404,0.040779,0.038415,-0.024288,0.058140,0.045098,0.071608,0.034229,0.055516,0.006134,0.021834,0.082542,0.027155,0.001829,0.056704,-0.003176,0.046566,0.030475,-0.000000,-0.031782,0.015920,0.026636,0.006956,0.024931,0.012430,0.036250,0.032896,-0.011437,0.033376,-0.007142,0.026098,-0.016223,-0.009176,-0.000017,-0.025589,-0.016195,-0.000600,-0.009186,0.032114,0.018775,0.038453,-0.024817,-0.012807,0.040442,-0.021296,-0.000000,0.028933,0.076673,0.063147,0.030275,0.027034,-0.021219,-0.022577,0.050803,-0.000011,0.000362,0.044078,0.057241,-0.022753,0.075895,0.042611,0.000159,0.063987,0.033225,0.036798,0.053581,-0.000000,0.000101,0.065499,-0.006326,0.051345,-0.000000,0.062216,0.068253,0.088416,-0.038145,0.046657,-0.007148,0.075205,0.071803,-0.000001,0.002619,-0.032763,0.086162,-0.000629,-0.002428,0.017840,0.039202,-0.022625,0.054034,-0.000176,0.041821,0.043733,-0.026578,-0.005195,-0.000000,-0.000044,0.028799
3,-0.000610,0.052119,0.000792,-0.012978,-0.000000,-0.000001,0.022012,0.066181,-0.000004,0.053442,-0.011838,0.039008,0.053865,0.082560,-0.000000,-0.000000,-0.035906,0.045095,0.028499,-0.000995,0.048573,0.005463,-0.015043,0.000754,-0.004951,-0.000977,0.023397,0.011563,0.000007,0.041365,0.039394,-0.024288,0.025570,0.042835,0.072372,0.032982,0.048287,0.000054,0.001102,0.073443,0.001645,0.000068,0.051051,-0.003176,0.047333,0.030379,-0.000000,-0.031782,0.016685,0.015213,0.000691,0.018465,0.001807,0.032292,0.016754,-0.011437,0.027571,-0.013536,0.010706,-0.016223,-0.009176,-0.000017,-0.025589,-0.016195,-0.000600,-0.016129,0.027450,0.003080,0.037909,-0.024817,-0.017728,0.044693,-0.021296,-0.000000,0.029984,0.077145,0.067597,0.029896,0.026787,-0.021219,-0.022577,0.049915,-0.000011,-0.000002,0.040367,0.042893,-0.022753,0.074584,0.041464,0.000000,0.063893,0.031086,0.034553,0.053110,-0.000000,-0.000035,0.064542,-0.006326,0.047645,-0.000000,0.064122,0.065907,0.069438,-0.038145,0.044028,-0.007148,0.080148,0.071573,-0.000001,0.000053,-0.032763,0.015228,-0.000629,-0.002428,0.008674,0.003990,-0.022625,0.056598,-0.000177,0.036359,0.050939,-0.026578,-0.005195,-0.000000,-0.000044,0.025622
4,-0.000610,0.043231,0.000002,-0.014934,-0.000000,-0.000001,0.009232,0.065821,-0.000004,0.051690,-0.011838,0.035467,0.051971,0.076586,-0.000000,-0.000000,-0.039264,0.041090,0.029267,-0.005039,0.031358,-0.000007,-0.014651,0.000000,-0.004951,-0.000977,0.020594,0.002783,-0.000000,0.038920,0.038999,-0.024288,0.002555,0.031613,0.072564,0.032847,0.042617,-0.000001,-0.000003,0.057748,-0.000001,-0.000000,0.041395,-0.003176,0.046605,0.026344,-0.000000,-0.031782,0.022010,0.000608,-0.000003,0.008796,0.000000,0.027344,0.003244,-0.011437,0.025598,-0.020123,0.001251,-0.016223,-0.009176,-0.000017,-0.025589,-0.016195,-0.000600,-0.020928,0.021713,-0.000000,0.038828,-0.024817,-0.017175,0.047060,-0.021296,-0.000000,0.023286,0.075662,0.069338,0.027355,0.029869,-0.021219,-0.022577,0.046300,-0.000011,-0.000002,0.039389,0.022159,-0.022753,0.079731,0.032620,-0.000000,0.056123,0.028692,0.032341,0.049257,-0.000000,-0.000035,0.060039,-0.006326,0.045160,-0.000000,0.063216,0.061668,0.050940,-0.038145,0.042122,-0.007148,0.081922,0.066770,-0.000001,-0.000000,-0.032763,0.000012,-0.000629,-0.002428,0.000955,-0.000425,-0.022625,0.055294,-0.000177,0.023757,0.057026,-0.026578,-0.005195,-0.000000,-0.000044,0.022449
5,-0.000610,0.027703,-0.000000,-0.018692,-0.000000,-0.000001,0.001600,0.062508,-0.000004,0.054946,-0.011838,0.037047,0.052818,0.070729,-0.000000,-0.000000,-0.040331,0.038892,0.028175,-0.007834,0.013984,-0.000007,-0.014651,-0.000000,-0.004951,-0.000977,0.012026,0.000865,-0.000000,0.042012,0.036342,-0.024288,-0.000090,0.022455,0.069872,0.038016,0.036463,-0.000001,-0.000003,0.037031,-0.000001,-0.000000,0.035312,-0.003176,0.048318,0.025001,-0.000000,-0.031782,0.024281,-0.011897,-0.000003,0.000694,-0.000000,0.027417,-0.000166,-0.011437,0.023228,-0.024876,-0.000017,-0.016223,-0.009176,-0.000017,-0.025589,-0.016195,-0.000600,-0.027479,0.015825,-0.000000,0.038967,-0.024817,-0.020993,0.046059,-0.021296,-0.000000,0.014560,0.076900,0.070831,0.029056,0.033528,-0.021219,-0.022577,0.042739,-0.000011,-0.000002,0.039588,0.005983,-0.022753,0.077169,0.030351,-0.000000,0.049269,0.026563,0.032037,0.048932,-0.000000,-0.000035,0.047459,-0.006326,0.045559,-0.000000,0.060331,0.051657,0.031735,-0.038145,0.042013,-0.007148,0.076543,0.058106,-0.000001,-0.000000,-0.032763,-0.000001,-0.000629,-0.002428,0.000011,-0.000425,-0.022625,0.051184,-0.000177,0.012406,0.062287,-0.026578,-0.005195,-0.000000,-0.000044,0.023553
6,-0.000610,0.011418,-0.000000,-0.018897,-0.000000,-0.000001,0.000004,0.058149,-0.000004,0.050980,-0.011838,0.036254,0.051604,0.059003,-0.000000,-0.000000,-0.043193,0.034605,0.026421,-0.008372,0.003057,-0.000007,-0.014651,-0.000000,-0.004951,-0.000977,0.004291,-0.000086,-0.000000,0.038341,0.036542,-0.024288,-0.000090,0.014935,0.067695,0.033694,0.038568,-0.000001,-0.000003,0.016393,-0.000001,-0.000000,0.034785,-0.003176,0.048347,0.030133,-0.000000,-0.031782,0.026782,-0.014684,-0.000003,0.000016,-0.000000,0.023648,-0.000167,-0.011437,0.019962,-0.028953,-0.000017,-0.016223,-0.009176,-0.000017,-0.025589,-0.016195,-0.000600,-0.029103,0.006818,-0.000000,0.040564,-0.024817,-0.022482,0.048162,-0.021296,-0.000000,0.004354,0.072042,0.069761,0.025639,0.035891,-0.021219,-0.022577,0.039218,-0.000011,-0.000002,0.037739,0.000374,-0.022753,0.075008,0.027979,-0.000000,0.043447,0.032665,0.028070,0.047121,-0.000000,-0.000035,0.033475,-0.006326,0.044447,-0.000000,0.058583,0.034276,0.016283,-0.038145,0.042393,-0.007148,0.076515,0.049619,-0.000001,-0.000000,-0.032763,-0.000001,-0.000629,-0.002428,-0.000077,-0.000425,-0.022625,0.041469,-0.000177,0.006638,0.063028,-0.026578,-0.005195,-0.000000,-0.000044,0.016135
7,-0.000610,0.001862,-0.000000,-0.018560,-0.000000,-0.000001,-0.000000,0.050230,-0.000004,0.052670,-0.011838,0.034401,0.050007,0.041503,-0.000000,-0.000000,-0.041544,0.033123,0.026466,-0.008802,0.000094,-0.000007,-0.014651,-0.000000,-0.004951,-0.000977,-0.000089,-0.000086,-0.000000,0.037867,0.037283,-0.024288,-0.000090,0.006811,0.066022,0.031405,0.037159,-0.000001,-0.000003,0.002419,-0.000001,-0.000000,0.037841,-0.003176,0.050925,0.026279,-0.000000,-0.031782,0.023868,-0.024189,-0.000003,-0.000003,-0.000000,0.027436,-0.000167,-0.011437,0.020605,-0.036560,-0.000017,-0.016223,-0.009176,-0.000017,-0.025589,-0.016195,-0.000600,-0.035908,0.000529,-0.000000,0.040451,-0.024817,-0.023811,0.051303,-0.021296,-0.000000,-0.000225,0.068038,0.061775,0.025979,0.038508,-0.021219,-0.022577,0.036975,-0.000011,-0.000002,0.039461,-0.000382,-0.022753,0.069286,0.029456,-0.000000,0.037441,0.033770,0.027313,0.043998,-0.000000,-0.000035,0.015748,-0.006326,0.037557,-0.000000,0.057215,0.013993,0.004922,-0.038145,0.036858,-0.007148,0.072908,0.034834,-0.000001,-0.000000,-0.032763,-0.000001,-0.000629,-0.002428,-0.000077,-0.000425,-0.022625,0.028322,-0.000177,0.002108,0.065625,-0.026578,-0.005195,-0.000000,-0.000044,0.012855
8,-0.000610,-0.000008,-0.000000,-0.019005,-0.000000,-0.000001,-0.000000,0.036236,-0.000004,0.054378,-0.011838,0.033448,0.050743,0.022363,-0.000000,-0.000000,-0.044431,0.031118,0.023659,-0.008704,-0.000036,-0.000007,-0.014651,-0.000000,-0.004951,-0.000977,-0.000331,-0.000086,-0.000000,0.031953,0.035039,-0.024288,-0.000090,0.003026,0.060684,0.029847,0.038345,-0.000001,-0.000003,-0.002170,-0.000001,-0.000000,0.036169,-0.003176,0.048821,0.032696,-0.000000,-0.031782,0.021418,-0.028288,-0.000003,-0.000003,-0.000000,0.023863,-0.000167,-0.011437,0.018316,-0.038592,-0.000017,-0.016223,-0.009176,-0.000017,-0.025589,-0.016195,-0.000600,-0.036421,-0.002114,-0.000000,0.039271,-0.024817,-0.025426,0.048028,-0.021296,-0.000000,-0.000274,0.056803,0.053771,0.026726,0.038807,-0.021219,-0.022577,0.032945,-0.000011,-0.000002,0.039531,-0.000382,-0.022753,0.062417,0.027298,-0.000000,0.027628,0.039238,0.025952,0.041796,-0.000000,-0.000035,0.004136,-0.006326,0.037229,-0.000000,0.053289,0.003311,0.000073,-0.038145,0.035845,-0.007148,0.071018,0.018694,-0.000001,-0.000000,-0.032763,-0.000001,-0.000629,-0.002428,-0.000077,-0.000425,-0.022625,0.014837,-0.000177,-0.000731,0.067453,-0.026578,-0.005195,-0.000000,-0.000044,0.008163
9,-0.000610,-0.000008,-0.000000,-0.018537,-0.000000,-0.000001,-0.000000,0.019803,-0.000003,0.047608,-0.011838,0.030998,0.047880,0.006623,-0.000000,-0.000000,-0.045971,0.026471,0.022810,-0.008704,-0.000036,-0.000007,-0.014651,-0.000000,-0.004951,-0.000977,-0.000331,-0.000086,-0.000000,0.030048,0.031109,-0.024288,-0.000090,0.000558,0.058549,0.027741,0.039490,-0.000001,-0.000003,-0.002170,-0.000001,-0.000000,0.037379,-0.003176,0.048408,0.033913,-0.000000,-0.031782,0.015699,-0.027711,-0.000003,-0.000003,-0.000000,0.016438,-0.000167,-0.011437,0.017792,-0.040419,-0.000017,-0.016223,-0.009176,-0.000017,-0.025589,-0.016195,-0.000600,-0.035461,-0.002114,-0.000000,0.035344,-0.024817,-0.027520,0.049724,-0.021296,-0.000000,-0.000274,0.042158,0.042731,0.022119,0.040519,-0.021219,-0.022577,0.030770,-0.000011,-0.000002,0.040931,-0.000382,-0.022753,0.049355,0.024819,-0.000000,0.019090,0.043735,0.019748,0.037526,-0.000000,-0.000035,0.000015,-0.006326,0.034835,-0.000000,0.053375,0.000073,-0.000010,-0.038145,0.031464,-0.007148,0.067662,0.005810,-0.000001,-0.000000,-0.032763,-0.000001,-0.000629,-0.002428,-0.000077,-0.000425,-0.022625,0.003003,-0.000177,-0.000731,0.070025,-0.026578,-0.005195,-0.000000,-0.000044,0.002880
10,-0.000610,-0.000008,-0.000000,-0.019115,-0.000000,-0.000001,-0.000000,0.006816,-0.000003,0.047251,-0.011838,0.031703,0.046301,0.000624,-0.000000,-0.000000,-0.046747,0.025628,0.018652,-0.008704,-0.000036,-0.000007,-0.014651,-0.000000,-0.004951,-0.000977,-0.000331,-0.000086,-0.000000,0.030822,0.028060,-0.024288,-0.000090,-0.000143,0.058086,0.031192,0.036693,-0.000001,-0.000003,-0.002170,-0.000001,-0.000000,0.034848,-0.003176,0.045548,0.035265,-0.000000,-0.031782,0.012397,-0.029632,-0.000003,-0.000003,-0.000000,0.016046,-0.000167,-0.011437,0.017895,-0.042837,-0.000017,-0.016223,-0.009176,-0.000017,-0.025589,-0.016195,-0.000600,-0.037346,-0.002114,-0.000000,0.038562,-0.024817,-0.024641,0.055254,-0.021296,-0.000000,-0.000274,0.024341,0.028763,0.022060,0.038665,-0.021219,-0.022577,0.025508,-0.000011,-0.000002,0.041045,-0.000382,-0.022753,0.035002,0.018425,-0.000000,0.009610,0.046029,0.019684,0.038508,-0.000000,-0.000035,-0.000001,-0.006326,0.032378,-0.003540,0.053798,-0.000025,-0.000010,-0.038145,0.031002,-0.007148,0.064252,0.000335,-0.000001,-0.000000,-0.032763,-0.000001,-0.000629,-0.002428,-0.000077,-0.000425,-0.022625,0.000169,-0.000177,-0.000731,0.073578,-0.026578,-0.005195,-0.000000,-0.000044,0.000263
11,-0.000610,-0.000008,-0.000000,-0.018574,-0.000000,-0.000001,-0.000000,0.000141,-0.024530,0.048896,-0.011838,0.029163,0.044549,-0.000007,-0.000000,-0.000000,-0.047823,0.021382,0.011467,-0.008704,-0.000036,-0.000007,-0.014651,-0.000000,-0.004951,-0.000977,-0.000331,-0.000086,-0.000000,0.026701,0.020717,-0.024288,-0.000090,-0.000143,0.052236,0.025114,0.036959,-0.000001,-0.000003,-0.002170,-0.000002,-0.000000,0.035167,-0.003176,0.044596,0.035583,-0.000000,-0.031782,0.007638,-0.033926,-0.000003,-0.000003,-0.000000,0.009450,-0.000167,-0.011437,0.017619,-0.045404,-0.000017,-0.016223,-0.009176,-0.000017,-0.025589,-0.016195,-0.000600,-0.039367,-0.002114,-0.000000,0.033091,-0.024817,-0.027291,0.054018,-0.021296,-0.000000,-0.000274,0.008552,0.014198,0.017043,0.036091,-0.021219,-0.022577,0.021595,-0.000011,-0.000002,0.041205,-0.000382,-0.022753,0.017957,0.011777,-0.000000,0.001218,0.048726,0.016646,0.038089,-0.000000,-0.000035,-0.000001,-0.006326,0.027085,-0.003540,0.053402,-0.000025,-0.000010,-0.038145,0.026258,-0.007148,0.062728,-0.000142,-0.000001,-0.000000,-0.032763,-0.000001,-0.000629,-0.002428,-0.000077,-0.000425,-0.022625,-0.000097,-0.000177,-0.000731,0.078483,-0.026578,-0.005195,-0.000000,-0.000044,-0.000001
12,-0.000610,-0.000008,-0.013995,-0.018574,-0.000000,-0.000001,-0.000000,-0.000000,-0.024530,0.047391,-0.011838,0.033253,0.044711,-0.000007,-0.000000,-0.000000,-0.044807,0.021958,0.004657,-0.008704,-0.000036,-0.000007,-0.014651,-0.000000,-0.004951,-0.000977,-0.000331,-0.000086,-0.000000,0.026549,0.021324,-0.024288,-0.000090,-0.000143,0.048061,0.023514,0.039601,-0.000001,-0.000003,-0.002170,-0.054132,-0.000000,0.036124,-0.003176,0.045747,0.037790,-0.000000,-0.031782,0.004928,-0.035588,-0.000003,-0.000003,-0.000000,0.005477,-0.000167,-0.011437,0.019378,-0.048962,-0.000017,-0.016223,-0.009176,-0.000017,-0.025589,-0.016195,-0.000600,-0.040807,-0.002114,-0.000000,0.036581,-0.024817,-0.024918,0.056624,-0.021296,-0.000000,-0.000274,0.000916,0.003749,0.017471,0.036912,-0.021219,-0.022577,0.018950,-0.010408,-0.000002,0.039172,-0.000382,-0.022753,0.005268,0.006381,-0.000000,0.000051,0.049985,0.019147,0.039365,-0.000000,-0.000035,-0.000001,-0.006326,0.024767,-0.003540,0.057460,-0.000025,-0.000010,-0.038145,0.024906,-0.007148,0.059104,-0.000142,-0.000001,-0.000000,-0.032763,-0.039902,-0.000629,-0.002428,-0.000077,-0.000425,-0.022625,-0.000097,-0.000177,-0.000731,0.081891,-0.026578,-0.005195,-0.000000,-0.000044,-0.000001
13,-0.000610,-0.000008,-0.013995,-0.018574,-0.000000,-0.000001,-0.000000,-0.000000,-0.024530,0.043358,-0.011838,0.028769,0.041408,-0.000007,-0.000000,-0.000000,-0.049005,0.014709,0.000031,-0.008704,-0.000036,-0.000007,-0.014651,-0.000000,-0.004951,-0.000977,-0.000331,-0.000086,-0.006019,0.020706,0.017087,-0.024288,-0.000090,-0.000143,0.044861,0.024387,0.038449,-0.000001,-0.000003,-0.002170,-0.054132,-0.000000,0.038414,-0.003176,0.044268,0.037041,-0.000000,-0.031782,0.001339,-0.037772,-0.000003,-0.000043,-0.000000,0.001281,-0.000167,-0.011437,0.021441,-0.048526,-0.000017,-0.016223,-0.009176,-0.000017,-0.025589,-0.016195,-0.000600,-0.041388,-0.002114,-0.000000,0.033966,-0.024817,-0.025987,0.061033,-0.021296,-0.000000,-0.000274,-0.000736,-0.000013,0.014032,0.035298,-0.021219,-0.022577,0.015096,-0.011663,-0.000002,0.035958,-0.000382,-0.022753,0.000426,0.001335,-0.000000,-0.000000,0.056479,0.012484,0.034270,-0.000000,-0.000035,-0.000001,-0.006326,0.025230,-0.003540,0.055729,-0.000025,-0.000010,-0.038145,0.023036,-0.007148,0.059487,-0.000142,-0.000001,-0.000000,-0.032763,-0.039902,-0.000629,-0.002428,-0.000077,-0.000425,-0.022625,-0.000097,-0.000177,-0.000731,0.084739,-0.026578,-0.005195,-0.000000,-0.000044,-0.000001
14,-0.000610,-0.000008,-0.013995,-0.018574,-0.000000,-0.000001,-0.000000,-0.000000,-0.024530,0.044500,-0.011838,0.029221,0.046657,-0.000007,-0.000000,-0.000000,-0.043437,0.016160,-0.000001,-0.008704,-0.000036,-0.000007,-0.014651,-0.000000,-0.004951,-0.000977,-0.000331,-0.000086,-0.006019,0.020578,0.014840,-0.024288,-0.000091,-0.000143,0.041411,0.019968,0.036197,-0.000001,-0.000003,-0.002170,-0.054132,-0.000000,0.038208,-0.003176,0.041740,0.038175,-0.000000,-0.031782,-0.002960,-0.039995,-0.000003,-0.000045,-0.000000,0.000091,-0.000167,-0.011437,0.017514,-0.051853,-0.000017,-0.016223,-0.009176,-0.000017,-0.025589,-0.016195,-0.000600,-0.045312,-0.002114,-0.000000,0.037965,-0.024817,-0.020154,0.063821,-0.021296,-0.000000,-0.000274,-0.000778,-0.000014,0.013181,0.039976,-0.021219,-0.022577,0.011012,-0.011663,-0.000002,0.034469,-0.000382,-0.022753,-0.000001,-0.000015,-0.000000,-0.000000,0.056510,0.015444,0.034091,-0.000000,-0.000035,-0.000001,-0.006326,0.019314,-0.003540,0.053066,-0.000025,-0.000010,-0.038145,0.020967,-0.007148,0.056741,-0.000142,-0.000001,-0.000000,-0.032763,-0.039902,-0.000629,-0.002428,-0.000077,-0.000425,-0.022625,-0.000097,-0.000177,-0.000731,0.086552,-0.026578,-0.005195,-0.000000,-0.000044,-0.000001
15,-0.000610,-0.000008,-0.013995,-0.018574,-0.000000,-0.000001,-0.000000,-0.000000,-0.024530,0.039017,-0.011838,0.026145,0.040491,-0.000007,-0.000000,-0.000000,-0.041398,0.012675,-0.000001,-0.008704,-0.000036,-0.000007,-0.014651,-0.000000,-0.004951,-0.000977,-0.000331,-0.000086,-0.006019,0.016496,0.010159,-0.024288,-0.034588,-0.000143,0.039212,0.017234,0.033681,-0.000001,-0.000003,-0.002170,-0.054132,-0.000000,0.036540,-0.003176,0.040675,0.039162,-0.000000,-0.031782,-0.005880,-0.040753,-0.000003,-0.000045,-0.000000,-0.000008,-0.000167,-0.011437,0.018105,-0.054041,-0.000017,-0.016223,-0.009176,-0.000017,-0.025589,-0.016195,-0.000600,-0.045371,-0.002114,-0.000000,0.031318,-0.024817,-0.024821,0.065054,-0.021296,-0.000000,-0.000274,-0.000778,-0.000014,0.011087,0.034295,-0.021219,-0.022577,0.011324,-0.011663,-0.000002,0.033892,-0.000382,-0.022753,-0.000001,-0.000015,-0.000000,-0.000001,0.054989,0.009747,0.028282,-0.000000,-0.000035,-0.000001,-0.006326,0.019734,-0.003540,0.050960,-0.000025,-0.000010,-0.038145,0.018646,-0.007148,0.056028,-0.000142,-0.000001,-0.000000,-0.032763,-0.039902,-0.000629,-0.002428,-0.000077,-0.000425,-0.022625,-0.000097,-0.000177,-0.000731,0.088246,-0.026578,-0.005195,-0.000000,-0.000044,-0.000001
16,-0.000610,-0.000008,-0.013995,-0.018574,-0.000000,-0.000001,-0.000000,-0.000000,-0.024530,0.040249,-0.011838,0.024482,0.040341,-0.000007,-0.000000,-0.000000,-0.037078,0.012780,-0.000001,-0.008704,-0.000036,-0.000007,-0.014651,-0.000000,-0.004951,-0.000977,-0.000331,-0.000086,-0.006019,0.016245,0.008326,-0.024288,-0.034588,-0.000143,0.035125,0.015985,0.035140,-0.000001,-0.000003,-0.002170,-0.054132,-0.000000,0.039082,-0.003176,0.041065,0.045040,-0.000000,-0.031782,-0.009126,-0.039528,-0.000003,-0.017492,-0.000000,-0.000008,-0.000167,-0.011437,0.018721,-0.053064,-0.000017,-0.016223,-0.009176,-0.000017,-0.025589,-0.016195,-0.000600,-0.044231,-0.002114,-0.000000,0.025925,-0.024817,-0.026585,0.069022,-0.021296,-0.000000,-0.000274,-0.000778,-0.000014,0.009274,0.035195,-0.021219,-0.022577,0.007725,-0.011663,-0.000002,0.036446,-0.000382,-0.022753,-0.000001,-0.000015,-0.000000,-0.000001,0.053839,0.008961,0.026260,-0.000000,-0.000035,-0.000001,-0.006326,0.017906,-0.003540,0.041637,-0.000025,-0.000010,-0.038145,0.016799,-0.007148,0.051218,-0.000142,-0.000001,-0.000000,-0.032763,-0.039902,-0.000629,-0.002428,-0.000077,-0.000425,-0.022625,-0.000097,-0.000177,-0.000731,0.090559,-0.026578,-0.005195,-0.000000,-0.000044,-0.000001
17,-0.000610,-0.000008,-0.013995,-0.018574,-0.000000,-0.000001,-0.000000,-0.000000,-0.024530,0.038808,-0.011838,0.017544,0.042215,-0.000007,-0.000000,-0.000000,-0.037078,0.011056,-0.000054,-0.008704,-0.000036,-0.000007,-0.014651,-0.000000,-0.004951,-0.000977,-0.000331,-0.000086,-0.006019,0.015981,0.003279,-0.024288,-0.034588,-0.000143,0.029305,0.014610,0.034223,-0.000001,-0.000003,-0.002170,-0.054132,-0.000000,0.036628,-0.003176,0.042102,0.041428,-0.000000,-0.031782,-0.011347,-0.044381,-0.000003,-0.017492,-0.000000,-0.000008,-0.000167,-0.011437,0.018689,-0.052248,-0.000017,-0.016223,-0.009176,-0.000017,-0.025589,-0.016195,-0.000600,-0.046782,-0.002114,-0.000000,0.016109,-0.024817,-0.027865,0.071227,-0.021296,-0.000000,-0.000274,-0.000778,-0.000014,0.010037,0.035133,-0.021219,-0.022577,0.004322,-0.011663,-0.000002,0.033867,-0.000382,-0.022753,-0.000001,-0.000015,-0.000000,-0.000001,0.054158,0.005987,0.009856,-0.000000,-0.000035,-0.000001,-0.006326,0.018272,-0.003540,0.029189,-0.000025,-0.000010,-0.038145,0.017775,-0.007148,0.049598,-0.000142,-0.000001,-0.000000,-0.032763,-0.039902,-0.000629,-0.002428,-0.000077,-0.000425,-0.022625,-0.000097,-0.000177,-0.000731,0.093692,-0.026578,-0.005195,-0.000000,-0.000044,-0.000001
18,-0.000610,-0.000008,-0.013995,-0.018574,-0.000000,-0.000001,-0.000000,-0.028972,-0.024530,0.037102,-0.011838,0.016973,0.035988,-0.000007,-0.000000,-0.000000,-0.037078,0.013479,-0.000054,-0.008704,-0.000036,-0.000007,-0.014651,-0.000000,-0.004951,-0.000977,-0.000331,-0.000086,-0.006019,0.015877,0.004331,-0.024288,-0.034588,-0.000143,0.023980,0.013817,0.034188,-0.000001,-0.000003,-0.002170,-0.054132,-0.000000,0.040530,-0.003176,0.038646,0.044306,-0.000000,-0.031782,-0.014187,-0.042218,-0.000003,-0.017492,-0.000000,-0.000008,-0.000167,-0.011437,0.021150,-0.057496,-0.000017,-0.016223,-0.009176,-0.000017,-0.025589,-0.016195,-0.000600,-0.045492,-0.002114,-0.000000,0.014179,-0.024817,-0.026338,0.073945,-0.021296,-0.000000,-0.000274,-0.000778,-0.000014,0.007253,0.033403,-0.021219,-0.022577,0.000394,-0.011663,-0.000002,0.035246,-0.000382,-0.022753,-0.000001,-0.000015,-0.000000,-0.022842,0.053734,0.000517,0.004845,-0.000000,-0.000035,-0.000001,-0.006326,0.015464,-0.003540,0.014729,-0.000025,-0.000010,-0.038145,0.014398,-0.007148,0.045177,-0.000142,-0.000001,-0.000000,-0.032763,-0.039902,-0.000629,-0.002428,-0.000077,-0.000425,-0.022625,-0.000097,-0.000177,-0.000731,0.094519,-0.026578,-0.005195,-0.000000,-0.000044,-0.000001
19,-0.000610,-0.000008,-0.013995,-0.018574,-0.000000,-0.000001,-0.000000,-0.028972,-0.024530,0.037661,-0.011838,0.006211,0.034491,-0.000007,-0.000000,-0.000000,-0.037078,0.009874,-0.000054,-0.008704,-0.000036,-0.000007,-0.014651,-0.000000,-0.004951,-0.000977,-0.000331,-0.000086,-0.006019,0.013992,-0.001772,-0.024288,-0.034588,-0.000143,0.020752,0.010672,0.035386,-0.000001,-0.000003,-0.002170,-0.054132,-0.000000,0.038532,-0.003176,0.041117,0.045727,-0.000000,-0.031782,-0.017345,-0.048233,-0.000003,-0.017492,-0.000000,-0.000007,-0.000167,-0.011437,0.023283,-0.059155,-0.000017,-0.016223,-0.009176,-0.000017,-0.025589,-0.016195,-0.000600,-0.046581,-0.002114,-0.000000,0.008637,-0.024817,-0.032380,0.074641,-0.021296,-0.000000,-0.000274,-0.000778,-0.000014,0.007174,0.031893,-0.021219,-0.022577,-0.004062,-0.011663,-0.000002,0.036699,-0.000382,-0.022753,-0.000001,-0.000015,-0.000000,-0.022842,0.056224,-0.000087,0.002690,-0.000000,-0.000035,-0.000001,-0.006326,0.015385,-0.003540,0.003313,-0.000025,-0.000010,-0.038145,0.014435,-0.007148,0.047513,-0.000142,-0.000001,-0.000000,-0.032763,-0.039902,-0.000629,-0.002428,-0.000077,-0.000425,-0.022625,-0.000097,-0.000177,-0.000731,0.094864,-0.026578,-0.005195,-0.000000,-0.000044,-0.000001
20,-0.000610,-0.000008,-0.013995,-0.018574,-0.000000,-0.000001,-0.000000,-0.028972,-0.024530,0.035914,-0.011838,0.006745,0.031440,-0.000007,-0.000000,-0.000000,-0.037078,0.009271,-0.000054,-0.008704,-0.000036,-0.000007,-0.014651,-0.000000,-0.004951,-0.000977,-0.000331,-0.000086,-0.006019,0.010820,-0.000140,-0.024288,-0.034588,-0.000143,0.017659,0.010373,0.028749,-0.000001,-0.000003,-0.002170,-0.054132,-0.000000,0.038659,-0.003176,0.037133,0.042164,-0.000000,-0.031782,-0.019871,-0.046227,-0.000003,-0.017492,-0.000000,-0.000007,-0.000167,-0.011437,0.020866,-0.058173,-0.000017,-0.016223,-0.009176,-0.000017,-0.025589,-0.016195,-0.000600,-0.047536,-0.002114,-0.000000,0.004369,-0.024817,-0.033763,0.079614,-0.021296,-0.000000,-0.000274,-0.000778,-0.000013,0.001541,0.031720,-0.021219,-0.022577,-0.004510,-0.011663,-0.000002,0.034779,-0.000382,-0.022753,-0.000001,-0.000015,-0.000000,-0.022842,0.056621,-0.000087,-0.000345,-0.000000,-0.000035,-0.025682,-0.006326,0.015016,-0.003540,-0.000155,-0.000025,-0.039483,-0.038145,0.013030,-0.007148,0.043163,-0.000142,-0.000001,-0.000000,-0.032763,-0.039902,-0.000629,-0.002428,-0.000077,-0.000425,-0.022625,-0.065173,-0.000177,-0.000731,0.095670,-0.026578,-0.005195,-0.000000,-0.000044,-0.000001
21,-0.000610,-0.000008,-0.013995,-0.018574,-0.000000,-0.000001,-0.000000,-0.028972,-0.024530,0.034824,-0.011838,0.006722,0.033245,-0.000007,-0.000000,-0.000000,-0.037078,0.009527,-0.000054,-0.008704,-0.000036,-0.000007,-0.014651,-0.000000,-0.004951,-0.000977,-0.000331,-0.000086,-0.006019,0.010645,-0.000724,-0.024288,-0.034588,-0.000143,0.012385,0.007160,0.024702,-0.000001,-0.000003,-0.002170,-0.054132,-0.000000,0.040611,-0.003176,0.038116,0.041493,-0.000000,-0.031782,-0.021986,-0.045870,-0.000003,-0.017492,-0.000000,-0.000007,-0.000167,-0.011437,0.021195,-0.060474,-0.000017,-0.016223,-0.009176,-0.000017,-0.025589,-0.016195,-0.000600,-0.045661,-0.002114,-0.000000,0.000962,-0.024817,-0.035092,0.080663,-0.021296,-0.000000,-0.000274,-0.000778,-0.000013,0.001460,0.033102,-0.021219,-0.022577,-0.003201,-0.011663,-0.000002,0.035538,-0.000382,-0.022753,-0.000001,-0.000016,-0.000000,-0.022842,0.057568,-0.000087,-0.000345,-0.000000,-0.000035,-0.025682,-0.006326,0.013927,-0.003540,-0.000155,-0.000025,-0.070306,-0.038145,0.010809,-0.007148,0.041563,-0.000142,-0.000001,-0.000000,-0.032763,-0.039902,-0.000629,-0.002428,-0.000077,-0.000425,-0.022625,-0.065173,-0.000177,-0.000731,0.099487,-0.026578,-0.005195,-0.000000,-0.000044,-0.043580
22,-0.000610,-0.000008,-0.013995,-0.018574,-0.000000,-0.000001,-0.000000,-0.028972,-0.024530,0.032660,-0.011838,0.003024,0.031551,-0.000007,-0.000000,-0.000000,-0.037078,0.007780,-0.023571,-0.008704,-0.000036,-0.000007,-0.014651,-0.000000,-0.004951,-0.000977,-0.000331,-0.000086,-0.006019,0.009914,-0.003808,-0.024288,-0.034588,-0.000143,0.009677,0.005411,0.019038,-0.000001,-0.000003,-0.002170,-0.054132,-0.000000,0.038107,-0.003176,0.037071,0.040536,-0.000000,-0.031782,-0.022521,-0.047595,-0.000003,-0.017492,-0.000000,-0.000007,-0.000167,-0.011437,0.019144,-0.059123,-0.000017,-0.016223,-0.009176,-0.000017,-0.025589,-0.016195,-0.000600,-0.047511,-0.002114,-0.000000,-0.002036,-0.024817,-0.028244,0.083152,-0.021296,-0.000000,-0.000274,-0.000778,-0.000013,0.000540,0.028757,-0.021219,-0.022577,-0.008114,-0.011663,-0.000002,0.034810,-0.000382,-0.022753,-0.000001,-0.000016,-0.000000,-0.022842,0.057661,-0.000087,-0.000345,-0.000000,-0.000035,-0.025682,-0.006326,0.016274,-0.003540,-0.000155,-0.000025,-0.070306,-0.038145,0.010303,-0.007148,0.039957,-0.000142,-0.000001,-0.000000,-0.032763,-0.039902,-0.000629,-0.002428,-0.000077,-0.000425,-0.022625,-0.065173,-0.000177,-0.000731,0.099888,-0.026578,-0.005195,-0.000000,-0.000044,-0.043580
23,-0.000610,-0.000008,-0.013995,-0.018574,-0.000000,-0.000001,-0.000000,-0.028972,-0.024530,0.028557,-0.011838,-0.000944,0.028175,-0.000007,-0.000000,-0.000000,-0.037078,0.004223,-0.023571,-0.008704,-0.000036,-0.000007,-0.014651,-0.000000,-0.004951,-0.000977,-0.000331,-0.000086,-0.006019,0.007493,-0.008817,-0.024288,-0.034588,-0.000143,0.004793,0.001695,0.012564,-0.000001,-0.000003,-0.002170,-0.054132,-0.000000,0.038040,-0.003176,0.035562,0.037689,-0.000000,-0.031782,-0.024141,-0.048840,-0.000003,-0.017492,-0.000000,-0.064247,-0.000167,-0.011437,0.022609,-0.063000,-0.000017,-0.016223,-0.009176,-0.000017,-0.025589,-0.016195,-0.000600,-0.044927,-0.002114,-0.000000,-0.002036,-0.024817,-0.028244,0.084828,-0.021296,-0.000000,-0.000274,-0.000778,-0.029805,0.000022,0.026519,-0.021219,-0.022577,-0.006902,-0.011663,-0.000002,0.032409,-0.000382,-0.022753,-0.044475,-0.033333,-0.000000,-0.022842,0.058910,-0.000087,-0.000345,-0.000000,-0.000035,-0.025682,-0.006326,0.014431,-0.003540,-0.000155,-0.000025,-0.070306,-0.038145,0.005840,-0.007148,0.039041,-0.000142,-0.000001,-0.000000,-0.032763,-0.039902,-0.000629,-0.002428,-0.000077,-0.000425,-0.022625,-0.065173,-0.000177,-0.000731,0.102962,-0.026578,-0.005195,-0.000000,-0.000044,-0.043580
24,-0.000610,-0.000008,-0.013995,-0.018574,-0.000000,-0.000001,-0.000000,-0.028972,-0.024530,0.028448,-0.011838,-0.001440,0.032439,-0.000007,-0.000000,-0.000000,-0.037078,0.008838,-0.023571,-0.008704,-0.000036,-0.000007,-0.014651,-0.000000,-0.004951,-0.000977,-0.000331,-0.000086,-0.006019,0.008163,-0.006159,-0.024288,-0.034588,-0.000143,-0.001454,-0.009942,0.005840,-0.000001,-0.000003,-0.002170,-0.054132,-0.000000,0.038642,-0.003176,0.034993,0.038932,-0.000000,-0.031782,-0.028071,-0.049753,-0.000003,-0.017492,-0.000000,-0.064247,-0.000167,-0.011437,0.024011,-0.062850,-0.000017,-0.016223,-0.009176,-0.000017,-0.025589,-0.016195,-0.000600,-0.044203,-0.002114,-0.000000,-0.002036,-0.024817,-0.028244,0.087678,-0.021296,-0.000000,-0.000274,-0.000778,-0.029805,-0.000002,0.029328,-0.021219,-0.022577,-0.014493,-0.011663,-0.000002,0.034954,-0.000382,-0.022753,-0.044475,-0.033901,-0.000000,-0.022842,0.060001,-0.000087,-0.000345,-0.000000,-0.000035,-0.025682,-0.006326,0.015979,-0.003540,-0.000155,-0.000025,-0.070306,-0.038145,0.012186,-0.007148,0.033051,-0.000142,-0.000001,-0.000000,-0.032763,-0.039902,-0.000629,-0.002428,-0.000077,-0.000425,-0.022625,-0.065173,-0.000177,-0.000731,0.103334,-0.026578,-0.005195,-0.000000,-0.000044,-0.043580
25,-0.000610,-0.000008,-0.013995,-0.018574,-0.000000,-0.000001,-0.000000,-0.028972,-0.024530,0.028597,-0.011838,-0.001979,0.029233,-0.000007,-0.000000,-0.000000,-0.037078,0.006170,-0.023571,-0.008704,-0.000036,-0.000007,-0.014651,-0.000000,-0.004951,-0.000977,-0.000331,-0.000086,-0.006019,0.008452,-0.010302,-0.024288,-0.034588,-0.000143,-0.003589,-0.009942,0.000976,-0.000001,-0.000003,-0.002170,-0.054132,-0.000000,0.040380,-0.003176,0.038054,0.040058,-0.000000,-0.031782,-0.028004,-0.054223,-0.000003,-0.017492,-0.000000,-0.064247,-0.000167,-0.011437,0.021476,-0.062872,-0.000017,-0.016223,-0.009176,-0.000017,-0.025589,-0.016195,-0.000600,-0.044791,-0.002114,-0.000000,-0.002036,-0.024817,-0.028244,0.086999,-0.021296,-0.000000,-0.000274,-0.000778,-0.029805,-0.000002,0.029291,-0.021219,-0.022577,-0.014752,-0.011663,-0.000002,0.036755,-0.000382,-0.022753,-0.044475,-0.033901,-0.000000,-0.022842,0.061172,-0.000087,-0.000345,-0.000000,-0.000035,-0.025682,-0.006326,0.015370,-0.003540,-0.000155,-0.000025,-0.070306,-0.038145,0.005236,-0.007148,0.031719,-0.000142,-0.000001,-0.000000,-0.032763,-0.039902,-0.000629,-0.002428,-0.000077,-0.000425,-0.022625,-0.065173,-0.000177,-0.000731,0.102868,-0.026578,-0.005195,-0.000000,-0.000044,-0.043580
26,-0.000610,-0.000008,-0.013995,-0.018574,-0.000000,-0.000001,-0.000000,-0.028972,-0.024530,0.029610,-0.011838,-0.005205,0.031541,-0.000007,-0.000000,-0.000000,-0.037078,0.006937,-0.023571,-0.008704,-0.000036,-0.000007,-0.014651,-0.000000,-0.004951,-0.000977,-0.000331,-0.000086,-0.006019,0.007077,-0.012158,-0.024288,-0.034588,-0.000143,-0.003933,-0.009942,0.000003,-0.000001,-0.000003,-0.002170,-0.054132,-0.000000,0.039406,-0.003176,0.036515,0.039131,-0.000000,-0.031782,-0.029916,-0.053118,-0.000003,-0.017492,-0.000000,-0.064247,-0.000167,-0.011437,0.021165,-0.063254,-0.000017,-0.016223,-0.009176,-0.000017,-0.025589,-0.016195,-0.000600,-0.046354,-0.002114,-0.000000,-0.002036,-0.024817,-0.028244,0.087401,-0.021296,-0.000000,-0.000274,-0.000778,-0.029805,-0.000002,0.027676,-0.021219,-0.022577,-0.015828,-0.011663,-0.000002,0.035607,-0.000382,-0.022753,-0.044475,-0.033901,-0.000000,-0.022842,0.062015,-0.000087,-0.000345,-0.000000,-0.000035,-0.025682,-0.006326,0.014733,-0.003540,-0.000155,-0.000025,-0.070306,-0.038145,0.007489,-0.007148,0.026957,-0.000142,-0.000001,-0.000000,-0.032763,-0.039902,-0.000629,-0.002428,-0.000077,-0.000425,-0.022625,-0.065173,-0.000177,-0.000731,0.105012,-0.026578,-0.005195,-0.000000,-0.000044,-0.043580
27,-0.000610,-0.036301,-0.013995,-0.018574,-0.000000,-0.000001,-0.000000,-0.028972,-0.024530,0.026315,-0.011838,-0.006259,0.026024,-0.000007,-0.000000,-0.000000,-0.037078,-0.001426,-0.023571,-0.008704,-0.000036,-0.000007,-0.014651,-0.000000,-0.004951,-0.000977,-0.000331,-0.000086,-0.006019,0.007791,-0.016330,-0.024288,-0.034588,-0.000143,-0.007454,-0.009942,-0.000001,-0.000001,-0.000003,-0.002170,-0.054132,-0.000000,0.034928,-0.003176,0.030021,0.038706,-0.000000,-0.031782,-0.031776,-0.054261,-0.000003,-0.017492,-0.000000,-0.064247,-0.000167,-0.011437,0.019645,-0.062682,-0.000017,-0.016223,-0.009176,-0.000017,-0.025589,-0.016195,-0.000600,-0.046072,-0.002114,-0.000000,-0.002036,-0.024817,-0.028244,0.087694,-0.021296,-0.000000,-0.000274,-0.000778,-0.029805,-0.000002,0.024392,-0.021219,-0.022577,-0.019836,-0.011663,-0.000002,0.035212,-0.000382,-0.022753,-0.044475,-0.033901,-0.000000,-0.022842,0.061617,-0.000087,-0.000345,-0.000000,-0.000035,-0.025682,-0.006326,0.017237,-0.003540,-0.000155,-0.000025,-0.070306,-0.038145,0.007985,-0.007148,0.021205,-0.000142,-0.000001,-0.000000,-0.032763,-0.039902,-0.000629,-0.002428,-0.000077,-0.000425,-0.022625,-0.065173,-0.000177,-0.000731,0.101708,-0.026578,-0.005195,-0.000000,-0.000044,-0.043580
28,-0.000610,-0.036301,-0.013995,-0.018574,-0.000000,-0.000001,-0.000000,-0.028972,-0.024530,0.026875,-0.011838,-0.003601,0.026364,-0.000007,-0.000000,-0.000000,-0.037078,-0.001426,-0.023571,-0.008704,-0.000036,-0.000007,-0.014651,-0.000000,-0.004951,-0.000977,-0.000331,-0.000086,-0.006019,0.004160,-0.014723,-0.024288,-0.034588,-0.000143,-0.010768,-0.009942,-0.000001,-0.000001,-0.000003,-0.002170,-0.054132,-0.000000,0.033947,-0.003176,0.034863,0.040060,-0.000000,-0.031782,-0.030696,-0.050488,-0.000003,-0.017492,-0.000000,-0.064247,-0.000167,-0.011437,0.021127,-0.063613,-0.000017,-0.016223,-0.009176,-0.000017,-0.025589,-0.016195,-0.000600,-0.045180,-0.002114,-0.000000,-0.002036,-0.024817,-0.028244,0.089353,-0.021296,-0.000000,-0.000274,-0.000778,-0.029805,-0.000002,0.026094,-0.021219,-0.022577,-0.017867,-0.011663,-0.000002,0.034756,-0.000382,-0.022753,-0.044475,-0.033901,-0.000000,-0.022842,0.062523,-0.000087,-0.000345,-0.000000,-0.000035,-0.025682,-0.006326,0.017109,-0.003540,-0.000155,-0.000025,-0.070306,-0.038145,0.005186,-0.007148,0.017761,-0.000142,-0.000001,-0.000000,-0.032763,-0.039902,-0.000629,-0.002428,-0.000077,-0.000425,-0.022625,-0.065173,-0.000177,-0.000731,0.100322,-0.026578,-0.005195,-0.000000,-0.000044,-0.043580
29,-0.000610,-0.036301,-0.013995,-0.018574,-0.000000,-0.000001,-0.000000,-0.028972,-0.024530,0.024494,-0.011838,-0.004051,0.025169,-0.000007,-0.000000,-0.000000,-0.037078,-0.001426,-0.023571,-0.008704,-0.000036,-0.000007,-0.014651,-0.000000,-0.004951,-0.000977,-0.000331,-0.000086,-0.006019,0.005194,-0.017131,-0.024288,-0.034588,-0.000143,-0.012664,-0.009942,-0.000001,-0.000001,-0.000003,-0.002170,-0.054132,-0.000000,0.034752,-0.003176,0.029448,0.038040,-0.000000,-0.031782,-0.033041,-0.052856,-0.000003,-0.017492,-0.000000,-0.064247,-0.000167,-0.011437,0.022076,-0.060379,-0.000017,-0.016223,-0.009176,-0.000017,-0.025589,-0.016195,-0.000600,-0.045798,-0.002114,-0.000000,-0.002036,-0.024817,-0.028244,0.090231,-0.021296,-0.000000,-0.000274,-0.000778,-0.029805,-0.000064,0.024049,-0.021219,-0.022577,-0.018534,-0.011663,-0.000002,0.037777,-0.000382,-0.022753,-0.044475,-0.033901,-0.000000,-0.022842,0.063916,-0.000087,-0.000345,-0.000000,-0.000035,-0.025682,-0.006326,0.015496,-0.003540,-0.000155,-0.000025,-0.070306,-0.038145,0.007319,-0.007148,0.011252,-0.000142,-0.000001,-0.000000,-0.032763,-0.039902,-0.000629,-0.002428,-0.000077,-0.000425,-0.022625,-0.065173,-0.000177,-0.000731,0.102434,-0.026578,-0.005195,-0.000000,-0.000044,-0.043580
30,-0.000610,-0.036301,-0.013995,-0.018574,-0.000000,-0.000001,-0.000000,-0.028972,-0.024530,0.024378,-0.011838,-0.006619,0.023577,-0.049532,-0.000000,-0.000000,-0.037078,-0.001426,-0.023571,-0.008704,-0.000036,-0.000007,-0.014651,-0.000000,-0.004951,-0.000977,-0.000331,-0.000086,-0.006019,0.003293,-0.017669,-0.024288,-0.034588,-0.000143,-0.015065,-0.009942,-0.000001,-0.000001,-0.000003,-0.002170,-0.054132,-0.000000,0.035701,-0.003176,0.029913,0.038272,-0.000000,-0.031782,-0.033000,-0.053619,-0.000003,-0.017492,-0.000000,-0.064247,-0.000167,-0.011437,0.019010,-0.067119,-0.000017,-0.016223,-0.009176,-0.000017,-0.025589,-0.016195,-0.000600,-0.044966,-0.002114,-0.000000,-0.002036,-0.024817,-0.028244,0.091445,-0.021296,-0.000000,-0.000274,-0.000778,-0.029805,-0.000064,0.023385,-0.021219,-0.022577,-0.019234,-0.011663,-0.000002,0.038752,-0.000382,-0.022753,-0.044475,-0.033901,-0.000000,-0.022842,0.064505,-0.000087,-0.000345,-0.000000,-0.000035,-0.025682,-0.006326,0.017165,-0.003540,-0.000155,-0.000025,-0.070306,-0.038145,0.003622,-0.007148,0.009452,-0.000142,-0.000001,-0.000000,-0.032763,-0.039902,-0.000629,-0.002428,-0.000077,-0.000425,-0.022625,-0.065173,-0.000177,-0.000731,0.103622,-0.026578,-0.005195,-0.000000,-0.000044,-0.043580
31,-0.000610,-0.036301,-0.013995,-0.018574,-0.000000,-0.000001,-0.000000,-0.028972,-0.024530,0.020641,-0.011838,-0.002012,0.026325,-0.049532,-0.000000,-0.000000,-0.037078,-0.001426,-0.023571,-0.008704,-0.000036,-0.000007,-0.014651,-0.000000,-0.004951,-0.000977,-0.000331,-0.000086,-0.006019,0.002843,-0.014687,-0.024288,-0.034588,-0.000143,-0.017880,-0.009942,-0.000001,-0.000001,-0.000003,-0.002170,-0.054132,-0.000000,0.032081,-0.003176,0.029032,0.037564,-0.000000,-0.031782,-0.035018,-0.053090,-0.000003,-0.017492,-0.000000,-0.064247,-0.000167,-0.011437,0.019896,-0.068882,-0.000017,-0.016223,-0.009176,-0.000017,-0.025589,-0.016195,-0.000600,-0.043988,-0.002114,-0.000000,-0.002036,-0.024817,-0.028244,0.092899,-0.021296,-0.000000,-0.000274,-0.000778,-0.029805,-0.000063,0.023388,-0.021219,-0.022577,-0.021692,-0.011663,-0.000002,0.038044,-0.000382,-0.022753,-0.044475,-0.033901,-0.000000,-0.022842,0.065657,-0.000087,-0.000345,-0.000000,-0.000035,-0.025682,-0.006326,0.016720,-0.003540,-0.000155,-0.000025,-0.070306,-0.038145,0.004584,-0.007148,0.005289,-0.000142,-0.000001,-0.000000,-0.032763,-0.039902,-0.000629,-0.002428,-0.000077,-0.000425,-0.022625,-0.065173,-0.000177,-0.000731,0.103909,-0.026578,-0.005195,-0.000000,-0.000044,-0.043580
32,-0.000610,-0.036301,-0.013995,-0.018574,-0.000000,-0.000001,-0.000000,-0.028972,-0.024530,0.020509,-0.011838,-0.001331,0.022066,-0.049532,-0.000000,-0.000000,-0.037078,-0.001426,-0.023571,-0.008704,-0.000036,-0.000007,-0.014651,-0.000000,-0.004951,-0.000977,-0.000331,-0.000086,-0.006019,0.004941,-0.022570,-0.024288,-0.034588,-0.000143,-0.021866,-0.009942,-0.000001,-0.000001,-0.000003,-0.002170,-0.054132,-0.000000,0.031222,-0.003176,0.028006,0.039396,-0.000000,-0.031782,-0.036066,-0.053169,-0.000003,-0.017492,-0.000000,-0.064247,-0.000167,-0.011437,0.020928,-0.064835,-0.000017,-0.016223,-0.009176,-0.000017,-0.025589,-0.016195,-0.000600,-0.041000,-0.002114,-0.000000,-0.002036,-0.024817,-0.028244,0.093362,-0.021296,-0.000000,-0.000274,-0.000778,-0.029805,-0.000063,0.022886,-0.021219,-0.022577,-0.020466,-0.011663,-0.000002,0.036057,-0.000382,-0.022753,-0.044475,-0.033901,-0.000000,-0.022842,0.068376,-0.000087,-0.000345,-0.000000,-0.000035,-0.025682,-0.006326,0.016846,-0.003540,-0.000155,-0.015079,-0.070306,-0.038145,0.005669,-0.007148,0.003987,-0.000142,-0.000001,-0.000000,-0.032763,-0.039902,-0.000629,-0.002428,-0.000077,-0.000425,-0.022625,-0.065173,-0.000177,-0.000731,0.102854,-0.026578,-0.005195,-0.000000,-0.000044,-0.043580
33,-0.000610,-0.036301,-0.013995,-0.018574,-0.000000,-0.000001,-0.000000,-0.028972,-0.024530,0.019383,-0.011838,-0.006279,0.023151,-0.049532,-0.000000,-0.000000,-0.037078,-0.001426,-0.023571,-0.008704,-0.000036,-0.000007,-0.014651,-0.000000,-0.004951,-0.000977,-0.000331,-0.000086,-0.006019,0.003217,-0.022979,-0.024288,-0.034588,-0.000143,-0.022828,-0.009942,-0.000001,-0.000001,-0.000003,-0.002170,-0.054132,-0.000000,0.032173,-0.003176,0.027317,0.038373,-0.000000,-0.031782,-0.034278,-0.055712,-0.000003,-0.017492,-0.000000,-0.064247,-0.000167,-0.011437,0.022252,-0.067989,-0.000017,-0.016223,-0.009176,-0.000017,-0.025589,-0.016195,-0.000600,-0.043541,-0.002114,-0.000000,-0.002036,-0.024817,-0.028244,0.094867,-0.021296,-0.000000,-0.000274,-0.000778,-0.029805,-0.000062,0.022081,-0.021219,-0.022577,-0.021642,-0.011663,-0.000002,0.037052,-0.000382,-0.022753,-0.044475,-0.033901,-0.000000,-0.022842,0.069449,-0.000087,-0.000345,-0.000000,-0.000035,-0.025682,-0.006326,0.017250,-0.003540,-0.000155,-0.015079,-0.070306,-0.038145,0.004000,-0.007148,-0.001139,-0.000142,-0.000001,-0.000000,-0.032763,-0.039902,-0.000629,-0.002428,-0.000077,-0.000425,-0.022625,-0.065173,-0.000177,-0.000731,0.103407,-0.026578,-0.005195,-0.000000,-0.000044,-0.043580
34,-0.000610,-0.036301,-0.013995,-0.018574,-0.000000,-0.000001,-0.000000,-0.028972,-0.024530,0.017912,-0.011838,-0.006656,0.022379,-0.049532,-0.000000,-0.000000,-0.037078,-0.001426,-0.023571,-0.008704,-0.000036,-0.000007,-0.014651,-0.000000,-0.004951,-0.000977,-0.000331,-0.000086,-0.006019,-0.000987,-0.023837,-0.024288,-0.034588,-0.000143,-0.025148,-0.009942,-0.018720,-0.000001,-0.000003,-0.002170,-0.054132,-0.000000,0.028742,-0.003176,0.023644,0.039048,-0.000000,-0.031782,-0.037490,-0.056883,-0.000003,-0.017492,-0.000000,-0.064247,-0.000167,-0.011437,0.018442,-0.069414,-0.000017,-0.016223,-0.009176,-0.000017,-0.025589,-0.016195,-0.000600,-0.047433,-0.002114,-0.000000,-0.002036,-0.024817,-0.028244,0.095297,-0.021296,-0.000000,-0.000274,-0.000778,-0.029805,-0.000051,0.021244,-0.021219,-0.022577,-0.023274,-0.011663,-0.000002,0.036063,-0.000382,-0.022753,-0.044475,-0.033901,-0.000000,-0.022842,0.067609,-0.000087,-0.000345,-0.000000,-0.000035,-0.025682,-0.006326,0.016220,-0.003540,-0.000155,-0.015079,-0.070306,-0.038145,0.004371,-0.007148,-0.004247,-0.000142,-0.000001,-0.000000,-0.032763,-0.039902,-0.000629,-0.002428,-0.000077,-0.000425,-0.022625,-0.065173,-0.000177,-0.000731,0.103995,-0.026578,-0.005195,-0.000000,-0.000044,-0.043580
35,-0.000610,-0.036301,-0.013995,-0.018574,-0.000000,-0.000001,-0.000000,-0.028972,-0.024530,0.017137,-0.011838,-0.004351,0.021797,-0.049532,-0.000000,-0.000000,-0.037078,-0.001426,-0.023571,-0.008704,-0.000036,-0.000007,-0.014651,-0.000000,-0.004951,-0.000977,-0.000331,-0.000086,-0.006019,-0.000018,-0.023813,-0.024288,-0.034588,-0.000143,-0.030729,-0.009942,-0.018720,-0.000001,-0.000003,-0.002170,-0.054132,-0.000000,0.029450,-0.003176,0.023007,0.036487,-0.000000,-0.031782,-0.038895,-0.058764,-0.000003,-0.017492,-0.000000,-0.064247,-0.000167,-0.011437,0.015798,-0.069840,-0.048889,-0.016223,-0.009176,-0.000017,-0.025589,-0.016195,-0.000600,-0.051135,-0.002114,-0.000000,-0.002036,-0.024817,-0.028244,0.096690,-0.021296,-0.000000,-0.000274,-0.000778,-0.029805,-0.002027,0.019999,-0.021219,-0.022577,-0.022567,-0.011663,-0.000002,0.034225,-0.000382,-0.022753,-0.044475,-0.033901,-0.000000,-0.022842,0.070490,-0.000087,-0.000345,-0.000000,-0.000035,-0.025682,-0.006326,0.020535,-0.003540,-0.000155,-0.015079,-0.070306,-0.038145,0.002288,-0.007148,-0.008187,-0.000142,-0.000001,-0.000000,-0.032763,-0.039902,-0.000629,-0.002428,-0.000077,-0.000425,-0.022625,-0.065173,-0.000177,-0.000731,0.103881,-0.026578,-0.005195,-0.000000,-0.000044,-0.043580
36,-0.000610,-0.036301,-0.013995,-0.018574,-0.000000,-0.000001,-0.000000,-0.028972,-0.024530,0.013328,-0.011838,-0.008082,0.021861,-0.049532,-0.000000,-0.000000,-0.037078,-0.001426,-0.023571,-0.008704,-0.000036,-0.000007,-0.014651,-0.000000,-0.004951,-0.000977,-0.000331,-0.000086,-0.006019,-0.000211,-0.022453,-0.024288,-0.034588,-0.000143,-0.034319,-0.009942,-0.018720,-0.000001,-0.000003,-0.002170,-0.054132,-0.000000,0.030457,-0.003176,0.021889,0.039969,-0.000000,-0.031782,-0.039960,-0.055597,-0.000003,-0.017492,-0.000000,-0.064247,-0.000167,-0.011437,0.015786,-0.066059,-0.048889,-0.016223,-0.009176,-0.000017,-0.025589,-0.016195,-0.000600,-0.047399,-0.002114,-0.000000,-0.002036,-0.024817,-0.028244,0.095005,-0.021296,-0.000000,-0.000274,-0.000778,-0.029805,-0.002027,0.022749,-0.021219,-0.022577,-0.024725,-0.011663,-0.000002,0.035790,-0.000382,-0.022753,-0.044475,-0.033901,-0.000000,-0.022842,0.069696,-0.000087,-0.000345,-0.000000,-0.000035,-0.025682,-0.006326,0.017880,-0.003540,-0.000155,-0.015079,-0.070306,-0.038145,0.003418,-0.007148,-0.010610,-0.000142,-0.000001,-0.000000,-0.032763,-0.039902,-0.000629,-0.002428,-0.000077,-0.000425,-0.022625,-0.065173,-0.000177,-0.000731,0.103174,-0.026578,-0.005195,-0.000000,-0.000044,-0.043580
37,-0.000610,-0.036301,-0.013995,-0.018574,-0.000000,-0.000001,-0.000000,-0.028972,-0.024530,0.010954,-0.011838,-0.005541,0.021710,-0.049532,-0.000000,-0.000000,-0.037078,-0.001426,-0.023571,-0.008704,-0.000036,-0.000007,-0.014651,-0.000000,-0.004951,-0.000977,-0.000331,-0.000086,-0.006019,0.000996,-0.021715,-0.024288,-0.034588,-0.000143,-0.035755,-0.009942,-0.018720,-0.000001,-0.000003,-0.002170,-0.054132,-0.000000,0.030870,-0.003176,0.021134,0.039038,-0.000000,-0.031782,-0.037671,-0.054532,-0.000003,-0.017492,-0.000000,-0.064247,-0.000167,-0.011437,0.009606,-0.067048,-0.048889,-0.016223,-0.009176,-0.000017,-0.025589,-0.016195,-0.000600,-0.044756,-0.002114,-0.000000,-0.002036,-0.024817,-0.028244,0.096817,-0.021296,-0.000000,-0.000274,-0.000778,-0.029805,-0.002027,0.020803,-0.021219,-0.022577,-0.022074,-0.011663,-0.000002,0.035279,-0.000382,-0.022753,-0.044475,-0.033901,-0.000000,-0.022842,0.072959,-0.000087,-0.000345,-0.000000,-0.000035,-0.025682,-0.006326,0.020143,-0.003540,-0.000155,-0.015079,-0.070306,-0.038145,0.000904,-0.007148,-0.010840,-0.000142,-0.000001,-0.000000,-0.032763,-0.039902,-0.000629,-0.002428,-0.000077,-0.000425,-0.022625,-0.065173,-0.000177,-0.000731,0.105659,-0.026578,-0.005195,-0.000000,-0.000044,-0.043580
38,-0.000610,-0.036301,-0.013995,-0.018574,-0.000000,-0.000001,-0.000000,-0.028972,-0.024530,0.007036,-0.011838,-0.005752,0.023343,-0.049532,-0.000000,-0.000000,-0.037078,-0.001426,-0.023571,-0.008704,-0.000036,-0.000007,-0.014651,-0.036028,-0.004951,-0.000977,-0.000331,-0.000086,-0.006019,0.000082,-0.021498,-0.024288,-0.034588,-0.000143,-0.035291,-0.009942,-0.018720,-0.000001,-0.000003,-0.002170,-0.054132,-0.000000,0.033348,-0.003176,0.020867,0.041165,-0.000000,-0.031782,-0.037769,-0.055679,-0.000003,-0.017492,-0.000000,-0.064247,-0.000167,-0.011437,0.007976,-0.061752,-0.048889,-0.016223,-0.009176,-0.000017,-0.025589,-0.016195,-0.000600,-0.046132,-0.002114,-0.000000,-0.002036,-0.024817,-0.028244,0.096446,-0.021296,-0.000000,-0.000274,-0.000778,-0.029805,-0.002027,0.020522,-0.021219,-0.022577,-0.023562,-0.011663,-0.000002,0.035163,-0.000382,-0.022753,-0.044475,-0.033901,-0.000000,-0.022842,0.071901,-0.000087,-0.000345,-0.000000,-0.000035,-0.025682,-0.006326,0.019839,-0.003540,-0.009166,-0.015079,-0.070306,-0.038145,0.002553,-0.007148,-0.013668,-0.000142,-0.000001,-0.000000,-0.032763,-0.039902,-0.000629,-0.002428,-0.000077,-0.000425,-0.022625,-0.065173,-0.000177,-0.000731,0.105033,-0.026578,-0.005195,-0.000000,-0.000044,-0.043580
39,-0.000610,-0.036301,-0.013995,-0.018574,-0.000000,-0.000001,-0.000000,-0.028972,-0.024530,0.002182,-0.011838,-0.010296,0.021980,-0.049532,-0.000000,-0.000000,-0.037078,-0.001426,-0.023571,-0.008704,-0.000036,-0.000007,-0.014651,-0.036028,-0.004951,-0.000977,-0.000331,-0.000086,-0.006019,-0.000736,-0.025317,-0.024288,-0.034588,-0.000143,-0.037227,-0.009942,-0.018720,-0.000001,-0.000003,-0.002170,-0.054132,-0.000000,0.039171,-0.003176,0.018584,0.037784,-0.000000,-0.031782,-0.034876,-0.055785,-0.000003,-0.017492,-0.000000,-0.064247,-0.000167,-0.011437,0.004633,-0.058162,-0.048889,-0.016223,-0.009176,-0.000017,-0.025589,-0.016195,-0.000600,-0.046722,-0.002114,-0.000000,-0.002036,-0.024817,-0.028244,0.095936,-0.021296,-0.000000,-0.000274,-0.000778,-0.029805,-0.002027,0.014764,-0.021219,-0.022577,-0.025105,-0.011663,-0.000002,0.033439,-0.000382,-0.022753,-0.044475,-0.033901,-0.000000,-0.022842,0.074737,-0.000087,-0.000345,-0.000000,-0.000035,-0.025682,-0.006326,0.019965,-0.003540,-0.044778,-0.015079,-0.070306,-0.038145,0.000660,-0.007148,-0.017608,-0.000142,-0.000001,-0.000000,-0.032763,-0.039902,-0.000629,-0.002428,-0.000077,-0.000425,-0.022625,-0.065173,-0.000177,-0.000731,0.105316,-0.026578,-0.005195,-0.000000,-0.000044,-0.043580
40,-0.000610,-0.036301,-0.013995,-0.018574,-0.000000,-0.000001,-0.000000,-0.028972,-0.024530,0.003802,-0.011838,-0.004859,0.024135,-0.049532,-0.000000,-0.000000,-0.037078,-0.001426,-0.023571,-0.008704,-0.000036,-0.000007,-0.014651,-0.036028,-0.004951,-0.000977,-0.000331,-0.000086,-0.006019,0.007522,-0.025073,-0.024288,-0.034588,-0.000143,-0.040374,-0.009942,-0.018720,-0.000001,-0.000003,-0.002170,-0.054132,-0.000000,0.037948,-0.003176,0.022234,0.040866,-0.000000,-0.031782,-0.040157,-0.053051,-0.000003,-0.017492,-0.000000,-0.064247,-0.000167,-0.011437,0.001387,-0.054974,-0.048889,-0.016223,-0.009176,-0.000017,-0.025589,-0.016195,-0.000600,-0.047443,-0.002114,-0.000000,-0.002036,-0.024817,-0.028244,0.096053,-0.021296,-0.000000,-0.000274,-0.000778,-0.029805,-0.002027,0.019350,-0.021219,-0.022577,-0.027186,-0.011663,-0.000002,0.032997,-0.000382,-0.022753,-0.044475,-0.033901,-0.000000,-0.022842,0.071504,-0.000087,-0.000345,-0.000000,-0.000035,-0.025682,-0.006326,0.022290,-0.003540,-0.044778,-0.015079,-0.070306,-0.038145,0.002475,-0.007148,-0.019561,-0.000142,-0.000001,-0.000000,-0.032763,-0.039902,-0.000629,-0.002428,-0.000077,-0.000425,-0.022625,-0.065173,-0.000177,-0.000731,0.105604,-0.026578,-0.005195,-0.000000,-0.000044,-0.043580
41,-0.000610,-0.036301,-0.013995,-0.018574,-0.000000,-0.000001,-0.000000,-0.028972,-0.024530,0.000728,-0.011838,-0.006538,0.022478,-0.049532,-0.000000,-0.000000,-0.037078,-0.001426,-0.023571,-0.008704,-0.000036,-0.000007,-0.014651,-0.036028,-0.004951,-0.000977,-0.000331,-0.000086,-0.006019,0.002482,-0.022609,-0.024288,-0.034588,-0.000143,-0.043347,-0.009942,-0.018720,-0.000001,-0.000003,-0.002170,-0.054132,-0.000000,0.036972,-0.003176,0.017373,0.039562,-0.000000,-0.031782,-0.039423,-0.054596,-0.000003,-0.017492,-0.000000,-0.064247,-0.000167,-0.011437,-0.002810,-0.054974,-0.048889,-0.016223,-0.009176,-0.000017,-0.025589,-0.016195,-0.000600,-0.048762,-0.002114,-0.000000,-0.002036,-0.024817,-0.028244,0.095972,-0.021296,-0.000000,-0.000274,-0.000778,-0.029805,-0.002027,0.014651,-0.021219,-0.022577,-0.027238,-0.011663,-0.000002,0.031359,-0.000382,-0.022753,-0.044475,-0.033901,-0.000000,-0.022842,0.072229,-0.000087,-0.000345,-0.000000,-0.000035,-0.025682,-0.006326,0.022088,-0.003540,-0.044778,-0.015079,-0.070306,-0.038145,0.001980,-0.007148,-0.024814,-0.000142,-0.000001,-0.000000,-0.032763,-0.039902,-0.000629,-0.002428,-0.000077,-0.000425,-0.022625,-0.065173,-0.000177,-0.000731,0.101751,-0.026578,-0.005195,-0.000000,-0.000044,-0.043580
42,-0.000610,-0.036301,-0.013995,-0.018574,-0.000000,-0.000001,-0.000000,-0.028972,-0.024530,-0.002146,-0.011838,-0.006010,0.020582,-0.049532,-0.000000,-0.000000,-0.037078,-0.001426,-0.023571,-0.008704,-0.000036,-0.000007,-0.014651,-0.036028,-0.004951,-0.000977,-0.000331,-0.000086,-0.006019,-0.000462,-0.024686,-0.024288,-0.034588,-0.000143,-0.044838,-0.009942,-0.018720,-0.000001,-0.000003,-0.002170,-0.054132,-0.000000,0.042320,-0.003176,0.017918,0.040623,-0.000000,-0.031782,-0.041245,-0.054916,-0.000003,-0.017492,-0.000000,-0.064247,-0.000167,-0.011437,-0.003280,-0.054974,-0.048889,-0.016223,-0.009176,-0.000017,-0.025589,-0.016195,-0.000600,-0.048726,-0.002114,-0.000000,-0.002036,-0.024817,-0.028244,0.098600,-0.021296,-0.000000,-0.000274,-0.000778,-0.029805,-0.002027,0.012837,-0.021219,-0.022577,-0.028679,-0.011663,-0.000002,0.033988,-0.000382,-0.022753,-0.044475,-0.033901,-0.000000,-0.022842,0.076071,-0.000087,-0.000345,-0.000000,-0.000035,-0.025682,-0.006326,0.019790,-0.003540,-0.044778,-0.015079,-0.070306,-0.038145,-0.000446,-0.007148,-0.024853,-0.000142,-0.000001,-0.000000,-0.032763,-0.039902,-0.000629,-0.002428,-0.000077,-0.000425,-0.022625,-0.065173,-0.000177,-0.000731,0.106753,-0.026578,-0.005195,-0.000000,-0.000044,-0.043580
43,-0.000610,-0.036301,-0.013995,-0.018574,-0.000000,-0.000001,-0.000000,-0.028972,-0.024530,0.001175,-0.011838,-0.010152,0.021102,-0.049532,-0.000000,-0.000000,-0.037078,-0.001426,-0.023571,-0.008704,-0.000036,-0.000007,-0.014651,-0.036028,-0.004951,-0.000977,-0.000331,-0.000086,-0.006019,0.004388,-0.022814,-0.024288,-0.034588,-0.000143,-0.046233,-0.009942,-0.018720,-0.000001,-0.000003,-0.002170,-0.054132,-0.000000,0.042255,-0.003176,0.015905,0.042015,-0.000000,-0.031782,-0.040170,-0.054840,-0.000003,-0.017492,-0.000000,-0.064247,-0.000167,-0.011437,-0.007897,-0.054974,-0.048889,-0.016223,-0.009176,-0.000017,-0.025589,-0.016195,-0.000600,-0.046718,-0.002114,-0.000000,-0.002036,-0.024817,-0.028244,0.098591,-0.021296,-0.000000,-0.000274,-0.000778,-0.029805,-0.002027,0.014314,-0.021219,-0.022577,-0.030094,-0.011663,-0.000002,0.034926,-0.000382,-0.022753,-0.044475,-0.033901,-0.000000,-0.022842,0.077601,-0.000087,-0.000345,-0.000000,-0.000035,-0.025682,-0.006326,0.021649,-0.003540,-0.044778,-0.015079,-0.070306,-0.038145,0.003092,-0.007148,-0.023373,-0.000142,-0.000001,-0.000000,-0.032763,-0.039902,-0.000629,-0.002428,-0.000077,-0.000425,-0.022625,-0.065173,-0.000177,-0.000731,0.103616,-0.026578,-0.005195,-0.000000,-0.000044,-0.043580
44,-0.000610,-0.036301,-0.013995,-0.018574,-0.000000,-0.000001,-0.000000,-0.028972,-0.024530,-0.002446,-0.011838,-0.006552,0.019491,-0.049532,-0.000000,-0.000000,-0.037078,-0.001426,-0.023571,-0.008704,-0.000036,-0.000007,-0.014651,-0.036028,-0.004951,-0.000977,-0.000331,-0.000086,-0.006019,0.002996,-0.022239,-0.024288,-0.034588,-0.000143,-0.045082,-0.009942,-0.018720,-0.000001,-0.000003,-0.002170,-0.054132,-0.000000,0.041020,-0.003176,0.014886,0.041148,-0.000000,-0.031782,-0.039470,-0.056600,-0.000003,-0.017492,-0.000000,-0.064247,-0.000167,-0.011437,-0.009854,-0.054974,-0.048889,-0.016223,-0.009176,-0.000017,-0.025589,-0.016195,-0.000600,-0.048258,-0.002114,-0.000000,-0.002036,-0.024817,-0.028244,0.097648,-0.021296,-0.000000,-0.000274,-0.000778,-0.029805,-0.002027,0.014783,-0.021219,-0.022577,-0.028234,-0.011663,-0.000002,0.032809,-0.000382,-0.022753,-0.044475,-0.033901,-0.000000,-0.022842,0.075334,-0.022523,-0.000345,-0.000000,-0.000035,-0.025682,-0.006326,0.018807,-0.003540,-0.044778,-0.015079,-0.070306,-0.038145,0.001954,-0.007148,-0.025542,-0.000142,-0.000001,-0.000000,-0.032763,-0.039902,-0.000629,-0.002428,-0.000077,-0.000425,-0.022625,-0.065173,-0.000177,-0.000731,0.102999,-0.026578,-0.005195,-0.000000,-0.000044,-0.043580
45,-0.000610,-0.036301,-0.013995,-0.018574,-0.000000,-0.000001,-0.000000,-0.028972,-0.024530,-0.006129,-0.011838,-0.003779,0.020456,-0.049532,-0.000000,-0.000000,-0.037078,-0.001426,-0.023571,-0.008704,-0.000036,-0.000007,-0.014651,-0.036028,-0.004951,-0.000977,-0.000331,-0.000086,-0.006019,0.001563,-0.028174,-0.024288,-0.034588,-0.000143,-0.051003,-0.009942,-0.018720,-0.000001,-0.000003,-0.002170,-0.054132,-0.000000,0.044277,-0.003176,0.014345,0.039211,-0.000000,-0.031782,-0.039970,-0.057458,-0.000003,-0.017492,-0.000000,-0.064247,-0.000167,-0.011437,-0.014632,-0.054974,-0.048889,-0.016223,-0.009176,-0.000017,-0.025589,-0.016195,-0.000600,-0.049252,-0.002114,-0.000000,-0.002036,-0.024817,-0.028244,0.099568,-0.021296,-0.000000,-0.000274,-0.000778,-0.029805,-0.002027,0.013886,-0.021219,-0.022577,-0.032169,-0.011663,-0.000002,0.033085,-0.000382,-0.022753,-0.044475,-0.033901,-0.000000,-0.022842,0.078293,-0.022523,-0.000345,-0.000000,-0.000035,-0.025682,-0.006326,0.017943,-0.003540,-0.044778,-0.015079,-0.070306,-0.038145,-0.000062,-0.007148,-0.029026,-0.000142,-0.000001,-0.000000,-0.032763,-0.039902,-0.000629,-0.002428,-0.000077,-0.000425,-0.022625,-0.065173,-0.000177,-0.000731,0.103485,-0.026578,-0.005195,-0.000000,-0.000044,-0.043580
46,-0.000610,-0.036301,-0.013995,-0.018574,-0.000000,-0.000001,-0.000000,-0.028972,-0.024530,-0.006393,-0.011838,-0.004459,0.020452,-0.049532,-0.000000,-0.000000,-0.037078,-0.001426,-0.023571,-0.008704,-0.000036,-0.000007,-0.014651,-0.036028,-0.004951,-0.000977,-0.000331,-0.000086,-0.006019,0.006478,-0.024782,-0.024288,-0.034588,-0.000143,-0.050631,-0.009942,-0.018720,-0.000001,-0.000003,-0.002170,-0.054132,-0.000000,0.042778,-0.003176,0.015142,0.042249,-0.000000,-0.031782,-0.041998,-0.056323,-0.000003,-0.017492,-0.000000,-0.064247,-0.000167,-0.011437,-0.016195,-0.054974,-0.048889,-0.016223,-0.009176,-0.000017,-0.025589,-0.016195,-0.000600,-0.049013,-0.002114,-0.000000,-0.002036,-0.024817,-0.028244,0.095072,-0.021296,-0.000000,-0.000274,-0.000778,-0.029805,-0.002027,0.015837,-0.021219,-0.022577,-0.029404,-0.011663,-0.000002,0.032153,-0.000382,-0.022753,-0.044475,-0.033901,-0.000000,-0.022842,0.076376,-0.022523,-0.000345,-0.000000,-0.000035,-0.025682,-0.006326,0.021348,-0.003540,-0.044778,-0.015079,-0.070306,-0.038145,0.004047,-0.007148,-0.030937,-0.000142,-0.000001,-0.000000,-0.032763,-0.039902,-0.000629,-0.002428,-0.000077,-0.000425,-0.022625,-0.065173,-0.000177,-0.000731,0.103951,-0.026578,-0.005195,-0.000000,-0.000044,-0.043580
47,-0.000610,-0.036301,-0.013995,-0.018574,-0.000000,-0.000001,-0.000000,-0.028972,-0.024530,-0.010150,-0.011838,-0.005584,0.017186,-0.049532,-0.000000,-0.000000,-0.037078,-0.001426,-0.023571,-0.008704,-0.000036,-0.000007,-0.014651,-0.036028,-0.004951,-0.000977,-0.000331,-0.000086,-0.006019,0.001600,-0.025727,-0.024288,-0.034588,-0.000143,-0.053321,-0.009942,-0.018720,-0.000001,-0.000003,-0.002170,-0.054132,-0.000000,0.044442,-0.003176,0.014359,0.042691,-0.000000,-0.031782,-0.039701,-0.053167,-0.000003,-0.017492,-0.000000,-0.064247,-0.000167,-0.011437,-0.016838,-0.054974,-0.048889,-0.016223,-0.009176,-0.000017,-0.025589,-0.016195,-0.000600,-0.048902,-0.002114,-0.000000,-0.002036,-0.024817,-0.028244,0.099463,-0.021296,-0.000000,-0.000274,-0.000778,-0.029805,-0.002027,0.008073,-0.021219,-0.022577,-0.030986,-0.011663,-0.000002,0.030214,-0.000382,-0.022753,-0.044475,-0.033901,-0.000000,-0.022842,0.078566,-0.022523,-0.000345,-0.000000,-0.000035,-0.025682,-0.006326,0.024587,-0.003540,-0.044778,-0.015079,-0.070306,-0.038145,0.000701,-0.007148,-0.032742,-0.000142,-0.000001,-0.000000,-0.032763,-0.039902,-0.000629,-0.002428,-0.000077,-0.000425,-0.022625,-0.065173,-0.000177,-0.000731,0.105737,-0.026578,-0.005195,-0.000000,-0.000044,-0.043580
48,-0.000610,-0.036301,-0.013995,-0.018574,-0.000000,-0.000001,-0.000000,-0.028972,-0.024530,-0.010926,-0.011838,-0.005091,0.017025,-0.049532,-0.000000,-0.000000,-0.037078,-0.001426,-0.023571,-0.008704,-0.000036,-0.000007,-0.014651,-0.036028,-0.004951,-0.000977,-0.000331,-0.000086,-0.006019,0.005328,-0.027203,-0.024288,-0.034588,-0.000143,-0.055155,-0.009942,-0.018720,-0.000001,-0.000003,-0.002170,-0.054132,-0.000000,0.045583,-0.003176,0.012406,0.042019,-0.000000,-0.031782,-0.041528,-0.056356,-0.000003,-0.017492,-0.000000,-0.064247,-0.000167,-0.011437,-0.021476,-0.054974,-0.048889,-0.016223,-0.009176,-0.000017,-0.025589,-0.016195,-0.000600,-0.049828,-0.002114,-0.000000,-0.002036,-0.024817,-0.028244,0.100449,-0.021296,-0.000000,-0.000274,-0.000778,-0.029805,-0.002027,0.010365,-0.021219,-0.022577,-0.031479,-0.011663,-0.000002,0.030886,-0.000382,-0.022753,-0.044475,-0.033901,-0.000000,-0.022842,0.077225,-0.022523,-0.000345,-0.000000,-0.000035,-0.025682,-0.006326,0.020909,-0.003540,-0.044778,-0.015079,-0.070306,-0.038145,0.002435,-0.007148,-0.034435,-0.000142,-0.000001,-0.000000,-0.032763,-0.039902,-0.000629,-0.002428,-0.000077,-0.000425,-0.022625,-0.065173,-0.000177,-0.000731,0.102965,-0.026578,-0.005195,-0.000000,-0.000044,-0.043580
49,-0.000610,-0.036301,-0.013995,-0.018574,-0.000000,-0.000001,-0.000000,-0.028972,-0.024530,-0.008636,-0.011838,-0.002433,0.019720,-0.049532,-0.000000,-0.000000,-0.037078,-0.001426,-0.023571,-0.008704,-0.000036,-0.000007,-0.014651,-0.036028,-0.004951,-0.000977,-0.000331,-0.000086,-0.006019,0.004846,-0.026349,-0.024288,-0.034588,-0.000143,-0.054925,-0.009942,-0.018720,-0.000001,-0.000003,-0.002170,-0.054132,-0.000000,0.045460,-0.003176,0.017337,0.040932,-0.000000,-0.031782,-0.041970,-0.056709,-0.000003,-0.017492,-0.000000,-0.064247,-0.000167,-0.011437,-0.022620,-0.054974,-0.048889,-0.016223,-0.009176,-0.000017,-0.025589,-0.016195,-0.000600,-0.051242,-0.002114,-0.000000,-0.002036,-0.024817,-0.028244,0.097360,-0.021296,-0.000000,-0.000274,-0.000778,-0.029805,-0.002027,0.012642,-0.021219,-0.022577,-0.034432,-0.011663,-0.000002,0.030284,-0.000382,-0.022753,-0.044475,-0.033901,-0.000000,-0.022842,0.078615,-0.022523,-0.000345,-0.000000,-0.000035,-0.025682,-0.006326,0.023210,-0.003540,-0.044778,-0.015079,-0.070306,-0.038145,0.003941,-0.007148,-0.034746,-0.000142,-0.000001,-0.000000,-0.032763,-0.039902,-0.000629,-0.002428,-0.000077,-0.000425,-0.022625,-0.065173,-0.000177,-0.000731,0.100167,-0.026578,-0.005195,-0.000000,-0.000044,-0.043580
50,-0.000610,-0.036301,-0.013995,-0.018574,-0.000000,-0.000001,-0.000000,-0.028972,-0.024530,-0.010302,-0.011838,-0.000131,0.021730,-0.049532,-0.000000,-0.000000,-0.037078,-0.001426,-0.023571,-0.008704,-0.000036,-0.000007,-0.014651,-0.036028,-0.004951,-0.000977,-0.000331,-0.000086,-0.006019,0.003929,-0.027874,-0.024288,-0.034588,-0.000143,-0.058345,-0.009942,-0.018720,-0.000001,-0.000003,-0.002170,-0.054132,-0.000000,0.048212,-0.003176,0.014852,0.041584,-0.000000,-0.031782,-0.041920,-0.055815,-0.000003,-0.017492,-0.000000,-0.064247,-0.000167,-0.011437,-0.025277,-0.054974,-0.048889,-0.016223,-0.009176,-0.000017,-0.025589,-0.016195,-0.000600,-0.051136,-0.002114,-0.000000,-0.002036,-0.024817,-0.028244,0.097467,-0.021296,-0.000000,-0.000274,-0.000778,-0.029805,-0.002027,0.017268,-0.021219,-0.022577,-0.034191,-0.011663,-0.000002,0.030972,-0.000382,-0.022753,-0.044475,-0.033901,-0.000000,-0.022842,0.079866,-0.022523,-0.000345,-0.000000,-0.000035,-0.025682,-0.006326,0.020700,-0.003540,-0.044778,-0.015079,-0.070306,-0.038145,0.003411,-0.007148,-0.036815,-0.000142,-0.000001,-0.000000,-0.032763,-0.039902,-0.000629,-0.002428,-0.000077,-0.000425,-0.022625,-0.065173,-0.000177,-0.000731,0.099707,-0.026578,-0.005195,-0.000000,-0.000044,-0.043580
51,-0.000610,-0.036301,-0.013995,-0.018574,-0.000000,-0.000001,-0.000000,-0.028972,-0.024530,-0.011514,-0.011838,0.000023,0.016843,-0.049532,-0.000000,-0.000000,-0.037078,-0.001426,-0.023571,-0.008704,-0.000036,-0.000007,-0.014651,-0.036028,-0.004951,-0.000977,-0.000331,-0.000086,-0.006019,0.005756,-0.029191,-0.024288,-0.034588,-0.000143,-0.058425,-0.009942,-0.018720,-0.000001,-0.000003,-0.002170,-0.054132,-0.000000,0.049541,-0.003176,0.012626,0.040416,-0.000000,-0.031782,-0.041098,-0.056974,-0.000003,-0.017492,-0.000000,-0.064247,-0.000167,-0.011437,-0.027848,-0.054974,-0.048889,-0.016223,-0.009176,-0.000017,-0.025589,-0.016195,-0.000600,-0.051361,-0.002114,-0.000000,-0.002036,-0.024817,-0.028244,0.097340,-0.021296,-0.000000,-0.000274,-0.000778,-0.029805,-0.002027,0.015074,-0.021219,-0.022577,-0.032786,-0.011663,-0.000002,0.031762,-0.000382,-0.022753,-0.044475,-0.033901,-0.000000,-0.022842,0.080515,-0.022523,-0.000345,-0.000000,-0.000035,-0.025682,-0.006326,0.021308,-0.003540,-0.044778,-0.015079,-0.070306,-0.038145,0.002690,-0.007148,-0.038235,-0.000142,-0.000001,-0.000000,-0.032763,-0.039902,-0.000629,-0.002428,-0.000077,-0.000425,-0.022625,-0.065173,-0.000177,-0.000731,0.098834,-0.026578,-0.005195,-0.000000,-0.000044,-0.043580
52,-0.000610,-0.036301,-0.013995,-0.018574,-0.000000,-0.000001,-0.000000,-0.028972,-0.024530,-0.013432,-0.011838,0.000532,0.020088,-0.049532,-0.000000,-0.000000,-0.037078,-0.001426,-0.023571,-0.008704,-0.000036,-0.000007,-0.014651,-0.036028,-0.004951,-0.000977,-0.000331,-0.000086,-0.006019,0.005568,-0.027552,-0.024288,-0.034588,-0.000143,-0.059316,-0.009942,-0.018720,-0.000001,-0.000003,-0.002170,-0.054132,-0.000000,0.046273,-0.003176,0.014881,0.039742,-0.000000,-0.031782,-0.038951,-0.054809,-0.000003,-0.017492,-0.000000,-0.064247,-0.000167,-0.011437,-0.025094,-0.054974,-0.048889,-0.016223,-0.009176,-0.000017,-0.025589,-0.016195,-0.000600,-0.049858,-0.002114,-0.000000,-0.002036,-0.024817,-0.028244,0.098342,-0.021296,-0.000000,-0.000274,-0.000778,-0.029805,-0.002027,0.015650,-0.021219,-0.022577,-0.031960,-0.011663,-0.000002,0.029224,-0.000382,-0.022753,-0.044475,-0.033901,-0.000000,-0.022842,0.077800,-0.022523,-0.000345,-0.000000,-0.000035,-0.025682,-0.006326,0.020959,-0.003540,-0.044778,-0.015079,-0.070306,-0.038145,0.004031,-0.007148,-0.037956,-0.000142,-0.000001,-0.000000,-0.032763,-0.039902,-0.000629,-0.002428,-0.000077,-0.000425,-0.022625,-0.065173,-0.000177,-0.000731,0.098975,-0.026578,-0.005195,-0.000000,-0.000044,-0.043580
53,-0.000610,-0.036301,-0.013995,-0.018574,-0.000000,-0.000001,-0.000000,-0.028972,-0.024530,-0.012837,-0.011838,-0.000269,0.016045,-0.049532,-0.000000,-0.000000,-0.037078,-0.001426,-0.023571,-0.008704,-0.000036,-0.000007,-0.014651,-0.036028,-0.004951,-0.000977,-0.000331,-0.000086,-0.006019,0.000444,-0.028371,-0.024288,-0.034588,-0.000143,-0.058856,-0.009942,-0.018720,-0.000001,-0.000003,-0.002170,-0.054132,-0.000000,0.050897,-0.003176,0.014111,0.040850,-0.000000,-0.031782,-0.037620,-0.056338,-0.000003,-0.017492,-0.000000,-0.064247,-0.000167,-0.011437,-0.028829,-0.054974,-0.048889,-0.016223,-0.009176,-0.000017,-0.025589,-0.016195,-0.000600,-0.051781,-0.002114,-0.000000,-0.002036,-0.024817,-0.028244,0.098733,-0.021296,-0.000000,-0.000274,-0.000778,-0.029805,-0.002027,0.011918,-0.021219,-0.022577,-0.033090,-0.011663,-0.000002,0.030474,-0.000382,-0.022753,-0.044475,-0.033901,-0.000000,-0.022842,0.079530,-0.022523,-0.000345,-0.000000,-0.000035,-0.025682,-0.006326,0.022045,-0.003540,-0.044778,-0.015079,-0.070306,-0.038145,0.003591,-0.007148,-0.039409,-0.000142,-0.000001,-0.000000,-0.032763,-0.039902,-0.000629,-0.002428,-0.000077,-0.000425,-0.022625,-0.065173,-0.000177,-0.000731,0.098878,-0.026578,-0.005195,-0.000000,-0.000044,-0.043580
54,-0.000610,-0.036301,-0.013995,-0.018574,-0.000000,-0.000001,-0.000000,-0.028972,-0.024530,-0.012222,-0.011838,-0.002694,0.015353,-0.049532,-0.000000,-0.000000,-0.037078,-0.001426,-0.023571,-0.008704,-0.000036,-0.000007,-0.014651,-0.036028,-0.004951,-0.000977,-0.000331,-0.000086,-0.006019,0.001123,-0.029209,-0.024288,-0.034588,-0.000143,-0.059815,-0.009942,-0.018720,-0.000001,-0.000003,-0.002170,-0.054132,-0.000000,0.053162,-0.003176,0.014421,0.040791,-0.000000,-0.031782,-0.041915,-0.055054,-0.000003,-0.017492,-0.000000,-0.064247,-0.000167,-0.011437,-0.027104,-0.054974,-0.048889,-0.016223,-0.009176,-0.000017,-0.025589,-0.016195,-0.000600,-0.050196,-0.002114,-0.000000,-0.002036,-0.024817,-0.028244,0.098234,-0.021296,-0.000000,-0.000274,-0.000778,-0.029805,-0.002027,0.013580,-0.021219,-0.022577,-0.033108,-0.011663,-0.000002,0.033223,-0.000382,-0.022753,-0.044475,-0.033901,-0.000000,-0.022842,0.080998,-0.022523,-0.000345,-0.000000,-0.000035,-0.025682,-0.006326,0.021741,-0.003540,-0.044778,-0.015079,-0.070306,-0.038145,0.003242,-0.007148,-0.042396,-0.000142,-0.000001,-0.000000,-0.032763,-0.039902,-0.000629,-0.002428,-0.000077,-0.000425,-0.022625,-0.065173,-0.000177,-0.000731,0.096683,-0.026578,-0.005195,-0.000000,-0.000044,-0.043580
55,-0.000610,-0.036301,-0.013995,-0.018574,-0.000000,-0.000001,-0.000000,-0.028972,-0.024530,-0.012744,-0.011838,-0.002436,0.013356,-0.049532,-0.000000,-0.000000,-0.037078,-0.001426,-0.023571,-0.008704,-0.000036,-0.000007,-0.014651,-0.036028,-0.004951,-0.000977,-0.000331,-0.000086,-0.006019,0.003268,-0.028107,-0.024288,-0.034588,-0.000143,-0.060284,-0.009942,-0.018720,-0.000001,-0.000003,-0.002170,-0.054132,-0.000000,0.053183,-0.003176,0.011835,0.041505,-0.000000,-0.031782,-0.042315,-0.053609,-0.000003,-0.017492,-0.000000,-0.064247,-0.000167,-0.011437,-0.027869,-0.054974,-0.048889,-0.016223,-0.009176,-0.000017,-0.025589,-0.016195,-0.000600,-0.052158,-0.002114,-0.000000,-0.002036,-0.024817,-0.028244,0.097892,-0.021296,-0.000000,-0.000274,-0.000778,-0.029805,-0.002027,0.014621,-0.021219,-0.022577,-0.032009,-0.011663,-0.000002,0.030840,-0.000382,-0.022753,-0.044475,-0.033901,-0.000000,-0.022842,0.080660,-0.022523,-0.000345,-0.000000,-0.000035,-0.025682,-0.006326,0.020713,-0.003540,-0.044778,-0.015079,-0.070306,-0.038145,0.008454,-0.007148,-0.043425,-0.000142,-0.000001,-0.000000,-0.032763,-0.039902,-0.000629,-0.002428,-0.000077,-0.000425,-0.022625,-0.065173,-0.000177,-0.000731,0.096807,-0.026578,-0.005195,-0.000000,-0.000044,-0.043580
56,-0.000610,-0.036301,-0.013995,-0.018574,-0.000000,-0.000001,-0.000000,-0.028972,-0.024530,-0.017072,-0.011838,0.002182,0.012733,-0.049532,-0.000000,-0.000000,-0.037078,-0.001426,-0.023571,-0.008704,-0.000036,-0.000007,-0.014651,-0.036028,-0.004951,-0.000977,-0.000331,-0.000086,-0.006019,0.001887,-0.033010,-0.024288,-0.034588,-0.000143,-0.063255,-0.009942,-0.018720,-0.000001,-0.000003,-0.002170,-0.054132,-0.000000,0.052348,-0.003176,0.010070,0.040232,-0.000000,-0.031782,-0.044768,-0.055631,-0.000003,-0.017492,-0.000000,-0.064247,-0.000167,-0.011437,-0.032257,-0.054974,-0.048889,-0.016223,-0.009176,-0.000017,-0.025589,-0.016195,-0.000600,-0.052467,-0.002114,-0.000000,-0.002036,-0.024817,-0.028244,0.098338,-0.021296,-0.000000,-0.000274,-0.000778,-0.029805,-0.002027,0.016060,-0.021219,-0.022577,-0.035707,-0.011663,-0.000002,0.028593,-0.000382,-0.022753,-0.044475,-0.033901,-0.000000,-0.022842,0.080374,-0.022523,-0.000345,-0.000000,-0.000035,-0.025682,-0.006326,0.018516,-0.003540,-0.044778,-0.015079,-0.070306,-0.038145,0.005315,-0.007148,-0.047854,-0.000142,-0.000001,-0.000000,-0.032763,-0.039902,-0.000629,-0.002428,-0.000077,-0.000425,-0.022625,-0.065173,-0.000177,-0.000731,0.096601,-0.026578,-0.005195,-0.000000,-0.000044,-0.043580
57,-0.000610,-0.036301,-0.013995,-0.018574,-0.000000,-0.000001,-0.000000,-0.028972,-0.024530,-0.013626,-0.011838,0.002785,0.014583,-0.049532,-0.000000,-0.000000,-0.037078,-0.001426,-0.023571,-0.008704,-0.000036,-0.000007,-0.014651,-0.036028,-0.004951,-0.000977,-0.000331,-0.000086,-0.006019,0.004878,-0.032041,-0.024288,-0.034588,-0.000143,-0.064022,-0.009942,-0.018720,-0.000001,-0.051093,-0.002170,-0.054132,-0.000000,0.051950,-0.003176,0.007092,0.041837,-0.000000,-0.031782,-0.044924,-0.055209,-0.000003,-0.017492,-0.000000,-0.064247,-0.000167,-0.011437,-0.032400,-0.054974,-0.048889,-0.016223,-0.009176,-0.000017,-0.025589,-0.016195,-0.000600,-0.053352,-0.002114,-0.000000,-0.002036,-0.024817,-0.028244,0.098122,-0.021296,-0.000000,-0.000274,-0.000778,-0.029805,-0.002027,0.015011,-0.021219,-0.022577,-0.036827,-0.011663,-0.000002,0.027339,-0.000382,-0.022753,-0.044475,-0.033901,-0.000000,-0.022842,0.080994,-0.022523,-0.000345,-0.000000,-0.000035,-0.025682,-0.006326,0.021823,-0.003540,-0.044778,-0.015079,-0.070306,-0.038145,0.007384,-0.007148,-0.047994,-0.000142,-0.000001,-0.000000,-0.032763,-0.039902,-0.000629,-0.002428,-0.000077,-0.000425,-0.022625,-0.065173,-0.000177,-0.000731,0.096095,-0.026578,-0.005195,-0.000000,-0.000044,-0.043580
58,-0.000610,-0.036301,-0.013995,-0.018574,-0.000000,-0.000001,-0.000000,-0.028972,-0.024530,-0.017008,-0.011838,-0.001679,0.012196,-0.049532,-0.000000,-0.000000,-0.037078,-0.001426,-0.023571,-0.008704,-0.000036,-0.000007,-0.014651,-0.036028,-0.004951,-0.000977,-0.000331,-0.000086,-0.006019,-0.000267,-0.029091,-0.024288,-0.034588,-0.000143,-0.064720,-0.009942,-0.018720,-0.000001,-0.051093,-0.002170,-0.054132,-0.000000,0.056083,-0.003176,0.004267,0.040866,-0.000000,-0.031782,-0.044166,-0.057834,-0.000003,-0.017492,-0.000000,-0.064247,-0.000167,-0.011437,-0.035454,-0.054974,-0.048889,-0.016223,-0.009176,-0.000017,-0.025589,-0.016195,-0.000600,-0.052765,-0.002114,-0.000000,-0.002036,-0.024817,-0.028244,0.100637,-0.021296,-0.000000,-0.000274,-0.000778,-0.029805,-0.002027,0.013647,-0.021219,-0.022577,-0.035478,-0.011663,-0.000002,0.030818,-0.000382,-0.022753,-0.044475,-0.033901,-0.000000,-0.022842,0.081895,-0.022523,-0.000345,-0.000000,-0.000035,-0.025682,-0.006326,0.018359,-0.003540,-0.044778,-0.015079,-0.070306,-0.038145,0.001637,-0.007148,-0.046991,-0.000142,-0.000001,-0.000000,-0.032763,-0.039902,-0.000629,-0.002428,-0.000077,-0.000425,-0.022625,-0.065173,-0.000177,-0.000731,0.098592,-0.026578,-0.005195,-0.000000,-0.000044,-0.043580
59,-0.000610,-0.036301,-0.013995,-0.018574,-0.000000,-0.000001,-0.000000,-0.028972,-0.024530,-0.018754,-0.011838,0.003777,0.012176,-0.049532,-0.000000,-0.000000,-0.037078,-0.001426,-0.023571,-0.008704,-0.000036,-0.000007,-0.014651,-0.036028,-0.004951,-0.000977,-0.000331,-0.000086,-0.006019,-0.002394,-0.030186,-0.024288,-0.034588,-0.000143,-0.066484,-0.009942,-0.018720,-0.000001,-0.051093,-0.002170,-0.054132,-0.000000,0.056663,-0.003176,0.001615,0.041548,-0.000000,-0.031782,-0.044870,-0.058085,-0.000003,-0.017492,-0.000000,-0.064247,-0.000167,-0.011437,-0.035362,-0.054974,-0.048889,-0.016223,-0.009176,-0.000017,-0.025589,-0.016195,-0.000600,-0.054724,-0.002114,-0.000000,-0.002036,-0.024817,-0.028244,0.099088,-0.021296,-0.000000,-0.000274,-0.000778,-0.029805,-0.002027,0.015993,-0.021219,-0.022577,-0.029808,-0.011663,-0.000002,0.029760,-0.000382,-0.022753,-0.044475,-0.033901,-0.000000,-0.022842,0.083783,-0.022523,-0.000345,-0.000000,-0.000035,-0.025682,-0.006326,0.018966,-0.003540,-0.044778,-0.015079,-0.070306,-0.038145,0.004512,-0.007148,-0.051137,-0.000142,-0.000001,-0.000000,-0.032763,-0.039902,-0.000629,-0.002428,-0.000077,-0.000425,-0.022625,-0.065173,-0.000177,-0.000731,0.096910,-0.026578,-0.005195,-0.000000,-0.000044,-0.043580
60,-0.000610,-0.036301,-0.013995,-0.018574,-0.000000,-0.000001,-0.000000,-0.028972,-0.024530,-0.021082,-0.011838,-0.000316,0.011956,-0.049532,-0.000000,-0.000000,-0.037078,-0.001426,-0.023571,-0.008704,-0.000036,-0.000007,-0.014651,-0.036028,-0.004951,-0.000977,-0.000331,-0.000086,-0.006019,0.002406,-0.035878,-0.024288,-0.034588,-0.000143,-0.068191,-0.009942,-0.018720,-0.000001,-0.051093,-0.002170,-0.054132,-0.000000,0.054386,-0.003176,-0.000461,0.040844,-0.000000,-0.031782,-0.044748,-0.054384,-0.000003,-0.017492,-0.000000,-0.064247,-0.000167,-0.011437,-0.036008,-0.054974,-0.048889,-0.016223,-0.009176,-0.000017,-0.025589,-0.016195,-0.000600,-0.056843,-0.002114,-0.000000,-0.002036,-0.024817,-0.028244,0.100686,-0.021296,-0.000000,-0.000274,-0.000778,-0.029805,-0.002027,0.012963,-0.021219,-0.022577,-0.037789,-0.011663,-0.000002,0.029461,-0.000382,-0.022753,-0.044475,-0.033901,-0.000000,-0.022842,0.085942,-0.022523,-0.000345,-0.000000,-0.000035,-0.025682,-0.006326,0.018767,-0.003540,-0.044778,-0.015079,-0.070306,-0.038145,0.002208,-0.007148,-0.051103,-0.000142,-0.000001,-0.000000,-0.032763,-0.039902,-0.000629,-0.002428,-0.000077,-0.000425,-0.022625,-0.065173,-0.000177,-0.000731,0.098177,-0.026578,-0.005195,-0.000000,-0.000044,-0.043580
61,-0.000610,-0.036301,-0.013995,-0.018574,-0.000000,-0.000001,-0.000000,-0.028972,-0.024530,-0.019160,-0.011838,-0.001543,0.010047,-0.049532,-0.000000,-0.000000,-0.037078,-0.001426,-0.023571,-0.008704,-0.000036,-0.000007,-0.014651,-0.036028,-0.004951,-0.000977,-0.000331,-0.000086,-0.006019,-0.002083,-0.031244,-0.024288,-0.034588,-0.000143,-0.066450,-0.009942,-0.018720,-0.000001,-0.051093,-0.002170,-0.054132,-0.000000,0.054698,-0.003176,-0.000461,0.040552,-0.000000,-0.031782,-0.045848,-0.055507,-0.000003,-0.017492,-0.000000,-0.064247,-0.000167,-0.011437,-0.036138,-0.054974,-0.048889,-0.016223,-0.009176,-0.000017,-0.025589,-0.016195,-0.000600,-0.053945,-0.002114,-0.000000,-0.002036,-0.024817,-0.028244,0.099277,-0.021296,-0.000000,-0.000274,-0.000778,-0.029805,-0.002027,0.016811,-0.021219,-0.022577,-0.034842,-0.011663,-0.000002,0.029378,-0.000382,-0.022753,-0.044475,-0.033901,-0.000000,-0.022842,0.083548,-0.022523,-0.000345,-0.000000,-0.000035,-0.025682,-0.006326,0.016653,-0.003540,-0.044778,-0.015079,-0.070306,-0.038145,0.006434,-0.007148,-0.051660,-0.000142,-0.000001,-0.000000,-0.032763,-0.039902,-0.000629,-0.002428,-0.000077,-0.000425,-0.022625,-0.065173,-0.000177,-0.000731,0.094586,-0.026578,-0.005195,-0.000000,-0.000044,-0.043580
62,-0.000610,-0.036301,-0.013995,-0.018574,-0.000000,-0.000001,-0.000000,-0.028972,-0.024530,-0.020278,-0.011838,0.000111,0.010038,-0.049532,-0.000000,-0.000000,-0.037078,-0.001426,-0.023571,-0.008704,-0.000036,-0.000007,-0.014651,-0.036028,-0.004951,-0.000977,-0.000331,-0.000086,-0.006019,0.002095,-0.032717,-0.024288,-0.034588,-0.000143,-0.069023,-0.009942,-0.018720,-0.000001,-0.051093,-0.002170,-0.054132,-0.000000,0.054033,-0.003176,-0.000461,0.038690,-0.000000,-0.031782,-0.046288,-0.056055,-0.000003,-0.017492,-0.000000,-0.064247,-0.000167,-0.011437,-0.037539,-0.054974,-0.048889,-0.016223,-0.009176,-0.000017,-0.025589,-0.016195,-0.000600,-0.055172,-0.002114,-0.000000,-0.002036,-0.024817,-0.028244,0.099000,-0.021296,-0.000000,-0.000274,-0.000778,-0.029805,-0.002027,0.010879,-0.021219,-0.022577,-0.038300,-0.011663,-0.000002,0.026903,-0.000382,-0.022753,-0.044475,-0.033901,-0.000000,-0.022842,0.082358,-0.022523,-0.000345,-0.000000,-0.000035,-0.025682,-0.006326,0.016709,-0.003540,-0.044778,-0.015079,-0.070306,-0.038145,0.004899,-0.007148,-0.052348,-0.000142,-0.000001,-0.000000,-0.032763,-0.039902,-0.000629,-0.002428,-0.000077,-0.000425,-0.022625,-0.065173,-0.000177,-0.000731,0.095605,-0.026578,-0.005195,-0.000000,-0.000044,-0.043580
63,-0.000610,-0.036301,-0.013995,-0.018574,-0.000000,-0.000001,-0.000000,-0.028972,-0.024530,-0.021621,-0.011838,0.002274,0.009255,-0.049532,-0.000000,-0.000000,-0.037078,-0.001426,-0.023571,-0.008704,-0.000036,-0.000007,-0.014651,-0.036028,-0.004951,-0.000977,-0.000331,-0.000086,-0.006019,-0.000526,-0.032772,-0.024288,-0.034588,-0.000143,-0.069175,-0.009942,-0.018720,-0.000001,-0.051093,-0.002170,-0.054132,-0.000000,0.051612,-0.003176,-0.000461,0.040226,-0.000000,-0.031782,-0.046152,-0.053604,-0.000003,-0.017492,-0.000000,-0.064247,-0.000167,-0.011437,-0.038683,-0.054974,-0.048889,-0.016223,-0.009176,-0.000017,-0.025589,-0.016195,-0.000600,-0.052849,-0.002114,-0.000000,-0.002036,-0.024817,-0.028244,0.097951,-0.021296,-0.000000,-0.000274,-0.000778,-0.029805,-0.002027,0.009385,-0.021219,-0.022577,-0.038511,-0.011663,-0.000002,0.026889,-0.000382,-0.022753,-0.044475,-0.033901,-0.000000,-0.022842,0.079364,-0.022523,-0.000345,-0.000000,-0.000035,-0.025682,-0.006326,0.018535,-0.003540,-0.044778,-0.015079,-0.070306,-0.038145,-0.001999,-0.007148,-0.054042,-0.000142,-0.000001,-0.000000,-0.032763,-0.039902,-0.000629,-0.002428,-0.000077,-0.000425,-0.022625,-0.065173,-0.000177,-0.000731,0.096003,-0.026578,-0.005195,-0.000000,-0.000044,-0.043580
64,-0.000610,-0.036301,-0.013995,-0.018574,-0.000000,-0.000001,-0.000000,-0.028972,-0.024530,-0.023148,-0.011838,0.002641,0.011079,-0.049532,-0.000000,-0.000000,-0.037078,-0.001426,-0.023571,-0.008704,-0.000036,-0.000007,-0.014651,-0.036028,-0.004951,-0.000977,-0.000331,-0.000086,-0.006019,-0.001736,-0.031329,-0.024288,-0.034588,-0.000143,-0.068709,-0.009942,-0.018720,-0.000001,-0.051093,-0.002170,-0.054132,-0.000000,0.054097,-0.003176,-0.000461,0.042765,-0.000000,-0.031782,-0.045259,-0.053555,-0.000003,-0.017492,-0.000000,-0.064247,-0.000167,-0.011437,-0.039726,-0.054974,-0.048889,-0.016223,-0.009176,-0.000017,-0.025589,-0.016195,-0.000600,-0.056183,-0.002114,-0.000000,-0.002036,-0.024817,-0.028244,0.100317,-0.021296,-0.000000,-0.000274,-0.000778,-0.029805,-0.002027,0.010090,-0.021219,-0.022577,-0.038574,-0.011663,-0.000002,0.025848,-0.000382,-0.022753,-0.044475,-0.033901,-0.000000,-0.022842,0.082499,-0.022523,-0.000345,-0.000000,-0.000035,-0.025682,-0.006326,0.014600,-0.003540,-0.044778,-0.015079,-0.070306,-0.038145,0.000443,-0.007148,-0.055110,-0.000142,-0.000001,-0.000000,-0.032763,-0.039902,-0.000629,-0.002428,-0.000077,-0.000425,-0.022625,-0.065173,-0.000177,-0.000731,0.097396,-0.026578,-0.005195,-0.000000,-0.000044,-0.043580
65,-0.000610,-0.036301,-0.013995,-0.018574,-0.000000,-0.000001,-0.000000,-0.028972,-0.024530,-0.023011,-0.011838,0.003071,0.011748,-0.049532,-0.000000,-0.000000,-0.037078,-0.001426,-0.023571,-0.008704,-0.000036,-0.000007,-0.014651,-0.036028,-0.004951,-0.000977,-0.000331,-0.000086,-0.006019,0.000840,-0.031200,-0.024288,-0.034588,-0.000143,-0.068188,-0.009942,-0.018720,-0.000001,-0.051093,-0.002170,-0.054132,-0.000000,0.056095,-0.003176,-0.000461,0.040419,-0.000000,-0.031782,-0.044997,-0.053903,-0.000003,-0.017492,-0.000000,-0.064247,-0.000167,-0.011437,-0.040722,-0.054974,-0.048889,-0.016223,-0.009176,-0.000017,-0.025589,-0.016195,-0.000600,-0.055778,-0.002114,-0.000000,-0.002036,-0.024817,-0.028244,0.097987,-0.021296,-0.000000,-0.000274,-0.000778,-0.029805,-0.002027,0.009090,-0.021219,-0.022577,-0.039912,-0.011663,-0.000002,0.026812,-0.000382,-0.022753,-0.044475,-0.033901,-0.000000,-0.022842,0.080957,-0.022523,-0.000345,-0.000000,-0.000035,-0.025682,-0.006326,0.016087,-0.003540,-0.044778,-0.015079,-0.070306,-0.038145,-0.001225,-0.007148,-0.056024,-0.000142,-0.000001,-0.000000,-0.032763,-0.039902,-0.000629,-0.002428,-0.000077,-0.000425,-0.022625,-0.065173,-0.000177,-0.000731,0.095099,-0.026578,-0.005195,-0.000000,-0.000044,-0.043580
66,-0.000610,-0.036301,-0.013995,-0.018574,-0.000000,-0.000001,-0.000000,-0.028972,-0.024530,-0.026106,-0.011838,0.003289,0.009972,-0.049532,-0.000000,-0.000000,-0.037078,-0.001426,-0.023571,-0.008704,-0.000036,-0.000007,-0.014651,-0.036028,-0.004951,-0.000977,-0.000331,-0.000086,-0.006019,-0.001895,-0.031881,-0.024288,-0.034588,-0.000143,-0.071221,-0.009942,-0.018720,-0.000001,-0.051093,-0.002170,-0.054132,-0.000000,0.053861,-0.003176,-0.000461,0.040183,-0.000000,-0.031782,-0.046064,-0.054140,-0.000003,-0.017492,-0.000000,-0.064247,-0.000167,-0.011437,-0.040343,-0.054974,-0.048889,-0.016223,-0.009176,-0.000017,-0.025589,-0.016195,-0.000600,-0.054035,-0.002114,-0.000000,-0.002036,-0.024817,-0.028244,0.097824,-0.021296,-0.000000,-0.000274,-0.000778,-0.029805,-0.002027,0.007413,-0.021219,-0.022577,-0.042087,-0.011663,-0.000002,0.027972,-0.000382,-0.022753,-0.044475,-0.033901,-0.000000,-0.022842,0.081628,-0.022523,-0.000345,-0.000000,-0.000035,-0.025682,-0.006326,0.014062,-0.003540,-0.044778,-0.015079,-0.070306,-0.038145,-0.004732,-0.007148,-0.055137,-0.000142,-0.000001,-0.000000,-0.032763,-0.039902,-0.000629,-0.002428,-0.000077,-0.000425,-0.022625,-0.065173,-0.000177,-0.000731,0.096143,-0.026578,-0.005195,-0.000000,-0.000044,-0.043580
67,-0.000610,-0.036301,-0.013995,-0.018574,-0.000000,-0.000001,-0.000000,-0.028972,-0.024530,-0.025601,-0.011838,0.003118,0.009465,-0.049532,-0.000000,-0.000000,-0.037078,-0.001426,-0.023571,-0.008704,-0.000036,-0.000007,-0.014651,-0.036028,-0.004951,-0.000977,-0.000331,-0.000086,-0.006019,-0.001909,-0.031141,-0.024288,-0.034588,-0.000143,-0.070500,-0.009942,-0.018720,-0.000001,-0.051093,-0.002170,-0.054132,-0.000000,0.053526,-0.003176,-0.000461,0.042244,-0.000000,-0.031782,-0.046763,-0.053687,-0.000003,-0.017492,-0.000000,-0.064247,-0.000167,-0.011437,-0.041961,-0.054974,-0.048889,-0.016223,-0.009176,-0.000017,-0.025589,-0.016195,-0.000600,-0.055598,-0.002114,-0.000000,-0.002036,-0.024817,-0.028244,0.098418,-0.021296,-0.000000,-0.000274,-0.000778,-0.029805,-0.002027,0.007715,-0.021219,-0.022577,-0.041736,-0.011663,-0.000002,0.027519,-0.000382,-0.022753,-0.044475,-0.033901,-0.000000,-0.022842,0.083674,-0.022523,-0.000345,-0.000000,-0.000035,-0.025682,-0.006326,0.015695,-0.003540,-0.044778,-0.015079,-0.070306,-0.038145,-0.001352,-0.007148,-0.055655,-0.000142,-0.000001,-0.000000,-0.032763,-0.039902,-0.000629,-0.002428,-0.000077,-0.000425,-0.022625,-0.065173,-0.000177,-0.000731,0.093612,-0.026578,-0.005195,-0.000000,-0.000044,-0.043580
68,-0.000610,-0.036301,-0.013995,-0.018574,-0.000000,-0.000001,-0.000000,-0.028972,-0.024530,-0.024315,-0.011838,0.004765,0.010083,-0.049532,-0.000000,-0.000000,-0.037078,-0.001426,-0.023571,-0.008704,-0.000036,-0.000007,-0.014651,-0.036028,-0.004951,-0.000977,-0.000331,-0.000086,-0.006019,-0.000508,-0.029734,-0.024288,-0.034588,-0.000143,-0.072704,-0.009942,-0.018720,-0.000001,-0.051093,-0.002170,-0.054132,-0.000000,0.055994,-0.003176,-0.000461,0.041228,-0.000000,-0.031782,-0.046070,-0.055835,-0.000003,-0.017492,-0.000000,-0.064247,-0.000167,-0.011437,-0.041098,-0.054974,-0.048889,-0.016223,-0.009176,-0.000017,-0.025589,-0.016195,-0.000600,-0.051557,-0.002114,-0.000000,-0.002036,-0.024817,-0.028244,0.100185,-0.021296,-0.000000,-0.000274,-0.000778,-0.029805,-0.002027,0.009911,-0.021219,-0.022577,-0.043429,-0.011663,-0.000002,0.028286,-0.000382,-0.022753,-0.044475,-0.033901,-0.000000,-0.022842,0.083528,-0.022523,-0.000345,-0.000000,-0.000035,-0.025682,-0.006326,0.013588,-0.003540,-0.044778,-0.015079,-0.070306,-0.038145,-0.004516,-0.007148,-0.057707,-0.000142,-0.000001,-0.000000,-0.032763,-0.039902,-0.000629,-0.002428,-0.000077,-0.000425,-0.022625,-0.065173,-0.000177,-0.000731,0.094447,-0.026578,-0.005195,-0.000000,-0.000044,-0.043580
69,-0.000610,-0.036301,-0.013995,-0.018574,-0.000000,-0.000001,-0.000000,-0.028972,-0.024530,-0.024898,-0.011838,0.006427,0.007258,-0.049532,-0.000000,-0.000000,-0.037078,-0.001426,-0.023571,-0.008704,-0.000036,-0.000007,-0.014651,-0.036028,-0.004951,-0.000977,-0.000331,-0.000086,-0.006019,-0.000063,-0.031735,-0.024288,-0.034588,-0.000143,-0.073141,-0.009942,-0.018720,-0.000001,-0.051093,-0.002170,-0.054132,-0.000000,0.055528,-0.003176,-0.000461,0.038875,-0.000000,-0.031782,-0.045004,-0.057144,-0.000003,-0.017492,-0.000000,-0.064247,-0.000167,-0.011437,-0.044648,-0.054974,-0.048889,-0.016223,-0.009176,-0.000017,-0.025589,-0.016195,-0.000600,-0.056493,-0.002114,-0.000000,-0.002036,-0.024817,-0.028244,0.096250,-0.021296,-0.000000,-0.000274,-0.000778,-0.029805,-0.002027,0.009195,-0.021219,-0.022577,-0.040567,-0.011663,-0.000002,0.024084,-0.000382,-0.022753,-0.044475,-0.033901,-0.000000,-0.022842,0.083605,-0.022523,-0.000345,-0.000000,-0.000035,-0.025682,-0.006326,0.014924,-0.003540,-0.044778,-0.015079,-0.070306,-0.038145,-0.004748,-0.007148,-0.059746,-0.000142,-0.000001,-0.000000,-0.032763,-0.039902,-0.000629,-0.002428,-0.000077,-0.000425,-0.022625,-0.065173,-0.000177,-0.000731,0.092537,-0.026578,-0.005195,-0.000000,-0.054740,-0.043580
70,-0.000610,-0.036301,-0.013995,-0.018574,-0.000000,-0.000001,-0.000000,-0.028972,-0.024530,-0.023182,-0.011838,0.007798,0.013756,-0.049532,-0.000000,-0.000000,-0.037078,-0.001426,-0.023571,-0.008704,-0.000036,-0.000007,-0.014651,-0.036028,-0.004951,-0.000977,-0.000331,-0.000086,-0.006019,0.000631,-0.029671,-0.024288,-0.034588,-0.000143,-0.072470,-0.009942,-0.018720,-0.000001,-0.051093,-0.002170,-0.054132,-0.000000,0.055241,-0.003176,-0.000461,0.040933,-0.000000,-0.031782,-0.046106,-0.053003,-0.000003,-0.017492,-0.000000,-0.064247,-0.000167,-0.011437,-0.044179,-0.054974,-0.048889,-0.016223,-0.009176,-0.000017,-0.025589,-0.016195,-0.000600,-0.050919,-0.002114,-0.000000,-0.002036,-0.024817,-0.028244,0.095541,-0.021296,-0.000000,-0.000274,-0.000778,-0.029805,-0.002027,0.008487,-0.021219,-0.022577,-0.041484,-0.011663,-0.000002,0.027659,-0.000382,-0.022753,-0.044475,-0.033901,-0.000000,-0.022842,0.083402,-0.022523,-0.000345,-0.000000,-0.000035,-0.025682,-0.006326,0.016516,-0.003540,-0.044778,-0.015079,-0.070306,-0.038145,-0.005720,-0.007148,-0.059761,-0.000142,-0.000001,-0.000000,-0.032763,-0.039902,-0.000629,-0.002428,-0.000077,-0.000425,-0.022625,-0.065173,-0.000177,-0.000731,0.094515,-0.026578,-0.005195,-0.000000,-0.054753,-0.043580
71,-0.000610,-0.036301,-0.013995,-0.018574,-0.000000,-0.000001,-0.000000,-0.028972,-0.024530,-0.026083,-0.011838,0.004783,0.016962,-0.049532,-0.000000,-0.000000,-0.037078,-0.001426,-0.023571,-0.008704,-0.000036,-0.000007,-0.014651,-0.036028,-0.004951,-0.000977,-0.000331,-0.000086,-0.006019,0.000184,-0.030623,-0.024288,-0.034588,-0.000143,-0.072486,-0.009942,-0.018720,-0.000001,-0.051093,-0.002170,-0.054132,-0.000000,0.056368,-0.003176,-0.000461,0.039300,-0.000000,-0.031782,-0.046244,-0.055804,-0.000003,-0.017492,-0.000000,-0.064247,-0.000167,-0.011437,-0.045252,-0.054974,-0.048889,-0.016223,-0.009176,-0.000017,-0.025589,-0.016195,-0.000600,-0.055069,-0.002114,-0.000000,-0.002036,-0.024817,-0.028244,0.096856,-0.021296,-0.000000,-0.000274,-0.000778,-0.029805,-0.002027,0.004954,-0.021219,-0.022577,-0.040692,-0.011663,-0.000002,0.026184,-0.000382,-0.022753,-0.044475,-0.033901,-0.000000,-0.022842,0.085070,-0.022523,-0.000345,-0.000000,-0.000035,-0.025682,-0.006326,0.015561,-0.003540,-0.044778,-0.015079,-0.070306,-0.038145,-0.003055,-0.007148,-0.060818,-0.000142,-0.000001,-0.000000,-0.032763,-0.039902,-0.000629,-0.002428,-0.000077,-0.000425,-0.022625,-0.065173,-0.000177,-0.000731,0.092123,-0.026578,-0.005195,-0.000000,-0.054753,-0.043580
72,-0.000610,-0.036301,-0.013995,-0.018574,-0.000000,-0.000001,-0.000000,-0.028972,-0.024530,-0.026875,-0.011838,0.001535,0.012127,-0.049532,-0.000000,-0.000000,-0.037078,-0.001426,-0.023571,-0.008704,-0.000036,-0.000007,-0.014651,-0.036028,-0.004951,-0.000977,-0.000331,-0.000086,-0.006019,-0.001257,-0.032103,-0.024288,-0.034588,-0.000143,-0.072858,-0.009942,-0.018720,-0.000001,-0.051093,-0.002170,-0.054132,-0.000000,0.057395,-0.003176,-0.000461,0.040961,-0.000000,-0.031782,-0.046622,-0.055563,-0.000003,-0.017492,-0.000000,-0.064247,-0.000167,-0.011437,-0.044484,-0.054974,-0.048889,-0.016223,-0.009176,-0.000017,-0.025589,-0.016195,-0.000600,-0.054619,-0.002114,-0.000000,-0.002036,-0.024817,-0.028244,0.095209,-0.021296,-0.000000,-0.000274,-0.000778,-0.029805,-0.002027,0.003146,-0.021219,-0.022577,-0.040670,-0.011663,-0.000002,0.024641,-0.000382,-0.022753,-0.044475,-0.033901,-0.000000,-0.022842,0.082637,-0.022523,-0.000345,-0.000000,-0.000035,-0.025682,-0.006326,0.014377,-0.003540,-0.044778,-0.015079,-0.070306,-0.038145,-0.003509,-0.007148,-0.060227,-0.000142,-0.000001,-0.000000,-0.032763,-0.039902,-0.000629,-0.002428,-0.000077,-0.000425,-0.022625,-0.065173,-0.000177,-0.000731,0.090842,-0.026578,-0.005195,-0.000000,-0.054753,-0.043580
73,-0.000610,-0.036301,-0.013995,-0.018574,-0.000000,-0.000001,-0.000000,-0.028972,-0.024530,-0.028912,-0.011838,0.001182,0.008604,-0.049532,-0.000000,-0.000000,-0.037078,-0.001426,-0.023571,-0.008704,-0.000036,-0.000007,-0.014651,-0.036028,-0.004951,-0.000977,-0.000331,-0.000086,-0.006019,0.001671,-0.032739,-0.024288,-0.034588,-0.000143,-0.074329,-0.009942,-0.018720,-0.000001,-0.051093,-0.002170,-0.054132,-0.000000,0.053496,-0.003176,-0.000461,0.041417,-0.000000,-0.031782,-0.047095,-0.056038,-0.000003,-0.017492,-0.000000,-0.064247,-0.000167,-0.011437,-0.048771,-0.054974,-0.048889,-0.016223,-0.009176,-0.000017,-0.025589,-0.016195,-0.000600,-0.054625,-0.002114,-0.000000,-0.002036,-0.024817,-0.028244,0.096499,-0.021296,-0.000000,-0.000274,-0.000778,-0.029805,-0.002027,0.001810,-0.021219,-0.022577,-0.043044,-0.011663,-0.000002,0.026278,-0.000382,-0.022753,-0.044475,-0.033901,-0.000000,-0.022842,0.085326,-0.022523,-0.000345,-0.000000,-0.000035,-0.025682,-0.006326,0.015653,-0.003540,-0.044778,-0.015079,-0.070306,-0.038145,-0.004586,-0.007148,-0.060168,-0.000142,-0.000001,-0.000000,-0.032763,-0.039902,-0.000629,-0.002428,-0.000077,-0.000425,-0.022625,-0.065173,-0.000177,-0.000731,0.089920,-0.026578,-0.005195,-0.000000,-0.054753,-0.043580
74,-0.000610,-0.036301,-0.013995,-0.018574,-0.000000,-0.000001,-0.000000,-0.028972,-0.024530,-0.027913,-0.011838,0.004974,0.013187,-0.049532,-0.000000,-0.000000,-0.037078,-0.001426,-0.023571,-0.008704,-0.000036,-0.000007,-0.014651,-0.036028,-0.004951,-0.000977,-0.000331,-0.000086,-0.006019,0.003665,-0.030823,-0.024288,-0.034588,-0.000143,-0.075907,-0.009942,-0.018720,-0.000001,-0.051093,-0.002170,-0.054132,-0.000000,0.056733,-0.003176,-0.000461,0.037601,-0.000000,-0.031782,-0.047794,-0.056982,-0.000003,-0.017492,-0.000000,-0.064247,-0.000167,-0.011437,-0.046852,-0.054974,-0.048889,-0.016223,-0.009176,-0.000017,-0.025589,-0.016195,-0.000600,-0.054022,-0.002114,-0.000000,-0.002036,-0.024817,-0.028244,0.099552,-0.021296,-0.000000,-0.000274,-0.000778,-0.029805,-0.002027,0.003774,-0.021219,-0.022577,-0.045984,-0.011663,-0.000002,0.026380,-0.000382,-0.022753,-0.044475,-0.033901,-0.000000,-0.022842,0.085172,-0.022523,-0.000345,-0.000000,-0.000035,-0.025682,-0.006326,0.012141,-0.003540,-0.044778,-0.015079,-0.070306,-0.038145,-0.003384,-0.007148,-0.062997,-0.000142,-0.000001,-0.000000,-0.032763,-0.039902,-0.000629,-0.002428,-0.000077,-0.000425,-0.022625,-0.065173,-0.000177,-0.000731,0.091123,-0.026578,-0.005195,-0.000000,-0.054753,-0.043580
75,-0.000610,-0.036301,-0.013995,-0.018574,-0.000000,-0.000001,-0.000000,-0.028972,-0.024530,-0.026746,-0.011838,0.009106,0.010743,-0.049532,-0.000000,-0.000000,-0.037078,-0.001426,-0.023571,-0.008704,-0.000036,-0.000007,-0.014651,-0.036028,-0.004951,-0.000977,-0.000331,-0.000086,-0.006019,0.005914,-0.029191,-0.024288,-0.034588,-0.000143,-0.077455,-0.009942,-0.018720,-0.000001,-0.051093,-0.002170,-0.054132,-0.000000,0.056085,-0.003176,-0.000461,0.040147,-0.000000,-0.031782,-0.044299,-0.055384,-0.000003,-0.017492,-0.000000,-0.064247,-0.000167,-0.011437,-0.047424,-0.054974,-0.048889,-0.016223,-0.009176,-0.000017,-0.025589,-0.016195,-0.000600,-0.054438,-0.002114,-0.000000,-0.002036,-0.024817,-0.028244,0.098515,-0.021296,-0.000000,-0.000274,-0.000778,-0.029805,-0.002027,0.005082,-0.021219,-0.022577,-0.045754,-0.011663,-0.000002,0.027238,-0.000382,-0.022753,-0.044475,-0.033901,-0.000000,-0.022842,0.083564,-0.022523,-0.000345,-0.000000,-0.000035,-0.025682,-0.006326,0.010697,-0.003540,-0.044778,-0.015079,-0.070306,-0.038145,-0.006547,-0.007148,-0.062801,-0.000142,-0.000001,-0.000000,-0.032763,-0.039902,-0.000629,-0.002428,-0.000077,-0.000425,-0.022625,-0.065173,-0.000177,-0.000731,0.091455,-0.026578,-0.005195,-0.000000,-0.054753,-0.043580
76,-0.000610,-0.036301,-0.013995,-0.018574,-0.000000,-0.000001,-0.000000,-0.028972,-0.024530,-0.028703,-0.011838,0.004034,0.007713,-0.049532,-0.000000,-0.000000,-0.037078,-0.001426,-0.023571,-0.008704,-0.000036,-0.000007,-0.014651,-0.036028,-0.004951,-0.000977,-0.000331,-0.000086,-0.006019,0.009476,-0.032117,-0.024288,-0.034588,-0.000143,-0.077627,-0.009942,-0.018720,-0.000001,-0.051093,-0.002170,-0.054132,-0.000000,0.056901,-0.003176,-0.000461,0.038124,-0.000000,-0.031782,-0.046190,-0.057144,-0.000003,-0.017492,-0.000000,-0.064247,-0.000167,-0.011437,-0.047414,-0.054974,-0.048889,-0.016223,-0.009176,-0.000017,-0.025589,-0.016195,-0.000600,-0.055008,-0.002114,-0.000000,-0.002036,-0.024817,-0.028244,0.097044,-0.021296,-0.000000,-0.000274,-0.000778,-0.029805,-0.002027,0.001672,-0.021219,-0.022577,-0.045213,-0.011663,-0.000002,0.024965,-0.000382,-0.022753,-0.044475,-0.033901,-0.000000,-0.022842,0.082369,-0.022523,-0.000345,-0.000000,-0.000035,-0.025682,-0.006326,0.010870,-0.003540,-0.044778,-0.015079,-0.070306,-0.038145,-0.006261,-0.007148,-0.062211,-0.000142,-0.000001,-0.000000,-0.032763,-0.039902,-0.000629,-0.002428,-0.000077,-0.000425,-0.022625,-0.065173,-0.000177,-0.000731,0.090129,-0.026578,-0.005195,-0.000000,-0.054753,-0.043580
77,-0.000610,-0.036301,-0.013995,-0.018574,-0.000000,-0.000001,-0.000000,-0.028972,-0.024530,-0.028719,-0.011838,0.005877,0.009907,-0.049532,-0.000000,-0.000000,-0.037078,-0.001426,-0.023571,-0.008704,-0.000036,-0.000007,-0.014651,-0.036028,-0.004951,-0.000977,-0.000331,-0.000086,-0.006019,0.006985,-0.031790,-0.024288,-0.034588,-0.000143,-0.076155,-0.009942,-0.018720,-0.000001,-0.051093,-0.002170,-0.054132,-0.000000,0.059462,-0.003176,-0.000461,0.037704,-0.000000,-0.031782,-0.048155,-0.057457,-0.000003,-0.017492,-0.000000,-0.064247,-0.000167,-0.011437,-0.048346,-0.054974,-0.048889,-0.016223,-0.009176,-0.000017,-0.025589,-0.016195,-0.000600,-0.055499,-0.002114,-0.000000,-0.002036,-0.024817,-0.028244,0.094576,-0.021296,-0.000000,-0.000274,-0.000778,-0.029805,-0.002027,0.004127,-0.021219,-0.022577,-0.047390,-0.011663,-0.000002,0.022442,-0.000382,-0.022753,-0.044475,-0.033901,-0.000000,-0.022842,0.083582,-0.022523,-0.000345,-0.000000,-0.000035,-0.025682,-0.006326,0.010982,-0.003540,-0.044778,-0.015079,-0.070306,-0.038145,-0.008648,-0.007148,-0.059923,-0.000142,-0.036890,-0.000000,-0.032763,-0.039902,-0.000629,-0.002428,-0.000077,-0.000425,-0.022625,-0.065173,-0.000177,-0.000731,0.089532,-0.026578,-0.005195,-0.000000,-0.054753,-0.043580
78,-0.000610,-0.036301,-0.013995,-0.018574,-0.000000,-0.000001,-0.000000,-0.028972,-0.024530,-0.029280,-0.011838,0.004975,0.008570,-0.049532,-0.000000,-0.000000,-0.037078,-0.001426,-0.023571,-0.008704,-0.000036,-0.000007,-0.014651,-0.036028,-0.004951,-0.000977,-0.000331,-0.000086,-0.006019,0.008674,-0.031286,-0.024288,-0.034588,-0.000143,-0.080677,-0.009942,-0.018720,-0.000001,-0.051093,-0.002170,-0.054132,-0.000000,0.056842,-0.003176,-0.000461,0.038660,-0.000000,-0.031782,-0.050764,-0.056980,-0.000003,-0.017492,-0.000000,-0.064247,-0.000167,-0.011437,-0.049173,-0.054974,-0.048889,-0.016223,-0.009176,-0.000017,-0.025589,-0.016195,-0.000600,-0.053079,-0.002114,-0.000000,-0.002036,-0.024817,-0.028244,0.093631,-0.021296,-0.000000,-0.000274,-0.000778,-0.029805,-0.002027,0.001797,-0.021219,-0.022577,-0.047364,-0.011663,-0.000002,0.024889,-0.000382,-0.022753,-0.044475,-0.033901,-0.000000,-0.022842,0.081469,-0.022523,-0.000345,-0.000000,-0.000035,-0.025682,-0.006326,0.012940,-0.003540,-0.044778,-0.015079,-0.070306,-0.038145,-0.009270,-0.007148,-0.063845,-0.000142,-0.036892,-0.000000,-0.032763,-0.039902,-0.000629,-0.002428,-0.000077,-0.000425,-0.022625,-0.065173,-0.000177,-0.000731,0.091096,-0.026578,-0.005195,-0.000000,-0.054753,-0.043580
