epoch_number,neuron1_connection1,neuron1_connection2,neuron1_connection3,neuron1_connection4,neuron1_connection5,neuron1_connection6,neuron1_connection7,neuron1_connection8,neuron1_connection9,neuron1_connection10,neuron1_connection11,neuron1_connection12,neuron1_connection13,neuron1_connection14,neuron1_connection15,neuron1_connection16,neuron1_connection17,neuron1_connection18,neuron1_connection19,neuron1_connection20,neuron1_connection21,neuron1_connection22,neuron1_connection23,neuron1_connection24,neuron1_connection25,neuron1_connection26,neuron1_connection27,neuron1_connection28,neuron1_connection29,neuron1_connection30,neuron1_connection31,neuron1_connection32
0,0.725447,0.952548,-0.659066,0.262048,0.279545,0.462835,-0.471416,0.105399,0.801358,-0.224159,0.661405,0.758796,-0.621686,0.824575,-0.688846,-0.589557,0.083077,-0.753728,-0.718628,0.691670,0.567120,0.365651,-0.477225,-0.701484,0.660305,-0.391279,-0.581980,-0.848727,-0.323222,-0.440087,-0.710692,-0.699072
1,1.068349,1.319517,-0.932460,0.262048,0.279545,0.700190,-0.695720,0.105399,1.096376,-0.224159,0.909501,1.005742,-0.832136,1.284699,-1.024275,-0.802662,0.083077,-0.993602,-1.011335,1.050492,0.896790,0.365651,-0.715309,-0.963611,0.926002,-0.583295,-0.889718,-1.097421,-0.323222,-0.611886,-0.937154,-0.962855
2,1.375062,1.620887,-1.150987,0.262048,0.279545,0.939187,-0.893580,0.105399,1.370005,-0.224159,1.141191,1.239673,-1.008992,1.626761,-1.265778,-0.989253,0.083077,-1.186171,-1.218253,1.348043,1.194286,0.365651,-0.891843,-1.172128,1.179278,-0.761481,-1.110108,-1.295374,-0.323222,-0.758675,-1.124192,-1.155157
3,1.661427,1.918825,-1.335608,0.262048,0.279545,1.187666,-1.071248,0.105399,1.645160,-0.224159,1.386131,1.495932,-1.187065,1.926882,-1.464685,-1.159095,0.083077,-1.367890,-1.412005,1.639761,1.501711,0.365651,-1.067133,-1.349190,1.438266,-0.942031,-1.320686,-1.490231,-0.323222,-0.919334,-1.323520,-1.346236
4,1.946003,2.217490,-1.527526,0.262048,0.279545,1.466868,-1.251675,0.105399,1.933704,-0.224159,1.642079,1.765793,-1.347707,2.218681,-1.645468,-1.341769,0.083077,-1.549304,-1.609714,1.934199,1.812370,0.365651,-1.231007,-1.536027,1.714718,-1.108181,-1.511126,-1.688763,-0.323222,-1.083524,-1.510394,-1.523244
5,2.239317,2.505534,-1.714263,0.262048,0.279545,1.764387,-1.451032,0.105399,2.231355,-0.224159,1.909243,2.043553,-1.524430,2.521098,-1.832210,-1.511391,0.083077,-1.721754,-1.780900,2.225556,2.104842,0.365651,-1.411810,-1.726853,1.991289,-1.277637,-1.695742,-1.875343,-0.323222,-1.269514,-1.700271,-1.710584
6,2.541866,2.804832,-1.898691,0.262048,0.279545,2.079762,-1.632088,0.105399,2.506956,-0.224159,2.190536,2.323465,-1.715509,2.817662,-2.010084,-1.694964,0.083077,-1.899626,-1.976068,2.539565,2.416637,0.365651,-1.598931,-1.909712,2.296854,-1.462908,-1.884927,-2.062711,-0.323222,-1.461119,-1.893754,-1.891212
7,2.846723,3.093087,-2.105446,0.262048,0.279545,2.374086,-1.809447,0.105399,2.808341,-0.224159,2.499820,2.638933,-1.917478,3.114897,-2.197296,-1.872505,0.083077,-2.088221,-2.168524,2.846102,2.732633,0.365651,-1.795193,-2.115530,2.597172,-1.650589,-2.076327,-2.253831,-0.323222,-1.643095,-2.087999,-2.079346
8,3.159123,3.394667,-2.276351,0.262048,0.279545,2.666792,-2.004332,0.105399,3.111551,-0.224159,2.795383,2.942194,-2.111109,3.409122,-2.385829,-2.065952,0.083077,-2.280048,-2.363927,3.155250,3.025491,0.365651,-1.983899,-2.319230,2.904693,-1.832761,-2.265850,-2.458569,-0.323222,-1.827586,-2.271427,-2.281198
9,3.462120,3.686430,-2.476644,0.262048,0.279545,2.978316,-2.173667,0.105399,3.420753,-0.224159,3.107370,3.244563,-2.306948,3.712168,-2.581026,-2.241639,0.083077,-2.461261,-2.571242,3.469152,3.318689,0.365651,-2.183905,-2.500442,3.209549,-2.026088,-2.466650,-2.658964,-0.323222,-2.013440,-2.467580,-2.468611
10,3.781409,3.982717,-2.660621,0.262048,0.279545,3.311715,-2.367231,0.105399,3.728889,-0.224159,3.418724,3.546362,-2.507879,4.008975,-2.781539,-2.447315,0.083077,-2.633986,-2.782981,3.762701,3.621509,0.365651,-2.380007,-2.701494,3.526537,-2.228623,-2.675061,-2.868202,-0.323222,-2.181105,-2.661587,-2.663796
11,4.057227,4.257522,-2.843940,0.262048,0.279545,3.597204,-2.551836,0.105399,4.014686,-0.224159,3.725188,3.836224,-2.688909,4.304390,-2.960524,-2.612977,0.083077,-2.804432,-2.976968,4.048834,3.934429,0.365651,-2.568043,-2.889149,3.816769,-2.414840,-2.867536,-3.059485,-0.323222,-2.351661,-2.857237,-2.847909
12,4.330343,4.563208,-3.033116,0.262048,0.279545,3.895476,-2.737377,0.105399,4.316606,-0.224159,4.001843,4.130309,-2.878720,4.590461,-3.148223,-2.803057,0.083077,-2.991847,-3.170299,4.325487,4.232506,0.365651,-2.749118,-3.079257,4.113606,-2.582519,-3.048614,-3.242762,-0.323222,-2.527345,-3.052665,-3.035726
13,4.617977,4.851447,-3.235592,0.262048,0.279545,4.169614,-2.903576,0.105399,4.606312,-0.224159,4.294062,4.420904,-3.057118,4.890637,-3.348940,-2.985968,0.083077,-3.183640,-3.352848,4.624595,4.534388,0.365651,-2.918555,-3.277265,4.417089,-2.765015,-3.232457,-3.448484,-0.323222,-2.687791,-3.258408,-3.228523
14,4.889565,5.136792,-3.434001,0.262048,0.279545,4.458313,-3.092815,0.105399,4.885529,-0.224159,4.573699,4.699095,-3.253057,5.169730,-3.553784,-3.163342,0.083077,-3.386568,-3.568399,4.900813,4.805408,0.365651,-3.086966,-3.474256,4.699900,-2.936874,-3.431648,-3.633048,-0.323222,-2.849567,-3.457524,-3.423817
15,5.147651,5.410879,-3.601904,0.262048,0.279545,4.738186,-3.267934,0.105399,5.142321,-0.224159,4.859481,4.972250,-3.418074,5.435117,-3.730533,-3.338129,0.083077,-3.579440,-3.743502,5.162647,5.037345,0.365651,-3.257206,-3.646353,4.954897,-3.116128,-3.607346,-3.821842,-0.323222,-3.005144,-3.631505,-3.621237
16,5.401653,5.667909,-3.798783,0.262048,0.279545,5.000483,-3.445373,0.105399,5.418278,-0.224159,5.108897,5.239406,-3.599741,5.704094,-3.905750,-3.511139,0.083077,-3.761546,-3.929155,5.433766,5.335522,0.365651,-3.420231,-3.821292,5.222478,-3.294394,-3.780372,-4.013250,-0.323222,-3.183515,-3.826725,-3.786216
17,5.665923,5.938304,-3.987249,0.262048,0.279545,5.282090,-3.626419,0.105399,5.681583,-0.224159,5.389088,5.521189,-3.765126,5.972710,-4.081980,-3.676740,0.083077,-3.945622,-4.117996,5.715338,5.608854,0.365651,-3.587734,-3.991175,5.490763,-3.464389,-3.974082,-4.210047,-0.323222,-3.369173,-4.004855,-3.964118
18,5.959677,6.220356,-4.186790,0.262048,0.279545,5.553568,-3.822875,0.105399,5.943087,-0.224159,5.657462,5.788094,-3.941379,6.252212,-4.266479,-3.841887,0.083077,-4.127662,-4.313855,5.980106,5.871510,0.365651,-3.748697,-4.180029,5.770455,-3.646868,-4.179278,-4.387507,-0.323222,-3.526010,-4.184599,-4.144374
19,6.231513,6.479981,-4.366561,0.262048,0.279545,5.804224,-4.001814,0.105399,6.202590,-0.224159,5.920387,6.046268,-4.113164,6.513665,-4.443689,-4.011324,0.083077,-4.296597,-4.490132,6.240727,6.139100,0.365651,-3.917939,-4.361395,6.027670,-3.820493,-4.357563,-4.554117,-0.323222,-3.695274,-4.362442,-4.321782
20,6.499785,6.726989,-4.540151,0.262048,0.279545,6.053773,-4.188625,0.105399,6.454563,-0.224159,6.174358,6.324742,-4.297523,6.759610,-4.619390,-4.212622,0.083077,-4.474035,-4.643473,6.510823,6.383849,0.365651,-4.096745,-4.538453,6.300059,-3.989896,-4.538175,-4.728189,-0.323222,-3.868973,-4.547370,-4.508732
21,6.740425,6.992382,-4.715827,0.262048,0.279545,6.317008,-4.363753,0.105399,6.716058,-0.224159,6.442154,6.583755,-4.473032,7.037538,-4.791769,-4.378424,0.083077,-4.655510,-4.826454,6.776997,6.652289,0.365651,-4.260946,-4.709039,6.560013,-4.163456,-4.717349,-4.929276,-0.323222,-4.040560,-4.725524,-4.691257
22,6.999834,7.256712,-4.885458,0.262048,0.279545,6.582919,-4.519410,0.105399,6.968634,-0.224159,6.690810,6.833078,-4.657918,7.295815,-4.984551,-4.542390,0.083077,-4.839364,-5.007219,7.018133,6.905524,0.365651,-4.442919,-4.882742,6.809072,-4.323416,-4.886824,-5.095963,-0.323222,-4.190300,-4.903901,-4.868531
23,7.251606,7.490725,-5.067566,0.262048,0.279545,6.821341,-4.686453,0.105399,7.217083,-0.224159,6.940594,7.083551,-4.834108,7.552626,-5.146913,-4.712812,0.083077,-5.014795,-5.181404,7.275635,7.152481,0.365651,-4.615970,-5.053803,7.045706,-4.470001,-5.066543,-5.268921,-0.323222,-4.342714,-5.056684,-5.050592
24,7.486144,7.745208,-5.221485,0.262048,0.279545,7.052587,-4.842302,0.105399,7.446971,-0.224159,7.172389,7.316637,-5.005969,7.788697,-5.307116,-4.866118,0.083077,-5.163279,-5.327190,7.517730,7.388382,0.365651,-4.779001,-5.214447,7.297877,-4.622300,-5.238363,-5.439254,-0.323222,-4.493382,-5.200635,-5.217194
25,7.741691,7.981877,-5.397778,0.262048,0.279545,7.314749,-5.009162,0.105399,7.683838,-0.224159,7.418167,7.546340,-5.184607,8.046120,-5.489619,-5.029999,0.083077,-5.330094,-5.502446,7.762497,7.654298,0.365651,-4.939324,-5.376417,7.552440,-4.778555,-5.405784,-5.607039,-0.323222,-4.661045,-5.385363,-5.410218
26,7.992915,8.213342,-5.572964,0.262048,0.279545,7.555993,-5.165944,0.105399,7.929558,-0.224159,7.673227,7.792141,-5.357206,8.287877,-5.651760,-5.188682,0.083077,-5.490797,-5.667950,7.990919,7.896583,0.365651,-5.108528,-5.547816,7.811934,-4.940639,-5.564051,-5.766408,-0.323222,-4.830034,-5.558789,-5.582409
27,8.269212,8.459306,-5.748769,0.262048,0.279545,7.813734,-5.324681,0.105399,8.186086,-0.224159,7.933516,8.037869,-5.538602,8.535487,-5.819824,-5.352944,0.083077,-5.665889,-5.838085,8.228488,8.140802,0.365651,-5.273801,-5.717373,8.052546,-5.124541,-5.721493,-5.934540,-0.323222,-5.008437,-5.720895,-5.756113
28,8.497275,8.715896,-5.917425,0.262048,0.279545,8.062157,-5.487380,0.105399,8.415427,-0.224159,8.170834,8.298828,-5.707533,8.779589,-5.984931,-5.530816,0.083077,-5.843003,-6.009061,8.479726,8.368065,0.365651,-5.456773,-5.887365,8.295850,-5.283527,-5.906768,-6.099114,-0.323222,-5.169170,-5.873705,-5.941409
29,8.744851,8.958872,-6.087365,0.262048,0.279545,8.288601,-5.672430,0.105399,8.666733,-0.224159,8.412363,8.545627,-5.884234,9.010571,-6.150289,-5.704063,0.083077,-6.013704,-6.194240,8.728734,8.627209,0.365651,-5.623070,-6.047989,8.544670,-5.461193,-6.086180,-6.266657,-0.323222,-5.330430,-6.036038,-6.110293
30,8.973123,9.193434,-6.242447,0.262048,0.279545,8.530761,-5.840862,0.105399,8.893934,-0.224159,8.648220,8.779197,-6.038627,9.265612,-6.329461,-5.875380,0.083077,-6.183447,-6.357699,8.960702,8.853652,0.365651,-5.785029,-6.215048,8.782109,-5.601770,-6.247337,-6.432410,-0.323222,-5.497103,-6.203195,-6.293677
31,9.215739,9.427072,-6.413193,0.262048,0.279545,8.775295,-6.009233,0.105399,9.126881,-0.224159,8.894485,9.023080,-6.206652,9.491337,-6.486736,-6.042845,0.083077,-6.364866,-6.548876,9.204651,9.073977,0.365651,-5.940835,-6.382687,9.034423,-5.774823,-6.413766,-6.599962,-0.323222,-5.659854,-6.375310,-6.453238
32,9.461371,9.656813,-6.598068,0.262048,0.279545,9.011308,-6.165177,0.105399,9.359509,-0.224159,9.133214,9.262815,-6.365870,9.744508,-6.655034,-6.203210,0.083077,-6.544177,-6.710730,9.435159,9.313094,0.365651,-6.108054,-6.543092,9.277268,-5.929894,-6.574215,-6.769937,-0.323222,-5.816805,-6.543845,-6.616389
33,9.685844,9.909864,-6.758147,0.262048,0.279545,9.247866,-6.327004,0.105399,9.609264,-0.224159,9.373376,9.505580,-6.523133,10.002047,-6.816802,-6.372374,0.083077,-6.721281,-6.876606,9.661536,9.560565,0.365651,-6.257368,-6.704960,9.520575,-6.088269,-6.727576,-6.960658,-0.323222,-5.981143,-6.709193,-6.796940
34,9.919995,10.122856,-6.901473,0.262048,0.279545,9.484643,-6.482951,0.105399,9.826173,-0.224159,9.595535,9.739856,-6.668554,10.221827,-6.986739,-6.530169,0.083077,-6.884789,-7.035928,9.882985,9.780880,0.365651,-6.414361,-6.870255,9.739679,-6.235275,-6.888752,-7.106063,-0.323222,-6.140258,-6.856688,-6.961937
35,10.152429,10.369251,-7.060192,0.262048,0.279545,9.702073,-6.642691,0.105399,10.066421,-0.224159,9.813799,9.960745,-6.828796,10.430427,-7.146324,-6.677671,0.083077,-7.046663,-7.202594,10.102742,10.008410,0.365651,-6.580216,-7.039052,9.951180,-6.395867,-7.058328,-7.268659,-0.323222,-6.277295,-6.993835,-7.132854
36,10.365555,10.568021,-7.214927,0.262048,0.279545,9.918291,-6.800936,0.105399,10.275810,-0.224159,10.034794,10.162325,-6.981179,10.650083,-7.309587,-6.822413,0.083077,-7.199544,-7.362605,10.328795,10.236584,0.365651,-6.735829,-7.205781,10.173616,-6.549147,-7.228770,-7.434414,-0.323222,-6.433989,-7.161245,-7.299412
37,10.600578,10.814648,-7.389194,0.262048,0.279545,10.132661,-6.958239,0.105399,10.517662,-0.224159,10.264202,10.394554,-7.127707,10.875088,-7.485518,-6.975131,0.083077,-7.370665,-7.525846,10.552195,10.440554,0.365651,-6.899107,-7.361366,10.400564,-6.710858,-7.386564,-7.590816,-0.323222,-6.575002,-7.321916,-7.452368
38,10.814048,11.041818,-7.548471,0.262048,0.279545,10.347817,-7.110403,0.105399,10.729144,-0.224159,10.486156,10.617973,-7.277801,11.102706,-7.642944,-7.134430,0.083077,-7.544652,-7.687965,10.783943,10.656581,0.365651,-7.052999,-7.521974,10.612857,-6.867716,-7.546221,-7.733914,-0.323222,-6.735568,-7.468070,-7.594446
39,11.032784,11.235752,-7.708652,0.262048,0.279545,10.562646,-7.275054,0.105399,10.952350,-0.224159,10.699479,10.838557,-7.430525,11.313250,-7.802091,-7.288453,0.083077,-7.678996,-7.842082,11.001803,10.874984,0.365651,-7.210179,-7.678012,10.827165,-7.011125,-7.704731,-7.879407,-0.323222,-6.873836,-7.624346,-7.745122
40,11.258980,11.461761,-7.855172,0.262048,0.279545,10.766452,-7.415141,0.105399,11.163004,-0.224159,10.906216,11.054655,-7.575426,11.534272,-7.952702,-7.433850,0.083077,-7.832187,-8.005095,11.210683,11.085275,0.365651,-7.346280,-7.828445,11.031725,-7.159452,-7.867073,-8.038638,-0.323222,-7.011673,-7.764318,-7.872686
41,11.473873,11.689882,-8.007497,0.262048,0.279545,10.986290,-7.554242,0.105399,11.379971,-0.224159,11.128435,11.260137,-7.739399,11.750834,-8.104794,-7.581028,0.083077,-7.992194,-8.149240,11.422903,11.296518,0.365651,-7.494953,-7.986315,11.262918,-7.322779,-8.033512,-8.188324,-0.323222,-7.165290,-7.928913,-8.025022
42,11.663548,11.891752,-8.133406,0.262048,0.279545,11.176223,-7.695686,0.105399,11.581031,-0.224159,11.316987,11.458911,-7.883965,11.935550,-8.253869,-7.725765,0.083077,-8.140560,-8.294796,11.618435,11.497101,0.365651,-7.646963,-8.133540,11.457967,-7.473271,-8.190351,-8.340032,-0.323222,-7.310285,-8.070203,-8.157913
43,11.879474,12.065677,-8.276930,0.262048,0.279545,11.363027,-7.829617,0.105399,11.786903,-0.224159,11.510346,11.659369,-8.011144,12.109567,-8.394687,-7.861856,0.083077,-8.287582,-8.429370,11.816645,11.687304,0.365651,-7.784440,-8.277431,11.639737,-7.603537,-8.316791,-8.476564,-0.323222,-7.437151,-8.190066,-8.294692
44,12.074089,12.279655,-8.434205,0.262048,0.279545,11.576139,-7.996970,0.105399,11.987815,-0.224159,11.725595,11.872523,-8.162759,12.334691,-8.538116,-8.010867,0.083077,-8.429438,-8.587582,12.029026,11.885608,0.365651,-7.931898,-8.421968,11.840775,-7.748394,-8.449691,-8.624614,-0.323222,-7.571833,-8.340903,-8.458227
45,12.283147,12.494617,-8.573694,0.262048,0.279545,11.796899,-8.164725,0.105399,12.179020,-0.224159,11.937065,12.067493,-8.303142,12.539284,-8.674316,-8.157279,0.083077,-8.568159,-8.733868,12.236753,12.089767,0.365651,-8.086928,-8.565651,12.059186,-7.896059,-8.601560,-8.769041,-0.323222,-7.710588,-8.484551,-8.601413
46,12.485930,12.698726,-8.707166,0.262048,0.279545,12.005653,-8.297491,0.105399,12.396389,-0.224159,12.172198,12.261369,-8.453203,12.739534,-8.823581,-8.287916,0.083077,-8.718927,-8.882372,12.437016,12.303515,0.365651,-8.241021,-8.709426,12.247134,-8.041479,-8.752913,-8.923960,-0.323222,-7.860570,-8.626740,-8.756819
47,12.680557,12.886161,-8.861950,0.262048,0.279545,12.218642,-8.447104,0.105399,12.597744,-0.224159,12.371773,12.457382,-8.605325,12.942036,-8.971383,-8.432405,0.083077,-8.870730,-9.030895,12.624711,12.514282,0.365651,-8.364281,-8.873034,12.462388,-8.192941,-8.901664,-9.070535,-0.323222,-7.998623,-8.775236,-8.910018
48,12.865660,13.087088,-9.008196,0.262048,0.279545,12.417336,-8.592373,0.105399,12.800389,-0.224159,12.581955,12.667506,-8.759079,13.167406,-9.118198,-8.569732,0.083077,-9.017130,-9.170153,12.827318,12.717590,0.365651,-8.500917,-9.026286,12.659010,-8.306110,-9.044231,-9.230710,-0.323222,-8.158129,-8.925930,-9.050238
49,13.053948,13.286177,-9.153075,0.262048,0.279545,12.615124,-8.721320,0.105399,12.986184,-0.224159,12.755255,12.861052,-8.900487,13.352938,-9.261367,-8.708266,0.083077,-9.154595,-9.308875,13.042224,12.904212,0.365651,-8.638360,-9.180715,12.837700,-8.444633,-9.190273,-9.370591,-0.323222,-8.297451,-9.047204,-9.198301
50,13.264955,13.493798,-9.290774,0.262048,0.279545,12.800523,-8.863469,0.105399,13.175391,-0.224159,12.972492,13.048976,-9.058033,13.550262,-9.409627,-8.854012,0.083077,-9.321029,-9.449533,13.226993,13.092025,0.365651,-8.795099,-9.311279,13.035229,-8.609581,-9.349801,-9.519237,-0.323222,-8.445389,-9.192242,-9.339900
51,13.460563,13.687734,-9.436314,0.262048,0.279545,12.992160,-9.002457,0.105399,13.364936,-0.224159,13.185614,13.248967,-9.189119,13.755447,-9.549638,-8.983429,0.083077,-9.467853,-9.600789,13.424876,13.276862,0.365651,-8.927746,-9.445899,13.241875,-8.731230,-9.486406,-9.670163,-0.323222,-8.579648,-9.337641,-9.492944
52,13.678595,13.884349,-9.576385,0.262048,0.279545,13.189392,-9.142151,0.105399,13.552617,-0.224159,13.377556,13.449411,-9.335480,13.945347,-9.694267,-9.128556,0.083077,-9.591925,-9.763158,13.613291,13.481714,0.365651,-9.069637,-9.596479,13.435072,-8.860475,-9.616402,-9.803474,-0.323222,-8.721637,-9.490672,-9.628775
53,13.886131,14.085283,-9.719597,0.262048,0.279545,13.392467,-9.282675,0.105399,13.752718,-0.224159,13.574566,13.637860,-9.473594,14.142138,-9.848542,-9.269001,0.083077,-9.734980,-9.908157,13.817703,13.675533,0.365651,-9.214892,-9.741844,13.638583,-8.994582,-9.759979,-9.944180,-0.323222,-8.857925,-9.627569,-9.763764
54,14.061991,14.287731,-9.844631,0.262048,0.279545,13.596914,-9.420309,0.105399,13.962725,-0.224159,13.770502,13.832268,-9.610959,14.340603,-9.993377,-9.409990,0.083077,-9.881927,-10.049763,14.021653,13.869452,0.365651,-9.351482,-9.860972,13.833806,-9.142155,-9.911474,-10.089431,-0.323222,-9.010260,-9.765751,-9.906733
55,14.254913,14.469994,-9.982398,0.262048,0.279545,13.780483,-9.574330,0.105399,14.165611,-0.224159,13.961928,14.037065,-9.754829,14.534616,-10.132835,-9.551588,0.083077,-10.026984,-10.182028,14.211660,14.063108,0.365651,-9.484618,-10.005360,14.042396,-9.265203,-10.046948,-10.236270,-0.323222,-9.154232,-9.923792,-10.047095
56,14.447007,14.640613,-10.113219,0.262048,0.279545,13.951223,-9.701685,0.105399,14.343140,-0.224159,14.141709,14.213611,-9.876566,14.709993,-10.270894,-9.675706,0.083077,-10.142003,-10.309478,14.390261,14.249508,0.365651,-9.607926,-10.142591,14.223330,-9.391364,-10.195101,-10.352770,-0.323222,-9.270689,-10.053679,-10.187246
57,14.634207,14.840348,-10.253983,0.262048,0.279545,14.142200,-9.818830,0.105399,14.512187,-0.224159,14.316157,14.394631,-10.011718,14.885401,-10.395887,-9.797425,0.083077,-10.273053,-10.454236,14.547782,14.430394,0.365651,-9.733939,-10.278973,14.410375,-9.514981,-10.333489,-10.491510,-0.323222,-9.395347,-10.181510,-10.334336
58,14.831080,15.017321,-10.407218,0.262048,0.279545,14.332372,-9.954961,0.105399,14.687609,-0.224159,14.513505,14.569271,-10.156981,15.072803,-10.544857,-9.922076,0.083077,-10.415685,-10.601746,14.742066,14.600975,0.365651,-9.873677,-10.421296,14.602383,-9.641684,-10.456228,-10.639132,-0.323222,-9.529409,-10.314785,-10.474131
59,15.010571,15.206806,-10.539534,0.262048,0.279545,14.521502,-10.081062,0.105399,14.865769,-0.224159,14.692533,14.758327,-10.300608,15.271838,-10.660361,-10.068132,0.083077,-10.549864,-10.733665,14.923082,14.779368,0.365651,-9.999640,-10.561746,14.773134,-9.763276,-10.604533,-10.776306,-0.323222,-9.674697,-10.464667,-10.601826
60,15.185125,15.406805,-10.673950,0.262048,0.279545,14.720631,-10.228431,0.105399,15.055996,-0.224159,14.872183,14.936306,-10.431712,15.447425,-10.799045,-10.195769,0.083077,-10.686703,-10.862208,15.118137,14.958645,0.365651,-10.136860,-10.697587,14.958087,-9.909123,-10.744286,-10.913059,-0.323222,-9.812659,-10.595887,-10.738052
61,15.364173,15.588033,-10.806580,0.262048,0.279545,14.901593,-10.353030,0.105399,15.237659,-0.224159,15.050545,15.134162,-10.565392,15.618344,-10.940616,-10.329499,0.083077,-10.815654,-10.986681,15.291115,15.143914,0.365651,-10.276086,-10.828167,15.150840,-10.043088,-10.878573,-11.028913,-0.323222,-9.931334,-10.726810,-10.883387
62,15.539597,15.761108,-10.931439,0.262048,0.279545,15.060600,-10.470841,0.105399,15.404085,-0.224159,15.230597,15.313550,-10.669207,15.777741,-11.060662,-10.462068,0.083077,-10.949300,-11.116963,15.451907,15.321100,0.365651,-10.391232,-10.945513,15.312178,-10.171933,-10.991858,-11.164925,-0.323222,-10.038877,-10.853582,-10.998893
63,15.716370,15.947645,-11.071952,0.262048,0.279545,15.242400,-10.607313,0.105399,15.594839,-0.224159,15.405794,15.494429,-10.809472,15.968773,-11.194378,-10.599832,0.083077,-11.083737,-11.247936,15.648777,15.499236,0.365651,-10.524628,-11.053749,15.494194,-10.311708,-11.120408,-11.295828,-0.323222,-10.184383,-10.975016,-11.121261
64,15.918829,16.126471,-11.195839,0.262048,0.279545,15.425155,-10.736077,0.105399,15.768565,-0.224159,15.592223,15.667448,-10.949674,16.147915,-11.324525,-10.727333,0.083077,-11.211943,-11.383489,15.817908,15.680134,0.365651,-10.657991,-11.178082,15.665751,-10.441875,-11.254921,-11.431529,-0.323222,-10.300014,-11.116432,-11.256235
65,16.072613,16.311525,-11.312027,0.262048,0.279545,15.586270,-10.849733,0.105399,15.941876,-0.224159,15.756903,15.816998,-11.070127,16.313536,-11.442603,-10.843225,0.083077,-11.319176,-11.489086,15.980917,15.853601,0.365651,-10.778569,-11.306931,15.834374,-10.542064,-11.380678,-11.554122,-0.323222,-10.419740,-11.235508,-11.379496
66,16.243231,16.465849,-11.430892,0.262048,0.279545,15.751667,-10.965258,0.105399,16.105982,-0.224159,15.912076,15.989385,-11.209256,16.471113,-11.561984,-10.955644,0.083077,-11.441397,-11.598411,16.150812,16.013838,0.365651,-10.885473,-11.436703,15.988674,-10.651905,-11.495411,-11.671353,-0.323222,-10.526710,-11.363073,-11.510292
67,16.401913,16.628479,-11.567501,0.262048,0.279545,15.923321,-11.085227,0.105399,16.269230,-0.224159,16.074156,16.158396,-11.321537,16.652718,-11.667149,-11.085405,0.083077,-11.564996,-11.726643,16.320421,16.199846,0.365651,-11.011612,-11.557446,16.152109,-10.768478,-11.618729,-11.780513,-0.323222,-10.654749,-11.476735,-11.626916
68,16.576954,16.813671,-11.688616,0.262048,0.279545,16.110004,-11.210014,0.105399,16.433928,-0.224159,16.241293,16.345676,-11.434585,16.826645,-11.800419,-11.209113,0.083077,-11.696647,-11.858236,16.500221,16.373114,0.365651,-11.140019,-11.692780,16.333248,-10.906517,-11.751138,-11.925571,-0.323222,-10.765928,-11.602311,-11.748910
69,16.746307,16.978836,-11.809187,0.262048,0.279545,16.268234,-11.339551,0.105399,16.628866,-0.224159,16.418985,16.538174,-11.551988,16.987728,-11.954881,-11.331511,0.083077,-11.827231,-11.987047,16.665976,16.536430,0.365651,-11.256650,-11.809573,16.494711,-11.030583,-11.888340,-12.052332,-0.323222,-10.878863,-11.745908,-11.883123
70,16.921524,17.156561,-11.930383,0.262048,0.279545,16.440439,-11.462996,0.105399,16.799078,-0.224159,16.606810,16.698805,-11.671905,17.153290,-12.059191,-11.459837,0.083077,-11.927437,-12.098745,16.840832,16.702463,0.365651,-11.368606,-11.917241,16.675571,-11.142512,-12.008008,-12.173150,-0.323222,-11.004930,-11.857403,-12.002272
71,17.088907,17.322458,-12.052876,0.262048,0.279545,16.608860,-11.597462,0.105399,16.982315,-0.224159,16.768547,16.883888,-11.793712,17.332634,-12.184571,-11.581742,0.083077,-12.061535,-12.229703,17.037388,16.863609,0.365651,-11.495072,-12.039385,16.848886,-11.265237,-12.129431,-12.296611,-0.323222,-11.118547,-11.969525,-12.133655
72,17.246368,17.474974,-12.178520,0.262048,0.279545,16.779572,-11.711507,0.105399,17.149401,-0.224159,16.935175,17.049843,-11.916572,17.487692,-12.302334,-11.703159,0.083077,-12.183066,-12.358188,17.201376,17.020683,0.365651,-11.609208,-12.154460,17.006567,-11.381458,-12.234288,-12.426792,-0.323222,-11.247555,-12.084952,-12.244120
73,17.406937,17.639158,-12.306772,0.262048,0.279545,16.936279,-11.835336,0.105399,17.303944,-0.224159,17.092014,17.211330,-12.041196,17.635881,-12.407470,-11.813023,0.083077,-12.295389,-12.480991,17.353100,17.186954,0.365651,-11.726972,-12.273294,17.158138,-11.496306,-12.353049,-12.547051,-0.323222,-11.359896,-12.205068,-12.357216
74,17.566645,17.810665,-12.404660,0.262048,0.279545,17.103600,-11.946797,0.105399,17.477823,-0.224159,17.258278,17.372965,-12.165568,17.806122,-12.526426,-11.927312,0.083077,-12.404567,-12.610447,17.511135,17.368715,0.365651,-11.842193,-12.386627,17.326118,-11.613986,-12.472184,-12.667166,-0.323222,-11.464837,-12.328753,-12.477075
75,17.733904,17.968428,-12.517482,0.262048,0.279545,17.281282,-12.057556,0.105399,17.633530,-0.224159,17.408754,17.529551,-12.286500,17.955917,-12.658953,-12.050137,0.083077,-12.520270,-12.712805,17.674328,17.541168,0.365651,-11.962325,-12.508950,17.498598,-11.734689,-12.595884,-12.784066,-0.323222,-11.586209,-12.448185,-12.590907
76,17.869701,18.123360,-12.619962,0.262048,0.279545,17.430590,-12.160373,0.105399,17.793308,-0.224159,17.563417,17.688881,-12.392270,18.103905,-12.770092,-12.153031,0.083077,-12.626495,-12.833645,17.819618,17.688236,0.365651,-12.045968,-12.614918,17.643166,-11.839505,-12.701640,-12.889327,-0.323222,-11.696721,-12.548744,-12.702754
77,18.047220,18.285416,-12.746110,0.262048,0.279545,17.593859,-12.283924,0.105399,17.960419,-0.224159,17.716263,17.855288,-12.497753,18.267809,-12.891468,-12.270309,0.083077,-12.767453,-12.943676,17.997942,17.850044,0.365651,-12.161821,-12.724854,17.804049,-11.956448,-12.819245,-12.996540,-0.323222,-11.815434,-12.652870,-12.828980
78,18.221132,18.450562,-12.866633,0.262048,0.279545,17.776686,-12.398817,0.105399,18.131285,-0.224159,17.875813,18.023924,-12.612923,18.429283,-13.021405,-12.368744,0.083077,-12.900526,-13.064057,18.162710,18.013510,0.365651,-12.271801,-12.852397,17.972916,-12.074575,-12.925981,-13.124952,-0.323222,-11.933355,-12.773750,-12.946873
79,18.375122,18.615095,-12.979157,0.262048,0.279545,17.925203,-12.515717,0.105399,18.284016,-0.224159,18.010365,18.191505,-12.723078,18.576546,-13.127200,-12.480104,0.083077,-13.009439,-13.173965,18.313906,18.174837,0.365651,-12.385963,-12.968482,18.107782,-12.182364,-13.047843,-13.224609,-0.323222,-12.037019,-12.885033,-13.072709
80,18.528919,18.771072,-13.085644,0.262048,0.279545,18.093311,-12.639141,0.105399,18.440348,-0.224159,18.165434,18.351530,-12.838570,18.731997,-13.247412,-12.604252,0.083077,-13.128531,-13.292853,18.466272,18.323214,0.365651,-12.497931,-13.079979,18.271660,-12.312040,-13.177680,-13.348033,-0.323222,-12.155509,-12.990608,-13.180253
81,18.679724,18.932560,-13.191791,0.262048,0.279545,18.259684,-12.744034,0.105399,18.594194,-0.224159,18.316860,18.508303,-12.960227,18.909832,-13.370449,-12.721713,0.083077,-13.234656,-13.416924,18.625858,18.485804,0.365651,-12.598047,-13.195934,18.431580,-12.407374,-13.276688,-13.458261,-0.323222,-12.264458,-13.108591,-13.289701
82,18.844847,19.088310,-13.297371,0.262048,0.279545,18.415344,-12.850411,0.105399,18.743685,-0.224159,18.461401,18.665113,-13.072194,19.052055,-13.474865,-12.829695,0.083077,-13.348657,-13.529398,18.776020,18.648197,0.365651,-12.710813,-13.312256,18.591890,-12.513305,-13.391170,-13.575289,-0.323222,-12.373189,-13.216243,-13.407103
83,19.020350,19.255001,-13.405519,0.262048,0.279545,18.568413,-12.975022,0.105399,18.907408,-0.224159,18.611273,18.814795,-13.187669,19.201731,-13.597001,-12.941751,0.083077,-13.481916,-13.648654,18.943903,18.799833,0.365651,-12.838063,-13.418915,18.748232,-12.626506,-13.499584,-13.696535,-0.323222,-12.485106,-13.343568,-13.526199
84,19.175001,19.405939,-13.514268,0.262048,0.279545,18.735384,-13.080434,0.105399,19.052570,-0.224159,18.749170,18.953520,-13.292963,19.371679,-13.719317,-13.049203,0.083077,-13.581574,-13.749552,19.093088,18.944130,0.365651,-12.953896,-13.528595,18.900469,-12.726259,-13.603009,-13.803863,-0.323222,-12.587129,-13.439412,-13.632967
85,19.325668,19.564678,-13.632285,0.262048,0.279545,18.902464,-13.190564,0.105399,19.202440,-0.224159,18.900335,19.119558,-13.397915,19.509966,-13.838059,-13.160053,0.083077,-13.696797,-13.862157,19.254080,19.106903,0.365651,-13.072679,-13.649939,19.062111,-12.850089,-13.721566,-13.919873,-0.323222,-12.703681,-13.555517,-13.758445
86,19.493568,19.712687,-13.759023,0.262048,0.279545,19.058922,-13.307244,0.105399,19.346016,-0.224159,19.054926,19.256277,-13.508929,19.662546,-13.940668,-13.270667,0.083077,-13.792842,-13.968740,19.412827,19.246162,0.365651,-13.179478,-13.768494,19.201773,-12.957396,-13.824449,-14.039237,-0.323222,-12.810339,-13.674327,-13.874231
87,19.613848,19.869789,-13.867764,0.262048,0.279545,19.210058,-13.418221,0.105399,19.493538,-0.224159,19.220430,19.409525,-13.617859,19.828283,-14.060460,-13.372584,0.083077,-13.908827,-14.071722,19.549505,19.400763,0.365651,-13.298966,-13.879164,19.337513,-13.076207,-13.941051,-14.136966,-0.323222,-12.914199,-13.776941,-13.985199
88,19.768522,20.016584,-13.969172,0.262048,0.279545,19.357481,-13.527726,0.105399,19.655458,-0.224159,19.377991,19.551697,-13.721447,19.968018,-14.164880,-13.479408,0.083077,-14.020814,-14.174948,19.690756,19.543724,0.365651,-13.401218,-13.982368,19.481203,-13.185472,-14.040591,-14.245907,-0.323222,-13.029753,-13.879704,-14.100529
89,19.936312,20.162539,-14.078860,0.262048,0.279545,19.496370,-13.618509,0.105399,19.805384,-0.224159,19.529554,19.700521,-13.824341,20.125498,-14.284918,-13.601455,0.083077,-14.122983,-14.294185,19.835201,19.700737,0.365651,-13.513196,-14.089828,19.642288,-13.285020,-14.152706,-14.357884,-0.323222,-13.144449,-13.987688,-14.203359
90,20.103783,20.326105,-14.194896,0.262048,0.279545,19.661211,-13.745403,0.105399,19.947010,-0.224159,19.679304,19.850016,-13.953024,20.264084,-14.392391,-13.711714,0.083077,-14.233905,-14.397761,19.980303,19.859510,0.365651,-13.627021,-14.196640,19.788208,-13.391914,-14.274338,-14.469843,-0.323222,-13.265109,-14.100464,-14.321897
91,20.265409,20.483925,-14.317810,0.262048,0.279545,19.819117,-13.854480,0.105399,20.085857,-0.224159,19.834156,20.013681,-14.054357,20.434116,-14.512133,-13.811588,0.083077,-14.343999,-14.513711,20.128294,20.011187,0.365651,-13.762108,-14.315543,19.948149,-13.508261,-14.381319,-14.570580,-0.323222,-13.371676,-14.210389,-14.440140
92,20.414988,20.624050,-14.413138,0.262048,0.279545,19.940308,-13.948201,0.105399,20.227942,-0.224159,19.973181,20.150938,-14.159569,20.577112,-14.621119,-13.900393,0.083077,-14.451070,-14.607547,20.280869,20.167480,0.365651,-13.858005,-14.418327,20.089172,-13.607560,-14.484745,-14.664706,-0.323222,-13.466728,-14.309609,-14.531168
93,20.586432,20.789576,-14.515569,0.262048,0.279545,20.090616,-14.073388,0.105399,20.392857,-0.224159,20.128504,20.299549,-14.283077,20.737814,-14.737131,-14.013553,0.083077,-14.568086,-14.716101,20.435612,20.329967,0.365651,-13.959157,-14.540107,20.258348,-13.726492,-14.605115,-14.782170,-0.323222,-13.571795,-14.432169,-14.643542
94,20.743330,20.945168,-14.628676,0.262048,0.279545,20.243690,-14.185474,0.105399,20.537071,-0.224159,20.299650,20.436443,-14.385939,20.890182,-14.848960,-14.124563,0.083077,-14.673147,-14.833869,20.581280,20.480373,0.365651,-14.057587,-14.640102,20.401445,-13.823452,-14.705632,-14.908154,-0.323222,-13.683873,-14.535858,-14.755469
95,20.904688,21.091221,-14.739121,0.262048,0.279545,20.402048,-14.283748,0.105399,20.684631,-0.224159,20.450157,20.590784,-14.490801,21.032749,-14.942088,-14.243602,0.083077,-14.791668,-14.945624,20.752089,20.626705,0.365651,-14.167898,-14.749435,20.552490,-13.941469,-14.819412,-15.009155,-0.323222,-13.793053,-14.647083,-14.863215
96,21.053236,21.235971,-14.852861,0.262048,0.279545,20.556393,-14.383220,0.105399,20.841017,-0.224159,20.610327,20.736067,-14.599625,21.193342,-15.058887,-14.351316,0.083077,-14.896609,-15.039978,20.912510,20.771492,0.365651,-14.267761,-14.864414,20.705240,-14.042222,-14.939809,-15.103622,-0.323222,-13.904874,-14.739444,-14.988817
97,21.199474,21.370453,-14.960007,0.262048,0.279545,20.692476,-14.486814,0.105399,20.971418,-0.224159,20.745266,20.884134,-14.706644,21.357275,-15.158420,-14.440805,0.083077,-15.011824,-15.159470,21.069445,20.911478,0.365651,-14.378146,-14.967631,20.861063,-14.153761,-15.046189,-15.213655,-0.323222,-14.013235,-14.848575,-15.099442
98,21.334373,21.537764,-15.070025,0.262048,0.279545,20.832296,-14.592474,0.105399,21.143478,-0.224159,20.876965,21.042013,-14.812197,21.516512,-15.277497,-14.550158,0.083077,-15.116195,-15.263580,21.219156,21.059366,0.365651,-14.480300,-15.072832,21.010612,-14.278271,-15.154969,-15.327662,-0.323222,-14.110502,-14.959697,-15.198668
99,21.467833,21.690779,-15.174129,0.262048,0.279545,20.971130,-14.707954,0.105399,21.281643,-0.224159,20.995899,21.187128,-14.916760,21.650499,-15.381502,-14.655172,0.083077,-15.212791,-15.368202,21.347029,21.196583,0.365651,-14.568226,-15.189026,21.154240,-14.368092,-15.244431,-15.425474,-0.323222,-14.214765,-15.066852,-15.294926
