epoch,mean,median,mode,std_dev,min,max,q1_25th,q3_75th,skewness,kurtosis
0,0.03431475396825397,0.0306665,-0.038145,0.049567151292133446,-0.038145,0.360469,0.0008175,0.05205799999999999,2.6207502878034985,13.53824882276399
1,0.02734687301587302,0.0306315,-0.0,0.038027790232304175,-0.038145,0.236595,0.0,0.04921425,1.3993606652397086,5.708914176498817
2,0.020593777777777777,0.0203045,-0.0,0.03089295207697028,-0.038145,0.088416,-0.0006075,0.043991749999999996,0.24606755226146226,-0.9144868764464578
3,0.01697395238095238,0.003535,-0.0,0.029918423785474667,-0.038145,0.08256,-0.00062425,0.04143925,0.3808193373784315,-0.8548157999472012
4,0.014182666666666668,0.0,-0.0,0.028805146465601627,-0.039264,0.081922,-0.00062425,0.03798775,0.4954325482283173,-0.6458324900745249
5,0.012141555555555555,0.0,-0.0,0.027767579890817733,-0.040331,0.077169,-0.00089,0.034866,0.5294333091381417,-0.5252755882750035
6,0.010242015873015875,0.0,-0.0,0.026555980216397893,-0.043193,0.076515,-0.00089,0.033272499999999997,0.5710701405925329,-0.33433652562027216
7,0.008462452380952381,0.0,-0.0,0.025554781570282993,-0.041544,0.072908,-0.00089,0.0281005,0.566462900523993,-0.23918563833787188
8,0.006923039682539684,-1e-06,-0.0,0.024370671835969575,-0.044431,0.071018,-0.002156,0.02542975,0.5438139338605535,-0.1138445579192755
9,0.0054721031746031755,-1e-06,-0.0,0.02311294099095266,-0.045971,0.070025,-0.002156,0.0195835,0.5559698596175504,0.13201960478410335
10,0.004564341269841271,-2.4999999999999998e-06,-0.0,0.02254453198624387,-0.046747,0.073578,-0.0023635,0.01743275,0.5989223519777177,0.4637094420990824
11,0.0031170396825396826,-4.9999999999999996e-06,-0.0,0.022008371654426814,-0.047823,0.078483,-0.002989,0.009225500000000001,0.6825034937474175,1.0586551017825228
12,0.0018783809523809521,-9e-06,-0.0,0.023098972715032067,-0.054132,0.081891,-0.00604325,0.00443,0.6199135348421152,1.08700605856275
13,0.0011746111111111109,-2.1000000000000002e-05,-0.0,0.022923374268564868,-0.054132,0.084739,-0.00624925,2.3250000000000003e-05,0.6918855212005387,1.5122626597014097
14,0.0010248174603174614,-2.9999999999999997e-05,-0.0,0.022901955247644077,-0.054132,0.086552,-0.00624925,-0.0,0.7225173164366819,1.6963794486493997
15,0.00016581746031746068,-2.9999999999999997e-05,-0.0,0.02255638527004729,-0.054132,0.088246,-0.0069425,-0.0,0.718326235204295,2.02283932132735
16,-0.00010911904761904762,-2.9999999999999997e-05,-0.0,0.022427938976284086,-0.054132,0.090559,-0.0090205,-0.0,0.8040508937550414,2.2879267569792674
17,-0.000731333333333333,-3.5499999999999996e-05,-0.0,0.022073313364533404,-0.054132,0.093692,-0.009058,-0.0,0.8697616342214805,3.0025930988119693
18,-0.0015395952380952381,-4.9e-05,-0.0,0.022048975850015813,-0.057496,0.094519,-0.011606499999999999,-0.0,0.9168659942186014,3.338468185254807
19,-0.0020228253968253957,-8.65e-05,-0.0,0.02223887436916736,-0.059155,0.094864,-0.011606499999999999,-0.0,0.9456907058779442,3.525260182118445
20,-0.003429738095238094,-0.000149,-0.0,0.022947666827895688,-0.065173,0.09567,-0.014487,-0.0,0.8321200065208603,3.605486756792983
21,-0.004118650793650793,-0.000172,-0.0,0.02389399233397033,-0.070306,0.099487,-0.015809,-0.0,0.7127081812625379,3.6933656996978117
22,-0.0045941269841269835,-0.00030250000000000003,-0.0,0.02370572466993431,-0.070306,0.099888,-0.016216,-0.0,0.7790578320002524,4.059970669997639
23,-0.006337103174603175,-0.000605,-0.0,0.024642024965696098,-0.070306,0.102962,-0.021276749999999997,-0.0,0.7595503418870859,3.992429852501388
24,-0.006423682539682539,-0.00068,-0.0,0.024871499712458795,-0.070306,0.103334,-0.021276749999999997,-1e-06,0.8084736393899461,4.024040122228375
25,-0.006630825396825396,-0.00068,-0.0,0.024898362250940068,-0.070306,0.102868,-0.021276749999999997,-1e-06,0.8107832013758622,4.016291999397787
26,-0.006740230158730157,-0.00068,-0.0,0.024927239955442982,-0.070306,0.105012,-0.021276749999999997,-1e-06,0.8491068107472667,4.2466259842767675
27,-0.00745784126984127,-0.0008775,-0.0,0.02461014297263498,-0.070306,0.101708,-0.02225675,-1e-06,0.8243059569991619,4.23230145931148
28,-0.007396301587301587,-0.0008775,-0.0,0.02461358276335909,-0.070306,0.100322,-0.02225675,-1e-06,0.8463469903555253,4.231360089971083
29,-0.007526722222222222,-0.0008775,-0.0,0.024618896349239246,-0.070306,0.102434,-0.02225675,-1e-06,0.9066393130283457,4.527206088499768
30,-0.008065746031746032,-0.0012014999999999999,-0.0,0.025073061311351702,-0.070306,0.103622,-0.022613,-1e-06,0.8956863303362278,4.477016974868625
31,-0.008122706349206348,-0.0012014999999999999,-0.0,0.025101353016422027,-0.070306,0.103909,-0.022613,-1e-06,0.9101331170722317,4.625528011269048
32,-0.008288380952380952,-0.0013785,-0.0,0.02502394738279275,-0.070306,0.102854,-0.022613,-1e-06,0.9617851795307799,4.66751685900352
33,-0.008432952380952381,-0.001731,-0.0,0.025210963250726425,-0.070306,0.103407,-0.02280925,-1.2499999999999999e-06,0.9738969183277754,4.766411098202871
34,-0.008882920634920634,-0.002142,-0.0,0.025170095418780725,-0.070306,0.103995,-0.023166,-3e-06,0.9831194703954612,4.935851753649625
35,-0.009414349206349206,-0.002299,-0.0,0.025561122581763882,-0.070306,0.103881,-0.02338875,-3e-06,0.9791980185894522,4.8118211409387275
36,-0.009429412698412697,-0.002299,-0.0,0.025387014833631257,-0.070306,0.103174,-0.02338875,-3e-06,1.0013431358493394,4.713938197765434
37,-0.00938692857142857,-0.002299,-0.0,0.025479587676443365,-0.070306,0.105659,-0.02281975,-2.25e-06,1.086117811730671,5.134247191586125
38,-0.00976635714285714,-0.003358,-0.0,0.025487246691475552,-0.070306,0.105033,-0.02356875,-3e-06,1.1210142097662958,5.029266980088538
39,-0.010262119047619048,-0.003358,-0.0,0.02558952645765641,-0.070306,0.105316,-0.02474525,-4e-06,1.1682380366960363,5.076718651749948
40,-0.010117896825396825,-0.003358,-0.0,0.025711934327976575,-0.070306,0.105604,-0.02474525,-3e-06,1.1400853185129831,4.8224497677283615
41,-0.01044309523809524,-0.003358,-0.0,0.025446030558134852,-0.070306,0.101751,-0.024743,-4e-06,1.1077134807166522,4.770000419028171
42,-0.010445420634920632,-0.00341,-0.0,0.025920633478490464,-0.070306,0.106753,-0.02478425,-3.5249999999999996e-05,1.2318700975377053,5.21345796840448
43,-0.010372857142857142,-0.0042455,-0.0,0.025907584412497877,-0.070306,0.103616,-0.024469499999999998,-4e-06,1.1985611018661702,4.963871733259752
44,-0.01069965079365079,-0.005072999999999999,-0.0,0.02568921659581363,-0.070306,0.102999,-0.02474525,-9.5e-06,1.1893117682997332,5.002269536162515
45,-0.0108991746031746,-0.005072999999999999,-0.0,0.026017108194929285,-0.070306,0.103485,-0.025396000000000002,-2.15e-05,1.2215301613419656,5.057680005545581
46,-0.010809571428571427,-0.005072999999999999,-0.0,0.0259093461936307,-0.070306,0.103951,-0.024808249999999997,-9.5e-06,1.1578507543016865,4.742530007609412
47,-0.010930579365079364,-0.0053895,-0.0,0.0260846690640347,-0.070306,0.105737,-0.025396000000000002,-9.5e-06,1.271586212217646,5.231775850281537
48,-0.011060603174603174,-0.005143,-0.0,0.02611266780613656,-0.070306,0.102965,-0.025396000000000002,-9.5e-06,1.2152563540435641,4.996259967997538
49,-0.011010333333333332,-0.005072999999999999,-0.0,0.02608128343321719,-0.070306,0.100167,-0.025396000000000002,-9.5e-06,1.1319644952215249,4.550299456139668
50,-0.011030650793650794,-0.005072999999999999,-0.0,0.026245523365315555,-0.070306,0.099707,-0.025511,-9.5e-06,1.1281756471745354,4.459007869613002
51,-0.011130619047619045,-0.005072999999999999,-0.0,0.026211375508457226,-0.070306,0.098834,-0.02565875,-4e-06,1.125923328326811,4.467041020200194
52,-0.011068388888888886,-0.005072999999999999,-0.0,0.026046055168200733,-0.070306,0.098975,-0.025465250000000002,-4e-06,1.122333960482175,4.536454400119498
53,-0.011171730158730157,-0.005072999999999999,-0.0,0.02620119966913326,-0.070306,0.098878,-0.02565875,-9.5e-06,1.14847555307129,4.575787712632983
54,-0.011181873015873015,-0.005072999999999999,-0.0,0.026267787725950984,-0.070306,0.098234,-0.02565875,-9.5e-06,1.129362846227612,4.399602455824385
55,-0.01118711111111111,-0.005072999999999999,-0.0,0.026247819826386493,-0.070306,0.097892,-0.02565875,-9.5e-06,1.1172944079137326,4.382955707899653
56,-0.01148036507936508,-0.005072999999999999,-0.0,0.026379166555905012,-0.070306,0.098338,-0.02565875,-4e-06,1.084378675902037,4.311820374955511
57,-0.011820206349206346,-0.005607,-0.0,0.026653965298767388,-0.070306,0.098122,-0.026354000000000002,-9.5e-06,1.0604725357418572,4.099514289720888
58,-0.011946825396825395,-0.005607,-0.0,0.026826374803770467,-0.070306,0.100637,-0.026354000000000002,-3.5249999999999996e-05,1.1477714720438492,4.472840579983456
59,-0.01195124603174603,-0.005607,-0.0,0.026903328300819783,-0.070306,0.099088,-0.026354000000000002,-2.15e-05,1.1013827866552282,4.275366625920691
60,-0.012125801587301588,-0.005607,-0.0,0.02705515039633986,-0.070306,0.100686,-0.026354000000000002,-3.5249999999999996e-05,1.1388387322532432,4.453168539935006
61,-0.012109055555555553,-0.005607,-0.0,0.02673699692486809,-0.070306,0.099277,-0.026354000000000002,-3.8e-05,1.0892880042090165,4.242838401205064
62,-0.012267499999999999,-0.005607,-0.0,0.026746421378115507,-0.070306,0.099,-0.026354000000000002,-2.15e-05,1.0630720501953757,4.2490843849344975
63,-0.012363055555555554,-0.005607,-0.0,0.026565672663876126,-0.070306,0.097951,-0.026354000000000002,-3.8e-05,1.048791418052339,4.209235178793253
64,-0.012308404761904762,-0.005607,-0.0,0.0268844632677186,-0.070306,0.100317,-0.026354000000000002,-3.5249999999999996e-05,1.1065769649298365,4.4000957032031565
65,-0.012349682539682539,-0.005607,-0.0,0.026737024145130926,-0.070306,0.097987,-0.026354000000000002,-3.5249999999999996e-05,1.0474142239643596,4.129791460673548
66,-0.01249681746031746,-0.005607,-0.0,0.026753514658707244,-0.071221,0.097824,-0.02646,-3.8e-05,1.0549360950721092,4.221606433909377
67,-0.012462079365079363,-0.005607,-0.0,0.02681097776427113,-0.0705,0.098418,-0.026354000000000002,-3.8e-05,1.0439352477344424,4.135576568468319
68,-0.012418753968253966,-0.005607,-0.0,0.026969429859222682,-0.072704,0.100185,-0.026354000000000002,-3.8e-05,1.0591958831173103,4.231305284122166
69,-0.013043690476190474,-0.0061725,-0.0,0.027044766081814574,-0.073141,0.09625,-0.027827499999999998,-4.275e-05,0.9665864723993852,3.8399116502536232
70,-0.012825634920634923,-0.0061725,-0.0,0.027075249559770635,-0.07247,0.095541,-0.027827499999999998,-3.5249999999999996e-05,0.9938083899799768,3.838984179307398
71,-0.012950753968253967,-0.0061725,-0.0,0.027173790221077937,-0.072486,0.096856,-0.027827499999999998,-3.5249999999999996e-05,0.9813232460224784,3.8176095080046037
72,-0.013094690476190475,-0.0061725,-0.0,0.026959651247527704,-0.072858,0.095209,-0.02790175,-4.625e-05,0.9550899699214466,3.7279190346657325
73,-0.013194166666666665,-0.0061725,-0.0,0.02709469733301076,-0.074329,0.096499,-0.028745,-3.5249999999999996e-05,0.9533211917836009,3.7621851296528783
74,-0.013114047619047619,-0.0061725,-0.0,0.027349311356310215,-0.075907,0.099552,-0.02816125,-3.5249999999999996e-05,0.9672005058333317,3.8802107362558713
75,-0.013059579365079366,-0.0064364999999999995,-0.0,0.027290216821497338,-0.077455,0.098515,-0.0278695,-3.5249999999999996e-05,0.9454559174245671,3.8045299448266743
76,-0.013242896825396826,-0.0062935000000000005,-0.0,0.027146233230714332,-0.077627,0.097044,-0.02858825,-3.5249999999999996e-05,0.9124643797863964,3.709872084955717
77,-0.013554039682539681,-0.007897999999999999,-0.0,0.027173520645880175,-0.076155,0.094576,-0.02890875,-4.625e-05,0.9252061306218878,3.590211635851067
78,-0.013643492063492062,-0.007925999999999999,-0.0,0.027258673947223623,-0.080677,0.093631,-0.029203,-4.625e-05,0.8695887025707377,3.4988274883526334
79,-0.01360361111111111,-0.006737,-0.0,0.027332454304091928,-0.079703,0.093028,-0.02879,-4.625e-05,0.8520667777246409,3.45214850209544
80,-0.01373497619047619,-0.007925999999999999,-0.0,0.0273288241554893,-0.080239,0.092921,-0.02912125,-4.625e-05,0.86884400338455,3.477434460108216
81,-0.013572380952380952,-0.007925999999999999,-0.0,0.02741617353033336,-0.078451,0.094896,-0.02959675,-4.625e-05,0.8986896858057075,3.5067378947354007
82,-0.013590626984126985,-0.007925999999999999,-0.0,0.02734188168265236,-0.080665,0.093623,-0.02879,-4.625e-05,0.8682238353050138,3.484373603113072
83,-0.014042301587301586,-0.00894,-0.0,0.027438700600993293,-0.082664,0.092635,-0.02959675,-4.625e-05,0.8459958692893622,3.3656167801211003
84,-0.01394365873015873,-0.00894,-0.0,0.027450122610291613,-0.079833,0.092399,-0.02959675,-4.625e-05,0.885506752073143,3.4047420833816027
85,-0.014020817460317461,-0.00894,-0.0,0.027377830115474063,-0.079765,0.093477,-0.02959675,-4.625e-05,0.8991048750383221,3.529155742743006
86,-0.014149626984126983,-0.00894,-0.0,0.02738172733450497,-0.079714,0.092243,-0.02959675,-7.925e-05,0.8856076835189595,3.5427957341636755
87,-0.014105198412698415,-0.00894,-0.0,0.027550233079709992,-0.079631,0.091621,-0.02959675,-7.925e-05,0.9066680036782229,3.519789273007299
88,-0.01414881746031746,-0.00894,-0.0,0.02763721051305413,-0.082249,0.092912,-0.02959675,-4.625e-05,0.8617590233862779,3.4274178108041227
89,-0.014101666666666669,-0.00894,-0.0,0.02743291487211945,-0.079742,0.092561,-0.02959675,-7.925e-05,0.8987159622280707,3.4916346769950106
90,-0.014105849206349204,-0.00894,-0.0,0.027618237257137666,-0.081333,0.093096,-0.02959675,-7.925e-05,0.8982404809334544,3.5808738107683604
91,-0.014419912698412697,-0.00894,-0.0,0.027727926669929962,-0.084504,0.093508,-0.02959675,-7.925e-05,0.8137627648216144,3.3799016536680613
92,-0.014269753968253968,-0.00894,-0.0,0.027920672140703828,-0.083651,0.093336,-0.030342,-7.925e-05,0.8218415118436867,3.3318099504929206
93,-0.014373547619047619,-0.00894,-0.0,0.02791242508519497,-0.083999,0.093896,-0.030429,-7.925e-05,0.8117818278821733,3.3227632725961778
94,-0.014436999999999998,-0.00894,-0.0,0.027934624089396173,-0.084813,0.093798,-0.03103425,-7.925e-05,0.8020330827809472,3.323776132771944
95,-0.01429413492063492,-0.00894,-0.0,0.027867925611614774,-0.084783,0.092833,-0.030416250000000002,-7.925e-05,0.8156666815860548,3.3754416399036327
96,-0.014453539682539682,-0.00894,-0.0,0.027690632399082614,-0.083556,0.092582,-0.03086025,-7.925e-05,0.7774325855671865,3.276887000432029
97,-0.014428460317460317,-0.00894,-0.0,0.02796511946530432,-0.08353,0.093066,-0.0310875,-4.625e-05,0.7663247747853054,3.2358980725892765
98,-0.014564944444444445,-0.00894,-0.0,0.02805713930317676,-0.086679,0.094401,-0.031287749999999996,-7.925e-05,0.7596359838176862,3.3131129963007595
99,-0.014571285714285714,-0.00894,-0.0,0.02812237931433469,-0.087846,0.094482,-0.031287749999999996,-7.925e-05,0.7686197875979764,3.378963128572858
