,input_1,input_2,input_3,input_4,input_5,input_6,input_7,input_8,input_9,input_10,input_11,input_12,input_13,input_14,input_15,input_16,input_17,input_18,input_19,input_20,input_21,input_22,input_23,input_24,input_25,input_26,input_27,input_28,input_29,input_30,input_31,input_32,input_33,input_34,input_35,input_36,input_37,input_38,input_39,input_40,input_41,input_42,input_43,input_44,input_45,input_46,input_47,input_48,input_49,input_50,input_51,input_52,input_53,input_54,input_55,input_56,input_57,input_58,input_59,input_60,input_61,input_62,input_63,input_64,input_65,input_66,input_67,input_68,input_69,input_70,input_71,input_72,input_73,input_74,input_75,input_76,input_77,input_78,input_79,input_80,input_81,input_82,input_83,input_84,input_85,input_86,input_87,input_88,input_89,input_90,input_91,input_92,input_93,input_94,input_95,input_96,input_97,input_98,input_99,input_100,input_101,input_102,input_103,input_104,input_105,input_106,input_107,input_108,input_109,input_110,input_111,input_112,input_113,input_114,input_115,input_116,input_117,input_118,input_119,input_120,input_121,input_122,input_123,input_124,input_125,input_126
neuron_1,1.1492014e-34,-1.8213316e-34,3.2003128e-34,3.4591001e-34,1.9002915e-34,-5.5480505e-34,-1.2557802e-34,4.8382392e-34,3.2611225e-34,0.030533563,-5.3153044e-34,0.027045695,0.026780736,4.5752426e-34,-1.5838038e-34,2.97547e-37,2.8473038e-34,-1.9479606e-34,-4.832728e-34,-5.7714517e-35,5.7523496e-34,-3.2656725e-34,4.6007026e-34,5.3441582e-34,-3.8079419e-34,3.6892459e-34,4.277311e-34,4.4293936e-34,2.090392e-34,0.01978104,0.03768355,3.4300122e-35,-1.469052e-34,-3.9119543e-34,-0.039591387,-9.1832035e-35,-1.0068866e-34,2.336958e-34,-1.9192452e-34,5.5234703e-34,-1.7977634e-34,-2.4099994e-34,-0.034126714,-3.887869e-34,-3.0364505e-34,-0.034899764,-4.4800826e-34,-3.9896356e-34,-0.030970614,-0.026218358,2.415689e-34,4.686723e-34,1.906655e-34,1.4716487e-34,4.8899647e-34,3.7569927e-34,-2.1959933e-35,5.9215327e-36,-2.3528275e-34,4.46647e-34,-2.7443387e-34,1.8984468e-34,4.975953e-34,-1.8601111e-34,-3.648498e-34,-0.02944824,-3.1313723e-35,-1.545587e-34,-3.4297135e-34,2.5597905e-34,5.5404277e-34,-0.019077856,-3.417669e-34,-1.0432525e-34,7.776019e-35,-4.4438205e-34,-3.3122184e-34,-7.8040886e-36,0.02130714,3.9247736e-36,-7.541763e-35,-1.1713737e-20,-5.1069343e-34,-5.2812633e-34,-0.032826032,1.0312093e-34,1.8268983e-34,-5.328806e-34,5.896713e-34,3.54997e-35,-3.9381026e-34,-0.045506954,2.2293145e-34,-1.0942592e-34,-4.3045352e-35,-5.6089833e-34,-9.957057e-35,1.99796e-34,0.028896103,-4.143694e-34,8.117536e-35,9.1736624e-35,4.152333e-34,5.038597e-35,-7.4862316e-35,3.486227e-34,-0.040563032,1.6236516e-36,-6.507021e-35,4.8126364e-34,3.2320897e-34,-3.0264617e-36,-7.2781513e-35,-3.2386966e-34,1.0948123e-35,1.7352618e-34,1.4960659e-34,-3.7599335e-34,-4.229081e-34,3.7079693e-34,-0.040184364,-1.34039e-34,1.8093604e-34,2.3295984e-34,-2.804645e-34,-4.1365352e-34
neuron_2,5.2931133e-34,4.9184993e-34,-1.1045459e-34,4.9211336e-34,-4.284452e-34,-7.669676e-35,-2.7397373e-34,-1.7984157e-35,-3.9247323e-34,0.039820418,5.665012e-34,0.031834815,0.036926735,-2.5026275e-34,-1.8890873e-34,3.209212e-34,-7.233089e-35,4.3888224e-35,-4.416393e-34,1.1766839e-34,2.3361315e-07,-3.5222733e-34,1.983134e-34,-4.171447e-34,-4.0027047e-34,9.879695e-35,5.1696754e-34,4.1878547e-34,3.1231211e-34,0.029352352,0.046606097,3.3812613e-35,-9.500566e-35,-1.81095e-36,-0.046495046,2.15066e-34,-8.626383e-35,-4.941097e-34,-3.307836e-34,3.2645108e-36,2.4175474e-34,-1.8819506e-34,-0.03336184,-3.7728423e-34,-1.4972029e-34,-0.0437502,9.244805e-35,-3.592757e-34,-0.043480173,-0.030392068,3.6766247e-34,4.450895e-34,-3.6652754e-34,2.459124e-34,-1.4748193e-34,-1.7490566e-34,-9.447315e-35,-5.2901603e-34,-1.1955465e-34,1.6462557e-34,-4.9667924e-34,-1.1322658e-34,-3.8605505e-35,4.547782e-34,-5.458643e-34,-0.035634387,-4.583525e-34,-3.561664e-34,-2.5366264e-34,1.5851881e-34,-1.9456975e-34,-0.029223055,-4.353338e-34,5.2498193e-34,-5.0497846e-34,-8.475087e-35,6.224899e-35,3.1011024e-34,0.033423774,2.7438173e-34,4.6252075e-34,-3.021347e-13,4.239379e-34,6.566309e-35,-0.042212173,3.5498869e-34,5.354024e-34,5.59503e-34,1.797453e-34,-3.6183909e-34,-1.976738e-34,-0.048506867,-1.8953391e-35,1.1130097e-34,-3.1226098e-34,-4.3061784e-34,-2.2691128e-34,-3.9075127e-34,0.041215774,-1.7768633e-35,-3.681732e-35,3.6116361e-34,-1.5639879e-34,1.0687397e-34,4.069125e-34,-4.7738387e-35,-0.045404084,5.045648e-34,-1.073782e-34,3.9767167e-34,-1.3745858e-34,4.7232823e-34,5.273705e-34,1.3127445e-34,-1.5981792e-34,-3.5075838e-34,1.4537274e-34,-1.6215192e-34,2.169119e-34,-6.336679e-35,-0.040835075,-5.1420458e-34,4.050008e-34,7.1310515e-35,8.200198e-35,-1.8619096e-34
neuron_3,-1.6805565e-34,4.3051204e-34,2.9337136e-34,-5.5166584e-34,3.133728e-34,1.135812e-34,3.5524e-34,3.8868244e-34,-1.1336183e-34,0.034601994,-7.3459994e-35,0.030641496,0.031547505,3.649146e-34,1.1345196e-34,-2.4891807e-34,-1.516424e-34,4.917992e-34,-1.6593648e-34,2.5341698e-34,1.5196662e-34,-1.0818281e-34,-3.3276383e-34,-2.4755567e-34,5.099444e-34,3.2279207e-35,-5.0655146e-34,-5.3024805e-34,1.1687623e-34,0.027392454,0.04339309,4.866418e-34,3.797214e-35,-3.0115233e-34,-0.042872116,-3.4463635e-34,-2.6503357e-34,2.1027124e-34,1.3901644e-34,-3.1056588e-34,-2.9518987e-34,-5.681902e-34,-0.037161402,-1.4570937e-34,-5.333622e-36,-0.045718886,-2.8175805e-34,1.5524643e-34,-0.036579125,-0.033865385,3.857378e-36,5.0455413e-34,2.9146323e-34,-4.9563273e-36,1.7643678e-34,3.249995e-35,4.9578164e-34,-2.1136256e-34,4.0679823e-34,-4.831187e-34,-4.3721837e-34,4.1322396e-34,-1.8275112e-34,-5.4836784e-34,-4.67455e-34,-0.037871864,4.2747633e-34,8.293977e-35,2.9633528e-34,1.7964874e-34,1.6970131e-34,-0.024631502,4.469364e-34,-3.9971877e-34,1.1484353e-34,-4.8602504e-34,2.3955422e-34,3.9780735e-34,0.02485394,-4.2360936e-35,-2.98805e-34,-1.6162405e-16,3.7584508e-34,5.624782e-34,-0.04348899,2.9116729e-34,-4.142444e-34,-5.7403154e-34,3.3932518e-34,-4.078598e-34,1.9255952e-36,-0.049790397,3.067918e-34,-3.3413882e-34,-9.3996494e-35,8.288768e-35,-2.4325696e-34,-4.8897534e-34,0.032147273,4.8108447e-34,2.5624151e-34,-2.0650816e-34,-5.391243e-34,2.8701136e-34,1.6670557e-34,-4.012378e-34,-0.04272453,2.4459895e-34,5.7537705e-35,-4.9324524e-35,-9.024252e-35,-4.0356255e-34,-1.1576644e-34,-2.9103399e-34,2.6412823e-34,-1.0328982e-34,-4.3797924e-35,1.4695084e-34,-3.4621144e-34,-1.8133927e-34,-0.04714975,3.091363e-34,5.5915346e-34,7.232362e-35,-3.8774554e-35,-3.6669546e-34
neuron_4,-4.0793516e-34,2.7255602e-34,-1.118895e-34,-1.2005979e-34,1.5282783e-34,-2.5835587e-34,-4.5007984e-34,-3.1647302e-34,7.4062113e-35,-3.7303138e-34,-1.2507059e-34,-3.3204501e-34,5.010914e-34,9.0867826e-35,4.034749e-34,-2.1443418e-34,1.1293902e-34,-1.7340346e-34,-5.346971e-34,-2.2353083e-34,4.8405112e-36,-7.1849475e-35,3.2584403e-34,-3.675553e-05,-1.8329512e-34,-4.9203025e-34,-5.63415e-34,-6.542372e-35,-4.821131e-35,8.382302e-35,1.8305294e-34,3.6144135e-34,4.9175337e-34,-7.6225643e-35,2.9202898e-34,-2.716044e-34,-3.3877173e-34,6.735887e-35,-3.0165242e-34,-4.749646e-34,-4.2688445e-34,-5.567484e-34,-5.388655e-34,-1.2837081e-34,-4.1398854e-34,1.8856667e-34,-2.0916269e-35,-1.823534e-34,-3.1253355e-34,-1.6077438e-34,-1.9226562e-34,-2.8982426e-34,-2.4683448e-34,-3.8344626e-35,-1.8520063e-34,-4.2197693e-35,4.5055633e-34,-3.1385105e-34,-3.91635e-35,9.209166e-35,-4.496958e-34,-4.517603e-34,1.5897907e-34,-4.586938e-34,-7.411478e-35,4.5565435e-34,3.4279374e-34,-5.4453915e-35,-2.105456e-34,3.0099674e-34,2.5849667e-34,-1.5219628e-34,4.545566e-34,-2.025812e-34,-1.9009071e-34,1.4922602e-35,-1.5426894e-34,-3.0832638e-34,1.03414e-35,4.797085e-34,-4.3153807e-34,5.086885e-35,1.1582642e-34,-4.725027e-34,-5.6236844e-34,9.842244e-35,1.273385e-34,4.2833545e-35,-3.3305428e-35,-9.606062e-36,4.4525816e-34,-1.5995713e-34,4.7878183e-35,4.1114214e-34,1.1313022e-34,5.5086815e-34,4.9237803e-34,-4.0562696e-34,-5.386812e-34,-1.0181801e-34,-5.365014e-34,-4.2307534e-35,-6.247865e-11,3.0390518e-35,-1.4230048e-34,-4.070908e-35,5.185023e-34,3.9366544e-34,-3.7379343e-35,-4.3438015e-34,-7.437456e-35,8.826204e-35,2.4622554e-34,-2.1978869e-35,5.919528e-34,-2.9039252e-34,-4.0257815e-35,5.497001e-34,-3.7878834e-34,2.3734907e-34,2.8666505e-34,5.3144756e-34,-5.099551e-34,-3.1776138e-34,-3.2368996e-34,7.9902034e-05
neuron_5,-5.2005757e-34,-5.289382e-34,3.0047945e-34,7.7817703e-35,-2.5001688e-34,5.322905e-34,-3.4626027e-34,4.0554743e-34,-5.6157e-34,-7.4492495e-35,-3.134638e-34,-5.0630966e-34,1.1311823e-34,3.1211634e-34,-4.984799e-34,2.6766573e-34,-2.2902916e-34,1.938719e-34,-4.7704334e-34,-1.2142076e-34,-3.449374e-34,2.0934397e-34,4.207468e-34,-3.8956177e-34,-5.6712607e-34,-5.786758e-34,1.4133935e-34,-4.2010993e-34,5.2056675e-34,-8.6059365e-35,-8.747182e-35,-2.7742916e-34,3.8223368e-35,-2.4376656e-34,-1.624956e-34,-5.7814137e-34,8.1001835e-35,3.321923e-34,2.3914372e-34,-1.6911171e-34,-5.0844263e-34,4.912307e-35,-5.5962127e-34,-2.686201e-34,-9.2997433e-35,8.743722e-35,-3.1479206e-34,4.416722e-34,-3.6041876e-34,-4.4985214e-34,-1.3389395e-34,-4.945099e-34,2.4593739e-34,-4.541639e-34,4.173628e-34,-1.4399243e-35,-3.69229e-34,-9.495184e-35,4.4433746e-34,-4.382691e-34,1.9318184e-34,-5.3999634e-34,3.8848578e-34,-2.3721011e-35,1.742942e-34,-3.358289e-34,4.9307405e-34,2.5076187e-34,4.678371e-34,-9.723371e-35,2.7851598e-34,-4.225308e-34,-2.394483e-34,-2.9506642e-34,3.6383378e-34,1.0121383e-34,1.6378468e-34,4.764264e-34,-3.565176e-34,3.910133e-34,3.7681447e-34,4.6316544e-35,-1.4981175e-34,5.5107157e-34,5.743738e-34,-2.3138098e-34,4.0067313e-34,-5.4281675e-34,-1.6502256e-34,-2.4652458e-35,-2.6666408e-34,1.6322428e-35,4.2283257e-34,1.7706262e-34,1.9314199e-34,-4.0536927e-34,-2.0683815e-34,4.571129e-34,-3.3093443e-35,-4.3003307e-34,2.2724852e-34,2.4590277e-34,1.1459721e-34,-5.1899545e-34,1.6608952e-34,-3.093784e-34,-4.76785e-34,5.4946188e-34,1.17444685e-36,-6.267567e-35,1.3547138e-34,4.456458e-34,2.9627336e-34,2.8984316e-34,3.7819327e-34,7.938834e-35,-4.0935594e-34,-4.582897e-34,2.638211e-34,-4.67768e-34,6.199934e-35,-2.759306e-34,-9.8741525e-36,-2.030422e-34,-2.9377222e-13,4.4856736e-34
neuron_6,2.87331e-34,4.184804e-34,-2.0508848e-34,-2.8074192e-34,2.3658872e-34,-3.6382666e-34,3.4981796e-34,4.0356043e-34,4.2681337e-34,-2.4091894e-34,-5.0153045e-34,-2.4045857e-34,4.482226e-34,-9.4930924e-11,-2.8934467e-34,-5.855183e-34,5.220741e-34,3.3198337e-35,-3.668685e-34,5.322411e-35,2.724496e-34,-2.7570279e-34,-3.0610493e-34,-6.3067623e-13,-1.3601435e-34,2.0803409e-35,-2.8352614e-34,2.7801107e-34,-3.2269692e-34,2.6159672e-34,3.850071e-34,3.987252e-34,-1.8045308e-35,-1.4629176e-34,-5.126844e-34,-7.332605e-35,5.4981324e-34,1.8485887e-34,-4.5310164e-35,-3.1598519e-34,1.9204189e-34,5.5496764e-35,-2.6632726e-34,-8.347514e-36,5.5073674e-34,9.123223e-35,4.901397e-34,-4.7643686e-34,2.7688356e-34,-4.1780486e-34,4.1033266e-34,5.262308e-34,-2.3368382e-34,-3.9442234e-34,-1.7747361e-34,-1.9002192e-34,-4.511807e-34,-2.6513642e-34,-1.3740519e-34,-1.4600136e-34,4.42903e-34,-2.854649e-34,-1.7355905e-34,-6.1662577e-35,-3.5588209e-34,-4.3918342e-34,3.6021808e-34,-5.4703e-34,-1.0444969e-34,5.4249073e-34,7.947903e-35,5.7439586e-34,-4.331972e-35,-2.9471347e-34,-5.8952185e-34,-3.8843775e-35,-7.9746455e-35,-1.4247851e-12,-3.587966e-34,3.5891022e-34,-5.256161e-34,1.2750394e-34,2.0690083e-34,5.007434e-34,1.4517897e-34,1.5918501e-34,3.9286385e-34,3.5965278e-34,1.6564267e-34,-9.5626856e-35,-4.6334213e-34,-5.65083e-34,-9.1784895e-35,-2.6570677e-34,5.7545807e-34,-1.5534018e-34,-1.3912614e-34,3.1639613e-34,4.5846603e-34,-2.934168e-34,-4.3022937e-34,-2.827694e-34,1.456544e-34,4.223133e-34,3.3387052e-34,1.1825549e-34,-1.7051914e-34,1.9088017e-34,2.4782073e-34,2.9795292e-35,4.1895537e-34,-1.2272648e-34,-4.4637763e-34,4.4171703e-35,2.8615022e-34,9.588144e-35,-1.0993217e-34,-5.129664e-34,5.4981296e-34,2.3929084e-34,1.5477752e-34,2.7406504e-34,-2.9590751e-34,-2.8240848e-34,4.6709007e-34,-2.884002e-35
neuron_7,2.1748827e-34,4.6349246e-34,-1.0607542e-34,-6.35516e-36,5.007208e-34,5.687156e-35,5.0424e-34,1.0012288e-34,4.363947e-34,1.3404897e-34,1.714431e-34,5.2327425e-34,-5.650904e-34,-2.0534465e-34,5.8169136e-34,-3.515933e-34,-4.6773017e-34,-4.725782e-34,-3.8119346e-34,-1.8356563e-34,4.650071e-34,1.0284174e-34,4.888331e-34,-5.0917075e-34,5.893115e-34,-3.6762603e-34,-4.595482e-35,2.5735047e-34,-4.647348e-35,1.4627076e-34,-1.9025897e-34,-4.125986e-34,4.896837e-34,2.1595549e-34,-7.057443e-35,4.3915413e-34,-2.7674716e-34,3.176981e-35,-2.3329878e-34,-2.6800295e-36,2.919543e-34,6.2139266e-35,-2.1016007e-34,5.1743154e-34,-4.210336e-34,3.3724733e-34,-3.9913e-34,-1.8048614e-35,5.6340067e-34,4.479883e-34,2.1558621e-34,3.5273426e-34,-5.058943e-34,-1.2349181e-34,3.8557767e-34,2.215503e-34,-4.061179e-34,-1.3712308e-35,3.8621188e-35,-2.2966124e-34,9.2168205e-35,-2.834694e-34,-5.261532e-34,-4.1274284e-34,1.2883418e-35,-4.2251583e-34,-5.4653664e-34,-1.7188274e-34,-2.7376724e-35,5.7166347e-34,2.2989543e-34,5.39726e-34,-9.216259e-35,2.892151e-34,-2.1529308e-34,1.4036344e-35,-1.7209501e-34,-3.2753643e-35,-2.2457815e-34,-2.424121e-34,8.113931e-35,8.3971295e-35,-1.6691686e-34,-8.564158e-35,-4.2552037e-34,-3.0841138e-34,-3.8690515e-34,1.0086956e-34,-1.9358294e-34,-9.0535794e-35,-2.9302783e-34,-4.342016e-34,-3.6464057e-34,-2.6483378e-34,-2.7145333e-34,-1.0041232e-34,2.2533768e-35,-4.0430357e-34,5.2706063e-34,-4.7252306e-34,3.307195e-34,-3.5530763e-35,5.3920693e-34,-2.1898142e-34,-2.1138678e-34,-4.6868842e-34,-3.8856535e-34,1.0131019e-34,-4.2302736e-35,5.518115e-34,-3.3582524e-34,-2.704672e-34,2.3943688e-34,3.2839515e-34,2.7208325e-34,-4.4293995e-34,-4.1951355e-34,-5.939557e-35,-4.9429216e-34,3.5175934e-34,-3.1386624e-34,4.368812e-34,2.1058384e-35,-3.090518e-34,6.194842e-35,-3.910215e-34
neuron_8,5.580636e-34,5.917349e-34,2.9649705e-34,-1.5765778e-35,5.523762e-34,-3.7299974e-34,3.348965e-36,1.6376294e-34,2.098048e-34,-1.9558502e-34,5.280982e-34,1.2074673e-34,-3.8693564e-34,-3.7283301e-34,3.4241873e-34,1.2723822e-34,-3.4937217e-34,-4.5787884e-35,-9.2746573e-35,1.322213e-34,-5.059223e-34,-3.323051e-34,2.7674705e-34,-1.3885443e-34,3.5975862e-34,3.6317343e-34,2.0858335e-34,-1.2609562e-34,-3.6247975e-34,-3.525348e-34,-8.0199594e-36,2.734336e-35,-4.8907544e-34,2.7098892e-34,1.7423088e-34,-1.0874153e-34,2.2404353e-34,3.7126198e-34,7.890653e-35,-1.8093355e-34,5.440028e-34,2.1458567e-34,2.4994936e-35,9.3609626e-35,2.4898954e-34,-4.306008e-34,1.6541214e-35,-4.2490296e-34,2.2535437e-34,-4.1141062e-34,3.6231457e-34,-3.0539667e-34,-2.600058e-35,-2.4070892e-34,9.241801e-35,-4.014932e-34,6.5744458e-37,5.2334813e-34,-4.5265675e-34,-3.924836e-34,-2.9463192e-34,-1.5387841e-34,3.0147556e-35,-1.8193754e-35,3.185739e-34,4.7952622e-35,-4.3878357e-34,-3.067061e-34,1.3548904e-34,5.1088977e-34,-5.426634e-35,-4.1288114e-34,2.6089996e-34,-5.4779924e-34,3.8820875e-34,-5.276297e-34,-1.9115742e-35,1.9776813e-34,1.4870087e-34,2.7360363e-35,3.8787636e-34,-5.4378263e-34,1.9570677e-34,-3.5966633e-34,4.413253e-34,5.8115522e-34,1.9920616e-34,-2.8389107e-34,-3.8214072e-34,4.909695e-34,4.5503836e-34,2.6596664e-34,-3.5090623e-34,9.690548e-35,4.4598467e-34,-4.1709497e-34,3.4138792e-34,5.584496e-34,-2.0221566e-34,-1.8242244e-34,-4.6336426e-34,-1.9481874e-34,5.6183726e-34,3.4756475e-34,2.0259292e-34,2.2044716e-34,4.005124e-34,3.15319e-35,-1.0397018e-35,-5.652957e-34,-3.1667026e-34,-3.2448057e-34,-3.5659227e-34,2.8550983e-34,4.1635105e-34,4.754148e-34,2.5761588e-34,-1.1786186e-34,-3.064249e-34,-1.9161415e-34,1.0702073e-34,2.4394548e-34,-3.7625875e-34,-3.7818845e-34,-3.656311e-34,5.9123325e-34
neuron_9,-2.0094598e-34,2.2165932e-34,-2.8076008e-34,-3.7726828e-34,-3.6333534e-34,2.9071594e-34,1.8971533e-34,1.9428217e-34,-1.39899e-34,7.0719806e-35,-4.0555157e-34,8.3837554e-35,-3.2116684e-34,-1.3024429e-34,-3.605925e-34,-1.08505935e-36,2.292636e-34,-1.1978988e-34,4.0872884e-34,-2.201488e-34,4.481978e-34,2.1380135e-34,-2.173225e-35,2.3572753e-34,-5.1223695e-34,-2.3192595e-35,1.0089601e-34,-4.250739e-35,-5.3893243e-34,1.4441187e-34,4.010403e-34,5.1418074e-34,-4.966028e-34,-4.7437616e-34,-1.4791163e-35,-4.789509e-34,-4.795302e-34,-2.3334045e-35,-5.3160253e-34,3.254763e-34,-1.4740348e-34,4.238661e-34,5.918428e-34,-4.5811375e-34,5.0727724e-35,3.5900429e-34,-2.8845225e-35,-3.4691766e-34,3.3676807e-34,3.886446e-34,-2.6247852e-34,-5.249382e-34,4.274797e-34,-4.75297e-34,-2.7406938e-34,1.8443323e-34,-7.7820045e-35,-1.4812955e-34,-2.0966508e-34,9.3471695e-35,1.5843087e-35,-1.4629978e-34,-3.3925222e-34,-5.4948102e-34,-1.9855762e-34,1.4906623e-34,-1.5301339e-34,-1.4939052e-34,-4.9386614e-34,-1.1657353e-34,-2.7123797e-34,-1.7336292e-35,-2.2946265e-34,-2.4619104e-34,-1.2264292e-34,9.1062413e-35,8.6012334e-35,2.7385712e-35,-1.2261161e-34,-9.3169476e-35,4.054213e-34,-1.8907487e-34,3.3958044e-34,1.8588471e-34,3.7015367e-34,-5.143476e-34,2.9198825e-34,1.345778e-34,-4.108845e-34,-2.2262577e-35,-1.9195546e-34,2.7552818e-35,-4.5110863e-34,3.4857249e-34,4.9821253e-34,-2.7860591e-34,3.1227473e-34,-1.0558863e-34,-5.7818232e-34,2.0179514e-34,-9.202548e-36,-5.2924842e-34,1.7975602e-34,-5.387405e-34,-3.6646358e-35,4.0684163e-34,-1.4885462e-34,-2.9430838e-34,-3.2759375e-35,-2.0978474e-34,-1.9133099e-34,-2.296981e-34,4.163863e-34,4.542953e-34,1.7918177e-34,5.8352196e-34,2.3925422e-34,-9.808304e-35,8.2217955e-35,4.7344734e-34,-2.6677752e-34,3.8700667e-34,2.4804097e-34,-8.1833864e-35,1.6392815e-34,-3.636463e-34
neuron_10,-1.3088626e-34,-4.145374e-34,-5.27617e-34,4.319057e-34,4.5471905e-34,-4.279835e-34,-3.939065e-34,-1.4912611e-34,-5.6612763e-34,-6.6654295e-35,-3.805783e-34,-2.8788814e-34,2.98018e-35,-4.962497e-34,3.5481057e-34,-2.6494518e-34,3.7984038e-34,2.4664427e-34,3.32815e-34,1.5591422e-34,-2.5534768e-34,-4.853954e-35,-1.747618e-34,-4.3653406e-34,-3.946376e-34,-3.4691789e-34,-1.687318e-34,-1.8672604e-34,-1.1253118e-34,-7.525547e-35,-4.9484974e-34,-1.9463179e-34,-3.588015e-34,-8.337947e-35,-1.5809113e-34,-1.3085686e-34,2.7139152e-34,1.6601636e-34,3.2095732e-34,4.9669347e-34,-2.7557931e-34,2.2037323e-34,3.7507575e-34,2.5971978e-34,-4.933167e-34,-4.736995e-34,-2.0108713e-34,5.4474874e-34,-2.1568195e-34,-2.977348e-34,2.4746388e-34,2.029884e-34,-3.6025802e-36,2.367736e-34,-3.2418573e-34,-3.264649e-34,5.300561e-34,-5.389752e-34,-5.384388e-34,1.853887e-34,8.993855e-35,-3.1196858e-34,-5.067877e-34,-4.744765e-34,-3.875092e-34,4.3273354e-34,-1.8994317e-34,3.57124e-34,-3.5551426e-35,-3.2902714e-34,1.0862803e-34,5.7133516e-34,-3.7481386e-34,-5.7889446e-35,5.5624664e-34,-7.452772e-36,2.7346678e-34,-5.7565276e-34,2.6214925e-34,4.946959e-34,2.703181e-34,2.6288643e-34,-5.5201555e-34,8.85064e-36,-1.6294527e-35,-3.971639e-34,5.0944043e-34,2.3089055e-34,3.192414e-34,-3.5111298e-34,-4.36382e-34,6.894889e-35,-1.5958061e-34,-4.5591135e-34,-1.08559486e-35,3.771997e-34,3.1034373e-34,4.1757146e-34,-1.303856e-34,3.2540322e-34,-4.441597e-34,2.9280444e-34,-1.2628204e-34,1.8769031e-34,5.2325184e-34,5.7610556e-34,1.5148081e-34,2.0599707e-34,1.7836954e-34,-3.8342766e-34,-3.970856e-34,1.5371334e-34,2.8828558e-34,-2.8581626e-34,-1.1165628e-34,3.723089e-34,-2.302561e-34,4.078046e-34,-8.636722e-35,2.5702418e-34,-2.4974335e-34,5.262216e-34,4.731742e-34,-9.780017e-35,-3.4924217e-34,9.586868e-35
neuron_11,-3.25312e-34,4.76924e-35,4.9162576e-34,3.5795268e-34,5.870162e-34,3.8828645e-34,-1.5888646e-34,4.606181e-34,-1.963048e-35,0.03655103,-2.791676e-34,0.026547045,0.028143113,-1.5423368e-34,8.2473017e-35,5.680991e-34,-5.0982097e-35,-9.917177e-35,2.6573666e-34,-2.450525e-34,5.1727225e-34,4.8904046e-34,3.7368789e-34,-2.0970149e-34,-4.6159285e-34,4.8662734e-34,3.1415064e-35,1.525211e-34,-1.6618022e-34,0.025755918,0.041709203,-2.8739877e-34,-2.6623772e-34,2.6301227e-34,-0.03708946,2.553519e-34,-1.5092402e-34,-5.1445767e-34,1.9951702e-34,4.8777634e-34,-2.5485507e-34,-2.6477749e-34,-0.032769587,2.3522294e-34,1.954803e-34,-0.039246134,-1.2799223e-34,1.9881067e-34,-0.032537177,-0.03133921,2.2477748e-34,2.242774e-34,9.282289e-35,1.6414314e-34,5.516191e-34,-4.1524774e-34,-2.1823232e-34,2.8858912e-34,4.8342476e-34,1.4240356e-35,-5.7435334e-34,5.043586e-34,4.513796e-34,-3.910261e-34,-5.7194256e-34,-0.032636195,-3.381345e-34,-4.612406e-34,4.6085032e-35,-5.3942444e-34,-1.2060991e-34,-0.018453855,5.499792e-34,-4.3198164e-34,-1.0112926e-34,-2.2014307e-34,5.6074827e-34,3.3210712e-34,0.02520883,4.3870133e-34,7.062912e-35,-6.6518866e-13,-4.038185e-34,2.3191128e-34,-0.038157243,2.2368298e-34,-3.3690414e-34,-5.670107e-34,3.1134235e-34,-5.9667783e-35,-4.562725e-34,-0.042101845,2.7206615e-34,-2.3554579e-34,1.5460502e-34,-4.372295e-34,4.8565044e-34,1.293055e-34,0.02935978,2.8909651e-34,-3.2276175e-34,-5.0125797e-34,-7.036858e-35,1.1873417e-34,2.7409936e-34,-4.5378366e-34,-0.037749548,-1.8365924e-34,-4.044386e-35,-3.989291e-34,2.2697669e-34,3.883815e-34,2.3217857e-34,-1.5574265e-34,-5.632341e-34,4.5707146e-34,-4.7896109e-35,-1.0423554e-34,-4.07696e-34,2.0366374e-34,-0.036246225,-2.502058e-34,3.6933335e-34,4.618166e-34,1.570015e-35,4.0331872e-34
neuron_12,3.6195944e-34,-1.6557034e-34,1.6855255e-34,2.63224e-34,5.4226973e-34,1.984869e-34,5.166878e-34,-1.9532958e-34,4.841535e-34,3.6771217e-34,-1.4069391e-34,-5.1959734e-34,5.763055e-34,-3.174877e-35,-7.6861397e-35,2.437013e-35,6.2098244e-36,-4.3590536e-34,-3.8607615e-34,3.2627258e-34,2.0151481e-34,2.0278912e-34,-1.3856571e-34,2.2212697e-34,2.0518807e-34,4.7112878e-35,-2.6694168e-34,4.909783e-35,-2.491869e-35,-2.198854e-35,9.3935866e-35,2.093886e-35,4.039951e-34,-5.132811e-34,-2.974375e-34,1.4797343e-34,6.744112e-36,-4.146286e-34,2.3160037e-35,-2.1791445e-34,2.4461654e-34,6.0933035e-35,8.0111605e-35,2.1445919e-34,-4.1716054e-34,-3.207104e-34,1.606355e-34,-3.7326852e-34,2.3294087e-34,3.6775051e-34,-7.3356805e-35,-4.088644e-34,5.0323464e-35,-1.8443512e-34,-1.219996e-34,-4.323739e-34,3.9070943e-34,-1.5895914e-34,5.7347805e-34,9.064358e-35,4.276598e-34,5.4414093e-34,-3.718781e-34,-6.774994e-35,-3.6639296e-34,2.4550181e-34,5.067062e-34,-4.9092717e-34,4.4652737e-34,1.3041187e-34,-1.3452936e-34,4.0494833e-35,-3.2060757e-34,-5.421136e-34,2.981379e-34,-1.5891122e-34,4.847096e-35,-1.2320989e-34,-4.9881974e-34,5.6438726e-34,3.8867652e-35,-1.2652681e-34,4.742808e-34,-1.5269729e-34,-3.0007143e-34,3.4653463e-34,3.4447382e-34,-5.8068645e-34,-1.3452488e-34,-8.2066817e-35,-4.2111617e-34,4.3640044e-34,-3.7790768e-34,-5.1984846e-34,-3.0533073e-34,-2.1316258e-34,-1.319533e-34,2.683131e-34,-2.3940848e-35,-4.341944e-34,2.3353392e-34,1.5176938e-34,2.7645083e-34,1.6228678e-34,1.3864816e-34,5.467946e-34,3.0964232e-34,2.5161255e-34,-5.820899e-34,2.9787507e-34,6.354153e-35,2.0958146e-35,1.1223893e-34,-5.044038e-34,-1.6969547e-34,3.9493322e-34,-5.883654e-34,3.432285e-34,1.6929977e-35,-1.789712e-34,6.289965e-35,-1.7634482e-35,4.2463466e-34,1.2073392e-34,-4.259621e-34,-2.0542627e-34
neuron_13,4.643535e-34,-3.8111823e-34,2.7303956e-35,-3.2425564e-34,5.4692487e-34,-3.9498456e-34,-3.3453063e-34,5.2196e-34,4.1980356e-34,3.6367226e-34,-4.191794e-34,7.3910424e-35,3.6522054e-34,-8.455099e-35,-3.9525465e-34,2.8279754e-34,5.040236e-34,4.5910612e-34,-1.987727e-34,9.3818115e-35,-2.589734e-34,4.786158e-34,8.4794526e-35,-2.2058813e-34,1.754848e-34,2.9589052e-34,3.1845244e-35,-1.5563435e-34,-4.091028e-35,-4.7473483e-34,1.8511845e-34,3.2623802e-35,4.762714e-08,-2.519182e-34,-1.4565788e-34,3.9352057e-34,-2.8847251e-34,-1.9297115e-34,1.0243478e-34,1.0007913e-34,-4.882805e-34,-3.7402407e-34,-2.2251392e-34,-5.9873805e-35,3.9998505e-34,-4.0120414e-35,-5.576354e-34,-3.940304e-34,4.9650843e-34,-4.6118666e-34,-4.672422e-34,-1.6037661e-06,3.979327e-34,2.311164e-34,2.8525267e-34,3.6859184e-34,-1.4060299e-34,-1.8734846e-34,-5.5669456e-34,7.021524e-36,9.841479e-35,-3.27214e-34,-4.313324e-34,3.0699697e-34,4.862291e-34,-4.3229516e-34,4.9368765e-34,-1.8332064e-34,4.319059e-34,5.565105e-35,4.1240676e-34,-5.506345e-34,4.243464e-34,3.4275712e-34,-5.5088083e-34,-7.2843916e-36,-4.173547e-34,-5.771214e-34,-2.3318341e-35,4.5570334e-34,-5.317365e-34,1.2069221e-34,7.231118e-35,-1.7271199e-34,4.470308e-34,5.0658315e-34,3.362171e-34,-5.053643e-34,1.119809e-34,-2.2167413e-34,-4.0152173e-34,-4.2371093e-34,2.2227831e-34,1.93594e-34,-3.0269503e-34,3.5817763e-34,-3.4245328e-34,-2.8942521e-34,-7.684025e-36,3.1332823e-34,-5.0812272e-34,2.557905e-34,2.6596441e-34,-3.4493754e-34,-1.9633453e-35,-3.5424305e-34,3.68451e-35,-4.1179565e-34,4.7135037e-34,-2.034582e-34,1.8042672e-34,1.8952183e-34,-2.2497362e-34,4.5831845e-34,1.0664291e-34,-1.3787114e-35,-1.4739361e-34,-2.5149605e-34,-3.6493656e-34,7.234206e-35,-3.502564e-34,-4.9997e-34,-2.4709626e-34,-4.5281604e-35,-4.1541626e-34,-1.877506e-34
neuron_14,2.6445859e-34,7.5135567e-35,8.058335e-35,-3.619481e-34,-2.0678672e-34,1.5175311e-34,-1.610824e-34,3.7376712e-34,1.3797556e-34,2.0490848e-34,3.4167063e-34,-5.946766e-35,4.709727e-34,2.164621e-34,3.9623545e-34,2.881407e-34,-3.8613846e-34,5.0624845e-34,3.378264e-35,-2.3602581e-34,-2.792659e-34,2.1736938e-34,-5.467656e-38,3.957535e-34,7.754083e-35,-3.3571744e-34,3.0042573e-34,-4.646899e-34,-3.9691063e-34,1.858095e-34,1.6058768e-34,2.6205048e-34,-2.0115337e-34,-4.3991494e-34,5.4791266e-34,-9.400885e-35,-2.9619785e-34,2.9847321e-34,-1.4198491e-34,9.64715e-35,3.6897356e-34,-7.25168e-35,-2.2769982e-34,-3.2612113e-35,4.2959534e-34,-3.3995797e-34,-5.635485e-35,-2.3830184e-34,-3.6786336e-34,-4.9888026e-36,2.9272525e-34,-2.556852e-34,-7.457747e-35,-5.6491113e-36,-3.7760478e-34,-3.422347e-34,1.927739e-34,3.0006436e-34,1.3530142e-34,-1.2747552e-34,-3.551465e-34,-5.423894e-35,-9.85138e-35,1.2371533e-35,2.5075949e-34,-4.375413e-34,-5.754113e-34,-1.3484337e-34,-5.7034674e-34,-3.343745e-34,3.1492075e-34,1.6586335e-34,-1.8652157e-35,4.903459e-34,-4.783315e-34,3.994281e-34,-4.198624e-34,1.7739902e-34,-4.5842324e-34,1.9144425e-34,-2.9255012e-35,-4.8941857e-35,1.262233e-34,4.788537e-34,-2.1279226e-34,-5.025112e-34,-2.7808383e-34,4.6964007e-34,-4.4477033e-34,-5.294216e-34,-3.4044167e-34,2.4925798e-34,-4.3232643e-34,6.0970435e-35,5.5610016e-34,3.9784657e-34,1.4565212e-34,-1.7801754e-34,-2.6462306e-34,-2.7207763e-34,5.3003343e-34,2.3622962e-34,-4.9526084e-34,2.6210142e-34,2.3559088e-34,-3.1040147e-34,7.3899105e-36,4.9376636e-34,1.5244412e-34,-4.013733e-34,5.6232233e-34,-3.2430615e-34,-5.611157e-34,-2.861932e-34,-4.110524e-34,-5.3452805e-34,3.170188e-34,-2.0377167e-34,4.0855123e-34,5.9108563e-34,1.2438663e-34,-5.4957254e-34,5.11284e-35,-5.5284326e-35,-1.2826916e-35,-4.1127053e-34
neuron_15,-3.5015144e-34,3.7300463e-34,3.4537151e-34,1.9176227e-36,-4.8946464e-34,-2.7806108e-34,1.3319646e-34,-1.1341824e-34,-1.9360415e-34,0.03247001,1.8132297e-34,0.032791674,0.032630265,-5.6103113e-34,-4.0478378e-34,4.8542737e-34,2.9727559e-34,-8.63759e-35,-1.2773452e-34,3.4854926e-35,-3.9940773e-34,3.7646566e-34,-1.3255875e-34,6.047382e-35,-4.5926757e-34,-5.560835e-34,-2.2880777e-34,-4.5846424e-34,5.7380425e-35,0.023772318,0.041368373,-4.1125744e-34,-1.10591956e-13,5.723164e-35,-0.040988646,3.2603904e-34,-3.5936118e-34,-4.7774685e-34,-3.8573333e-34,-1.8617224e-34,1.2152738e-34,5.35662e-34,-0.036678493,-2.7106555e-34,3.430752e-34,-0.046619527,-3.4783045e-34,-1.7002335e-34,-0.037915017,-0.033713553,-2.4522428e-34,-3.911645e-34,4.0690058e-35,-7.896254e-35,-4.7270434e-34,1.6038043e-34,-1.5364811e-34,-2.4576543e-34,-3.985027e-34,5.468429e-34,-4.1419577e-35,-1.0833782e-34,-3.932319e-34,5.5756714e-34,-7.6584415e-35,-0.038399506,-1.1237709e-34,-5.278733e-34,9.4935426e-35,4.535067e-34,1.9702227e-35,-0.026195146,-3.3372073e-34,2.8004794e-34,-6.919387e-35,-5.1902107e-34,-3.1777111e-34,-7.6013027e-35,0.024830563,2.6964155e-34,1.6886436e-34,-1.5328824e-12,-4.633473e-34,4.4755813e-34,-0.04351017,4.1425973e-34,-4.602384e-34,-3.3758728e-35,2.3441754e-34,1.2665906e-35,-1.4606565e-34,-0.049742866,4.79131e-34,-1.4678761e-34,-4.7998827e-35,-1.1065322e-35,-4.6142378e-34,-3.4865128e-34,0.036964558,-2.0399446e-34,2.5205978e-34,3.5380458e-34,-4.157841e-34,-1.7094543e-34,-2.1300688e-34,-5.273057e-34,-0.041148208,3.2607405e-34,-1.8338917e-34,1.1147934e-35,-5.6601816e-34,8.995691e-35,2.5114432e-34,-4.2307144e-34,-1.3877964e-34,2.5902215e-34,2.4354367e-34,2.9857694e-35,-3.7550614e-34,-4.6982875e-34,-0.04585412,2.1294964e-34,-1.3850877e-34,5.266127e-34,-1.04088e-34,1.046572e-34
neuron_16,-2.072361e-34,-1.7581254e-34,-5.6869526e-34,1.7301438e-34,4.507084e-34,-2.8280213e-35,5.3975523e-34,-5.125954e-35,-1.5254681e-34,2.3353358e-34,-2.8610205e-34,6.432568e-35,2.3887914e-34,-2.5057694e-34,-3.8442196e-34,-1.3802519e-34,-1.9930665e-34,1.7311207e-34,5.572569e-34,4.291115e-34,-3.7740791e-34,-3.5558585e-34,-1.0787176e-34,-1.7863368e-34,5.349595e-34,5.790172e-34,5.135037e-34,4.486835e-35,3.8905385e-35,-3.2611864e-35,-2.7333646e-34,2.2217477e-34,2.196525e-34,-4.2148016e-36,5.2245544e-34,-3.4185504e-34,-1.73108e-34,5.3343883e-34,1.073828e-34,-2.384168e-34,-2.9785865e-34,-3.19963e-34,1.4709604e-34,-5.084136e-34,1.6931022e-34,2.0225074e-34,-4.259056e-34,-5.148556e-34,2.494554e-34,-2.1155427e-34,3.5391648e-34,1.8241388e-34,-3.5765864e-34,-2.0601067e-35,-3.0406861e-34,-4.065384e-34,2.7624974e-34,3.8531906e-34,2.1631867e-34,-5.652035e-35,-5.53862e-34,9.5892054e-35,-2.6120086e-34,3.2442446e-34,1.3663407e-34,5.7860367e-34,5.3986924e-34,-4.0504215e-34,1.9859144e-34,-1.7274446e-34,-1.8010011e-34,5.453522e-34,-2.6714151e-34,-4.4245617e-34,-4.722156e-35,1.14142e-34,3.433779e-34,2.4573257e-34,5.0433814e-34,3.216841e-34,-4.82319e-34,-1.3462581e-34,-2.7239855e-34,5.583016e-34,2.8960778e-34,-3.912111e-34,3.2044582e-34,-5.9306105e-34,-2.9281991e-34,-7.26124e-35,-1.1912886e-34,-2.878348e-34,-1.3995594e-34,4.401215e-34,1.3010381e-34,2.5592505e-34,-4.5726804e-34,-4.416143e-34,6.153938e-35,-4.0332807e-35,9.300508e-35,-3.470528e-34,5.8143413e-34,4.9090205e-34,2.8384965e-34,3.2086588e-34,1.0983522e-34,1.600203e-34,4.2108357e-34,3.122674e-34,-1.9320219e-34,5.366171e-34,5.47278e-35,-1.002579e-34,-4.3587643e-34,3.4001734e-34,-8.2682115e-35,-1.2343343e-34,3.2642755e-34,2.5351556e-34,4.1093914e-34,3.1526846e-34,7.209905e-35,-2.0493282e-34,-5.356705e-34,-3.2485484e-34
neuron_17,5.1587525e-34,4.7990236e-34,-1.324953e-34,-1.6182267e-34,2.5105625e-34,-5.070604e-34,-4.8574774e-34,-9.197153e-35,1.7515128e-34,0.032923043,-5.4499876e-34,0.026609635,0.03243013,4.6368036e-34,3.2190134e-34,3.4474598e-35,-1.6966017e-34,-1.9195326e-34,4.8098887e-34,-1.2981083e-34,-1.1793055e-35,5.7121522e-34,-2.948365e-34,-3.1334464e-34,-1.3842276e-34,-3.5037499e-34,-5.60098e-34,2.210433e-34,-2.7804845e-34,0.025433702,0.037777748,5.7781195e-34,1.313468e-34,1.997186e-34,-0.03791773,-7.876668e-35,2.8286074e-34,-1.1983403e-34,3.277067e-35,-4.621582e-34,-2.6269792e-34,-1.8084441e-34,-0.03286322,3.6438e-34,4.503396e-34,-0.0392441,3.5423472e-34,5.524003e-34,-0.036902394,-0.02674259,2.203956e-34,-2.407761e-34,4.415785e-34,1.963227e-34,-4.6781335e-35,-4.4716526e-34,4.582436e-34,5.663234e-34,-5.3157452e-34,-1.8683109e-34,-3.2533445e-34,1.211003e-34,4.364532e-34,-2.5479155e-34,1.1791363e-34,-0.03153379,-4.5113003e-34,-5.199485e-35,-1.342461e-34,-4.81472e-34,-3.2058655e-35,-0.02628151,-3.473207e-34,6.093858e-35,3.8246116e-34,-1.6461443e-34,-9.1329345e-35,3.1865122e-34,0.028307844,4.496853e-34,4.910436e-34,-2.2118696e-13,-1.2963321e-34,1.4800663e-34,-0.034847822,-4.5779347e-34,5.4657925e-34,-5.0124475e-34,-1.6605052e-34,1.3112752e-34,-2.3551172e-34,-0.043910835,5.052979e-34,-1.4448668e-35,6.134455e-35,-2.8060839e-34,4.6751624e-34,-4.499683e-34,0.034154624,-3.8871477e-34,1.1044196e-34,3.4725584e-34,-2.2987233e-34,5.18305e-34,-2.3041942e-34,-1.3977546e-35,-0.036517784,-2.2645017e-34,2.2382595e-34,2.6263258e-34,2.5768696e-34,3.922682e-34,4.1673424e-34,5.532004e-34,-3.2446406e-34,2.1054107e-34,-4.2170065e-34,-1.9964495e-34,2.844596e-34,-2.0921538e-35,-0.03867603,3.790371e-34,-3.3850038e-34,-3.070008e-34,2.8703552e-35,2.6639677e-34
neuron_18,-3.718982e-34,-5.881214e-35,-5.256081e-34,7.887405e-35,-2.7281957e-34,-2.1243474e-34,3.401006e-34,-4.9554287e-34,-1.295887e-34,3.8471588e-34,2.0361178e-34,2.4400117e-34,-4.3153233e-34,-1.3127333e-34,-1.757123e-34,-9.402767e-35,-4.717504e-34,-1.2732745e-34,3.806297e-34,-5.551507e-35,-1.053383e-35,3.109594e-35,2.9562971e-34,1.3518076e-35,3.2243562e-34,-1.8632208e-34,1.0637573e-34,-2.2684515e-35,2.1783508e-34,-3.5131956e-34,3.355925e-34,4.973796e-34,-4.585089e-34,2.854351e-34,-3.3204627e-34,-2.011662e-34,-2.9567956e-34,5.3419436e-34,5.2489538e-34,-3.007383e-37,-4.166988e-34,3.895625e-34,-1.2345938e-34,-4.6424377e-34,-4.124599e-34,-2.1970903e-34,-2.298328e-34,-2.0257332e-36,4.8082008e-34,-5.663631e-34,5.3395306e-34,-2.1224512e-34,-6.5380215e-35,-7.0856136e-35,9.2785374e-35,4.9873085e-34,-3.4714988e-34,-3.5989748e-34,-6.941816e-35,1.9377492e-34,-4.68763e-34,-5.6470455e-34,2.6799356e-34,2.0896567e-35,3.142741e-34,2.3005166e-34,5.0994984e-34,4.1259645e-35,2.3224713e-34,-3.9547974e-34,-1.2328989e-34,-2.9583774e-34,-5.0885534e-34,3.6373744e-37,5.0127754e-34,-1.9622261e-35,-3.3306393e-35,4.41644e-34,-1.4135338e-34,3.786033e-35,-2.911581e-34,3.6109292e-34,-3.8792067e-34,-3.0349726e-34,-8.646415e-35,-5.154473e-34,-5.6843245e-36,-2.8482008e-34,-3.6840507e-34,-1.5005482e-34,5.555238e-35,2.0833608e-34,3.4651239e-34,-3.351857e-34,-1.305913e-34,-5.6884353e-34,3.9485195e-34,-8.2737204e-35,-2.3075762e-34,1.6891562e-34,2.1845332e-34,-2.4515844e-34,-4.2583725e-34,-4.723769e-34,1.8069392e-34,2.6549564e-34,-1.8467103e-34,7.5948915e-13,-1.6597803e-34,5.323589e-34,-3.4041485e-34,-2.1435762e-34,1.3225735e-35,2.7984555e-34,-1.4943839e-34,2.0332574e-34,-1.4617377e-34,5.2737236e-34,1.3985349e-34,-1.3690272e-34,-1.2308208e-34,-2.0518621e-35,5.3773806e-34,4.6751197e-34,1.8026215e-34,4.788141e-34
neuron_19,-3.7185219e-34,4.2042855e-34,1.5188085e-34,-2.9046368e-35,7.038252e-35,-2.585721e-34,-1.531277e-34,5.5888897e-34,8.873522e-35,-6.880273e-35,-3.9003954e-34,2.0569039e-35,4.0963485e-34,-2.4668089e-34,-4.8760066e-34,-4.884832e-35,-4.7245285e-34,-1.6160346e-34,-1.786193e-34,-1.7026588e-34,-4.041225e-34,8.0829626e-35,-3.1179356e-34,4.7042843e-34,-6.2421574e-35,5.6254366e-34,-5.1639393e-34,2.5078187e-34,-4.9550907e-34,-2.6356902e-34,-1.9009413e-34,-5.2275744e-34,2.5276802e-34,4.2799827e-34,1.9133254e-34,1.9115965e-34,5.6503575e-34,-1.0672265e-34,-7.271709e-35,-2.7195337e-34,-1.632791e-34,-1.3313188e-34,-4.460825e-34,3.031565e-34,3.369472e-34,2.320751e-34,4.3102726e-35,9.277674e-35,-4.6450256e-35,4.6382493e-35,-1.452746e-34,-4.43261e-34,1.7878638e-35,-5.8646745e-34,4.290168e-34,5.8317273e-35,4.538144e-34,-1.7954059e-34,4.3370084e-34,2.4097995e-34,3.899283e-35,1.5102714e-34,4.9582884e-34,3.7664524e-34,-2.8559333e-34,4.125302e-34,1.2743429e-34,-1.0809995e-34,3.0015371e-34,1.9619407e-34,-3.71831e-34,2.0881975e-34,3.968409e-34,-3.165211e-34,-4.088192e-34,-2.6971167e-36,1.7519109e-34,8.293587e-35,3.4872946e-34,-1.5691027e-34,-5.9194442e-34,-9.513388e-36,3.4190874e-34,-2.4956836e-35,3.3732215e-34,-3.3178606e-34,-4.5465458e-35,3.1853766e-34,1.1684634e-34,-4.0460956e-34,-3.9260042e-35,-6.715491e-35,-1.3215082e-34,-1.6944816e-34,3.2092093e-34,4.947092e-35,2.2740237e-34,7.3703347e-35,-2.1206538e-34,3.104451e-34,3.2824745e-34,5.918141e-34,2.7628738e-10,3.1020722e-34,-1.8235259e-34,-4.1839237e-34,4.6840706e-35,-1.6719607e-34,5.4664028e-34,-5.6250747e-34,-3.4794077e-34,2.1595948e-34,-3.4850423e-34,-4.352339e-34,-3.8003044e-35,-2.2752543e-34,-2.2586417e-34,-7.4357165e-10,-9.337408e-35,-4.108146e-36,1.6847826e-34,2.9585698e-34,2.9868783e-34,5.2610705e-34,5.2323233e-34,-6.775594e-05
neuron_20,2.7663028e-34,-2.0183311e-34,7.54852e-35,-2.575947e-34,-1.5291395e-34,-1.558406e-34,1.679595e-34,2.3403094e-34,-3.605087e-34,-0.012916072,-3.004195e-34,-0.018840238,-0.01485879,4.52749e-35,-2.1042804e-34,-4.6354437e-35,2.2120673e-34,1.9958232e-34,-5.312541e-34,-3.1111656e-35,2.4834375e-34,-1.1149613e-34,-1.1054365e-34,4.5421864e-34,1.5213619e-34,2.1868406e-34,-2.36153e-34,1.6590406e-34,4.3879257e-34,-0.014089406,-0.023816427,-8.2414116e-35,-2.936385e-34,-1.8690785e-34,0.030247796,-1.9145513e-34,-1.0391e-34,1.2302378e-34,4.24426e-35,8.600758e-35,2.3053354e-34,3.1479987e-34,0.032669257,-4.185366e-35,-2.733332e-34,0.04925795,-2.6065187e-35,-3.668559e-34,0.02927908,0.044338264,-1.6844731e-34,2.8604668e-34,3.731483e-34,-4.36394e-34,2.5086643e-34,-4.068671e-34,1.1573913e-36,5.622603e-35,3.7329641e-34,2.0263585e-34,4.392704e-34,-3.1801884e-34,2.420859e-34,3.918914e-34,1.2639032e-34,0.045177177,-2.2036419e-34,4.2354425e-34,2.1979373e-34,3.4868968e-35,-4.1203887e-34,0.013229693,4.9006387e-34,3.0019993e-34,-1.6462479e-34,-7.7320414e-35,1.6865929e-34,3.7840013e-34,-0.007827046,-3.051363e-34,4.1277245e-34,4.654875e-13,-3.061498e-34,2.2112119e-34,0.05045046,-1.9480742e-34,2.8924772e-34,-5.2251385e-34,-3.6521985e-34,2.9784088e-34,-3.606575e-34,0.05009831,2.2682578e-34,-6.692343e-35,4.6447823e-34,1.3458416e-34,4.9038043e-34,-1.9155698e-34,-0.020689005,1.5738856e-34,-2.7508682e-34,9.763192e-35,9.803953e-35,1.257039e-34,2.7791283e-34,2.2699746e-34,0.028526273,-5.576355e-34,2.36651e-34,-4.1745717e-34,-2.8824453e-35,2.178759e-34,-3.2512805e-34,-1.5590269e-34,2.1934495e-35,-4.4725195e-34,-5.062422e-34,-3.326819e-34,-5.276669e-35,-2.8920945e-34,0.038809676,-3.2078768e-34,-4.2089154e-34,3.7859606e-34,1.80454e-35,-5.7978247e-34
neuron_21,1.6232039e-35,5.307793e-34,1.7286339e-34,-4.505967e-34,4.6664485e-35,5.2561697e-34,-2.9641254e-34,4.1361376e-34,2.8142662e-34,0.045847148,-5.1723404e-34,0.044975817,0.03822047,-2.639973e-34,2.6279526e-34,-5.303969e-34,2.2505983e-34,2.2270565e-34,-2.2411388e-34,-5.305594e-35,-3.961021e-34,2.6541347e-34,3.50893e-34,2.062239e-34,-1.0755327e-34,2.174126e-34,4.363378e-34,4.3770405e-35,-3.7408928e-34,0.032810606,0.049519464,-9.5452724e-35,-4.7947386e-34,-3.4112736e-34,-0.042068023,-3.068986e-34,-4.966543e-35,3.1475824e-34,2.1332311e-34,1.4781773e-34,-2.249268e-34,-3.7416943e-34,-0.036895953,7.7200764e-35,1.7328164e-35,-0.049557004,-1.7857933e-34,3.7224884e-35,-0.041156203,-0.033239424,3.4279812e-34,1.2799344e-34,-1.2103207e-35,8.293434e-36,-3.070794e-34,2.804305e-34,2.7186333e-34,1.5345548e-34,-1.6774207e-34,2.5908929e-34,4.441889e-34,1.8057334e-34,-1.1050961e-34,4.354434e-34,1.6950773e-34,-0.036774535,-1.5153893e-34,-1.9914504e-34,-3.4997695e-34,2.83557e-34,2.4480967e-34,-0.029593522,2.880628e-34,-5.7304477e-34,-3.816124e-34,-3.7064476e-34,6.6063196e-35,-5.4859972e-34,0.03450046,4.84629e-34,1.4915735e-34,-1.169309e-14,6.36498e-35,5.4195673e-35,-0.04637742,-2.6576258e-34,-3.881698e-34,-3.531207e-34,-5.529294e-34,-5.3359826e-34,-5.3696394e-34,-0.05314201,9.1015985e-35,1.3291083e-34,3.191737e-34,-4.3698572e-36,2.8433851e-34,1.9940324e-34,0.03732304,4.593626e-34,4.5400517e-34,-1.089956e-34,-4.9298966e-34,2.4111423e-34,-8.2275874e-35,5.654907e-35,-0.049101252,-2.5799162e-34,-1.000894e-34,-1.0201264e-34,7.100732e-35,-2.8968658e-35,-1.219063e-34,7.386834e-36,-4.2971877e-34,-8.55162e-35,5.2532705e-34,-4.366928e-34,1.6509362e-35,-1.5906631e-35,-0.047531016,-5.117946e-35,1.6637505e-34,4.092548e-34,2.7040723e-34,4.465424e-34
neuron_22,1.7596861e-34,-1.1661379e-34,5.3114844e-35,-1.2805529e-34,-5.2248554e-35,3.3409627e-34,4.1837515e-34,-2.5527506e-34,-4.2062347e-34,0.038465943,4.768125e-34,0.029413674,0.03291817,-3.5557327e-34,-5.119695e-34,2.8696694e-34,2.6243162e-34,1.0399492e-35,-3.8759832e-34,9.813475e-35,-4.0851087e-34,-1.1633606e-34,-7.517504e-35,2.1924806e-34,4.136866e-35,3.1773089e-34,-4.8120386e-34,2.8768854e-34,-9.1681993e-35,0.027690632,0.042402297,2.6235693e-34,4.530076e-34,-1.9394119e-34,-0.031714223,4.368237e-34,6.678054e-35,4.2224423e-35,4.2114533e-34,4.2657593e-34,4.2309495e-34,3.5095536e-34,-0.029256426,-2.629985e-34,3.251237e-34,-0.040305115,9.90182e-35,-3.959277e-34,-0.032958224,-0.030317752,3.836428e-34,1.3567659e-34,-1.8007086e-34,3.1350418e-34,-7.798698e-35,1.54865e-34,2.9076401e-34,-2.9076372e-34,-2.1789147e-34,1.5297507e-34,4.1114646e-34,-2.4585602e-34,1.8344613e-34,7.6510517e-35,-5.854368e-34,-0.033190705,-2.1617915e-34,6.806817e-35,-3.2691807e-34,5.5067493e-34,3.599138e-34,-0.016167533,4.8080327e-34,-3.3419304e-34,-5.611314e-35,-2.465569e-34,-2.721093e-34,5.039408e-34,0.0285722,1.2207713e-35,-1.873308e-34,-2.3752129e-12,-2.942871e-34,4.4762485e-34,-0.037942585,-4.8670953e-35,1.0315372e-34,3.6841077e-34,8.091387e-35,-3.045136e-34,4.8388274e-34,-0.037668932,8.1686755e-35,3.6203913e-34,1.0979659e-34,-2.2972025e-34,1.5874385e-34,-2.358992e-34,0.03230661,5.0791068e-34,-8.011613e-35,-2.8380644e-34,7.173877e-35,-1.7735822e-34,2.8539853e-34,-1.4154931e-34,-0.03554948,-5.332586e-34,-3.0912304e-35,2.144716e-34,2.3634287e-34,4.913252e-34,7.469604e-35,1.8298778e-34,-2.5866436e-34,3.0136534e-34,1.7744478e-34,-5.865837e-34,1.7611148e-34,4.86017e-34,-0.02972815,1.8096808e-34,-4.031727e-34,-1.5720841e-34,-4.4538076e-34,-3.4552334e-34
neuron_23,2.8992443e-34,-3.4207088e-34,-1.119532e-34,-2.879606e-35,-4.621747e-34,-1.632583e-34,-3.7472322e-34,3.5787397e-35,-1.5715597e-34,-0.022822132,5.5431924e-34,-0.033776287,-0.022471447,9.6050194e-35,-1.0463751e-34,-3.0767828e-34,-4.6430755e-34,-5.4100484e-34,-4.812004e-34,4.306459e-34,3.942902e-34,-5.8040573e-35,-5.2949927e-34,-1.8650494e-34,4.72215e-34,6.353362e-35,-2.138088e-34,-5.343261e-34,-2.969358e-34,-0.013917129,-0.033267304,5.0555487e-34,1.966984e-34,-3.1058857e-34,0.040583592,-3.4155963e-34,2.3767116e-34,-5.755956e-34,-1.8152695e-34,2.2023128e-35,-2.7023504e-34,2.8401854e-34,0.040144756,4.3304294e-34,1.4129075e-35,0.06759202,-5.031426e-34,-5.550758e-35,0.043111496,0.06169485,-3.1258013e-35,-3.732937e-35,-1.3727933e-34,2.2319789e-34,3.0387183e-34,4.284801e-34,-1.5317013e-35,-7.952203e-35,3.0453603e-35,6.050157e-36,2.0767828e-34,2.290766e-34,3.8116745e-35,2.288079e-34,-5.1952506e-34,0.06264405,4.0515387e-34,1.277452e-34,4.325411e-35,-5.5553385e-34,-3.9000235e-34,0.025400506,5.4230045e-34,-3.1636316e-34,5.8486547e-34,6.439659e-35,4.5714603e-34,2.8603373e-34,-0.016949005,2.374967e-35,2.596443e-34,2.4761595e-13,5.3547675e-34,1.4592066e-34,0.06614642,3.3113345e-34,2.439238e-34,5.5938103e-34,1.0214183e-34,1.2142046e-34,-1.3209985e-35,0.07424151,-3.4244653e-34,4.964714e-34,1.9276953e-34,1.8694125e-35,-2.9338268e-34,-6.5101374e-35,-0.026000269,-4.8497954e-34,-4.8683503e-34,2.6090858e-35,2.8925096e-34,-3.6013593e-34,-9.95363e-35,1.1924522e-34,0.035292994,-3.597527e-34,4.7339013e-34,-5.4198417e-35,1.9224985e-34,2.4911636e-34,1.5081312e-34,-5.504615e-34,1.3368399e-34,-2.6404012e-34,4.029573e-34,-2.5117095e-34,-2.713062e-34,-3.906253e-34,0.05840986,-2.09016e-34,3.9472696e-34,-2.1086821e-34,1.1948749e-34,-4.177178e-34
neuron_24,-4.4186897e-34,3.1958874e-34,-2.200469e-34,-4.6414537e-34,2.7452412e-34,-4.974191e-34,-5.298433e-34,-5.0634456e-34,4.1594014e-34,-0.019804927,1.5179248e-35,-0.023995264,-0.016159926,-3.7344647e-34,-1.7349929e-34,-3.6344515e-34,-1.4168504e-34,4.0152756e-34,1.2865335e-34,-3.3557172e-34,-2.4996658e-35,-2.8634923e-34,4.065207e-34,1.275782e-34,-5.5813023e-34,1.4935138e-34,-5.527745e-34,-4.7622077e-34,3.3840253e-34,-0.016516529,-0.028977422,3.4062649e-34,2.5442914e-34,2.0280848e-35,0.03170236,1.2014976e-34,-2.8135016e-34,-1.813421e-34,3.252749e-35,-3.9423743e-34,-5.1069995e-34,-2.8824717e-34,0.03340479,-9.707509e-35,-6.2065803e-35,0.05092566,4.833261e-34,-5.8022516e-35,0.03123138,0.050873872,2.8293437e-35,-1.3120537e-34,1.733343e-34,1.7834766e-34,-7.8304603e-35,-3.9835653e-34,-1.2538276e-34,5.6987984e-34,4.5912284e-34,3.9489364e-34,5.6961724e-34,5.074401e-34,-3.690826e-34,-2.1757826e-34,3.8140613e-34,0.050942395,-1.8266712e-34,-2.4452785e-35,4.0916258e-35,4.2335613e-34,3.8014445e-34,0.014091198,2.3509612e-34,4.256161e-34,-3.5756883e-34,2.1261603e-34,-3.9899943e-34,-3.7962044e-34,-0.012874615,-5.7933555e-34,-4.9150835e-34,3.2010214e-16,4.568683e-34,8.6373006e-35,0.05125731,3.4606949e-34,5.0328956e-34,1.7361317e-34,3.3658224e-34,-3.1674921e-34,-2.7562098e-34,0.059686165,2.0537234e-34,4.219409e-34,-3.4270654e-34,1.640533e-34,-5.8618813e-34,1.9401245e-34,-0.017436065,-4.205337e-35,-8.0507186e-35,-5.655349e-34,-5.531296e-34,-5.7837307e-35,2.26509e-34,4.6896976e-34,0.031811897,-2.0312395e-34,-2.338866e-34,-3.8085783e-34,-3.7861626e-34,-1.987873e-34,1.6224065e-34,4.8267075e-34,1.0957518e-34,-1.2384235e-34,3.969272e-34,1.2756042e-35,-3.8190622e-34,-5.284872e-34,0.046309352,-4.0444105e-34,1.8382332e-34,4.3574037e-34,-3.0472992e-34,-1.873547e-34
neuron_25,1.4443118e-34,-3.2035473e-35,2.4216444e-34,-3.759813e-35,5.5045376e-35,-3.2034407e-34,-2.3770805e-34,1.5097347e-34,-6.455219e-35,2.888062e-34,-7.44938e-35,5.083277e-35,-5.4452774e-34,5.796222e-34,-9.5629886e-35,-3.5051784e-34,3.2816528e-34,-1.3729031e-34,-2.2048403e-34,-3.7868693e-34,1.8974799e-34,4.7370944e-34,5.594442e-34,2.4483463e-34,4.460437e-34,-5.196868e-34,-5.6078253e-34,4.288313e-34,-3.450681e-34,-1.6675003e-34,2.4207682e-35,2.499637e-34,1.5199383e-34,-5.254956e-34,-8.194702e-35,-1.0732674e-34,-5.61743e-34,2.1732905e-35,1.3924869e-34,4.617681e-34,-6.9975904e-35,-5.2919286e-36,2.558329e-34,-1.3778573e-34,-6.239161e-35,-5.7680635e-35,-2.5596073e-34,2.7323632e-34,-3.0144122e-34,-4.7106616e-35,-1.5838271e-34,-1.2465987e-34,5.6943807e-34,5.7825083e-34,-2.6374238e-34,4.8717913e-34,8.0757547e-35,-7.426841e-35,-3.166938e-34,-4.5849505e-34,3.2525713e-34,3.0194744e-34,-3.1106696e-34,3.0720998e-34,-2.2002132e-34,2.9461358e-34,7.0076223e-38,3.9867447e-34,-4.83474e-34,9.4770914e-35,-4.4381033e-34,-2.4986262e-34,1.7689574e-34,-5.3467085e-36,-5.3583868e-34,-5.255944e-34,-5.7560694e-34,5.6209137e-34,-3.3462435e-34,2.3482695e-34,4.19657e-34,5.428445e-34,-3.1759828e-34,-2.3048547e-34,-2.3068714e-34,3.0718239e-34,-2.5050375e-34,-1.9967985e-34,2.7290646e-34,8.244383e-35,-4.1121915e-34,8.032726e-35,-5.331267e-34,-2.2802382e-34,-2.2372348e-34,-2.8268205e-34,-5.0439085e-34,-4.3440614e-34,2.4067046e-34,-2.8476936e-34,2.3270313e-34,4.3013216e-34,-1.7674766e-34,-3.141661e-34,3.9526613e-34,1.0556807e-34,-4.839033e-34,1.5705188e-34,3.802426e-35,-4.97671e-34,-3.3998871e-34,-3.618773e-35,2.68408e-34,-2.382672e-36,3.5889349e-34,-2.5276054e-34,4.058571e-35,2.667594e-34,-5.7208353e-34,-4.1136434e-34,-4.2179433e-34,-5.5632662e-34,1.490413e-34,-3.3613254e-34,9.3353055e-35,1.6734326e-34
neuron_26,-3.2770142e-34,-3.986549e-34,-8.0775977e-35,2.622234e-35,3.1227207e-34,1.5486911e-35,7.902789e-36,-3.593641e-34,-3.6185783e-35,2.759326e-35,1.8593077e-34,5.0373074e-34,5.0805683e-34,-5.1925723e-34,2.3339137e-34,-3.2327986e-34,-5.662509e-34,-2.0961486e-34,-3.4511187e-34,1.980506e-34,-3.7354277e-35,-2.4604743e-34,-3.889375e-34,3.0219441e-34,-5.205406e-35,4.187471e-34,1.3185626e-36,-1.3367403e-34,-4.4251173e-34,-5.1639706e-34,1.9115949e-35,4.6146083e-34,-1.3002253e-35,-2.3492562e-34,-3.953226e-34,4.5210505e-34,-3.3563876e-35,3.5059515e-35,1.1545629e-34,2.4908156e-34,-3.7486547e-34,2.9001638e-35,4.804978e-34,-5.4302145e-35,5.0091584e-34,-2.7662725e-34,-1.9947423e-34,5.8166913e-34,5.682581e-34,2.8104518e-34,2.2547339e-34,2.1688791e-34,5.8041916e-34,4.0207784e-35,-2.091193e-34,3.724256e-34,-2.5008651e-34,-8.36153e-36,3.8235635e-34,4.9644364e-34,-1.6446397e-34,5.7994887e-34,-9.1440236e-35,-2.418656e-34,-2.6378734e-34,-3.2836404e-35,-4.7065513e-34,5.070181e-34,-3.5755914e-34,3.3670112e-34,2.2761435e-34,4.704886e-34,4.0240827e-34,-1.7763005e-35,-1.2464044e-34,3.7104112e-34,-3.9379823e-34,-2.237954e-34,4.453184e-34,5.145303e-34,1.2381064e-34,-8.0475945e-35,-2.4101402e-34,-2.7903869e-34,-1.2977912e-34,2.3441251e-35,-5.282643e-34,-5.0226197e-34,5.191266e-34,1.2800186e-34,2.4215905e-34,2.3550662e-34,2.648757e-34,4.956055e-34,-4.2765403e-34,1.1041839e-34,-4.9654466e-34,-1.1917745e-34,-5.733903e-34,-4.1690156e-34,2.0062653e-34,2.856601e-34,5.9287623e-34,-6.1130275e-35,-4.337592e-34,-3.2572857e-34,2.7466107e-34,-2.428649e-34,-2.0072473e-34,-4.3394954e-34,-3.8924374e-34,-3.868114e-34,5.302057e-34,-4.1747884e-34,-1.6383407e-34,3.952911e-34,5.4999847e-34,1.6506962e-34,-9.166871e-35,-2.2885915e-34,-2.6221798e-34,-5.6837007e-34,3.687746e-34,-2.315136e-34,-2.3979552e-34,1.1378021e-34
neuron_27,2.1148172e-34,-8.776903e-35,1.4182103e-34,-5.3920266e-34,-3.1703078e-34,2.025661e-34,-6.487333e-35,-4.0709546e-34,-4.5268333e-35,0.036786657,-2.7237577e-34,0.029410006,0.034780975,2.9204073e-34,3.613202e-34,5.3046065e-35,3.0910776e-34,-1.1209877e-34,1.8718525e-34,4.6060144e-34,2.1693838e-34,1.4939617e-34,2.7321198e-34,-4.216698e-35,4.352361e-34,5.765366e-34,5.026163e-34,2.1406944e-34,1.3840724e-34,0.024644386,0.04109254,-5.176757e-35,-3.4227236e-34,5.0614665e-34,-0.03606853,2.9438142e-34,2.6575184e-34,3.9616134e-35,1.0638499e-34,-3.8413103e-34,7.583573e-35,1.3441567e-34,-0.034698773,-1.3006373e-34,1.0284011e-34,-0.042729538,-1.0886616e-34,4.231155e-34,-0.034170438,-0.028380971,-5.067576e-34,-2.6357095e-34,-9.311706e-36,2.7991012e-34,-5.819543e-34,9.5243236e-35,-5.1972775e-34,1.1312104e-35,4.079391e-34,-1.4271968e-34,2.41357e-34,5.067322e-34,-1.1675506e-35,-3.9961964e-34,1.1185857e-34,-0.03412545,1.6566873e-34,-9.2033746e-35,-2.4049333e-34,2.3545574e-34,-4.9464564e-34,-0.023692112,1.4426831e-34,2.3886008e-34,3.8955754e-34,6.2836326e-35,1.0435189e-34,1.2293902e-34,0.028957216,3.9145087e-34,-2.796437e-34,-6.3497666e-13,1.5695939e-34,-4.3407113e-34,-0.040237185,2.880717e-34,-1.6002351e-34,5.054903e-34,5.0155405e-34,-3.5654335e-34,4.290705e-34,-0.047129236,8.1344335e-35,1.9489338e-34,-1.999144e-36,-1.2297983e-34,-4.864329e-34,-1.6666361e-34,0.034391087,-1.5524529e-34,-2.5713225e-34,-2.4173823e-34,2.94337e-34,1.3384147e-34,-3.085078e-34,2.228651e-34,-0.03604462,1.0899257e-34,-2.0217742e-35,5.4835654e-34,-5.586745e-34,3.4056252e-34,-1.0296986e-34,4.5700015e-34,-2.070197e-34,-3.427905e-34,-4.8539078e-34,3.4652398e-34,1.6641453e-35,2.8594965e-34,-0.039908342,5.7989576e-35,4.3666823e-34,3.86605e-34,-8.3904215e-35,3.9414987e-34
neuron_28,-1.2103138e-35,4.823685e-34,1.8791616e-34,-2.8024378e-34,3.180143e-34,3.9878187e-34,3.279128e-34,4.4144345e-34,-4.176247e-34,0.040712807,4.102696e-34,0.0315121,0.038470373,-1.9242758e-09,4.3907882e-34,1.2077233e-34,3.6385655e-34,3.6828892e-34,3.0226864e-34,5.472475e-34,3.8791947e-34,-1.2144494e-34,3.3972595e-34,-5.0179833e-36,-1.3740638e-34,4.750812e-34,-2.6466003e-34,-2.7308593e-35,-8.266834e-35,0.028617414,0.047176287,5.813924e-34,-4.425097e-34,1.6757099e-34,-0.044276286,-4.6853598e-34,-1.9638355e-34,5.5785307e-34,-4.976538e-34,-1.6027234e-34,-3.9603277e-34,4.5872143e-34,-0.029284883,-1.6007894e-34,-3.546203e-34,-0.048655737,6.811309e-35,-3.3579456e-34,-0.043318957,-0.029381322,-2.9543984e-35,2.196667e-34,4.3997753e-34,-2.5799943e-34,1.1091554e-34,-4.4985485e-34,-2.1882445e-34,-4.572765e-35,-2.9189166e-35,-2.3729675e-34,-1.4640918e-34,3.279968e-34,-3.8249532e-34,5.0963466e-34,-8.0497945e-36,-0.037082326,3.2146781e-34,2.1295814e-34,-1.4933186e-35,-4.8908417e-34,-2.474975e-34,-0.03154334,-1.2249418e-34,-1.6746786e-34,-8.5737665e-35,-4.919702e-34,4.663108e-35,6.265201e-36,0.036785956,4.301466e-34,-5.096625e-34,-1.3272811e-14,-2.4333752e-34,-9.337675e-35,-0.04664592,-7.615624e-35,5.4437143e-34,-2.1342202e-34,-6.26544e-35,-8.689479e-35,9.001876e-36,-0.05315201,4.609443e-34,2.7795726e-34,-3.4384564e-35,-8.9752753e-35,-3.946415e-34,-1.7388046e-34,0.042056356,1.6092288e-34,2.2505514e-34,-2.6091748e-34,1.9325054e-34,-2.4607776e-34,-4.431096e-34,-4.284713e-34,-0.043839224,3.6250189e-34,9.404507e-35,3.3219342e-34,-4.9819398e-34,3.9077445e-34,-2.6505226e-34,-1.8600043e-34,-3.9568926e-34,3.520338e-34,-3.278355e-34,-3.2238057e-34,-2.9964416e-34,-1.6673009e-34,-0.04789062,-3.7037063e-34,-2.3116337e-35,-1.3598908e-34,-3.9069942e-35,2.9302135e-34
neuron_29,1.7798593e-34,-5.23978e-34,-3.9040595e-35,-4.6789703e-34,-1.243494e-35,-3.7359626e-34,-2.515326e-34,3.7542443e-34,-2.1319812e-34,0.045235794,2.0360246e-34,0.034282535,0.038678266,2.3940412e-34,-5.885861e-35,-3.8015389e-34,-7.1888924e-35,1.427707e-35,-2.130626e-35,5.0883955e-34,3.9102526e-34,-1.0096762e-34,3.990513e-34,-1.1034189e-34,-1.6149766e-34,-1.2357876e-34,2.1786344e-34,1.0303976e-34,5.8133993e-36,0.030580316,0.05091665,3.931684e-34,1.1260354e-34,-2.3585885e-34,-0.05120241,2.1839181e-34,-2.8839725e-34,-5.571516e-34,-4.414364e-34,1.257056e-34,-2.3071244e-34,-2.7445454e-34,-0.035696276,-5.0733546e-34,-2.9675385e-34,-0.048051175,1.4667383e-34,5.436992e-34,-0.042468593,-0.035173748,-5.0746677e-35,4.5944054e-34,-4.888999e-34,8.034443e-35,-1.1722584e-34,-3.9879766e-34,1.7356703e-34,-3.8328138e-35,2.4723323e-34,-2.1251187e-35,4.837791e-34,2.5312104e-34,-2.694098e-34,3.2503153e-34,-4.062817e-34,-0.038190834,-5.6324142e-34,4.0080307e-34,-3.2823012e-34,2.8340118e-35,-2.9120216e-34,-0.027537882,-4.2301983e-34,-4.964273e-34,1.3604476e-34,-3.324907e-34,-1.4816675e-34,2.674446e-34,0.035898596,-3.1889015e-37,-1.5573243e-34,-5.0031404e-14,5.244422e-34,-2.3459022e-34,-0.048086945,3.6405152e-35,-8.3114964e-35,-4.3099574e-34,-2.7524457e-34,1.6323185e-35,5.6362084e-35,-0.056829356,2.5236242e-35,4.4993626e-34,5.578562e-34,-2.2727535e-35,1.0203527e-34,2.2157233e-34,0.0386762,-1.0007358e-34,3.9711946e-34,-4.07239e-34,-4.753846e-34,-2.887427e-34,3.4769215e-34,-5.7642225e-35,-0.048579723,4.6749116e-34,-5.394157e-34,3.6344045e-34,-2.7827779e-34,-4.0228815e-34,-1.6508544e-34,7.1885015e-35,3.3022463e-34,-1.3254906e-34,9.474669e-35,1.3740184e-34,3.5974388e-34,4.3953543e-34,-0.048209928,-2.945011e-34,-5.2162925e-34,-1.3491656e-34,-3.3521361e-34,2.920534e-34
neuron_30,3.153001e-34,-2.2659043e-35,-1.7187316e-35,-1.5109094e-35,-3.2920263e-34,2.4052467e-34,-5.5467694e-34,1.2301771e-34,7.6416684e-35,0.031919785,5.3507254e-34,0.023882864,0.027185785,3.849957e-34,4.270145e-34,5.403072e-34,-4.8239786e-34,-2.4824306e-34,-2.1573687e-34,3.2255397e-34,-1.7574665e-34,-1.8841054e-34,3.3944372e-34,-4.5312515e-34,-4.391906e-34,-1.7259501e-34,-5.7862865e-34,6.83877e-35,2.7989479e-36,0.02159304,0.03478715,9.1819993e-35,-5.1871553e-34,3.6107972e-34,-0.031552233,1.4962166e-34,-2.1185914e-35,3.0428062e-34,-3.5698707e-35,5.197677e-34,2.1921675e-34,3.2234496e-34,-0.024603786,3.5806e-34,-8.014703e-35,-0.03521708,-5.4406544e-34,-1.8389195e-34,-0.02769139,-0.032427594,1.4961019e-34,1.9370257e-34,9.386056e-35,-3.1736428e-34,-2.2133135e-35,-8.277982e-35,1.499602e-34,2.1778235e-34,-4.114188e-34,-5.0355124e-35,-1.8928301e-34,2.7032736e-34,2.3169418e-35,-4.263348e-34,-3.1723185e-34,-0.033487268,4.20711e-34,-9.3227573e-35,3.770865e-34,-1.9222855e-34,-4.589021e-35,-0.017366601,-9.428709e-35,1.8382881e-34,5.345297e-34,3.5189659e-34,-4.5614048e-35,1.6024908e-34,0.020838518,-3.2179936e-34,-7.889413e-35,-1.3176832e-16,1.0314648e-34,3.921813e-34,-0.03686296,-1.347286e-34,-7.68113e-35,-8.842895e-35,-1.8359569e-34,-1.4207741e-34,-2.3672835e-34,-0.040997718,4.8056356e-35,3.476447e-34,1.1869072e-34,-4.685612e-34,4.5572607e-34,-1.1460794e-34,0.027806526,-8.791421e-35,-3.492963e-34,-5.225663e-34,-2.0594275e-34,-3.9217485e-34,2.960544e-34,-4.383005e-34,-0.03033409,-4.867737e-34,-2.3673774e-34,1.5008253e-34,4.507186e-34,-2.3278859e-34,3.923429e-34,3.0950302e-34,1.9353183e-35,5.422815e-34,-2.2672508e-34,-4.8749147e-34,-4.059385e-35,-6.8663564e-35,-0.03520983,1.2140432e-34,2.5368794e-34,-1.401034e-34,-6.438706e-35,9.021919e-36
neuron_31,5.2325336e-34,-1.8886535e-34,-7.097953e-35,5.723052e-34,-3.6812989e-34,3.416642e-36,3.6240404e-34,4.3187075e-34,3.8329684e-34,0.038909204,4.460688e-34,0.033506636,0.033494674,1.4722112e-34,-3.4737989e-34,2.6858691e-34,-9.781291e-35,-3.2581745e-35,3.2305225e-34,1.09176e-34,-2.381763e-34,2.0548061e-34,3.253974e-34,4.0593746e-34,-3.2749883e-34,3.2219398e-34,-6.2694945e-36,-2.7939788e-34,-3.481149e-35,0.031277504,0.045085303,5.714825e-34,-1.3825797e-34,3.4004976e-34,-0.041328266,1.8418819e-34,-1.577949e-34,-3.2179162e-34,-2.5353457e-34,-5.745922e-34,-4.154367e-35,4.9154403e-34,-0.03317405,4.0595358e-34,2.2230173e-34,-0.04500571,4.015105e-34,2.2303903e-34,-0.037236318,-0.03133047,-4.280527e-34,3.0035554e-34,-2.9221837e-34,5.111423e-34,-3.508431e-34,-2.8180847e-34,-3.854408e-34,-2.0017796e-34,-2.2749223e-34,7.126888e-36,5.0109506e-34,-2.7436135e-34,5.322797e-34,5.3478436e-34,2.8190653e-34,-0.036020696,2.2493651e-34,1.3776329e-34,1.4963649e-34,-2.5749204e-34,4.3429116e-34,-0.024126107,9.264415e-35,-1.0127508e-34,4.28427e-34,3.5004289e-34,-2.0433063e-34,2.059497e-34,0.027240818,4.920708e-34,8.3385534e-35,-4.603322e-15,3.854799e-34,4.4188784e-34,-0.042018652,2.4432411e-34,3.6137977e-34,-3.0812168e-34,3.3513124e-34,-1.9736245e-34,1.2302684e-34,-0.048019506,1.0566694e-34,-2.2753514e-34,2.9966845e-34,1.4557008e-34,-3.1896408e-34,6.708382e-35,0.034658678,3.2245576e-34,3.8087987e-34,2.8750284e-34,-2.8772722e-34,4.4979543e-34,8.0641656e-35,-3.1809258e-34,-0.0450287,5.261557e-34,2.994612e-37,4.138607e-34,-1.6802016e-35,1.3366427e-34,-2.7683186e-34,1.5960703e-34,-1.0211781e-34,-3.2302945e-34,2.0565512e-34,-1.6829557e-34,2.6664918e-34,-2.381276e-34,-0.040489577,-1.1063546e-34,-5.5574696e-34,-7.567657e-35,-1.4187152e-34,5.5579687e-34
neuron_32,-1.2607845e-34,-5.4131634e-34,-3.2405997e-35,4.6385472e-35,-2.6338755e-34,1.2488776e-34,1.1050737e-34,-1.1252557e-34,-1.5544287e-34,3.5240384e-34,1.6903373e-35,4.359563e-34,2.3639843e-34,-1.8137832e-34,-3.9484497e-34,-5.2963184e-34,-2.2913034e-34,-4.4879628e-35,3.0143422e-34,3.9042833e-34,1.3499161e-34,2.9388456e-34,-5.258386e-34,4.457152e-12,3.1031894e-34,3.066646e-34,-1.4049323e-34,-1.9508256e-34,1.322572e-34,-3.1662041e-34,-5.1116266e-34,-5.35209e-34,5.1268966e-34,3.5141945e-34,4.4184893e-35,5.155191e-34,-1.1002231e-34,-1.6134578e-36,-3.275291e-34,1.6193045e-34,5.201006e-34,-1.1042977e-34,1.241567e-34,-5.711562e-34,5.3755145e-34,-5.2648096e-35,7.260629e-35,5.186285e-35,-3.1878075e-34,3.5315767e-34,1.8205866e-34,3.499961e-35,8.4616147e-35,1.634231e-35,2.8500823e-34,2.800029e-34,4.4110977e-34,-1.3310744e-34,-1.6939926e-34,-1.6702542e-34,-5.821442e-35,-1.734017e-34,-6.4475314e-35,-5.527925e-34,-3.2973365e-34,4.281778e-34,1.9179292e-35,2.8200082e-34,-3.745161e-34,1.6911165e-34,-2.2828089e-35,3.9682077e-34,-8.241409e-36,3.1042234e-34,3.6820278e-34,-1.5848894e-34,-4.666095e-09,1.6658741e-34,3.5031658e-34,2.5808435e-34,1.9173317e-34,-2.410296e-35,5.798028e-34,5.2235167e-34,-1.3531407e-34,-4.175927e-34,-2.2404945e-34,5.6618616e-12,3.0443247e-34,-1.4379237e-34,-3.461486e-34,7.434333e-35,2.4520727e-34,1.2179912e-34,4.115051e-34,-2.6681518e-34,-5.6507914e-34,-1.325785e-34,2.4777922e-34,1.3939764e-34,-1.6641097e-34,-7.283083e-35,-1.665029e-34,-3.7775296e-34,4.913091e-34,2.8542132e-34,-3.9383717e-34,3.108091e-34,-6.163358e-35,3.2362117e-34,-3.8226883e-34,-3.886308e-34,5.4846776e-34,3.2753525e-34,-4.233265e-34,5.0758287e-34,5.7405813e-34,-2.8477306e-34,1.9969603e-35,2.0997137e-34,4.882234e-34,1.8252627e-34,4.0313023e-34,-1.1954321e-34,1.2303537e-34,-1.1563485e-34
neuron_33,2.6414419e-34,3.8492423e-34,1.599283e-34,2.3895702e-34,-4.573996e-36,-5.170302e-34,1.6126984e-34,2.5697498e-34,-4.1672616e-34,-4.6194696e-34,-1.3824649e-34,5.673352e-34,1.1365671e-34,8.288825e-35,1.0446444e-34,-2.1334736e-34,-5.909329e-34,5.5169182e-34,-3.863668e-34,-3.9691697e-35,1.0890729e-34,3.1694423e-34,4.348935e-34,3.774516e-34,-3.1045357e-34,-3.1220875e-34,1.4829486e-34,-5.394094e-34,-2.1136137e-34,1.4662509e-34,2.9553914e-34,-3.1611596e-34,-3.6328428e-34,4.3068038e-34,-1.9095251e-35,-3.1623904e-34,-2.2790505e-34,-3.4879018e-34,1.8796121e-34,-2.366289e-34,-5.48755e-35,-1.5849292e-34,-1.9625512e-34,5.5924474e-34,1.5983742e-34,7.957265e-35,-1.918214e-37,2.5864329e-34,-5.750736e-34,4.3076946e-34,3.8167498e-34,2.669357e-34,-5.689725e-34,5.136093e-34,-2.3708222e-34,1.9477002e-34,3.1119305e-34,-3.450129e-34,3.7855062e-34,2.132663e-34,-1.8975708e-34,-1.0901737e-34,-4.5461757e-34,4.046323e-34,-1.8616102e-34,1.7673183e-34,1.1649103e-36,-4.7646313e-34,-5.7587257e-34,-4.103347e-34,-4.740617e-34,2.745037e-34,5.481893e-34,-4.7888754e-34,-2.803892e-34,4.4179945e-34,-5.5076824e-34,-1.849366e-34,5.548526e-34,4.2928675e-35,4.1078982e-35,-4.3262807e-34,-3.1399328e-34,3.003308e-35,9.839023e-35,1.4300917e-34,5.8755616e-35,9.3885603e-35,1.5163448e-34,-1.608889e-36,-4.9871943e-35,5.4100245e-34,4.7096406e-34,1.9279898e-35,-5.963655e-35,4.548892e-34,-5.50315e-35,1.3403572e-34,5.1918546e-34,2.7850708e-34,-1.7553096e-34,-2.1841236e-35,2.3477598e-34,-9.600281e-35,-4.688048e-34,3.0983065e-34,-2.0759781e-35,-1.457028e-34,-1.5204866e-34,1.3349985e-34,-4.931033e-34,4.87565e-34,5.589574e-34,-2.7913608e-34,-4.1006344e-34,-3.6438876e-34,1.5000754e-38,4.0225536e-34,-1.770592e-34,5.8226166e-34,5.443708e-34,-4.8993796e-34,-1.865066e-34,-2.2554692e-34,2.626527e-34,4.017551e-34
neuron_34,-4.782738e-34,-4.984533e-34,2.0029533e-34,3.8738586e-34,-4.947818e-34,3.5151953e-34,-5.9772786e-35,-5.189992e-34,4.912876e-34,3.5812682e-34,3.7585569e-34,1.4935046e-34,7.548349e-35,2.3323277e-35,1.3409298e-34,-1.0961714e-34,-8.751149e-35,-4.8325156e-34,5.56594e-34,-1.6768495e-34,2.3903113e-34,5.4463385e-34,3.5686266e-34,5.4225714e-11,-5.7791403e-34,1.3951295e-34,3.573161e-34,5.622753e-34,3.3268947e-34,4.740092e-34,3.0211096e-34,3.2890876e-34,3.0336497e-34,-1.0932855e-35,-4.0073847e-34,-4.3014245e-34,4.5650103e-34,1.485286e-34,1.4745107e-35,5.6669104e-34,-4.1840913e-34,-1.5569694e-34,-3.8209132e-34,1.1283755e-34,1.7099365e-34,-4.7465314e-35,9.5661064e-35,4.6616846e-34,-3.716071e-34,-6.8408537e-35,2.1776772e-34,-2.7479026e-34,-9.959789e-36,3.2998291e-34,-2.2997103e-34,6.3581755e-35,-1.5666881e-34,1.1623095e-34,-4.6076486e-34,-1.0231383e-34,3.9351446e-34,-2.0109242e-34,-2.99971e-35,2.7029767e-34,1.2397126e-34,3.22185e-34,-2.2083833e-34,-2.2803993e-34,1.1703638e-34,-3.1222374e-34,7.243443e-35,-2.7470476e-34,5.0680107e-34,-5.142105e-34,-1.1263924e-34,-2.859436e-34,9.003249e-35,2.1586852e-34,5.4612366e-35,2.6729004e-34,-2.2177136e-35,-1.2955369e-34,-4.5836497e-34,8.6322175e-35,-7.678783e-35,1.200165e-34,3.284237e-34,5.5792048e-34,-3.5294402e-34,-1.7307917e-34,-4.6272637e-34,5.3395205e-34,1.2661121e-34,-2.601096e-34,-1.0111139e-34,-7.098707e-35,2.404273e-34,2.2652704e-34,1.0466436e-34,9.741516e-36,3.6101383e-34,2.5802046e-34,-4.146244e-34,-4.736949e-34,-1.0184336e-34,-2.5759207e-34,2.4579022e-34,4.8440644e-34,3.2716708e-34,1.7391974e-34,-1.784932e-34,-3.3232006e-35,-4.85212e-35,-2.9077322e-34,-1.1915904e-34,-1.5282444e-34,-3.369549e-34,-3.1980173e-34,-3.6625314e-34,-1.2250975e-34,1.3960176e-34,-3.0586788e-34,3.0456055e-34,4.0825755e-34,-4.2815077e-34,-3.2406102e-34
neuron_35,3.5999248e-34,9.910896e-35,1.1245174e-34,4.5879274e-34,1.747167e-34,2.3294648e-35,-4.114614e-34,-3.7506792e-34,-7.91498e-35,3.0179275e-34,4.3063363e-34,-1.5944405e-34,2.7344423e-34,2.1042403e-34,4.7015733e-35,-1.8962832e-34,3.4943011e-34,4.5350044e-34,5.3024787e-34,2.5134778e-35,-4.1962807e-34,-2.8323353e-34,4.0551176e-34,2.3273154e-07,4.619101e-34,2.477149e-34,-4.93927e-34,-3.5110985e-34,3.2148687e-34,-4.5549524e-34,-4.5693376e-34,9.632724e-35,4.633865e-34,1.9819654e-34,-3.0597236e-34,-6.447343e-35,1.2154258e-34,-8.714151e-35,-2.8889151e-34,-2.7943562e-34,-3.4440589e-34,9.949476e-35,-1.7209237e-35,-1.8139131e-34,-2.4716238e-35,-5.3313465e-07,1.8010181e-34,1.1148811e-34,3.958786e-34,-1.6989273e-34,-1.0520863e-34,-5.401915e-34,1.7382088e-34,1.902354e-35,4.1462615e-34,-4.179788e-34,-4.5802256e-34,-1.8675079e-34,-5.385892e-34,2.9399254e-34,-2.5194965e-35,-3.602367e-34,-4.37451e-34,-9.544734e-35,-4.4381634e-34,4.9423807e-34,4.2741764e-34,-5.3434405e-34,3.247027e-34,5.2245636e-34,5.362231e-35,4.695953e-34,-3.427259e-34,-4.750293e-34,-1.34629e-34,-1.3153784e-34,-1.8986879e-34,8.5692803e-35,-5.732886e-34,2.4310263e-34,4.5650906e-34,5.589439e-34,4.765912e-34,-2.8777663e-35,1.3478439e-34,2.3717206e-34,2.4838542e-34,-4.2153962e-35,-1.600054e-34,-2.9474658e-34,5.4927765e-34,3.9578895e-35,5.4640945e-34,-3.2264588e-35,3.6565033e-34,-1.8649265e-34,-2.7385274e-34,-5.8782e-34,1.8804971e-34,-4.088298e-34,-4.8569085e-34,-3.5850913e-34,3.6456504e-34,1.8808136e-34,-3.9879234e-34,-4.200793e-34,-5.1100503e-34,-3.8663855e-34,-3.292085e-34,-1.357864e-34,1.6811737e-34,-1.6839733e-34,-4.720846e-34,4.823577e-34,-4.0954347e-34,-1.9686973e-34,3.015648e-34,-1.89475e-34,5.445728e-34,1.1551987e-34,-1.208128e-10,-5.2654924e-34,3.4416004e-34,-5.3395013e-34,-3.1770095e-34,-9.2779207e-10
neuron_36,2.6564928e-34,3.396995e-34,2.0108812e-34,4.140375e-34,-4.9626024e-34,-4.860239e-34,-4.0749265e-34,-2.5057076e-34,4.5651315e-34,8.1581334e-07,-2.5777638e-35,3.3568445e-34,3.0147095e-34,1.5196279e-34,-2.2732605e-34,4.669025e-34,-2.691872e-34,-7.529746e-35,4.751135e-34,1.6261562e-34,-2.077381e-34,4.9515486e-34,-8.209556e-35,2.134301e-34,3.6798114e-34,-8.6440075e-35,-1.2635942e-34,2.5035481e-34,1.0363024e-34,-5.29918e-34,-3.0087733e-34,2.8685074e-34,2.4397238e-34,2.650545e-34,-4.9103705e-34,3.6745641e-34,4.767972e-34,-7.340484e-35,-3.7037898e-34,3.569019e-35,-1.5479865e-34,-2.1947967e-34,-2.194883e-34,-4.879349e-34,1.5753828e-35,-3.1484147e-34,1.7453437e-34,-1.8102409e-34,5.909798e-35,2.8880868e-34,2.6840012e-34,-5.393941e-34,-5.4616544e-34,3.4719747e-09,3.294163e-34,-6.6226847e-35,-3.2569275e-34,-5.227923e-34,1.5480021e-34,1.7819066e-34,-1.2183744e-34,-3.3110632e-34,-2.6929917e-34,4.336811e-34,2.536584e-34,2.2640168e-34,1.2545601e-35,5.10064e-34,-2.3401425e-34,1.3360925e-34,-4.480994e-34,3.6355542e-34,8.992446e-36,-2.5868932e-34,1.4545565e-34,-1.5163377e-34,4.3073822e-11,-2.3390558e-34,-4.5651646e-34,-5.7475383e-35,4.9344236e-34,4.7995067e-34,-1.4197655e-34,1.1977036e-34,2.792519e-34,-3.864095e-34,5.1947864e-34,0.00011015174,2.5258029e-08,3.1972905e-34,2.2008246e-34,1.3778337e-34,7.039557e-35,-3.6436716e-34,-7.836905e-35,4.2830643e-34,4.3462067e-35,-4.390836e-34,2.191915e-34,4.590557e-34,-3.0204314e-34,4.2160937e-34,-1.7737218e-34,2.444003e-34,3.3329012e-34,3.637178e-34,4.066079e-34,-2.095958e-34,-5.174499e-35,-3.830118e-34,5.022411e-34,-2.3368185e-34,-1.0533254e-34,-3.7733624e-34,4.020243e-34,5.2682727e-34,-2.7532275e-34,4.259165e-34,-2.0217194e-34,-3.9902007e-35,-1.5440332e-07,-3.8036474e-34,-9.2350274e-35,-5.24158e-34,-4.3163225e-34,3.0417533e-34
neuron_37,4.8995413e-34,-5.4056325e-34,4.786984e-34,-1.6848154e-34,-2.7334688e-34,-3.975637e-34,-1.5487387e-34,4.787081e-34,4.688565e-34,-4.104312e-34,-2.2980786e-34,-4.8455356e-34,4.3498347e-34,2.2713602e-34,-5.41429e-34,3.6702263e-34,-8.3910024e-35,-2.1913113e-34,3.8580487e-34,-4.2486315e-34,4.502458e-34,3.8180024e-34,-3.983305e-34,-1.1572935e-34,2.6635428e-34,-4.534423e-34,-3.795616e-34,-3.075254e-35,-1.4180739e-34,3.3086056e-34,2.1768537e-34,8.833009e-35,-2.9526696e-34,2.5354114e-34,-2.798894e-34,-1.0509085e-34,-4.2555866e-34,3.8932593e-34,-3.5846491e-34,4.940902e-34,-4.826094e-34,-5.141626e-35,7.430791e-35,9.425549e-35,-2.4635551e-34,-5.7686697e-34,2.3963127e-34,3.0670613e-34,-1.3695036e-34,-5.344266e-34,6.8104745e-36,-3.4018233e-34,-5.056595e-34,-2.162985e-34,-5.8391745e-34,2.4893885e-34,-6.95302e-35,-2.5124727e-34,-1.2023916e-34,-2.673835e-34,8.245799e-35,9.2238413e-35,3.1169305e-34,-4.7754545e-34,1.9039211e-34,1.920519e-34,-1.7969642e-34,8.975037e-35,4.7546754e-34,7.9334665e-35,-5.156463e-34,-2.8003164e-34,8.2055607e-35,-4.3990305e-34,2.7071442e-34,1.3030725e-35,-3.305061e-34,1.0116231e-35,-1.6921241e-35,9.399044e-35,-7.1330547e-35,-3.3528694e-34,-3.4215736e-34,1.8197478e-34,1.2687799e-34,-1.5761641e-34,5.648533e-34,-3.6937008e-34,5.455301e-34,-5.2029814e-34,-2.2622678e-34,-4.9055312e-34,-4.6519114e-34,-7.450648e-35,-3.573632e-34,5.506995e-34,-2.5556166e-34,9.2323097e-35,8.6138527e-35,-2.371536e-34,5.3242653e-34,-3.245524e-34,4.6348204e-34,1.6612304e-34,-1.7850778e-34,-3.4966902e-34,3.0901278e-34,1.68748e-34,2.281636e-34,-3.6628673e-34,-3.0624736e-34,2.4738345e-34,-8.2214884e-35,2.8271633e-34,4.0277354e-34,-3.6925393e-34,-2.008167e-34,5.1728915e-34,6.7873985e-35,6.511443e-35,-6.3339596e-35,6.5600333e-35,4.013427e-34,-5.2193515e-34,-4.8260523e-35,-4.4814482e-34
neuron_38,4.153175e-34,3.0895957e-34,-1.1603432e-34,-4.4100645e-34,-2.057904e-34,-4.899948e-34,1.949027e-34,3.6156838e-34,-3.5019905e-35,0.035829626,-1.2584746e-34,0.031726595,0.03321535,-5.2518737e-34,1.5479137e-34,3.905728e-35,-1.4593559e-34,2.34539e-34,2.5134204e-34,5.087798e-35,-3.080746e-34,-4.674468e-34,-1.405995e-34,-5.3923163e-34,-7.8892316e-36,3.0797036e-34,-2.9257503e-34,9.999189e-35,4.745317e-34,0.020233182,0.042031877,2.4327492e-34,-3.2108334e-34,2.0939216e-35,-0.038039654,1.551368e-34,-2.5702156e-34,9.770838e-37,-1.7146514e-34,4.089599e-34,-8.5917433e-35,2.7777241e-34,-0.0307553,-1.4677581e-34,-2.8922354e-34,-0.04190967,1.7955816e-34,4.241715e-35,-0.03516243,-0.030537257,-3.3816204e-34,3.043029e-34,4.1998223e-34,5.8311103e-35,-2.4343822e-35,4.8776256e-34,-8.6769575e-35,1.894742e-34,-3.5733501e-35,-3.787861e-34,-3.151223e-34,-5.2017756e-34,3.8227788e-36,-1.1855657e-34,-4.937562e-34,-0.035099685,2.2012385e-34,5.250408e-34,1.4206219e-34,-5.006385e-34,-2.3814177e-34,-0.01977406,-3.38115e-34,5.498439e-35,3.2442457e-34,4.883877e-34,3.4862926e-34,-2.183371e-34,0.0292113,3.813609e-34,5.2297845e-34,-5.5540188e-14,1.3963167e-34,-1.2965316e-34,-0.041475564,4.0108354e-34,-7.2166405e-35,-4.9425864e-37,-5.479613e-35,-3.980143e-34,-3.8315854e-34,-0.048250645,4.4698076e-34,3.04287e-34,5.2029134e-34,4.4658665e-34,-3.0010398e-34,5.5407987e-34,0.032320317,1.6196653e-34,-5.303138e-34,-7.168081e-35,6.441066e-35,-2.2804122e-34,2.5520258e-34,-4.8089437e-34,-0.03622385,4.955355e-34,3.5057404e-34,-4.5716224e-34,2.1165005e-34,1.811736e-34,3.0832321e-34,1.7573755e-34,8.655064e-35,-4.2815444e-34,-3.4126451e-34,9.683061e-35,-1.0870604e-34,2.8480756e-34,-0.040832303,-1.7096203e-34,5.633799e-34,-8.53721e-35,-3.7591602e-34,3.5411988e-34
neuron_39,2.0393888e-34,-5.270085e-34,-2.5138537e-34,4.0272065e-34,2.3419135e-34,-1.7888829e-34,-6.9775e-36,2.9734148e-34,-3.145444e-34,-4.404036e-34,-4.61589e-34,-5.177047e-35,-4.5319972e-34,4.0411503e-34,-3.0553222e-34,-4.385044e-34,3.7584304e-34,6.632559e-35,-4.710766e-34,4.1784646e-34,5.323526e-34,3.4158132e-35,3.4256415e-34,-3.4074592e-34,-1.446494e-34,4.64406e-34,6.693173e-35,2.5164008e-35,2.1106203e-34,-3.8934467e-34,-5.660461e-34,4.9831814e-34,-6.995116e-35,-1.0671799e-34,-4.1184717e-34,-2.9339721e-34,-3.8183454e-34,-4.4186493e-34,-5.3395316e-34,-1.6733278e-34,1.226207e-34,1.5874509e-34,-3.0000673e-34,3.1935642e-34,5.7227776e-34,-1.368372e-34,3.3910601e-34,-2.0589316e-34,-3.3456934e-34,2.411996e-34,-1.7684092e-34,1.9263947e-35,5.017431e-34,-1.1035205e-34,5.140699e-34,2.0037702e-34,-3.021549e-34,5.128427e-34,-5.7323065e-34,-3.4585204e-34,3.5314052e-34,-2.2700192e-34,5.1897653e-34,1.9327584e-35,4.052171e-34,-2.523549e-34,2.5325512e-34,-1.2539084e-34,5.962305e-35,-4.7003207e-34,2.6560688e-35,4.767389e-34,-7.453306e-35,-3.2127902e-34,4.4128067e-34,6.0929425e-35,-3.3362816e-34,1.2558311e-34,5.604206e-34,-5.4872852e-34,-2.625231e-34,3.999026e-35,-2.3074555e-34,5.7094486e-34,4.3104932e-34,-9.656002e-35,1.0533396e-34,-3.7008066e-34,4.7754802e-36,1.4603953e-34,5.1165316e-34,-8.9237625e-35,1.5956475e-36,-3.4400548e-34,4.9948188e-34,-4.864552e-35,-4.3798717e-34,5.712348e-34,4.6411575e-34,-1.5515891e-34,4.287652e-34,3.0272455e-35,1.8018107e-34,-5.2051055e-34,3.3247786e-34,-5.270615e-34,2.861859e-34,8.425769e-36,-4.8757173e-34,3.2871065e-34,4.200876e-34,-5.494468e-34,4.350665e-34,3.6323235e-35,-1.3860582e-34,4.774733e-34,1.5383352e-34,-2.5235896e-34,8.8617213e-35,-5.239449e-34,-2.114585e-34,-5.99717e-35,-4.814014e-34,4.536052e-34,2.2500991e-34,-3.1292459e-34
neuron_40,-3.0180863e-34,-5.556121e-34,6.7732834e-35,-4.428033e-34,2.0474095e-34,2.5939372e-35,-6.825834e-35,-2.2676622e-34,-1.4557818e-34,2.6262693e-34,-2.400963e-34,-1.9190113e-34,3.7539e-34,-3.3514813e-34,1.1987534e-34,-5.2538706e-34,-3.5133274e-34,-1.9308252e-34,4.1268815e-34,-4.2844083e-34,3.2065626e-34,2.3725381e-34,4.220084e-34,5.9289006e-34,1.6079521e-34,-4.0059034e-34,-3.446674e-34,3.7516293e-35,-5.581273e-34,1.8099794e-34,1.2825879e-34,-5.582518e-34,1.5675658e-34,1.195987e-34,5.2770857e-36,-3.151463e-34,4.8668474e-35,-3.3546637e-34,-1.0940212e-34,1.7597518e-36,1.7903881e-34,-5.566371e-34,5.267113e-36,5.0392942e-34,-1.877388e-34,1.3673116e-34,-3.4460554e-34,-3.121457e-35,1.6110672e-35,1.0278122e-34,2.7994885e-34,4.157289e-34,2.473267e-34,1.9439623e-34,3.7395024e-34,4.144694e-34,4.7974477e-34,4.4546e-34,-4.8954514e-34,-2.896785e-34,2.732121e-35,4.6081964e-34,-2.8831531e-34,-2.5805513e-34,3.617232e-34,2.7057212e-34,-8.0714815e-35,4.5501247e-34,3.914908e-34,-1.7823208e-34,3.0660982e-34,-3.955605e-34,5.536416e-34,4.2316217e-34,-1.0407496e-34,-1.3517131e-34,3.043377e-34,-3.0016271e-34,-7.5613984e-35,-4.971458e-34,3.699009e-34,-3.7541613e-35,2.5590742e-34,2.8410303e-34,-4.5292234e-34,1.2675824e-35,3.6622793e-34,1.9452962e-34,-2.7635707e-34,-4.3392277e-34,1.07332e-34,3.4367648e-34,-1.8259082e-34,-1.9398412e-35,2.932187e-35,1.5151405e-34,2.8816353e-34,-5.8861227e-35,3.4046754e-34,2.1551096e-34,1.6613236e-34,-1.9042804e-34,4.934637e-34,7.6476377e-35,1.275014e-34,3.954826e-34,4.937477e-34,-4.7045424e-34,2.2843079e-34,3.743657e-34,3.0429676e-34,3.872471e-34,5.3651596e-34,2.4613162e-34,1.5619822e-34,-4.4589527e-34,3.7172061e-35,2.5084691e-34,1.3642814e-34,-5.6034617e-34,2.9414023e-34,4.1253318e-34,-1.0166569e-34,2.8076616e-34,5.2701792e-34,-1.0780781e-09
neuron_41,1.4626226e-35,2.0241884e-34,1.4411836e-34,3.927784e-34,-1.3968776e-34,-5.0055516e-34,1.7352971e-34,3.1606118e-34,-1.6148473e-34,0.038677428,-3.3533679e-34,0.029186929,0.031267654,-2.1095715e-35,3.121555e-34,-2.832348e-35,1.5057548e-34,1.9308406e-34,2.3956552e-34,2.636708e-34,-3.0438788e-34,-4.006613e-34,-1.6412668e-34,-2.4666707e-34,4.5471694e-34,-3.9021867e-34,1.2574677e-34,-2.8790518e-34,-2.650892e-34,0.025340091,0.041336067,-2.7934544e-34,4.2668755e-34,-3.7908122e-34,-0.044810843,-1.030921e-34,7.9863534e-35,-2.399166e-34,5.926961e-34,-3.0630765e-35,-4.3656023e-35,-2.1099869e-34,-0.030118635,9.685133e-35,1.332111e-34,-0.041009035,-1.1734149e-34,-3.624265e-35,-0.041495796,-0.0343673,-4.9805916e-34,1.739288e-34,2.0437439e-35,-5.060335e-35,-2.7996809e-34,-5.5777496e-34,4.403736e-34,3.8961104e-34,-5.4158106e-34,2.845095e-34,3.1859743e-34,7.2846866e-35,3.0114758e-34,5.079231e-34,3.4646915e-34,-0.034580834,-4.7436184e-34,-2.5263233e-34,2.5671116e-34,5.119536e-34,-1.727489e-34,-0.02188939,2.322562e-34,8.5154005e-36,-5.3444227e-34,-2.5633004e-34,1.8499861e-34,-2.4547975e-35,0.029256448,-3.1979478e-34,-1.2627708e-35,-4.8306763e-15,-1.0643031e-34,2.1205496e-34,-0.03958456,2.7915144e-34,-2.8795614e-34,2.8941846e-34,1.9227047e-34,-7.433411e-35,2.7510035e-34,-0.054034762,-3.9103646e-34,3.8515323e-34,-1.492255e-34,-3.1072798e-35,-4.844814e-35,1.7843194e-34,0.031771626,3.521181e-34,-8.927643e-35,-2.0156753e-34,-1.285146e-35,-2.8235937e-35,-6.2562174e-35,4.258515e-34,-0.044117875,-4.100962e-34,3.9986433e-34,1.8148549e-34,-5.7507796e-34,1.4386414e-34,3.843559e-34,2.3442516e-34,5.9607574e-35,-1.1518228e-34,-1.3052662e-34,2.2469271e-34,-3.9589855e-34,8.8024633e-35,-0.041985393,-2.7102225e-34,2.6467194e-34,-1.8473736e-34,-5.824489e-34,1.8897835e-34
neuron_42,2.9492446e-34,-4.8134437e-34,9.100061e-35,-5.0981764e-34,-2.3235189e-34,2.107232e-34,2.356401e-34,-4.843706e-34,1.3670265e-34,-3.907218e-34,3.4663e-34,4.7985553e-34,3.507507e-34,5.3908667e-34,2.068563e-34,-2.3933903e-34,-5.638587e-34,6.4249227e-35,-5.3549925e-34,4.019225e-34,3.7970552e-34,-4.8058034e-34,1.5414705e-34,4.4597227e-34,2.986239e-35,2.0865082e-36,2.6533812e-34,-2.7233095e-34,3.931886e-34,-4.5785716e-34,-2.3198898e-34,5.28141e-34,-4.9771165e-34,-3.1058852e-34,2.2738836e-35,4.822879e-34,-4.491622e-34,-5.0168097e-34,4.875358e-34,-4.977461e-34,-2.2436955e-34,4.2251083e-34,2.2527126e-34,1.0890055e-34,-1.5073954e-34,-3.6440146e-34,4.205558e-34,2.809691e-35,3.576376e-34,-1.1593858e-34,-1.8043183e-34,5.510629e-34,3.3710434e-35,-2.057825e-34,4.892278e-34,-4.766883e-35,7.5513464e-35,-4.0393696e-34,-3.6786418e-34,-1.6008036e-34,-4.060216e-34,4.596054e-34,-5.3151006e-34,-4.516009e-34,1.8960057e-34,2.7050582e-34,-4.1773396e-34,-1.4802675e-34,2.445023e-34,3.9581884e-34,5.339781e-34,-5.5283623e-34,3.0793939e-34,4.0733735e-34,3.2631002e-34,-2.5949058e-34,-3.8272388e-34,2.4284515e-34,1.7972826e-34,-7.69296e-35,3.6530542e-34,-1.7365888e-34,-4.679506e-34,-5.0131702e-34,4.787493e-35,-3.8946736e-34,2.5843877e-34,-4.09241e-34,-1.5930373e-34,2.5185391e-34,-3.0875002e-35,3.6091896e-34,-4.397324e-34,1.462948e-34,-1.780896e-34,3.9423454e-34,4.876418e-34,-7.8291884e-35,2.1180946e-34,-3.2307796e-34,-3.440386e-34,-4.0560295e-34,-2.6371114e-34,2.88382e-34,-4.4436177e-35,-4.907215e-34,-2.8294222e-34,-5.7109148e-34,-1.0566901e-34,2.4415686e-34,1.5750619e-34,-1.4645842e-34,5.911329e-34,6.560999e-35,-1.1474292e-34,2.5000292e-34,-3.7452476e-34,-1.6216459e-34,5.4281198e-34,-1.4845488e-34,-3.5566122e-34,-1.1351941e-34,5.2284515e-34,2.5874265e-34,-1.4049272e-34,-3.646839e-34
neuron_43,-8.0246126e-35,-3.6497646e-34,1.5323554e-34,6.5673015e-35,-6.965617e-35,-1.5678534e-34,-1.1581402e-34,2.0573149e-35,-2.761689e-34,-0.0206067,-3.2770668e-34,-0.028079921,-0.014757593,-5.804084e-34,-1.4672465e-34,1.982238e-34,1.0008395e-34,-4.579956e-35,-5.4270127e-34,-3.7067293e-34,4.816098e-13,-7.429036e-35,-7.1542216e-35,-2.117396e-34,6.313356e-35,5.08609e-34,5.391764e-34,1.1627268e-34,3.4166933e-34,-0.01930519,-0.030935708,9.2498187e-35,5.510049e-34,-3.3310764e-34,0.043674186,-4.554114e-34,-3.3244082e-35,-2.8261185e-34,5.3446923e-34,-5.2661027e-34,-5.0364643e-34,2.6346502e-35,0.0368154,-1.1432449e-34,4.5012907e-34,0.061917253,-7.3506956e-35,1.9919627e-34,0.041783486,0.05633691,-4.8908862e-34,2.2372766e-34,3.632327e-34,-1.2165278e-34,6.0592395e-35,-4.3064396e-34,-6.3660905e-35,4.9565757e-34,1.5924195e-35,-3.5294404e-34,-3.828469e-34,-6.865654e-35,-3.931924e-34,3.8766665e-34,-4.132335e-34,0.061675634,3.1128202e-34,2.352246e-34,2.9707438e-34,3.7402054e-34,-4.75143e-34,0.018822733,3.1403196e-34,5.157534e-35,-4.24045e-34,-4.8682704e-34,-3.8621937e-34,1.9206417e-34,-0.012166925,-4.505801e-34,2.7503985e-34,1.7172932e-14,2.4754674e-34,4.386513e-34,0.062479828,-1.8250415e-34,-4.6691476e-34,-1.4752675e-34,-4.877971e-35,1.16488735e-36,1.1840075e-35,0.06843752,-7.9116607e-35,-2.1997618e-34,8.8546224e-35,-1.144333e-34,3.4136035e-35,4.5735556e-34,-0.019474376,3.3492433e-34,1.3672797e-34,1.2083343e-34,3.6599751e-34,-2.3327495e-34,-4.04142e-34,2.802778e-34,0.03859932,1.2817951e-34,5.0527486e-34,2.5223266e-34,1.0824363e-34,4.381608e-34,1.3595556e-36,-4.002807e-34,-5.5086503e-34,-6.631261e-35,-3.92197e-34,3.98352e-34,-2.2035305e-34,-2.8018702e-34,0.054680385,-3.3765983e-34,-4.499381e-34,-4.9384304e-34,-4.7275104e-34,-4.366212e-34
neuron_44,-5.0399605e-34,3.5909855e-34,-4.3162146e-34,-2.6280922e-34,5.711503e-34,4.9248837e-34,5.9399566e-35,3.1401956e-34,5.1930833e-34,-1.6118162e-34,1.646295e-34,4.4170807e-34,1.5813857e-34,-3.6922002e-34,3.991583e-34,4.6456676e-34,-2.9219725e-34,6.213995e-35,1.9341984e-34,1.4935319e-34,-1.035622e-35,4.319385e-34,1.3331747e-35,-1.7189105e-34,-4.403817e-34,4.0867237e-34,1.1295986e-34,-2.4290018e-35,4.5741167e-34,-3.497896e-34,8.262423e-35,-2.5379196e-34,3.143742e-34,-2.3529035e-34,3.604578e-34,-4.90637e-34,-5.467922e-35,-5.438081e-34,-9.307564e-35,3.4644091e-34,3.829397e-34,1.9412123e-34,-4.0550342e-35,3.2063519e-34,1.8392775e-34,-3.452571e-34,7.372149e-35,3.2485337e-34,3.3371234e-35,2.605991e-34,1.5402842e-34,-3.252866e-34,-5.171119e-35,-7.302458e-35,-3.938695e-34,3.2531473e-34,8.548127e-35,4.999256e-34,-2.9281583e-34,-1.6482123e-34,-3.0501372e-34,-4.5309118e-34,2.9186106e-34,7.8724464e-35,-3.924931e-34,-1.8253356e-34,3.5766652e-34,-3.3611424e-34,2.438997e-34,-3.3182075e-34,-5.833981e-34,4.3912676e-34,-4.7530604e-34,-2.3416504e-34,8.735126e-35,-4.3755435e-34,5.4253573e-34,1.6825484e-34,-4.878721e-34,4.9394934e-34,5.582898e-36,1.0049382e-34,2.7905602e-34,-2.9702701e-34,-3.13102e-34,4.9441605e-34,-7.052657e-35,7.487238e-35,5.8351356e-34,4.3242507e-34,-3.53018e-34,-2.0816414e-34,-2.0146887e-34,1.0577019e-34,-9.925277e-35,4.5269605e-34,-4.151113e-34,-2.2533054e-34,-2.61119e-34,-5.0562595e-34,4.3803745e-34,1.5903586e-34,-5.50061e-34,-4.6515216e-34,5.5297412e-34,-6.022584e-35,-4.8184767e-34,-3.0251388e-34,-2.8217893e-34,-4.8103635e-34,-1.7035891e-34,-3.3024577e-34,4.971616e-34,-6.144473e-35,2.9625006e-35,5.074128e-34,-3.1624641e-34,-1.423869e-34,5.213573e-34,-1.9674981e-34,1.9825704e-34,-5.824013e-35,-3.0217412e-34,-2.14092e-34,2.2417554e-34,-3.9043016e-34
neuron_45,1.298384e-35,-2.468503e-34,4.483768e-34,-2.0933456e-34,-2.9832265e-34,-2.6127724e-34,-6.8923745e-35,2.185265e-34,5.2184827e-34,-2.0525656e-34,-2.476764e-34,5.014281e-34,3.6357372e-34,2.1493547e-35,4.1771155e-34,-5.2042514e-34,8.7356157e-35,-1.5838358e-34,-5.017328e-34,1.9215714e-34,-1.3714061e-34,-2.5065583e-34,1.2233612e-34,9.356817e-35,-6.511413e-35,-1.0577788e-34,5.0019727e-34,5.2599873e-34,-1.5009727e-34,-5.075241e-35,5.005979e-34,-9.160609e-35,-5.4382134e-34,1.9889681e-34,-4.2498106e-34,-4.46927e-34,3.8637214e-35,-2.6570415e-34,-4.5143984e-34,3.1909122e-34,2.9717964e-34,4.6724413e-34,1.4442182e-34,8.1261184e-35,-4.567478e-34,-9.883596e-35,-7.376459e-35,-3.8062943e-35,-1.6952666e-34,3.6207037e-34,4.273225e-35,-4.4811082e-35,2.8787225e-34,-4.6032694e-34,5.613766e-34,3.6898194e-34,-8.8936026e-35,-1.570196e-34,2.090355e-34,2.2100747e-34,5.2488087e-34,-3.5025516e-34,-3.4601342e-34,-3.6867736e-34,1.262556e-34,2.453715e-34,5.699906e-34,-3.5007604e-34,-8.7462227e-35,2.807749e-34,-2.5094265e-34,-2.147703e-34,-5.167867e-34,6.813738e-35,5.3477435e-34,3.8975724e-34,4.0054336e-34,3.2186734e-34,-5.6135466e-34,-8.457411e-35,-8.172852e-35,5.3396275e-34,-4.877951e-34,-4.0531883e-36,-4.6014203e-34,-7.5195777e-35,4.0949457e-34,2.0454759e-34,-5.587835e-34,-3.1803562e-34,-2.0270865e-34,2.253647e-34,5.144828e-35,-5.23703e-34,-4.1595712e-34,-3.90386e-34,7.850438e-35,1.6334308e-34,-1.9758435e-34,5.2543624e-34,-3.3326018e-34,1.6275669e-34,-5.7684203e-34,-4.797244e-34,1.1772989e-34,3.033369e-34,1.2305981e-34,4.9268137e-34,-2.6364816e-34,-7.0787053e-35,-4.8317524e-34,3.9249095e-34,1.4479668e-34,9.862237e-35,-3.9523224e-34,-2.2410644e-34,-3.3585935e-34,-2.9391473e-34,5.433666e-35,-3.6433929e-34,1.4283835e-35,2.4403869e-34,-2.1561404e-34,-1.4806306e-34,-4.141432e-34,2.6992674e-35
neuron_46,-3.9632793e-34,-4.6662506e-34,1.6091214e-34,1.9047068e-34,-3.1672974e-34,-1.9258638e-35,-9.096099e-35,2.7652196e-35,-2.4331165e-34,-3.4979498e-35,-2.8580529e-34,-3.733853e-34,-1.4676847e-34,-2.5039807e-34,4.11744e-34,-4.696087e-34,-1.6045822e-34,-1.0275703e-34,-2.5040994e-34,2.7491798e-34,-1.1770487e-35,-5.9161143e-34,2.7170275e-34,1.5202466e-34,3.943136e-34,-7.558766e-35,2.548588e-34,3.8275703e-35,3.640804e-34,-2.7375897e-34,2.1440512e-34,5.2022393e-34,-5.3924646e-34,2.2255334e-34,2.588443e-34,-3.1546508e-34,-2.1445207e-34,8.2528336e-35,4.5508203e-34,4.936523e-35,2.9881255e-34,-4.319403e-34,-1.6628284e-34,8.4932337e-35,1.7313654e-34,1.133318e-34,2.0232163e-35,5.596362e-34,-3.7212276e-34,7.12446e-36,-1.8694736e-34,-1.4640791e-34,9.636129e-35,4.7139583e-34,-4.3744957e-34,-3.229757e-34,4.7582914e-34,-5.007916e-35,2.7987905e-34,-3.990494e-34,-1.3885486e-34,-4.387944e-34,3.2068055e-34,-2.4986248e-34,2.6994126e-36,3.6554715e-34,2.3174614e-34,-9.916645e-35,4.2710122e-34,8.0650294e-35,-2.374675e-34,-2.7875322e-34,1.0852207e-34,4.5135686e-34,6.7697684e-36,-4.609651e-34,1.648603e-34,1.5000054e-34,5.074083e-34,-8.339197e-35,3.2605966e-34,3.4944857e-34,3.1778659e-34,-5.5852696e-34,-3.086428e-34,5.25846e-34,-2.922699e-35,-4.1701838e-34,-9.136222e-35,-2.9102191e-34,-2.9619703e-34,9.859583e-35,5.8235643e-36,-3.6594076e-34,-1.8542327e-34,4.9009516e-35,2.6194496e-34,2.6817804e-34,-4.9018215e-34,5.840846e-34,4.1815755e-34,-1.6533546e-35,-1.5321427e-34,3.1083907e-34,-2.84181e-34,-2.2122207e-34,-2.2422963e-34,7.0179837e-35,-4.5269123e-34,-4.828649e-34,-5.3355964e-34,4.2657335e-34,4.2058407e-35,1.3251149e-34,-2.6637602e-34,-5.5292986e-34,-7.56792e-35,5.0855936e-34,1.0100113e-34,1.4398966e-34,3.2452036e-34,-4.7404096e-34,1.68124e-34,5.210006e-34,-4.71265e-34,-2.7740666e-34
neuron_47,1.5940545e-34,1.0427542e-34,5.3106644e-34,-5.0700977e-34,3.8201117e-34,2.9449153e-34,6.7959415e-36,4.2829215e-34,-2.661175e-34,-0.023424724,5.2122857e-34,-0.029973533,-0.017842963,3.8986556e-34,-4.520724e-35,-3.6273235e-34,4.1864377e-34,2.9328361e-34,-3.3831255e-34,5.7530604e-34,2.0145328e-34,4.3698686e-34,-5.625328e-34,-2.221105e-34,1.2704396e-34,-4.5500448e-34,-1.537582e-34,1.1085464e-34,3.3706453e-34,-0.018992877,-0.032694943,-4.0107036e-34,-2.0221221e-34,-1.8645753e-34,0.03547027,-2.3073032e-34,5.8858024e-35,-4.693222e-34,-3.7473199e-34,-4.7640784e-34,-4.499719e-34,2.4942493e-34,0.033737026,-1.2196152e-34,-4.779933e-35,0.05569716,-3.1355667e-34,-3.8288778e-34,0.03396931,0.049159776,1.7743123e-34,-2.9245321e-34,-5.4844145e-34,2.6397983e-34,2.635209e-34,-2.7466348e-34,2.3589148e-34,1.8728059e-34,3.7346349e-34,-2.0856254e-35,-5.8041902e-34,2.0900037e-35,5.288526e-35,4.4424186e-34,5.845187e-35,0.049210526,-5.5477144e-34,-1.5138147e-34,4.7838455e-34,9.848035e-35,-3.594437e-34,0.021931672,-1.2315335e-34,-4.38755e-34,4.6683785e-34,1.8364702e-34,1.3501857e-34,-1.0191192e-34,-0.013483741,1.901769e-34,7.166677e-35,1.1003214e-15,-2.792992e-34,-4.2184612e-35,0.056088626,-1.7751354e-34,-5.447185e-34,1.379101e-34,-5.0101773e-34,2.2119865e-34,1.7229131e-34,0.06368947,3.762306e-34,-5.1161477e-34,-2.382435e-34,2.1412221e-35,2.07409e-34,4.487613e-34,-0.015959946,-5.6190903e-35,-4.316456e-34,-2.893248e-34,-1.7526915e-34,3.3707874e-34,2.6562017e-35,-3.124922e-35,0.03391397,2.3981947e-34,-4.8825907e-34,5.463114e-34,-5.067273e-34,4.6044665e-35,-3.4320957e-34,4.8918592e-34,-1.8798317e-34,3.4007564e-34,-2.3722064e-34,5.408086e-34,1.2910356e-34,4.560604e-34,0.051688105,-2.5470694e-34,1.3473052e-34,2.8689687e-34,3.7679792e-34,2.8005492e-34
neuron_48,-3.918473e-34,3.853544e-34,-8.0160966e-36,4.7777826e-34,4.151826e-34,-8.181522e-35,4.8837093e-34,-3.0455123e-34,1.6068898e-34,0.043716572,-5.569782e-34,0.037087437,0.040630363,3.034759e-35,-5.3835047e-34,-1.9153993e-34,1.9274303e-34,-4.212261e-34,-5.164197e-34,-4.177047e-34,-2.638569e-34,-3.6947727e-34,-5.336307e-34,-4.914879e-34,-4.7682156e-34,-1.0039536e-34,-4.154277e-34,4.6204123e-34,1.4093265e-35,0.029400898,0.051227055,5.69368e-34,-3.452809e-34,4.6777007e-34,-0.044913705,-2.861652e-34,2.2644533e-34,4.2389713e-34,-1.494445e-34,-1.0803843e-34,-7.9583355e-35,-2.7134363e-34,-0.037919633,3.6036951e-34,-4.1439964e-34,-0.045036063,1.7620977e-34,-5.5295397e-34,-0.04466005,-0.03495461,3.5588578e-34,-4.662258e-34,9.61505e-35,-1.4028351e-34,-8.764881e-35,8.026815e-35,-1.968426e-34,2.7743412e-34,-3.771063e-34,3.371591e-35,-1.3529926e-34,-1.4892343e-34,-3.8078011e-34,2.42774e-34,4.3864187e-34,-0.041044872,-3.5549158e-34,1.3289507e-34,1.4024844e-34,5.6592215e-34,-4.5834826e-35,-0.020068685,-5.632628e-34,4.7353504e-34,4.239939e-34,-1.1999782e-34,1.983738e-34,-2.0828425e-35,0.03681219,-1.8663021e-34,-2.7092532e-34,-1.0432741e-15,4.7710216e-34,4.4445956e-34,-0.044649445,-5.2304025e-34,-2.8475864e-34,-1.2856216e-34,-1.362893e-34,2.093054e-34,-1.8072445e-34,-0.053186115,-2.411095e-34,3.2652363e-34,-2.1672034e-34,-5.4691243e-34,-6.539716e-35,4.695892e-34,0.038598116,5.415992e-34,-3.611134e-34,4.4804307e-34,-4.042606e-34,1.3518388e-34,2.9682376e-34,3.8870366e-34,-0.04418583,-1.399395e-13,1.1195835e-34,-1.2609808e-34,4.1846387e-34,1.5371097e-34,-5.0157113e-34,-4.341951e-34,2.9661942e-34,1.4953177e-34,2.607136e-34,3.2576806e-34,6.0396934e-35,1.9298816e-35,-0.03956437,6.485912e-35,-3.5604943e-34,-1.942362e-34,-8.3924373e-35,4.424263e-34
neuron_49,-4.2435925e-34,-1.6921579e-34,-5.35271e-34,-2.359776e-34,-3.3591243e-34,-2.5932776e-34,2.8769529e-34,-3.5088095e-34,-1.7580907e-34,-1.6495709e-34,-3.9084393e-34,-3.998559e-34,4.5283284e-34,3.7626986e-34,-5.03816e-34,2.4472052e-34,1.3973526e-35,2.6229857e-34,-5.1961773e-34,4.418684e-34,1.9518253e-34,-2.413755e-34,9.509784e-36,4.124485e-34,3.6902315e-34,3.3683083e-34,3.1617138e-34,3.5828774e-34,-1.4502992e-34,-5.636891e-34,2.2889665e-34,-3.238519e-34,-4.709112e-34,3.5232144e-34,4.5380405e-34,-5.69131e-35,3.170529e-34,-2.4228371e-34,4.617868e-34,-3.3755243e-34,-1.2001921e-34,-7.857795e-35,-4.1476657e-34,4.481005e-35,-7.2118266e-35,-3.6639078e-34,3.5381076e-34,4.0292346e-34,-5.5395024e-34,-2.8007765e-34,-4.3592097e-34,-1.3854909e-34,-1.7972092e-34,4.096067e-34,3.9040505e-34,5.7870395e-34,-1.7199104e-34,-5.2526396e-34,-3.5220084e-34,-2.5012642e-34,-4.5595704e-34,-3.0502453e-34,-3.0378165e-34,3.2320917e-34,-2.510461e-35,3.197827e-34,-1.4784823e-34,5.6106566e-34,2.7034093e-34,-3.2967915e-34,2.9748382e-34,7.686677e-36,3.7339204e-34,-3.9981373e-34,-2.799381e-34,1.8513457e-34,-2.0095925e-34,-5.821402e-34,-5.3027115e-34,-5.022535e-34,5.0541606e-34,-3.0493543e-34,1.8191712e-34,8.8118225e-35,-5.7081817e-34,-1.7058122e-35,1.950907e-34,-2.7594383e-34,-1.748675e-34,-2.637442e-34,4.954734e-35,4.219682e-34,-4.060918e-34,-4.910205e-34,2.689895e-34,5.186822e-34,4.888651e-34,2.9321237e-34,-5.1419136e-35,-5.621386e-34,3.4837235e-34,8.81517e-35,4.5252473e-34,-7.539942e-35,-3.0084392e-34,-8.0326144e-35,-6.406961e-35,-5.8626587e-34,3.94511e-34,1.9967011e-34,5.2869557e-34,-3.064278e-34,-1.8005996e-34,-6.899825e-35,-2.732578e-34,-1.7841304e-34,-4.9059633e-34,-3.3104515e-34,3.5996401e-34,-2.8817598e-34,-5.461879e-34,-3.590932e-34,-5.06854e-35,2.844151e-36,3.4276038e-34,-5.7837927e-34
neuron_50,-1.8928189e-34,-3.594811e-34,4.5799108e-35,1.2655676e-34,-1.672058e-35,-1.5282836e-34,1.8208513e-34,1.2424857e-34,-3.5175282e-34,0.035703387,-4.283628e-34,0.03155771,0.031385414,-1.0649979e-34,-5.706705e-34,-4.562976e-34,3.973098e-34,-3.0648432e-34,1.4293969e-34,-2.1529145e-34,-1.6420109e-34,-3.734687e-34,-6.2230195e-35,-1.1532226e-34,1.0652595e-34,-2.4416926e-34,-3.6341772e-34,-4.3958075e-34,7.1997376e-35,0.02887802,0.037711523,4.7923608e-35,5.8432796e-34,4.3994694e-34,-0.042556103,4.2217508e-34,-4.5808693e-34,-3.2230159e-34,-7.6993043e-35,1.4431481e-34,-3.1247744e-34,7.389819e-36,-0.036016166,-4.516117e-34,2.2337758e-34,-0.04348587,-2.3679868e-34,1.9077556e-34,-0.033060852,-0.02934943,1.2654679e-35,2.9159487e-34,5.384093e-34,-8.634743e-35,7.779027e-35,3.5672015e-34,8.1842147e-35,-3.4452624e-34,5.4407572e-34,-4.966333e-34,-4.0059153e-34,-4.7203546e-34,-4.5127366e-35,1.9324675e-34,4.3319558e-35,-0.034657434,3.2486793e-34,-3.5707308e-34,2.0520464e-35,4.8277066e-34,-5.454989e-34,-0.016077148,-1.3732033e-34,-3.050983e-35,4.1685955e-34,-2.4123794e-34,-1.1878646e-35,8.254162e-35,0.025718745,-2.790788e-34,4.8324077e-34,-7.090591e-14,4.3382985e-35,1.1470884e-34,-0.042647723,-1.2974783e-35,-1.6490128e-35,-2.8246909e-34,-1.7368958e-34,4.66323e-34,-1.970808e-34,-0.04319778,-3.2597976e-34,-3.9242304e-34,-4.474928e-34,3.4366128e-34,-5.336838e-34,4.8596456e-34,0.03360024,2.912931e-34,4.4972628e-34,-2.8842457e-34,1.7714241e-34,-8.083069e-35,4.856369e-34,-3.5651671e-34,-0.04038286,4.275018e-34,3.2297782e-34,2.4576816e-34,1.9654541e-35,1.887619e-35,-3.2031957e-34,-2.3773774e-34,3.9442666e-34,-4.9290717e-35,3.4313548e-34,-1.1884289e-34,-2.996854e-34,-5.480882e-34,-0.033146944,7.476641e-35,9.2494835e-35,3.5215738e-34,-7.3490897e-35,-3.6478088e-34
neuron_51,-2.1062003e-34,4.715123e-34,-4.0639576e-34,1.7436888e-34,-7.0387913e-35,-2.7463146e-34,-1.1578569e-34,2.6790738e-34,2.4640492e-34,-4.0333576e-34,2.9598757e-34,-5.484734e-34,4.542497e-34,5.4992023e-34,3.6927567e-34,-2.0335772e-34,-8.217262e-35,1.3107839e-34,3.668279e-34,1.4837652e-34,-3.4310967e-34,5.185721e-35,2.5490053e-34,4.1527424e-34,1.0198852e-34,-1.1092125e-34,-8.930993e-35,2.6422741e-34,2.6448696e-34,4.5961916e-34,5.19811e-34,4.054905e-34,-4.1861078e-08,-3.1106574e-34,-3.9502056e-34,2.6060434e-34,-2.7418773e-34,-2.960079e-34,4.0354634e-34,-6.375693e-35,-4.9547895e-34,-9.1677815e-35,3.2678633e-34,5.109515e-34,-4.2864847e-34,-4.602201e-34,3.704203e-35,3.7216725e-34,2.2131321e-34,-3.510499e-34,-1.8310129e-34,-7.2680816e-35,-3.2575077e-34,-2.9103027e-34,-2.3027186e-34,-3.4356628e-34,3.8854887e-35,-2.9974957e-34,1.3851387e-34,3.8805034e-34,-1.4414435e-34,-2.6125683e-34,-5.4798865e-34,3.0727314e-34,2.412691e-34,-2.579758e-34,4.6738275e-34,-2.1926974e-34,-1.1511613e-34,-5.1162657e-34,-9.923646e-35,3.6921956e-34,-5.207157e-34,2.465278e-36,6.752035e-35,5.5984627e-34,2.0367713e-34,3.987278e-34,4.422319e-34,-4.7032856e-34,-4.9867023e-34,-1.6074812e-34,-2.6602245e-34,2.9754448e-35,1.9585784e-34,-1.4596977e-34,-2.138039e-34,1.242706e-34,-5.0788368e-34,4.2852734e-34,-3.3410387e-34,-2.7387287e-34,-3.7152592e-34,4.050059e-34,4.3421085e-34,4.664694e-34,4.8673474e-34,4.5050527e-34,5.299754e-34,1.8951421e-34,1.1809976e-34,3.3575792e-35,-1.0131218e-34,2.680029e-34,-2.491001e-34,-2.4565683e-34,-1.3924324e-34,4.6399577e-34,-1.1697032e-34,4.055023e-34,-2.589773e-34,-3.8946405e-34,-2.7536722e-34,3.1214536e-34,5.146149e-35,1.2047519e-34,2.8680593e-34,-4.7616732e-34,3.1542017e-34,-2.105168e-36,-4.9729417e-34,-1.388268e-35,-3.398587e-34,-2.3738975e-34,5.018462e-34,3.6107954e-34
neuron_52,5.0084313e-35,2.1972618e-34,3.4227225e-34,-3.8409662e-35,3.6521035e-34,-5.321892e-34,-3.3978977e-34,-1.6328917e-34,4.8183256e-34,0.039915416,-3.5592761e-34,0.03193141,0.037440136,2.7592526e-34,1.132246e-34,9.0049525e-36,3.7689184e-34,4.3466397e-34,4.150529e-34,4.2802927e-34,4.6717236e-34,2.6945416e-34,-2.3865848e-34,7.225667e-35,2.8864305e-34,1.6059932e-34,2.4807454e-34,-2.1363432e-34,4.01983e-34,0.026180962,0.046138253,2.3847748e-34,-2.7530298e-34,-5.452444e-34,-0.04922906,3.192527e-34,-1.9136575e-34,1.4304607e-35,2.9751243e-34,1.9818637e-34,4.6217793e-34,4.543736e-34,-0.03455052,-1.9331521e-34,4.9752344e-34,-0.043982618,7.8509775e-35,-3.7250335e-34,-0.04128414,-0.030720908,9.806706e-35,2.0940247e-34,-2.1547895e-34,9.769482e-35,2.6987892e-34,4.049329e-34,-5.278099e-34,-5.0089674e-34,-5.45001e-34,4.2972878e-34,-5.269211e-34,-4.467837e-34,-5.2248042e-34,-7.3969136e-35,-1.9926007e-35,-0.033555437,5.637445e-34,-3.493164e-35,-1.3000985e-34,2.3668395e-34,5.5208364e-34,-0.028353758,1.5307867e-34,4.9600053e-34,2.1540626e-34,7.9908396e-35,1.7728526e-34,-2.2548734e-34,0.031807333,4.595879e-34,7.334822e-35,-1.4117452e-13,-1.3826936e-34,-5.2750015e-34,-0.04283026,2.2533336e-34,-1.5843156e-34,5.278249e-34,-2.22549e-34,-3.3493122e-34,6.557197e-35,-0.048688024,1.8707019e-34,-4.816243e-35,1.5147957e-34,-1.6289771e-34,-3.4109306e-34,1.1621106e-34,0.038410958,4.0466568e-35,-4.3079893e-34,-6.311903e-35,4.7582524e-34,5.5228157e-35,9.3620026e-35,5.50015e-34,-0.044902474,2.8087997e-34,-3.0966872e-34,-5.0891063e-34,4.772427e-34,4.5695984e-34,4.6046404e-35,2.086259e-34,4.5770834e-34,-4.901429e-34,-2.08067e-34,-5.513803e-35,4.6474244e-34,-5.635317e-34,-0.04230037,5.1464617e-34,-3.994975e-34,4.5897884e-34,2.8560316e-34,-5.494863e-34
neuron_53,2.5245126e-34,-4.7464786e-34,5.738747e-34,-1.8416518e-35,3.2663434e-34,4.898058e-34,-3.4815888e-34,4.7219227e-34,2.8441977e-34,2.3265017e-34,2.0561814e-34,-4.2917342e-10,-4.233249e-35,2.154634e-34,-2.0003511e-34,4.0013065e-34,2.061208e-34,3.939127e-34,2.2079136e-34,2.1915455e-34,-3.369191e-34,7.029431e-35,-3.0852762e-34,-1.540033e-09,1.0910851e-34,-1.761914e-35,2.5770923e-35,1.5485384e-34,5.6595953e-34,-3.1575248e-34,3.4892768e-08,-3.444507e-34,1.2685457e-34,-9.0085617e-35,2.3598049e-35,-4.5681168e-35,2.5294219e-34,6.8862847e-37,2.8593312e-34,-1.6062781e-34,4.347892e-09,1.9987996e-37,-2.5418155e-34,-1.197522e-34,1.8786824e-34,-5.3535613e-34,4.659903e-35,2.832068e-34,-1.9531463e-34,2.555914e-34,-2.643815e-34,-1.3279027e-34,-3.6439296e-34,-2.2766545e-07,3.542297e-35,5.3137354e-34,2.6177322e-34,4.1061046e-34,3.3503192e-34,-3.2414991e-34,4.353121e-34,-2.8033286e-34,5.561309e-34,3.0207643e-34,-3.326971e-34,3.4301146e-34,8.0187036e-35,1.9093901e-34,5.0974215e-34,5.983513e-36,3.648072e-34,4.670511e-34,-3.7409052e-34,4.977636e-34,-5.754519e-34,-1.5505824e-34,-3.905339e-12,4.8901906e-34,1.9670282e-34,5.100327e-34,-7.025731e-35,1.1666335e-11,-1.0415625e-34,3.4666017e-34,-4.780956e-34,5.2720366e-34,-4.0136956e-34,-2.363218e-09,-2.2302067e-13,-5.0088264e-34,3.53541e-34,-4.992486e-34,2.5186978e-34,-4.3680654e-34,-2.3685614e-34,-4.4818243e-34,-2.5917492e-34,-5.3105143e-34,-3.49941e-34,-3.07477e-34,-3.9882163e-34,4.5524417e-35,-3.0289845e-34,-2.6102702e-34,3.3072974e-34,1.4658408e-34,1.4161548e-34,3.6444703e-34,8.17526e-35,2.2985451e-34,2.5699695e-34,2.7565494e-34,-1.6229915e-36,-1.8681911e-34,-3.8838884e-35,2.718325e-35,-3.412252e-34,2.2018148e-34,-1.6486338e-34,5.9083074e-34,-3.264054e-35,-6.321084e-35,-5.032747e-34,-6.2950523e-35,-3.128432e-34,-5.814818e-34
neuron_54,3.0467303e-34,4.4981944e-34,-4.3027266e-35,-4.8320394e-34,-3.6035438e-34,4.4138835e-34,2.8529859e-34,-1.9020102e-34,1.122396e-34,0.03184006,-4.287983e-34,0.028277017,0.030320428,5.5520655e-34,8.4964433e-35,5.3920293e-34,5.7790117e-34,-9.357043e-35,2.996598e-34,-1.2119979e-34,3.4215367e-34,-1.7638052e-35,3.6198072e-34,-2.889062e-34,-2.313457e-34,1.9126556e-34,-1.5247759e-34,-5.836107e-34,-1.0210168e-34,0.02809576,0.039252833,-1.6332539e-34,4.1351687e-35,-4.313472e-34,-0.036531325,-4.6389672e-34,-1.3335965e-34,4.7620204e-34,-5.215752e-34,-3.922991e-34,2.7787906e-34,-5.411183e-34,-0.03162929,-1.8455103e-34,8.524545e-35,-0.04586458,-5.7569946e-34,-4.0224856e-34,-0.03309045,-0.027537465,-4.3453283e-34,2.3392366e-36,5.107037e-34,4.0780884e-34,5.202608e-34,1.677179e-35,3.0341284e-34,-3.0498747e-34,-1.5901407e-34,1.474083e-34,1.5924328e-34,-9.6046797e-35,5.809457e-34,-2.1646357e-34,5.5720324e-34,-0.03164756,5.5407987e-34,-4.5735473e-34,-2.503909e-34,1.3840546e-34,1.2682127e-34,-0.021803943,3.2891737e-34,2.3796588e-34,2.8398532e-34,-9.5695e-35,1.7836795e-35,-5.2835303e-34,0.026159475,5.0519133e-34,3.4513765e-35,-9.701401e-16,-2.7977638e-34,3.8233404e-34,-0.04274615,-4.017811e-34,-5.2939247e-34,5.755112e-34,-2.8013426e-34,-1.2461525e-34,-1.2257728e-34,-0.049338568,9.307242e-35,3.918491e-34,4.0549293e-34,2.1274772e-34,-1.2276115e-34,4.250743e-34,0.03289145,3.4234232e-34,2.1537766e-34,-5.7193016e-34,-4.316274e-34,-5.569777e-34,-2.7434305e-34,-4.8370846e-35,-0.035612915,3.1137817e-34,9.927636e-35,-2.1930066e-34,2.1518223e-34,4.9774623e-34,1.057362e-34,-5.6370822e-34,3.787433e-34,-3.378494e-34,-4.4111844e-34,-1.0927896e-34,-3.293272e-35,-1.4735368e-34,-0.040395014,-2.7307165e-34,-1.659749e-34,-4.255363e-34,8.9141135e-35,-6.763978e-35
neuron_55,-5.502823e-34,1.0994841e-34,2.6386714e-35,-3.6859552e-34,2.742104e-34,-5.109249e-34,3.3361838e-34,-1.8566894e-34,-4.170587e-34,0.04167008,3.6857938e-34,0.029254751,0.031783335,1.910002e-34,1.5045593e-34,2.6541432e-34,-1.5946674e-34,1.9190664e-34,1.4395502e-34,1.2037156e-34,-5.636422e-34,1.0959419e-34,-1.3984755e-34,-6.9244567e-35,-3.2288187e-34,-3.0344448e-34,3.5104355e-34,7.21338e-35,4.513496e-34,0.031174663,0.041858844,1.2899348e-34,2.5826786e-34,-7.3312334e-35,-0.03535326,-6.1166814e-35,6.899307e-35,5.3502786e-36,-3.0204185e-34,1.8772002e-34,4.856867e-35,-2.5847886e-34,-0.027132945,5.0890475e-34,2.3928244e-35,-0.03920154,4.5489914e-34,-3.89368e-34,-0.032797586,-0.02489404,4.151265e-34,-4.028644e-34,-5.215824e-34,-5.6452295e-35,-4.601269e-34,-3.967607e-34,2.5727292e-34,-4.504141e-34,-3.0182714e-34,3.723275e-34,4.3421485e-34,-2.5529182e-34,-4.6274846e-34,-2.9024737e-34,2.6755771e-34,-0.030810978,2.0138735e-34,-1.9551352e-34,1.0771512e-34,3.4074544e-34,3.3191488e-34,-0.019090924,-1.9516398e-34,3.4007988e-34,3.1652022e-34,3.9951104e-34,2.6843956e-34,-1.8070588e-34,0.028155737,1.1753979e-34,7.958821e-35,-2.2177655e-13,-2.206947e-34,1.5171853e-34,-0.034881387,-4.090469e-34,1.1846981e-34,2.7092739e-34,-3.4237195e-07,2.10501e-34,2.4079724e-34,-0.04184418,-4.8027232e-34,-3.1410343e-34,-2.17141e-34,4.2116964e-35,1.3017803e-34,-5.411269e-34,0.029635629,-1.9290886e-34,5.1644187e-34,2.7465106e-34,-8.711699e-35,-4.57814e-34,8.724922e-35,4.935349e-34,-0.034578424,4.359879e-34,5.5329977e-34,1.2986882e-34,1.3565206e-34,2.5101056e-34,1.9544545e-34,3.2372965e-34,5.4761534e-34,-5.210941e-34,-2.526917e-34,1.1568022e-34,1.9364177e-35,-2.323974e-34,-0.033611618,-3.7417011e-34,1.6071719e-34,1.8361826e-34,4.004946e-36,2.0915938e-34
