,input_1,input_2,input_3,input_4,input_5,input_6,input_7,input_8,input_9,input_10,input_11,input_12,input_13,input_14,input_15,input_16,input_17,input_18,input_19,input_20,input_21,input_22,input_23,input_24,input_25,input_26,input_27,input_28,input_29,input_30,input_31,input_32,input_33,input_34,input_35,input_36,input_37,input_38,input_39,input_40,input_41,input_42,input_43,input_44,input_45,input_46,input_47,input_48,input_49,input_50,input_51,input_52,input_53,input_54,input_55,input_56,input_57,input_58,input_59,input_60,input_61,input_62,input_63,input_64,input_65,input_66,input_67,input_68,input_69,input_70,input_71,input_72,input_73,input_74,input_75,input_76,input_77,input_78,input_79,input_80,input_81,input_82,input_83,input_84,input_85,input_86,input_87,input_88,input_89,input_90,input_91,input_92,input_93,input_94,input_95,input_96,input_97,input_98,input_99,input_100,input_101,input_102,input_103,input_104,input_105,input_106,input_107,input_108,input_109,input_110,input_111,input_112,input_113,input_114,input_115,input_116,input_117,input_118,input_119,input_120,input_121,input_122,input_123,input_124,input_125,input_126
neuron_1,1.1589247e-34,-8.908826e-35,-2.8730167e-35,7.0829866e-35,3.1161903e-34,7.156739e-35,-8.1315344e-35,5.471058e-34,-5.0375553e-34,2.726353e-34,-1.929069e-34,2.2727233e-34,-1.2501612e-35,-3.5264684e-34,4.956901e-34,4.851883e-35,-9.743778e-35,5.447912e-34,-1.0394917e-35,-4.111509e-34,5.2640313e-35,-2.5087557e-34,2.772508e-34,5.2503363e-34,5.018065e-34,1.3153731e-34,-3.6711246e-34,2.2130607e-34,-1.5976862e-34,-1.3384591e-34,3.7514226e-36,-3.7184596e-34,-3.770147e-34,4.8944224e-34,1.2219043e-34,-5.765986e-34,8.7020194e-35,-1.4692274e-34,3.1032454e-34,3.2726516e-34,-1.080786e-34,3.074386e-34,3.037114e-34,-3.3633557e-35,-9.0797835e-35,-1.6498899e-34,-1.066808e-34,3.982655e-34,2.3986001e-34,4.7112e-34,-1.0589689e-35,1.9429354e-34,-2.0473842e-34,-1.8168953e-34,-1.4481386e-34,3.4467985e-35,1.8697009e-34,1.4796694e-34,-1.1333749e-34,3.228903e-34,-2.5608333e-34,-3.1692577e-34,-3.4458726e-34,-7.9344686e-35,3.866327e-34,4.9542647e-34,-2.5577134e-34,-6.7385305e-35,1.3502008e-34,4.266823e-34,2.3933997e-34,-1.2983735e-34,-1.4343571e-34,5.614483e-34,8.747969e-35,8.2627254e-35,5.1317014e-34,-4.6541054e-34,-4.8447963e-34,-2.4226943e-34,4.9838564e-34,-1.4699059e-34,-2.3827105e-34,5.6567484e-34,5.828035e-34,2.6273447e-34,-1.9865711e-35,5.2157823e-34,-5.117553e-34,1.0796647e-34,-1.9197033e-34,-6.597611e-36,5.846548e-34,-4.0607264e-34,1.739772e-34,-3.0588365e-34,-2.3801685e-34,2.0779925e-34,2.4214087e-35,2.3783607e-34,2.2546643e-34,3.2615018e-34,3.8855093e-34,-3.029991e-34,8.228317e-35,4.9001056e-34,-5.1891716e-34,5.5693526e-34,5.1445005e-34,1.2391054e-35,4.1062497e-34,2.5207402e-34,-3.9395172e-35,4.456841e-35,4.3606666e-34,-8.9448106e-35,-5.041043e-35,-4.578948e-34,-4.78316e-34,5.4248858e-34,1.3228701e-34,3.0084985e-34,4.7323828e-34,-2.6961432e-34,3.918746e-34,-9.694582e-35
neuron_2,-3.394403e-34,-3.3312043e-34,-5.6304857e-34,4.630547e-34,1.988919e-34,-1.4022086e-34,-1.2124977e-34,3.5644375e-35,1.1244044e-34,-1.2302083e-34,-1.0932111e-34,3.2341413e-34,-1.971804e-34,5.699086e-34,3.0568033e-34,1.819977e-34,1.8733407e-12,4.9291417e-35,-2.863082e-34,-1.964791e-34,-8.7306353e-35,-3.6757405e-34,-3.9332225e-34,-5.093833e-34,2.0771435e-34,-1.5465368e-34,1.2151025e-34,1.0598072e-34,1.613936e-35,-1.7383394e-34,1.613932e-35,-1.6975002e-34,2.1837322e-34,5.363824e-34,-2.3259534e-05,-5.7021027e-35,-5.516672e-34,-2.6001347e-34,-2.9914047e-34,1.5475412e-06,-4.3318142e-34,-2.0440419e-34,3.951943e-34,-1.0391352e-34,-5.08402e-34,4.369166e-34,2.060383e-34,-4.7457884e-34,-2.8502065e-35,-4.4642617e-34,-5.024298e-34,-5.497383e-34,-4.0834764e-34,5.355692e-34,1.2169379e-34,7.934026e-09,-3.2240357e-34,3.5515358e-34,4.8896377e-34,3.577903e-09,-2.7537278e-34,5.0643823e-34,-4.723096e-34,-2.1899184e-35,2.5213693e-34,-2.0368746e-34,-2.1673214e-34,4.0839516e-34,-1.882596e-34,-5.583363e-34,5.139217e-34,3.416251e-34,-4.2216263e-34,1.1683385e-34,5.372237e-34,-1.2741652e-09,3.0994058e-34,3.218195e-34,2.0375872e-34,5.6851756e-34,-3.1069785e-35,-4.8162245e-05,7.7320345e-35,-2.5351152e-34,4.7109846e-34,2.9635388e-34,-2.9284797e-34,4.95177e-37,2.0512303e-34,5.510519e-34,-2.77712e-34,5.2488266e-34,-1.7875825e-34,-1.795349e-34,2.0312588e-34,3.244337e-35,3.4333251e-34,-1.5052329e-34,-3.7907728e-34,1.9406163e-34,3.9890915e-34,2.7409296e-34,5.74625e-34,2.8941158e-06,2.8575533e-35,2.512656e-34,-3.901157e-34,2.86659e-35,1.7640781e-34,-1.0585988e-34,1.8877438e-34,-1.6301893e-34,-1.2822876e-34,3.8590304e-34,-4.345068e-34,-4.974178e-34,3.8604814e-12,-3.0158777e-34,-3.4246265e-34,3.5672842e-34,8.080486e-35,-1.9908067e-34,-3.372484e-34,1.3316781e-34,-5.0304473e-34,-2.0875825e-34
neuron_3,1.2048011e-34,-3.6890406e-34,-3.4356982e-34,3.1359774e-34,-2.9154177e-34,-1.1741579e-34,-2.895397e-34,-4.19853e-34,6.60821e-35,1.255711e-34,-2.2153224e-34,-1.6622912e-34,3.746899e-34,-3.512249e-34,-7.7001664e-07,5.0770887e-34,1.7443209e-34,-1.3519167e-07,6.01161e-35,2.308395e-34,6.696938e-35,-5.4031304e-34,7.641193e-35,-4.3885328e-34,2.7357868e-34,1.149864e-34,-3.0058238e-34,-5.786752e-34,-3.1717908e-35,-5.5519204e-34,-1.1022138e-35,-2.5313153e-34,-1.0036595e-34,-5.0120494e-34,4.2753483e-34,4.6912363e-34,-4.7849517e-34,5.6250343e-34,1.1357975e-34,-6.453023e-35,3.5592132e-34,1.0362337e-34,-8.070034e-35,-4.5952145e-34,1.9987984e-34,3.0172584e-35,-2.568831e-35,-5.244105e-34,3.9328717e-34,5.06551e-34,-3.1858615e-34,-7.93219e-35,-2.8583063e-34,-4.5302744e-34,-1.7982125e-34,8.016763e-06,2.6428786e-35,1.1350353e-34,5.049314e-34,5.469443e-34,3.2606363e-34,3.3013024e-34,2.4376656e-34,3.9762593e-34,4.476481e-34,-3.9705907e-13,4.6926882e-35,-3.81317e-34,3.7090862e-35,-1.7113435e-34,2.0478801e-34,3.407839e-34,-2.3749399e-34,2.4306587e-34,-1.8015333e-34,-4.679452e-34,-5.545072e-10,3.6314253e-34,1.8451294e-34,5.185577e-06,-1.3079579e-34,-4.1688613e-34,-3.43165e-34,-2.489506e-34,-4.9765215e-34,-5.2594703e-34,4.740034e-35,1.7102341e-34,-3.5175728e-15,-2.7147748e-34,5.0045496e-34,-1.7828576e-34,-4.1287393e-34,7.4582637e-35,-5.3380374e-34,-3.4469168e-35,-4.2123235e-11,7.1627394e-35,-4.4386235e-34,3.9017146e-34,3.1134584e-34,1.3813308e-34,3.776093e-35,3.7252738e-34,4.12863e-35,2.8003655e-34,2.5603663e-34,-9.724718e-35,7.8624994e-35,-5.5560843e-34,3.183146e-34,5.8273034e-34,-4.1295208e-35,-4.649323e-34,3.653363e-34,-3.915175e-34,-4.047675e-34,-2.4733014e-34,5.4172284e-14,-5.305077e-35,9.4448583e-35,-1.494299e-34,-4.1608423e-34,-9.4267495e-35,1.4552804e-34,6.8642074e-35
neuron_4,5.4545124e-34,-4.6783523e-34,-4.9867115e-34,-3.8075008e-34,5.8210274e-34,-4.7546e-34,-2.2460414e-34,-3.224496e-34,-1.7674565e-34,1.5451331e-34,2.4937575e-34,-4.687011e-34,4.1169747e-34,-1.1294533e-34,-5.8445924e-34,-2.4628182e-34,3.0099777e-34,5.3443263e-34,4.171742e-37,-4.140659e-34,1.4384484e-35,1.5079613e-34,4.220053e-34,-3.3566815e-34,2.878817e-34,2.1677236e-34,-3.9794075e-34,4.8907604e-34,-4.24041e-34,-9.016248e-36,-3.903456e-34,-3.8424226e-34,-2.6517897e-34,-1.3803417e-34,-2.3775122e-34,-1.1181495e-34,5.678811e-34,-2.8175723e-34,-4.8644647e-34,1.6326496e-34,4.2868663e-34,1.0706083e-35,1.5330879e-35,2.7726466e-34,-2.2906484e-34,-1.0770048e-35,-3.2880818e-34,-2.5882129e-34,-3.2165938e-34,4.0354e-34,-4.707361e-34,3.6279452e-34,-3.1079419e-34,3.3623547e-35,5.5933327e-34,-2.3902135e-34,-5.756925e-34,9.201917e-35,-4.9584556e-34,2.6324943e-35,3.3471722e-34,4.1437645e-34,2.3837097e-34,4.5925758e-35,5.1792795e-34,5.920179e-34,2.8011994e-34,2.7881112e-34,1.3372665e-34,-4.7993368e-35,-9.0574747e-07,2.825521e-34,4.2770876e-34,-1.3527856e-35,5.0782495e-34,4.884638e-34,-2.6885448e-34,-5.4031965e-34,5.2003016e-34,-1.234382e-34,2.9117803e-34,2.5177767e-34,-1.0617859e-34,3.3329306e-35,3.1276746e-34,-3.093879e-34,4.730373e-35,-1.0518085e-34,1.5775134e-34,5.0265847e-34,-1.621644e-34,-3.8611963e-34,4.343954e-34,9.1068394e-35,-2.338499e-34,7.227065e-35,2.4062627e-34,-2.7127556e-34,5.182736e-34,-4.9493455e-34,5.600709e-34,-2.5714986e-34,1.5771455e-36,-9.3509106e-35,2.5606987e-34,5.745118e-34,-1.8368679e-34,3.557707e-35,-1.5143035e-34,-3.0301136e-34,-1.3976787e-34,-1.3355433e-34,-1.5750937e-34,6.2254e-35,5.248977e-35,-4.8613763e-34,1.689876e-34,-8.969538e-06,-1.9824786e-34,-1.6264957e-34,1.2812591e-34,-1.2287545e-34,1.2032458e-34,-3.2841028e-35,-6.741171e-35,-9.245705e-35
neuron_5,-2.5418132e-34,4.965429e-34,3.2916083e-34,-4.0859596e-34,-3.4089782e-34,5.268217e-34,1.6273982e-34,3.8988282e-34,3.93381e-34,1.8411297e-34,7.863954e-35,3.7382842e-34,2.0572368e-35,-3.2142495e-34,-2.7544404e-34,-3.8728167e-34,-4.895768e-34,6.729161e-35,-4.9384336e-34,-4.1034997e-34,3.2626392e-34,-4.756461e-34,-5.675747e-34,-2.8791964e-34,-5.425304e-34,3.2204364e-34,4.8735775e-34,-1.3039171e-35,5.8951005e-34,-2.5059565e-34,-2.833985e-34,3.1059793e-34,8.013343e-35,5.2519517e-34,-2.9127538e-34,4.5644707e-34,-5.522713e-34,2.4120997e-34,4.833671e-34,-3.7534354e-34,-3.68057e-34,2.8325637e-35,-5.4620314e-34,4.307016e-34,-4.4747713e-34,-1.5487781e-34,-3.5583346e-34,-3.5915632e-34,1.9362013e-34,3.605093e-34,1.9609872e-34,-3.3800807e-34,2.5109643e-34,5.4617876e-34,-4.6610904e-34,2.04255e-35,3.1951254e-34,-1.942341e-34,-5.2429114e-36,-5.8107624e-35,-3.6694257e-34,-3.864988e-34,-3.4063177e-34,1.9317326e-34,4.9230107e-34,-1.8327426e-34,4.561045e-34,4.4174775e-34,-1.545906e-35,-1.1794033e-34,2.721556e-34,-1.9822086e-34,-4.921979e-34,-5.4788038e-34,-4.1486502e-35,8.513518e-36,1.7899308e-34,4.676491e-34,9.191002e-35,5.761481e-34,4.6770046e-34,1.5070159e-34,2.5802395e-34,3.5476768e-34,-3.0703361e-34,3.0764933e-34,-3.9219267e-35,-1.0034011e-34,-1.5448861e-34,5.5528296e-34,2.1968759e-34,-4.588655e-34,1.2868573e-34,4.2666496e-34,-3.161445e-35,3.3933225e-34,4.0680296e-34,9.783222e-35,4.8486424e-34,7.898082e-35,1.6351012e-34,3.3048693e-34,-4.7928257e-36,4.787155e-36,-2.091321e-34,2.979486e-34,5.080189e-34,-1.7024391e-34,-5.190077e-34,-1.7417314e-34,5.031693e-34,2.3120068e-34,1.1067771e-34,-4.6310965e-34,1.4212962e-34,2.380714e-34,-5.042679e-34,6.6403423e-35,-7.541347e-36,-5.427432e-36,4.4189484e-35,2.945534e-34,-4.952444e-34,-2.9566144e-34,3.4663418e-34,-2.0517705e-34
neuron_6,-4.3034747e-34,-4.334243e-34,3.6009915e-34,-3.3556736e-34,-4.718102e-34,-1.8183607e-34,1.5167562e-35,-5.578677e-34,-4.1625256e-34,-2.0607872e-34,-1.9819753e-34,2.6923047e-34,-4.7501626e-34,-1.6813987e-34,2.1261502e-35,4.6372462e-34,-2.876373e-34,3.3895655e-34,4.6591113e-34,1.0050993e-34,-2.8372329e-34,-3.8975067e-34,-4.1051266e-34,-1.1798432e-34,-3.1527475e-34,-5.8315985e-34,-1.8884784e-34,-3.2201795e-35,-5.4004196e-35,2.8184543e-34,3.2741985e-34,1.5966486e-34,4.064895e-34,-3.6769964e-34,5.2813372e-34,-3.80882e-34,-2.518537e-34,1.5102011e-34,-4.086469e-34,6.6392105e-35,-5.7202586e-34,-2.2812002e-34,4.6118303e-34,-8.5411666e-35,-2.302185e-34,3.7719612e-34,4.437144e-34,5.329883e-34,-4.423296e-34,-4.7610873e-34,-1.4926525e-34,-2.0092991e-34,1.4397776e-34,4.2051015e-34,1.1235442e-34,-2.1063688e-34,5.531505e-34,3.7268442e-34,-2.7620972e-35,3.9583197e-34,-4.492294e-35,2.3175282e-34,-3.0428427e-34,2.90807e-34,2.690926e-34,-5.5483627e-34,-1.6874684e-34,3.5069593e-34,-5.4865547e-34,5.3622305e-34,1.8088878e-35,4.740709e-34,-4.6650683e-34,2.6937872e-34,-4.2646127e-34,-1.8887404e-34,4.306246e-34,1.4222885e-34,4.4048225e-34,1.7797216e-34,-5.900074e-34,3.160199e-34,-4.5283114e-34,4.9032923e-35,5.384035e-34,-5.4340027e-34,4.9820297e-36,-4.7770245e-34,2.8613718e-34,-3.8219087e-34,-2.5229888e-34,7.147336e-35,4.741267e-34,-2.2692423e-34,3.1018178e-34,-2.7308348e-34,-4.264843e-34,2.5814793e-34,2.8609182e-34,-1.9071477e-34,2.8638243e-34,-3.6248058e-34,-2.4446724e-34,4.985234e-34,-1.427394e-34,-3.8745956e-34,6.6134185e-35,-1.027e-34,1.7169762e-34,-6.315357e-35,3.6032167e-34,2.3256568e-34,-1.2309249e-34,1.3286521e-34,-2.4253578e-34,-1.3892593e-34,-5.918187e-34,-2.6214993e-34,-2.8897763e-34,5.7429957e-34,3.7500887e-34,-2.1599045e-34,-3.228479e-34,-5.0891967e-34,-5.747994e-34,5.1570843e-34
neuron_7,2.0347679e-34,4.601874e-34,-3.920619e-34,4.9285966e-34,-3.615486e-34,4.562227e-34,3.2745062e-34,2.5078906e-34,2.9053796e-34,3.6853223e-35,2.4137927e-35,2.9643047e-34,-3.505984e-34,-7.940469e-35,-3.8957894e-34,5.7329525e-35,-1.0920269e-34,-8.072331e-35,1.4077567e-34,-3.6370695e-34,1.5088544e-34,1.4301216e-34,3.2605275e-34,3.4661196e-34,-4.8977633e-34,-2.4062222e-34,-2.2414648e-34,3.1086416e-34,2.0583873e-34,5.917512e-34,1.8226752e-34,9.805028e-35,-3.07379e-34,4.324489e-34,-1.3609231e-34,3.7128724e-35,-4.841619e-34,-3.97797e-34,-3.3418887e-34,5.5731657e-35,-4.0164814e-34,-5.589353e-34,1.1747227e-34,4.429243e-34,-3.0761583e-34,1.4766932e-34,3.2762052e-34,8.899429e-35,-9.6033113e-35,2.0168958e-34,-8.560152e-35,-2.2025274e-35,-1.8197879e-34,2.5030169e-34,-4.2761582e-34,-3.5397882e-34,2.1280856e-34,-1.7734904e-34,-5.4636224e-34,8.750729e-36,-4.0292686e-35,4.5822404e-34,-1.9514203e-34,6.2651737e-35,-5.376601e-34,-1.947515e-34,-1.2333475e-34,-2.4065547e-34,-4.2657345e-34,2.2245276e-34,-5.138659e-34,2.3221597e-34,-3.4277734e-34,1.5505424e-34,2.108543e-34,-8.173947e-35,2.4456362e-34,-5.5525578e-34,-1.9903195e-34,-3.404048e-34,-5.1533893e-34,-4.1760686e-34,-4.7198073e-34,3.7334242e-34,4.822539e-34,-1.9945274e-34,2.7577391e-34,5.810777e-34,1.7694349e-34,3.295873e-34,-2.0808087e-35,-5.5720636e-34,-4.283056e-34,-2.7860566e-34,4.582077e-35,1.6337774e-34,2.3223875e-34,-3.4843935e-34,-4.2629376e-34,4.5267553e-35,-3.4264338e-34,-2.5554972e-34,-2.0921802e-35,4.252292e-34,3.320789e-34,5.8475113e-34,-3.3841307e-34,2.9397204e-34,5.587079e-35,-3.6462806e-34,3.5863277e-34,-2.2936315e-34,8.1760775e-35,-2.7892796e-34,5.5604556e-34,2.6296378e-34,5.782514e-34,-2.7176208e-34,1.9918752e-34,-1.8138268e-34,-3.1174856e-34,2.840543e-34,-6.393523e-35,-4.5458644e-34,-5.8838415e-34,4.9428114e-34
neuron_8,-3.514032e-34,2.5158702e-35,1.08846265e-10,-4.336293e-34,8.574134e-35,-2.9777044e-34,-5.8960556e-34,5.308949e-34,-3.1341042e-34,7.460716e-36,-1.8410744e-35,-2.958363e-34,6.593288e-35,2.6668367e-34,-2.5221122e-34,-1.1623104e-34,2.7693733e-34,2.5059841e-12,3.6486004e-34,3.2985712e-34,3.1809906e-34,1.1680006e-34,3.3756982e-13,3.6253706e-34,-6.4452295e-13,-2.521191e-34,1.986259e-34,3.0277438e-34,1.7001197e-34,3.392778e-34,1.6996016e-34,3.3725236e-34,-5.453466e-34,-1.5709689e-34,2.3744251e-35,1.835894e-07,-5.848022e-34,-1.1596105e-34,-1.3617172e-35,-1.953175e-09,-2.6422096e-09,1.3706765e-34,-1.9944654e-34,4.743047e-34,4.598525e-34,-2.4986014e-34,2.4060624e-34,-1.6481579e-35,-5.114745e-34,3.250803e-34,-1.9060641e-34,-2.2755409e-11,2.9357384e-34,9.280087e-35,5.3772107e-34,2.5055368e-34,2.4142744e-34,-1.5794654e-09,2.8758484e-10,-6.146456e-08,2.9832577e-35,1.0898879e-12,3.7213561e-34,-9.691672e-35,-1.5545178e-34,-5.6077105e-34,3.112114e-34,1.3643559e-34,3.6701156e-34,-1.5142121e-34,4.9426524e-07,7.4746747e-35,-4.6763443e-34,2.7574893e-34,2.1672736e-34,9.612108e-07,6.106354e-13,1.7262523e-09,-2.567985e-34,5.907961e-34,1.6146297e-34,4.691339e-34,-4.5451416e-12,5.883697e-10,2.7095145e-35,-2.4810652e-07,-3.430695e-34,-5.1659744e-34,-1.3468833e-34,5.291958e-34,-5.0457654e-34,-2.7859657e-34,-1.4808244e-34,-1.6447875e-34,-3.4021848e-11,5.1562325e-34,-3.629324e-34,5.1782675e-34,-5.744641e-35,3.2715844e-35,-1.0105125e-05,-8.3648545e-35,-5.3959475e-34,-3.909753e-34,3.163934e-34,1.9424694e-11,-5.3389043e-34,-1.0907103e-14,2.1149435e-34,4.9082326e-34,-3.5230851e-34,-9.560094e-10,4.2786396e-34,4.1927386e-34,-9.283173e-35,4.782925e-34,2.9598654e-34,-4.7369043e-34,3.08225e-12,-1.1014414e-34,4.366246e-34,2.3857948e-34,-5.4576366e-34,5.16474e-34,-2.4564305e-34,-1.5916708e-34
neuron_9,-5.5419416e-35,1.6797373e-34,-2.5463325e-09,1.1904337e-35,-3.3370159e-34,4.6751798e-35,-2.3404274e-34,-4.244446e-34,-5.732649e-34,1.9058359e-34,5.644081e-35,3.6535834e-35,2.524084e-12,-1.9035809e-34,-8.257313e-35,-4.753464e-34,-3.638048e-08,-4.540256e-11,3.1108062e-34,2.1090279e-34,-1.4649558e-08,5.013536e-35,-4.906224e-34,3.7073737e-34,6.254786e-07,5.463683e-34,-2.1296968e-34,1.0768208e-06,-2.1117706e-34,5.372711e-34,-2.1348194e-34,-2.9669041e-34,3.04013e-34,-2.1411772e-34,1.1925027e-34,-1.1518853e-13,-3.3186823e-34,-1.6430325e-34,8.68047e-35,-3.461963e-34,-4.2786217e-34,-1.9009401e-34,-2.1411965e-34,3.3442736e-34,-3.8479808e-35,4.8772264e-11,-1.30945e-34,-3.6538111e-34,-5.162536e-34,2.0277888e-34,5.2554596e-09,-1.5602805e-34,7.2983506e-35,7.9719054e-10,-3.1279726e-13,-2.53488e-34,-1.1313986e-34,7.690368e-08,1.8388568e-13,-3.0721692e-34,-4.1661173e-35,2.1296827e-08,4.0303596e-34,4.655134e-34,-3.9549507e-35,-4.4830563e-34,1.6702382e-06,6.9955656e-12,-3.1115434e-34,2.2542417e-07,6.9155527e-35,-2.1324814e-10,-2.4615816e-34,3.8497183e-34,-3.282673e-10,2.9788735e-34,4.2143383e-34,-5.1235047e-13,-1.0832474e-34,1.2218823e-34,6.2402813e-12,3.093467e-13,-2.704166e-34,4.7789708e-08,2.901414e-34,-9.986025e-10,-5.4660113e-06,-5.174269e-11,-5.17932e-35,-1.0721079e-08,-9.69244e-07,1.3106808e-34,-2.2576065e-34,1.7366352e-34,-4.4786036e-34,-2.7714336e-34,-2.7869134e-34,2.8401358e-34,2.1493345e-34,3.4974695e-34,3.1570247e-34,3.3490481e-34,4.6492822e-35,-1.8134413e-07,-3.1309489e-15,2.4168793e-34,2.4055757e-34,2.5874982e-34,-5.1588112e-34,-4.3813246e-35,3.307558e-34,-2.8190852e-34,4.352046e-34,5.482059e-34,-4.8956103e-11,-2.6355465e-34,-5.80952e-05,-7.094016e-08,-2.7560934e-34,1.0535956e-34,-1.4502795e-34,8.6994663e-35,-4.7496657e-34,-4.2431163e-34,1.6095982e-34,3.164012e-34
neuron_10,0.08372893,0.0037642345,1.1402053e-06,-0.0344808,0.07866179,0.053711105,0.037583213,-0.07650108,0.0386072,0.03730082,0.034723736,0.012296218,0.03434186,0.009175981,0.004623549,-0.005073985,0.015437065,0.016899347,-0.018838217,0.016484575,-0.039817333,-0.0044365353,0.0041285856,-0.011627389,0.00046484199,0.00044776572,0.011510986,-0.015711453,-0.0012851614,5.3717594e-34,0.0069060465,-0.0033784644,0.030001007,-0.034455426,-0.012422809,0.0031916716,0.015615116,-0.00055752957,4.4290786e-34,0.0023513956,-9.1952816e-35,0.015073118,0.00027387717,-0.01645057,0.032539178,-0.02216931,-0.0005695855,0.016976938,-0.03959334,-0.01550839,0.00033510744,-5.9296042e-33,0.001338814,0.0006294821,0.0019128927,0.00086701085,0.0028955531,0.0027272445,0.0039887587,0.016174057,-0.016324988,0.0035616115,0.017387733,0.015926078,0.0011507645,0.00062781933,-0.015630824,-0.0074885217,0.0019401384,0.0074865785,4.0722196e-22,0.00034671344,-0.06278783,2.646692e-32,0.0016282019,-1.4964344e-21,0.006134892,0.00057215727,0.0024014653,0.00884811,0.00075382437,0.0015928805,0.010400934,0.00079616613,0.009875918,0.00032809703,0.0002712522,0.00036778694,0.0007297901,0.0018572541,0.0016838727,-1.5901504e-08,-0.05158207,1.3548396e-05,3.907722e-06,0.00016048201,0.0005585228,0.07495434,-0.0067362897,0.00022205415,0.00014915554,0.008364972,-0.00044005972,-0.00078361336,0.0033613709,0.00027882523,0.00033013802,0.0011368062,0.0046091676,-0.006828342,-0.0015284944,0.007944686,-0.008242477,-0.008953858,0.0024833027,0.00081040774,0.0003606491,0.0137601085,0.0015139361,0.07254635,0.062116783,0.002235712,0.01564995,-0.02186662,0.0004315138,0.04412673
neuron_11,3.2321836e-34,3.6399304e-34,1.7709914e-34,-5.624597e-34,-5.3009556e-34,-2.727347e-34,1.473425e-34,3.4351655e-34,2.3282436e-35,-5.1019743e-34,-2.4148878e-34,-2.4985e-34,5.1994282e-34,-1.9195364e-35,2.3234482e-34,4.3754843e-34,-3.0847387e-34,-8.9063304e-35,1.3276611e-34,-2.6379775e-35,3.8650943e-35,-4.388034e-34,2.672151e-34,-2.0573904e-34,-5.6204573e-34,1.8507948e-34,-2.8888064e-35,-4.747955e-34,4.2457084e-34,1.4432772e-35,-3.8042019e-34,-1.7459585e-34,-5.435023e-34,1.2248809e-35,4.2883962e-36,4.5131636e-35,4.128888e-34,-9.741549e-35,-1.3157034e-34,4.3178194e-34,-5.0455565e-34,4.233961e-34,2.2933514e-34,5.794798e-34,5.6311786e-34,1.6097078e-34,-2.043368e-34,-1.3713999e-34,6.570985e-35,-3.9572563e-34,-5.1367207e-34,3.3981967e-34,3.1854184e-34,4.659989e-35,4.271616e-34,2.2819183e-34,-2.7572405e-34,4.967384e-34,-1.0781161e-34,3.7010063e-34,-5.183811e-34,4.2744786e-34,-1.4168137e-34,-2.0126259e-34,1.0728775e-34,-3.7864032e-34,-3.6049326e-34,1.998023e-34,1.0890976e-34,-1.2583652e-34,-5.9091e-34,4.4838457e-35,-2.0869421e-34,1.1440307e-34,2.395652e-34,-1.98566e-34,4.624726e-34,4.1422396e-34,-5.4776875e-34,2.1587589e-34,-4.6056388e-34,5.337646e-34,1.7705066e-34,8.445664e-35,-3.3491395e-34,3.2213467e-35,-2.582564e-34,2.5883146e-34,-3.1916012e-34,-2.8180307e-35,3.6431334e-34,8.388943e-35,-2.6059674e-34,-1.7336592e-34,-2.116517e-34,1.9704167e-34,9.6263804e-36,-3.6369081e-34,-1.6520287e-35,-4.612386e-35,1.4397427e-34,-4.9884748e-34,-1.885798e-34,-1.2150989e-34,-4.6449926e-34,2.4998618e-34,-2.2851149e-34,-8.4883687e-35,2.2388484e-35,2.978556e-34,3.5626897e-34,-4.5692e-34,-1.538206e-34,3.2550867e-34,-3.2822172e-34,1.1893294e-34,3.597898e-34,1.5248173e-34,5.4508734e-34,-4.560932e-34,-5.814802e-34,-5.4987224e-34,1.5265792e-35,-4.4065446e-35,-1.0117806e-34,7.8230986e-35
neuron_12,0.016145801,-0.034612194,-2.3257796e-06,-0.042276293,-0.08087683,-0.008568953,0.0779586,-0.016274605,0.05051962,-0.016184757,0.04493688,-0.03166145,0.040450677,-0.0007257752,-1.0646817e-07,-0.010023811,-0.0062827156,0.00010406837,-0.021479303,0.035473716,-0.02339987,-0.010311049,0.001436966,-0.009556846,0.0004860881,0.0020061582,-0.0011631688,-0.0026454793,-0.0019290758,2.5670087e-36,0.0065597696,-0.0044192607,-0.0030272542,0.0014240377,8.190175e-05,2.3281206e-07,0.0045931423,0.00030724134,-4.4323478e-35,4.9683793e-05,-3.7054917e-05,-0.006575808,-0.027327344,0.030498452,-0.032836214,-0.0018596407,-0.025957676,0.022457968,-0.007405231,-1.0835935e-11,0.0005163081,-2.717214e-34,-0.014426225,9.1992304e-05,0.00018787998,0.0003180664,0.00055979483,2.7572038e-05,2.4237524e-05,0.0001933995,-0.018112078,0.0001643968,0.0017432873,0.0006273679,0.003426884,6.945371e-05,-0.03886515,-0.0027090732,0.0509579,-0.000103883416,-4.694212e-34,-0.00030618953,-0.022399548,5.0730605e-06,0.0008401115,-2.1868015e-34,0.005297652,0.00029381158,0.0012199897,-0.001216165,0.00011035115,-0.00052615005,0.00028460124,0.000116511255,0.00013346196,0.0005106125,0.00018489851,0.00012370292,0.000118783355,0.00022422828,-0.00010233449,-0.0098489355,0.0152077805,4.8772707e-34,1.0935858e-05,-3.0449733e-06,3.1641164e-05,0.03561028,2.1728514e-35,-0.00018841762,0.0008582946,6.5591526e-06,0.0058932314,0.0011269185,-0.0006529239,-0.00019590514,-0.00022431997,7.836365e-05,-0.020877594,-0.0030872358,0.0023277295,-0.0030559069,1.4962978e-34,-0.0028256876,0.0002556476,8.144819e-05,0.00037112978,0.0007200362,-0.00089633086,0.006385588,0.06836897,-0.023973739,0.033683624,-3.747225e-06,5.657306e-11,0.029967163
neuron_13,0.07907297,-0.030283729,4.0200848e-07,0.00021267676,-0.021184826,0.061869804,0.041625742,-0.08173111,0.03951256,0.030177277,0.04567689,0.013798668,0.036287863,-0.011111546,0.009564075,0.0075699696,-0.00027827252,0.008188155,-0.0070020575,0.013961237,-0.020277327,-0.0024233132,0.006454377,-0.024408754,0.00040924802,-3.6883088e-05,0.000612497,2.824501e-13,-1.736579e-05,4.8424563e-34,0.00799666,-0.0041452646,0.03664636,-0.028537713,7.5030967e-25,-1.0021844e-18,0.0006072787,-1.8161968e-27,-4.8039662e-34,-2.3682429e-07,3.1748943e-35,0.010852701,-0.029435778,0.019067269,0.019056711,-6.854718e-07,-0.022546796,0.01935019,-0.021612847,-0.0103823915,-0.00032580196,-4.6612027e-14,-0.005634239,0.0008737601,0.0013992866,0.00081043516,0.0013924758,0.002891497,0.0037397905,0.0017097936,-0.015403157,0.002675415,0.022031076,0.014058585,0.0006835582,0.00048953725,-0.04237488,0.013328324,0.012874559,0.0013914307,-1.20188576e-23,0.0003667508,-0.055161156,2.406147e-17,0.00058556075,-1.3217865e-19,0.005092371,0.00055376976,0.0018142118,0.0017126891,0.00040063946,0.0010734111,0.0016873599,0.0006398947,0.009235023,-0.0006809674,0.00076049694,0.00010246744,0.00062860595,0.011610237,0.0010541411,-0.0065131653,0.0050358465,1.0192195e-34,3.411562e-05,8.885805e-05,-4.236779e-06,0.05607977,-0.0049350867,0.0073095607,0.00036220852,-0.00042659452,-0.0059627607,-0.0015567978,0.00250398,0.0011199008,0.00029040303,0.00095284387,-0.022562705,-0.006343552,-0.0014197523,0.010986337,-0.0019434881,-0.013013827,0.0050588567,0.00025438756,-1.739425e-05,0.011080009,0.0015839676,0.055466387,0.063453145,0.008368202,0.022984847,-6.854718e-07,2.4756638e-33,0.04247086
neuron_14,-7.9990187e-35,-7.674178e-35,5.838536e-13,-5.738497e-35,5.431504e-34,1.7475046e-34,-1.9370806e-34,-3.7219613e-34,2.5664862e-34,-1.1369136e-34,-2.5076968e-35,-2.4803225e-34,5.549935e-34,3.9028616e-34,2.5445577e-34,-1.687547e-34,2.4621023e-34,-2.4677984e-34,-4.9423954e-34,1.589959e-34,-5.1428456e-34,-5.0603517e-35,3.4440295e-34,4.237119e-34,-5.0685443e-34,5.1820493e-34,-4.361916e-34,5.6403493e-34,-5.052174e-34,4.1680396e-13,-1.2205794e-34,-6.641093e-35,8.091607e-35,-2.369201e-34,5.244527e-34,5.9184377e-34,1.1329488e-34,-1.4306244e-34,-2.0829496e-36,3.7897685e-11,-3.4388086e-34,5.9313847e-34,3.1701976e-34,2.6988836e-34,2.1535424e-34,-3.9427114e-35,3.219663e-35,3.100528e-34,-1.200587e-34,7.29251e-35,2.897476e-34,1.284933e-13,-5.200446e-34,-4.7322758e-34,4.6022514e-34,2.7924015e-34,4.153354e-34,1.2212945e-34,-5.8156545e-34,2.7536892e-34,4.27085e-34,2.7504437e-34,4.2501468e-34,-4.2067655e-34,4.215837e-34,3.5213182e-34,-3.2054635e-09,1.8544837e-34,4.3048734e-34,-3.049776e-34,-2.6552213e-34,-1.912525e-08,-1.8792913e-34,-2.285962e-10,-2.8976377e-34,3.593016e-34,-2.0218503e-36,-2.0609722e-34,8.262256e-35,-4.4376675e-34,5.4103156e-34,-5.399457e-34,7.327738e-35,-3.8290847e-34,4.2853785e-34,1.0604135e-34,-2.8890198e-34,-1.3227691e-34,2.4783241e-34,-1.1866248e-34,-4.288782e-34,-3.280508e-34,-4.9149402e-34,3.0974285e-34,7.135719e-35,-4.386527e-35,3.5232798e-34,-4.39042e-34,-3.1637126e-34,6.7531545e-08,-4.4275638e-34,5.902247e-34,3.553277e-34,-1.6735072e-34,-1.5401272e-34,-2.2460758e-35,-2.0958623e-34,-1.8161682e-34,5.171323e-34,5.0755054e-34,-1.8211769e-34,3.966992e-34,4.0440183e-34,-2.7639761e-34,-3.6706896e-34,1.5939042e-34,4.228121e-34,5.601877e-34,-4.146483e-34,-2.052191e-34,-3.849744e-35,-4.7010076e-34,-5.9120607e-34,2.4020199e-34,-1.699605e-34,-1.4821565e-34
neuron_15,-5.1783942e-34,-7.69809e-35,2.5828437e-34,2.2177857e-34,5.0893717e-35,-2.1331448e-34,-3.229505e-34,-2.1879736e-34,-1.8395509e-34,-8.46404e-35,-1.154965e-34,-1.2413793e-34,-2.4754497e-34,-7.4412936e-35,-1.2836417e-34,-1.8000978e-34,-5.4842854e-34,-1.3850448e-34,2.1499815e-35,-3.0294772e-34,3.394508e-34,1.1066267e-34,-5.6180824e-34,-3.9438575e-34,9.783823e-35,-1.7199195e-34,-5.703799e-34,-3.728186e-35,-5.5668997e-34,-5.841928e-35,-3.925363e-34,-1.5945449e-34,5.3578895e-34,3.1340222e-34,-1.8698241e-34,1.8445717e-34,-3.4782414e-34,3.6989767e-34,-3.0039905e-34,-3.6459665e-34,-5.5967343e-34,-3.4794624e-34,4.967817e-34,2.857638e-34,5.4761906e-34,1.1227305e-34,-1.6310012e-34,-1.6615153e-35,-3.7260808e-34,-3.3673822e-34,1.3873974e-34,4.577922e-34,1.118583e-34,2.321779e-34,-1.3186364e-34,-2.2973862e-34,2.353264e-34,8.4878544e-35,2.7296173e-34,3.724794e-34,3.244541e-34,5.221715e-34,2.259094e-34,4.923668e-34,5.469816e-34,4.301152e-34,-8.0137123e-35,-2.2953754e-34,-3.4842725e-34,1.3902911e-34,-2.8778202e-34,-4.216544e-34,4.1738494e-34,2.1423187e-34,5.5734467e-34,-2.9644579e-34,-5.484427e-34,5.133883e-34,5.1946634e-35,-2.838933e-34,-4.701967e-34,3.7591214e-34,-3.1456766e-34,-4.094459e-34,-4.9314633e-34,4.561545e-34,2.9093875e-34,-4.8084193e-35,5.2186265e-34,-4.5646976e-34,-1.0156308e-34,-2.289038e-34,-1.7614924e-34,-3.1144663e-34,-8.9952363e-35,-9.0208745e-36,-5.028662e-34,1.1362053e-34,4.1674875e-34,-5.5461844e-35,-3.265576e-34,-3.6331146e-34,4.359285e-34,4.7507453e-34,1.2070364e-35,3.0651015e-36,4.4089184e-34,4.107672e-35,2.7880641e-34,6.8400225e-38,-4.309845e-34,-4.7463284e-34,3.9291753e-34,-5.757215e-34,-4.483993e-34,4.493705e-34,3.679671e-34,3.9946926e-34,5.26294e-34,9.928076e-35,-2.8874113e-35,5.390833e-34,4.217329e-34,3.0999086e-34,-4.6466543e-34,-5.714139e-34
neuron_16,-1.7072402e-34,-5.519504e-35,1.9123456e-34,4.5979365e-34,-1.506225e-34,5.2846966e-35,-3.2520614e-35,1.9491434e-34,3.2324088e-34,-5.75448e-34,5.6463282e-34,-3.716179e-34,1.7278874e-34,-5.8224724e-34,-4.9730648e-34,-5.927352e-34,1.4191073e-34,-2.6838584e-34,-5.3640374e-34,-1.2376394e-34,-2.9879023e-35,-2.506821e-34,-3.9467025e-34,-4.4321555e-34,2.1286577e-34,-3.1561665e-34,2.3409065e-34,4.160715e-34,-2.589871e-34,1.704715e-34,-2.4823984e-34,-5.1263437e-34,-3.3922912e-34,-2.6935326e-34,1.589171e-34,-7.813456e-35,-1.8600251e-34,3.1256413e-34,-3.0052064e-34,2.6144987e-34,-2.371402e-34,-8.2641007e-35,1.6386302e-34,-4.6497e-36,4.945099e-34,-3.7911162e-34,2.7282572e-34,-1.5786843e-35,3.6987214e-34,2.0124904e-34,8.8209004e-35,-1.4463622e-34,-2.253913e-34,5.4398265e-34,-7.190485e-35,-5.409927e-34,2.4044783e-35,2.1596182e-34,2.298641e-34,-5.124753e-34,8.9714716e-35,-4.233255e-34,4.017438e-35,-1.5369967e-34,2.030227e-34,3.1999284e-34,-1.3544514e-34,-4.092151e-34,-3.8264818e-34,-2.6420856e-34,3.1206308e-34,3.648683e-34,4.883048e-34,-3.397884e-34,4.3508315e-34,9.0894733e-35,1.6939246e-34,-8.3907843e-35,-2.6634847e-34,-8.508203e-35,-5.7726553e-34,2.3017575e-34,1.8794065e-34,-2.594471e-34,1.3452918e-34,-2.610209e-34,-7.860486e-35,-1.7835941e-34,8.8683174e-35,2.1651137e-36,-4.4000746e-34,-4.148572e-34,-1.9831607e-34,4.683809e-34,4.635285e-34,1.6159227e-34,-8.428143e-35,-4.061803e-34,4.338951e-34,-1.6195598e-34,1.4800467e-34,-3.6586688e-34,6.154861e-35,5.3285894e-34,-4.24305e-34,5.8725935e-34,-2.3830062e-34,3.309766e-34,-2.6384696e-34,-5.8533236e-34,-5.306186e-34,-4.5243005e-34,-2.495632e-34,-2.5350371e-34,4.406873e-34,-3.912855e-34,4.0904205e-34,1.9562944e-34,-4.9807767e-34,-5.1145966e-34,-1.3462025e-34,-5.3493754e-34,2.4839757e-34,4.9124377e-34,4.038073e-34,4.74479e-35
neuron_17,-3.3736626e-34,-7.5329007e-35,-8.320296e-35,-3.5899035e-34,-1.1137683e-34,1.6556063e-35,-2.9383024e-34,-3.138787e-34,-2.0106298e-34,3.1288627e-34,-2.4404796e-34,5.0531077e-34,3.5236738e-34,-4.405786e-34,5.7313867e-34,9.688793e-35,2.5360147e-34,-2.244243e-09,1.02140415e-35,5.0765872e-34,3.5251342e-34,2.00276e-34,2.3626013e-34,-3.510374e-34,1.5725954e-34,3.7973477e-34,-3.6481472e-34,1.5276044e-34,-3.7535592e-34,-5.3735125e-34,-3.71053e-34,-3.5211226e-34,-2.6854912e-34,2.7706907e-34,3.5093964e-34,3.5278744e-34,-5.671324e-34,3.040414e-34,1.4276497e-34,-5.7152095e-34,-1.8574895e-34,-1.1550716e-34,2.7027797e-34,-3.1832874e-34,-2.2701367e-34,5.027937e-34,-3.5419268e-34,3.5019967e-34,4.2071007e-34,1.5595707e-34,3.146363e-34,-3.666609e-34,9.8652e-35,-5.1927224e-34,3.177556e-34,1.879767e-34,-3.9605977e-34,2.4172122e-34,3.674297e-35,-3.401952e-34,-5.4221054e-34,-3.3453743e-35,3.824854e-34,-2.593726e-34,4.9174216e-34,1.5897275e-34,-4.7307306e-34,3.054803e-34,-2.7257335e-34,4.4238536e-35,6.277094e-35,-3.384858e-34,-8.948049e-35,3.0978934e-34,3.2577944e-34,5.7710183e-34,3.743215e-34,3.0325927e-34,-1.0381507e-34,-3.3201838e-35,-2.985302e-34,-4.0641165e-34,-3.0969726e-34,-2.7611449e-34,5.47229e-34,-3.5310932e-35,-1.8189747e-34,2.112537e-34,5.0488447e-34,2.8394158e-35,5.3918916e-34,1.5142766e-35,2.3256559e-34,6.85886e-36,-1.3854325e-34,5.3607033e-34,-9.342682e-35,2.743558e-34,4.4909697e-34,-1.9476362e-34,4.8712486e-35,1.0767727e-34,3.215718e-34,4.888587e-34,4.744342e-34,4.0271876e-34,-4.3914724e-34,-5.4342305e-34,2.1222898e-34,3.7242448e-34,2.1459024e-34,-5.8383074e-35,2.1492238e-34,-3.9202245e-34,2.8707335e-34,1.5504348e-34,-5.5006505e-34,-1.3218664e-35,-4.105282e-34,7.456293e-35,9.0954587e-35,-2.5456049e-34,-3.6080208e-34,5.4435242e-34,2.8253085e-34,6.870367e-35
neuron_18,3.7409995e-34,3.8308927e-34,-3.5225892e-35,3.6715411e-34,9.634872e-35,2.088434e-34,1.1821818e-34,3.241951e-36,-2.3338334e-34,-2.315457e-34,4.2321323e-34,-3.8961398e-34,-3.97035e-34,1.2970836e-34,3.3696216e-34,-3.5474126e-35,2.4242335e-34,-1.662419e-34,-1.4024945e-34,-3.0601025e-34,1.3819807e-34,2.830145e-34,-1.76692e-34,3.2606843e-34,-3.8746296e-34,-2.9910907e-35,4.510723e-34,-1.4705161e-34,5.173215e-34,-1.1718136e-34,5.4823684e-34,1.5232335e-35,-2.9604759e-34,-5.1773354e-34,-4.693499e-34,3.6706942e-34,3.5234837e-34,-1.5867166e-34,5.165497e-34,-2.5351152e-34,-2.4672857e-35,-5.6833637e-34,3.4768772e-34,2.3478736e-34,3.4765702e-34,-4.6455528e-34,2.93746e-34,-1.9579833e-34,3.472098e-34,-9.8997316e-36,-5.3429432e-34,-1.9431142e-34,4.0253002e-35,-2.124876e-34,-4.4339133e-34,-3.6465763e-34,-3.9020094e-34,2.2054923e-34,-6.4343943e-35,-2.9937623e-34,-2.4082493e-34,3.69381e-34,1.307385e-34,-6.9592026e-35,3.0438568e-34,-1.7039213e-34,-2.9531924e-34,-2.1797685e-34,4.15048e-34,-2.9885962e-35,-4.192737e-06,3.373775e-34,-1.2879267e-34,4.784534e-34,-5.177373e-35,1.4318166e-06,4.298274e-34,4.554255e-34,-3.7630981e-34,-3.5027303e-34,3.4274183e-34,1.993015e-34,-4.4212423e-34,5.338764e-34,4.8480515e-35,-4.142893e-34,3.2759172e-34,-2.6833372e-34,4.6828354e-35,-2.1927984e-34,-2.1173723e-34,-1.9408447e-34,8.624752e-35,-1.267939e-34,-5.9094645e-34,5.5403593e-34,-3.2042957e-34,-2.6266362e-34,3.1713848e-34,-8.770359e-36,-2.2929519e-34,6.6911314e-35,2.4714163e-34,4.410609e-34,-2.7118588e-34,-1.5949748e-34,4.345415e-34,-5.055541e-34,-5.055461e-34,-3.3707177e-34,-2.5020893e-34,2.461663e-35,4.83527e-34,-2.5033773e-34,7.0943374e-35,-4.950954e-34,6.162809e-35,2.1027587e-34,4.6320438e-34,2.3284064e-34,1.7299147e-34,-4.0448687e-34,-3.1773511e-34,-4.291192e-34,2.1205992e-34,-3.1921897e-34
neuron_19,-3.7834851e-34,5.573488e-34,3.3150285e-09,5.8705097e-34,-4.1961075e-34,-5.0653016e-34,-2.7561015e-34,4.7343852e-34,-4.1371827e-34,5.7909113e-34,1.4274722e-34,-4.834663e-34,4.2116952e-34,-2.4170368e-34,-2.6681518e-34,5.021817e-34,-2.3805602e-34,2.9466558e-34,3.1575964e-34,-2.7767794e-34,-2.4297794e-34,-7.497891e-35,1.3284427e-34,-4.0223333e-35,5.1203065e-34,-1.4650425e-35,3.7544277e-34,-3.2468697e-34,-9.282732e-37,-4.4457975e-11,-9.253373e-37,5.185778e-34,-4.974566e-34,-4.6642555e-34,4.0001485e-34,-1.3655168e-08,1.3162704e-34,4.3182667e-34,5.3237965e-34,-1.7099916e-34,-5.122775e-34,-1.4476022e-34,-4.518478e-34,-3.5770341e-34,-7.441475e-35,9.0580426e-35,4.7834105e-35,5.008611e-35,2.797929e-34,4.9842512e-34,-4.2128983e-34,2.5052009e-14,-6.529513e-35,-1.5106131e-34,3.147893e-34,2.4553218e-14,-4.981076e-09,-3.133868e-34,4.7713463e-34,5.4468404e-34,7.4592463e-35,3.313454e-34,-4.1336213e-35,1.7662133e-34,4.9061057e-34,4.906587e-34,-5.254656e-34,-3.2962666e-34,-1.5178754e-34,1.4923342e-34,-1.2338424e-14,1.236567e-05,5.7411957e-34,1.559322e-11,-5.430703e-34,-8.647342e-09,5.4511346e-35,4.739013e-34,5.5086604e-35,-3.0599147e-34,-2.5822231e-34,-2.0270023e-34,2.658689e-34,3.4334868e-34,2.5628128e-34,-5.1496865e-34,4.091973e-34,-5.6504213e-34,5.7624753e-34,-1.7516556e-34,3.4690308e-34,9.45575e-35,2.608703e-34,4.9060097e-34,2.3474622e-35,-1.3449712e-34,1.947052e-34,5.304285e-34,5.7476476e-34,-2.3064669e-35,-5.107802e-34,1.2714947e-08,4.6462176e-34,4.5679343e-34,4.5358066e-34,5.6096207e-34,2.8418237e-34,5.1889553e-34,-5.6495934e-34,3.4725352e-34,-1.9151269e-34,4.6169663e-10,3.0645432e-34,-5.0776066e-34,2.061626e-34,3.6285307e-35,-4.3133e-34,-2.3972738e-36,4.9628796e-10,-2.1522177e-34,8.7309556e-36,6.790155e-35,3.689452e-34,-8.349904e-35,-4.0285955e-34,1.0929026e-34
neuron_20,-2.3746554e-34,-1.1864255e-34,-2.5753685e-34,1.8917598e-34,5.1043156e-35,2.5859615e-34,-1.9744597e-34,-3.539339e-34,2.67318e-35,1.5966642e-34,2.4609493e-34,5.3069676e-34,2.070884e-34,5.16299e-34,-1.7026668e-35,-2.6768654e-34,1.2187893e-34,2.736616e-34,4.0777388e-35,1.1321126e-34,-1.2602979e-34,1.0041876e-34,-2.0482955e-34,-1.0615926e-34,8.488823e-35,-1.0171542e-34,9.82202e-35,-2.2030683e-34,8.6398714e-35,-4.620053e-34,9.915579e-37,1.194387e-34,2.1198877e-34,-3.7157413e-34,-1.9299133e-34,6.173733e-35,5.7873178e-34,1.8363169e-34,3.610935e-34,-3.3949333e-34,4.987924e-34,4.2723636e-34,3.2906497e-34,1.2015728e-34,-4.3400675e-34,-3.0144402e-34,-2.1579856e-34,-1.8353753e-34,4.6663186e-34,5.4052224e-34,3.6168529e-34,1.0502688e-34,1.1132258e-34,-3.524167e-34,2.6976457e-34,3.6380365e-34,-4.623538e-34,4.321369e-34,-1.1642121e-34,5.253726e-34,1.5761234e-34,-2.621865e-34,-2.4071244e-35,3.8451745e-34,2.589277e-34,-5.473267e-35,-4.432427e-35,-2.1947836e-34,8.5408366e-35,2.9700858e-34,-2.8054936e-34,-3.7760093e-35,2.3985955e-34,3.0559272e-34,4.8675384e-34,-4.5221194e-34,4.408565e-34,2.450015e-34,1.999111e-34,7.097929e-35,2.0872528e-34,-1.2056531e-35,-7.086495e-35,1.4842315e-34,2.3324972e-34,1.1577517e-34,5.056084e-34,2.0243445e-34,2.7062405e-34,-2.7512335e-34,-1.8662865e-34,4.8299616e-34,1.2762758e-34,-2.294524e-34,1.7379698e-34,9.042846e-36,-4.900307e-34,-2.572996e-34,4.9901737e-34,-8.526935e-35,-2.8363264e-34,-4.603163e-34,2.9660124e-34,-5.0662934e-34,-2.184587e-34,1.4701394e-34,-1.9378493e-34,8.476421e-35,-1.3099989e-34,3.799946e-34,2.9112412e-34,-4.592333e-34,3.2856766e-34,-3.8498315e-34,4.797648e-34,9.576073e-35,5.4759302e-34,-1.3893328e-34,-5.6165855e-35,-5.1736555e-34,1.3092998e-34,-2.6881554e-34,-1.0852136e-34,2.9866028e-34,-3.2323932e-34,2.2635055e-34
neuron_21,2.1554135e-34,-3.6491528e-34,4.213868e-34,1.829196e-34,-2.2071996e-35,2.2133992e-34,-1.3035144e-34,-3.8565685e-36,2.1052688e-34,-2.807761e-34,-4.4331047e-34,4.6411235e-34,4.172633e-34,-4.0146383e-34,2.3881013e-34,1.1722939e-35,-4.3035023e-34,5.020985e-34,5.336352e-35,5.4533718e-34,5.866665e-34,5.904494e-34,-7.188791e-36,2.4146087e-34,5.113955e-34,4.0098307e-34,2.8763451e-34,4.7908186e-34,-3.193304e-34,-5.738317e-34,-3.189243e-34,-4.679972e-34,-4.927791e-34,4.2995795e-34,1.2740155e-34,-5.11725e-34,4.593604e-34,-3.319326e-34,2.421043e-35,0.00019083195,-4.09644e-34,-4.104654e-34,1.4018662e-34,1.2400294e-34,2.522471e-34,-3.6173928e-34,-5.45382e-34,-3.7913235e-34,2.7651714e-34,4.2832516e-34,1.1685957e-34,5.503481e-34,-2.08427e-34,-6.301862e-35,-2.9152333e-34,5.737533e-34,4.6302135e-34,-3.1646622e-34,-4.078339e-34,-9.4381957e-35,-2.3210471e-34,1.1687261e-35,5.050242e-34,3.5440656e-34,-5.746808e-34,4.596036e-34,-1.0092115e-34,9.1779075e-35,5.3425814e-34,-5.836022e-34,-5.350729e-34,-4.684808e-34,-5.3024075e-34,3.904792e-34,-6.861287e-35,-4.4073994e-34,5.119286e-34,-2.507065e-34,-5.9197455e-34,9.104571e-35,3.3852033e-34,-3.3244376e-34,-3.450985e-35,-1.7337844e-34,5.935692e-34,-9.80939e-35,-5.8780375e-34,-3.8068183e-34,-3.2745893e-34,-2.4859208e-34,5.7997183e-34,-5.504425e-34,1.4585377e-34,8.252246e-35,3.2831998e-34,-4.2130186e-34,2.904507e-34,-3.708647e-34,-7.668723e-35,1.08215275e-35,-2.2777407e-34,-5.625475e-34,-5.8301884e-34,1.1981685e-34,-5.0661456e-34,-4.8927014e-34,-5.0425034e-34,-2.0495773e-34,1.6434963e-34,-4.601616e-34,4.5395425e-34,4.8150177e-34,-5.3264496e-34,1.994735e-34,-4.600121e-34,5.8433604e-34,5.322418e-35,-4.9559246e-34,5.66704e-34,1.6782106e-34,-4.243708e-34,-4.029287e-34,-2.5028947e-34,1.8730061e-34,5.147925e-34,2.6399647e-34
neuron_22,-2.3100544e-34,9.0463933e-35,-2.6470103e-34,5.2144966e-34,-5.1318212e-34,-4.236903e-34,-1.5327992e-34,2.379353e-34,-3.904206e-34,-1.9121838e-35,-5.0292084e-34,2.7992954e-34,4.1766017e-34,2.6297691e-34,5.82241e-34,5.4016275e-34,4.3792817e-34,5.228169e-34,-4.4751125e-34,1.599639e-34,1.2160898e-34,1.5283093e-34,-4.721684e-34,2.4125247e-34,3.331373e-34,4.6525805e-34,5.4248674e-34,-5.6580504e-35,-4.7022653e-34,-3.3053565e-34,2.3272059e-35,3.7567252e-34,3.1277779e-34,2.9150485e-34,1.064119e-34,-3.5636507e-34,-5.079066e-34,-3.827721e-34,-2.3456117e-34,-9.649064e-35,-3.5872419e-34,1.8394958e-34,-3.1185238e-34,-1.2513384e-34,-9.707287e-35,-2.4915351e-34,1.1351813e-34,5.194399e-34,-1.4479588e-34,-1.5808227e-34,3.1396646e-34,4.414438e-34,-5.1797263e-34,2.6568156e-34,-8.5147025e-35,-4.966744e-35,2.5564568e-35,-3.0804004e-34,-7.3331195e-35,-1.4173206e-34,3.7109617e-34,3.8660026e-34,-2.4569246e-34,2.345928e-34,-1.1364826e-34,1.9368593e-34,1.9274845e-34,-5.4588566e-34,1.6581474e-34,3.174225e-34,-2.2687996e-34,-3.7850156e-34,3.6124038e-35,-2.6176732e-34,1.6588172e-34,-1.1723393e-34,-4.635953e-34,-2.5324699e-34,2.305752e-34,-3.8463355e-34,-1.7487536e-34,-3.413923e-34,1.9258436e-34,5.281305e-34,3.8309228e-34,3.8254044e-34,-1.7612207e-34,2.7348464e-34,-2.9585283e-34,4.6756996e-34,3.550947e-34,8.710643e-35,-3.889563e-34,3.0059682e-34,4.0418786e-34,-1.7693862e-34,-1.6012345e-34,-2.4009018e-34,1.2031906e-34,1.0229207e-34,-1.3759331e-34,7.457584e-35,5.4612604e-34,-3.3475094e-34,4.748786e-35,-2.4315987e-34,4.550118e-34,-7.5713775e-35,1.09711735e-35,-2.9992513e-34,3.0454386e-34,-4.6260157e-34,-1.221897e-34,2.1304177e-34,1.3472148e-34,-6.442508e-35,2.4023773e-34,2.3146108e-34,7.5427524e-35,3.5604806e-35,5.9656453e-36,-1.665727e-34,4.265572e-34,1.7468397e-34,-5.0624326e-34,8.637289e-35
neuron_23,-4.67726e-34,4.410404e-34,2.1802188e-34,1.0629234e-34,-3.800613e-34,5.000464e-34,-1.0599632e-34,7.0806224e-35,-2.517698e-34,-1.6768417e-34,-1.0071938e-34,3.5700654e-34,1.8464215e-36,3.3463927e-34,4.4211293e-34,1.3719077e-34,-3.7385018e-34,-5.301149e-35,2.8833513e-34,-4.249059e-34,-1.9391793e-34,3.1869805e-34,1.8492126e-34,-1.6200467e-34,1.1883623e-34,-3.4389257e-34,-2.2063228e-34,2.5279013e-34,-2.5824146e-34,5.721704e-34,-2.5778497e-34,-5.1255686e-34,2.8822459e-35,-3.9768535e-34,-2.8954428e-34,3.5060506e-34,2.2910637e-34,-4.162195e-34,-4.5070455e-34,1.674218e-34,-3.2362487e-34,5.306286e-34,-5.0655004e-34,4.6003307e-34,-1.0832288e-34,2.3326418e-34,-1.4809431e-34,6.977608e-35,4.162131e-34,4.0548356e-35,-4.0583492e-34,-5.6555035e-34,4.0577732e-35,1.9818963e-34,-4.6007563e-35,3.9085841e-35,2.967805e-34,5.705386e-34,-3.51857e-34,5.540121e-35,-2.8735646e-34,3.4827496e-34,1.2307196e-34,2.2654676e-34,-3.153281e-34,-1.9728189e-34,-3.369382e-34,3.5786621e-34,1.6019009e-34,3.5759073e-34,-3.689261e-34,5.097315e-34,8.6992586e-35,5.509169e-34,2.082796e-34,-3.26115e-34,-2.474189e-34,-3.2469473e-35,2.888404e-34,2.787219e-34,5.0686315e-34,-5.020138e-34,-2.6880135e-36,2.2747726e-34,-1.2960708e-34,1.7534831e-34,-5.5430803e-35,-5.0890925e-34,5.9155656e-34,-4.4545864e-35,5.59575e-34,-8.396765e-35,-3.3463436e-34,2.7732942e-36,2.3610474e-34,-4.830657e-34,-5.779605e-35,-2.7252076e-34,-2.2439746e-34,-2.1491267e-34,1.3573681e-34,-3.7319533e-34,2.2992647e-34,1.9404762e-34,-3.8952384e-34,4.243824e-34,5.8463166e-34,4.1863656e-34,-2.9660755e-34,2.2968046e-34,-4.9774343e-34,2.10373e-34,2.9744805e-34,-3.5950112e-34,-2.5221655e-34,2.1933108e-34,4.857429e-34,-1.8290309e-34,1.7969488e-34,-2.8810556e-34,5.4072763e-35,-1.3399799e-34,-2.7898196e-34,-5.0083177e-34,-1.6363765e-34,-4.1334982e-34
neuron_24,2.1347308e-34,4.7574286e-34,4.883121e-34,-1.7202937e-34,-2.070287e-34,2.8422613e-34,2.235719e-34,-3.105503e-34,-3.1527064e-34,-4.536992e-34,-3.3652883e-34,-3.1663626e-34,-2.3883143e-34,4.454398e-34,1.4323252e-34,4.784666e-35,-1.5276798e-34,-5.658251e-35,4.0311604e-34,4.435732e-34,-4.88309e-34,-1.3591552e-34,-5.7562195e-34,-2.785309e-35,5.1222056e-34,1.3346916e-34,-4.6923503e-34,3.3721323e-35,1.5183874e-34,1.5691455e-12,1.5264507e-34,1.0526644e-34,-9.3187665e-35,-1.0305826e-34,3.2733257e-34,2.554893e-34,5.625009e-34,-5.2757527e-34,4.248274e-34,2.406341e-08,3.0473662e-34,-8.4524954e-35,2.7653482e-34,-2.7993053e-34,-3.9020007e-34,2.5292644e-35,4.0980635e-34,-2.9005275e-34,-2.2944724e-34,2.9024673e-34,-1.2266137e-34,-4.8235235e-34,-5.636275e-34,-4.960498e-34,1.1085867e-34,5.670335e-34,-2.4197478e-34,-4.2243006e-34,5.436e-34,-4.5512203e-34,-3.3992946e-34,1.5710482e-34,-3.0949354e-34,-5.4161123e-34,1.8298042e-13,3.4288436e-34,3.041812e-34,6.706949e-35,-3.4664369e-34,9.990944e-35,-4.038374e-35,-4.779576e-09,-5.0772494e-35,2.6802628e-34,5.5547545e-34,-3.671777e-34,2.2549292e-34,-2.8411698e-35,-2.2006283e-34,-5.240721e-34,2.1366667e-34,-3.3541042e-34,2.0577396e-34,-7.973525e-36,-5.0612085e-34,-2.5242272e-35,4.5290255e-34,2.3216307e-34,3.5855112e-34,-2.607533e-34,4.8817546e-34,2.3340588e-35,2.462342e-34,3.5061966e-34,1.2977774e-34,2.9148476e-34,2.6739066e-34,1.5796438e-34,2.9836916e-34,7.827571e-35,2.1097144e-34,-1.5958401e-34,1.156657e-34,4.569029e-34,4.979754e-34,5.8868243e-34,-5.08841e-34,4.733914e-34,-2.0321662e-34,1.9381404e-34,-3.57998e-34,-3.6135651e-34,2.8761371e-34,-2.263239e-34,-5.5028417e-34,-1.7899693e-34,-2.8818126e-34,-1.5728078e-34,2.842933e-34,2.010724e-34,-5.8679493e-34,-2.191509e-34,-5.867648e-34,3.8662643e-34,4.73452e-34,-1.0326791e-34
neuron_25,-2.9543514e-34,4.104707e-34,-1.2044616e-35,4.526505e-34,5.707352e-34,-5.167992e-34,2.0239965e-34,-1.751257e-35,1.6128607e-34,4.654833e-34,-3.0004206e-34,-3.6793878e-34,-1.638702e-34,7.7827575e-35,-2.5238658e-34,-2.48137e-34,4.6140624e-34,-1.4508622e-34,-2.193921e-34,2.2778328e-34,-4.7996353e-34,-3.8140182e-34,-1.0223426e-35,2.1515397e-34,-5.166483e-34,-7.321493e-35,5.3843624e-34,-5.4716388e-34,-4.965066e-36,-1.9077362e-34,3.4738696e-34,-3.3259685e-34,-3.012112e-34,-2.0956826e-35,1.3757976e-34,-3.9726934e-34,4.879705e-34,4.2344117e-10,8.4000947e-35,-4.3130123e-34,-3.4579324e-34,4.2591664e-34,-2.1619267e-34,1.4822678e-34,1.4290851e-34,5.1141663e-34,1.2558208e-34,5.673029e-34,-3.6492338e-35,3.327954e-34,5.887756e-35,-6.781133e-35,-5.7552888e-34,3.2470545e-34,-5.147337e-35,4.241545e-34,3.5672426e-34,4.3850696e-34,-5.5876454e-34,-3.6507925e-34,-9.771773e-36,-5.071804e-34,3.9422044e-34,-4.1471367e-34,4.0731646e-34,-5.2906e-34,-5.369515e-34,5.1260333e-34,-4.966496e-34,-2.0850177e-34,-3.946457e-34,1.7651149e-34,3.958231e-34,-1.2224172e-34,1.5770146e-34,-1.730808e-34,1.5802056e-34,-2.5751276e-35,1.7077455e-34,3.3946036e-34,-3.2946613e-35,-5.161402e-34,1.1304364e-35,-2.3979577e-34,2.1752851e-34,9.5046754e-35,-2.6648962e-34,5.1289904e-34,-2.7331334e-34,-6.815477e-35,-2.3766902e-34,5.3096327e-34,-3.4365433e-34,6.851364e-36,9.404887e-07,3.2259902e-34,-3.902734e-34,-3.158032e-34,7.2053545e-35,-4.351245e-34,-1.7389611e-34,2.0872372e-35,-3.2283292e-34,-5.3531123e-35,-5.203989e-34,3.7614166e-34,2.1445241e-35,5.0808406e-34,-6.387735e-35,8.6097477e-35,3.610499e-34,4.363659e-34,4.8802e-34,-2.3296386e-34,-4.01896e-34,-3.4439948e-34,5.476214e-34,-1.5485862e-34,-5.664682e-34,-4.768417e-35,-4.5916348e-34,4.311559e-34,3.0638025e-34,-5.21194e-34,9.652653e-35,2.3909693e-34
neuron_26,-6.049655e-35,1.344403e-34,-4.9806724e-34,-3.6055796e-34,-2.7705582e-34,4.1987373e-34,-4.0399234e-34,-7.0210487e-35,3.8345223e-34,5.239776e-34,3.4895335e-34,-3.4227881e-34,-5.0068244e-34,5.1242297e-34,3.451849e-34,4.0008313e-34,6.032674e-36,-1.8096963e-34,-2.1847412e-35,-3.4398326e-34,-1.9673753e-34,-1.1335223e-34,-4.468912e-34,4.120376e-34,-2.6368198e-34,-4.533555e-34,4.6172224e-34,3.076825e-34,4.628125e-34,-1.2484044e-34,-9.972784e-35,5.1503183e-34,-9.3345524e-35,-1.080438e-34,1.9336173e-34,-2.5430847e-34,5.7257366e-35,-4.151456e-34,-3.911078e-34,4.7290753e-34,-5.6928646e-35,-2.3476803e-34,-3.6382094e-34,-1.4951514e-34,1.1842591e-34,-1.3421305e-34,4.913834e-34,-3.3863042e-34,2.625438e-34,-5.1180124e-34,1.399978e-34,7.662027e-35,2.6807557e-34,4.154652e-34,4.327944e-34,-3.345439e-34,-1.9576394e-34,-4.8619585e-34,2.6169324e-34,3.7445203e-34,1.4375231e-34,5.8286594e-34,-1.4353138e-34,2.8701306e-34,-1.5151392e-34,2.1566538e-34,1.3877445e-35,2.54242e-34,2.6193853e-34,3.4158396e-35,2.4840126e-34,9.891978e-35,-9.727007e-35,5.269896e-35,-4.648255e-34,3.993967e-34,-1.199059e-34,5.403058e-34,-1.6714425e-34,-3.8221596e-34,4.8477304e-34,3.2310767e-34,4.7088527e-34,5.646411e-34,5.0699723e-34,6.7937673e-35,5.442333e-34,3.2380273e-34,-3.7079167e-34,-4.1926816e-34,3.3340344e-34,-2.515377e-34,-2.4969328e-34,4.4498114e-34,1.5593841e-34,-5.717253e-34,4.2961077e-34,-2.4306833e-34,3.0352864e-34,1.5835364e-12,-2.5588749e-34,-1.8643283e-35,-4.805533e-34,-1.173948e-34,3.6768054e-34,-3.6048518e-34,-1.4951706e-34,-6.139508e-35,-8.345313e-35,2.9273942e-34,-3.657841e-35,-2.7706742e-34,1.2648572e-34,9.744669e-35,6.8915055e-35,-2.4977694e-34,1.4868435e-34,2.3105372e-34,-1.6447542e-34,5.7958585e-34,5.246257e-34,3.740343e-34,-5.1616384e-34,-5.6085113e-34,2.7693492e-34,4.098339e-34
neuron_27,1.4905778e-34,-1.3712038e-34,1.0395778e-34,-5.03329e-34,8.428262e-35,2.7234987e-34,1.055539e-34,2.1032443e-34,-1.8910736e-34,2.9555177e-34,4.068122e-35,-8.3014657e-35,-4.449005e-35,-4.7447755e-34,3.3894792e-34,2.620261e-34,4.295535e-34,2.1536227e-34,-3.016051e-34,-7.7744556e-35,3.385201e-35,-1.2888928e-34,-3.8940409e-35,-5.3818314e-34,-3.0401801e-34,-3.3356177e-34,2.8101304e-34,3.0124846e-34,3.8521933e-34,-5.176563e-34,3.9190284e-34,-5.6328174e-35,-3.721929e-35,-1.804131e-34,-4.295789e-34,-2.45358e-34,5.600012e-34,-3.5818516e-34,3.76036e-34,5.060988e-34,-1.3186117e-34,2.4120405e-34,1.9869342e-34,-5.2878543e-34,-4.7459815e-35,-8.9807654e-35,-2.6027716e-34,1.6760522e-34,-5.4674575e-34,2.155251e-34,-4.9523577e-34,3.0658803e-34,2.10096e-34,-3.1055385e-34,8.94441e-36,4.807074e-34,-1.3705814e-34,4.147469e-34,3.8859354e-34,2.9840698e-34,4.2271236e-35,3.1560572e-34,-4.0368005e-34,9.650882e-35,-2.633651e-34,5.0464193e-34,-3.9943647e-34,-4.717399e-35,3.4947413e-34,-5.540748e-35,5.6170685e-34,5.87468e-35,3.502463e-34,-2.4504144e-12,1.2341387e-34,-3.89766e-34,1.1418619e-34,-3.3802056e-34,-5.5067686e-34,4.1670834e-34,5.3179603e-34,-5.6358553e-34,-6.436695e-35,-3.3959407e-34,-2.2823968e-34,-4.48828e-34,1.1065369e-34,4.795782e-34,-1.225463e-34,-4.111409e-34,1.090755e-34,5.54536e-34,-5.565141e-34,-1.9875539e-34,3.1386507e-34,-5.6542426e-35,2.1003136e-34,2.9594055e-34,5.474057e-35,-2.0480353e-34,-8.164598e-35,-1.8391527e-35,2.4281893e-34,4.0345317e-34,4.3517715e-34,1.175206e-34,4.9864544e-34,-2.2753897e-34,-4.596125e-34,4.6527683e-34,6.4458095e-35,2.5786236e-35,-5.712839e-34,9.0243206e-35,1.7226319e-35,-5.6213995e-34,2.6606947e-34,9.4376584e-35,3.7973978e-34,-7.5644783e-35,-2.5967462e-34,-1.1406593e-34,5.208584e-34,1.0310316e-34,-3.560318e-34,-2.6138265e-35
neuron_28,-8.811446e-35,-4.893365e-34,4.4363956e-34,5.2169064e-34,8.030391e-35,-2.9127802e-34,-1.5415281e-34,-1.8522352e-34,-5.0147287e-34,-1.3283907e-34,7.676863e-35,-4.609602e-34,5.5958293e-34,-5.282026e-34,3.4369067e-34,3.7651162e-34,2.015788e-34,-2.507564e-34,5.3509577e-34,1.4939477e-35,3.792223e-34,-3.0586735e-34,4.1890486e-35,8.7102496e-36,4.532227e-34,2.2046105e-34,4.5106556e-34,-4.7169865e-34,1.5274927e-34,5.6713415e-34,1.5537927e-34,1.7889617e-34,5.171403e-34,1.979624e-34,9.817123e-36,3.225541e-34,-1.4442316e-34,3.4101624e-34,-3.48491e-34,-4.161755e-34,5.284582e-35,1.1333058e-34,-3.9111594e-34,-1.8739331e-34,3.1003514e-35,1.3916207e-34,2.9210548e-34,-3.942892e-34,4.2075525e-34,-2.0965906e-34,3.4325069e-34,-2.9367605e-34,2.8469348e-34,4.916133e-34,2.8126669e-34,4.611626e-34,6.2177866e-35,-3.3198716e-35,-4.31953e-34,4.657089e-34,1.965453e-34,-3.6084435e-34,-1.5897576e-34,-1.0005938e-34,-2.9161443e-34,5.2005982e-34,8.3105545e-35,-1.227584e-34,5.362058e-34,2.0890224e-34,1.2202366e-35,-1.2979937e-34,-1.8700694e-34,4.203962e-34,4.7054506e-34,-3.057402e-34,-3.0877821e-34,-3.628729e-34,-1.4901779e-34,1.1852794e-34,-6.7889574e-35,-2.1457272e-34,2.078837e-34,2.3784962e-34,-1.2601143e-34,-4.6288763e-35,4.5698978e-34,3.7749844e-34,3.1661757e-34,-1.9493893e-34,2.080333e-34,-1.8354375e-34,-4.699559e-34,-3.3335739e-34,-2.3544233e-35,2.2118602e-34,1.7170896e-34,-5.363438e-34,1.4408025e-34,8.030601e-35,1.5920234e-35,-4.7738295e-35,2.1315988e-34,2.5042034e-34,-2.8060887e-35,-4.8069233e-34,4.2474266e-34,-5.6334446e-34,-1.6815757e-34,5.7652828e-34,3.341497e-34,4.397058e-34,4.278401e-34,-3.2163867e-34,2.5472963e-34,-4.9115166e-34,-5.8817623e-34,4.429269e-34,-1.2751157e-34,2.3000942e-34,-4.720295e-34,-1.9945492e-34,1.1496102e-34,-5.332877e-34,2.386907e-34,-6.288858e-35
neuron_29,4.7446924e-35,5.3908437e-34,-2.7276292e-10,2.9755098e-34,-4.421724e-34,8.0704173e-35,-3.4133849e-34,2.1918738e-34,4.652562e-34,-4.0140855e-34,2.3643077e-35,-5.8676587e-34,-8.828205e-35,-2.8938605e-34,-4.2625005e-34,3.6265723e-34,5.8296447e-34,3.0498525e-06,-2.4531068e-34,5.3230117e-34,-3.3207706e-34,-2.3720668e-34,2.4669733e-34,-2.6615171e-34,-3.254459e-34,-4.7359065e-34,5.4506934e-34,-2.6659897e-34,-2.095253e-34,-1.1627164e-34,-3.1084805e-34,-4.3246127e-35,-1.2034266e-34,-5.4449495e-35,2.2756211e-34,2.4993508e-34,1.6359876e-12,-5.0469997e-34,-3.940401e-34,3.9717162e-34,-7.644956e-35,-1.7541735e-34,2.6999209e-34,4.4982335e-34,1.8768318e-34,2.9220391e-08,-1.0354118e-34,2.0866035e-34,1.9988804e-34,-2.3184495e-34,-3.4010798e-34,4.7309533e-34,-2.3353032e-35,-2.9943515e-34,4.915932e-34,-5.5238977e-34,3.5852798e-34,1.3188312e-35,-3.9046543e-34,-3.7885779e-34,2.2559817e-34,-5.807699e-34,2.8910418e-34,5.541252e-34,2.8723425e-34,2.2867112e-34,-5.0184453e-34,-3.3991208e-34,-2.4787287e-34,3.352069e-34,5.255525e-34,1.0860624e-09,-5.6456776e-34,-2.346522e-35,-3.6283396e-34,-2.585772e-34,-4.790448e-34,-3.4619043e-34,3.2066604e-34,4.7687896e-34,-5.057234e-34,-2.9867769e-34,4.7337745e-34,5.798611e-34,-9.4089507e-35,7.879302e-35,-3.7103891e-34,1.5938381e-34,-1.7344125e-34,-5.3163495e-34,3.50337e-34,3.4352188e-34,1.373727e-34,-2.2230573e-35,3.7578865e-34,1.52234e-34,-8.217555e-12,-1.1929693e-34,1.9423703e-34,-5.031057e-34,1.0028107e-07,5.5248818e-34,-3.88005e-34,-9.87474e-35,-5.36051e-34,1.325987e-34,1.9276565e-34,-5.321786e-34,2.0291898e-34,6.9829884e-09,-2.974757e-34,3.2897238e-34,-2.3594417e-34,-3.2232404e-34,4.5906654e-34,4.15682e-34,-3.6768729e-34,4.679746e-34,2.9088857e-34,-5.4918164e-34,2.741827e-34,2.1989045e-34,3.8873924e-34,-1.18305955e-11,-3.1101087e-34,-2.6785567e-35
neuron_30,0.0054053236,0.04629893,1.1529745e-05,-0.011146026,0.06581549,0.049362373,-0.018993435,-0.042561695,0.03760113,-0.012002115,0.0026729365,0.0027048585,0.022989232,0.0012545438,0.0028480652,0.00075182016,-0.008526275,0.009286388,-0.013523101,0.014707517,-0.027655348,-0.0021160014,-0.0033669756,0.0027296294,9.088921e-05,-0.003305922,0.012904318,-0.016988227,0.00033242995,-1.7645946e-14,0.003841049,-0.0033313397,0.020894049,-0.020769697,-0.016291188,0.005764243,0.0060098264,-0.00028876305,2.6970285e-34,0.0052813273,3.2079388e-34,-0.024115065,0.028514426,0.0038246112,0.039706197,-0.021085914,-0.06654687,0.0151753025,-0.028941792,-0.010410809,-0.00017042708,2.7929055e-14,-0.0034053037,0.0003075296,0.00016768112,0.0010870028,0.0016975703,0.00078938156,0.0014809986,-0.0022422592,0.024590114,0.0023851814,-0.0159038,-0.0034920888,6.409304e-05,-0.00020116806,-0.017313356,0.008579565,0.011746437,0.0052860077,-7.0289935e-22,0.00034494235,-0.025899544,-1.7726811e-17,0.0006955025,-2.9554916e-27,0.0006478007,0.015552198,0.002654775,0.0027375082,0.0009380417,0.0006711929,0.0029582363,0.00050209096,0.009369178,0.00021936503,0.0014166646,6.6288936e-05,0.00029036292,0.007594522,0.018653195,-3.0061587e-09,-0.031148314,0.0011311733,2.5634492e-05,-0.0002449739,1.0533996e-05,0.0132647315,-3.7638227e-34,7.6285316e-05,2.3852244e-05,0.0079909405,0.0071132854,-0.0014982583,0.002378703,0.0004782378,0.00046433465,0.0008325433,-0.014750735,-5.000967e-35,4.189378e-34,0.009059749,-2.4767235e-08,-0.009224054,0.02212513,-0.0012905955,8.402327e-05,0.011196686,0.00052440685,0.00037621602,-0.013125091,-0.013435791,0.012426161,-0.020909514,1.2874257e-33,-0.00059371383
neuron_31,0.09004426,-0.021833764,-3.926556e-06,-0.031784937,0.08303349,0.03497683,0.0391546,-0.091213614,0.044967994,0.05669321,0.03688657,0.0010491877,0.049485516,0.012289965,0.011640345,0.008071175,-0.02938457,0.019720372,0.001795463,0.018061854,-0.034547318,-0.00046410397,0.0056298706,-0.016714104,0.0006296247,-9.656362e-06,0.01011158,-0.011841189,-0.00042620295,3.90612e-34,0.008191281,-0.007521081,0.0349603,-0.041815083,-0.013848741,0.0017514745,-9.53925e-07,1.4416377e-06,-5.4396e-34,0.0006911693,1.805279e-34,0.023284232,-0.013946306,-0.009987969,0.0134623395,-0.020046348,0.006898743,0.024611156,-0.027264103,-0.0151146315,0.0010235569,8.2918766e-15,-0.0037048296,0.0007260861,0.0016017398,-5.5791897e-06,0.003542082,0.003380097,0.0043223104,0.00249014,-0.011338162,0.004053503,0.028872896,0.01291548,-0.00021314555,-0.00035875442,-0.04418249,0.0076747835,-0.0040970934,0.009247852,9.572816e-22,0.00048795092,-0.055731546,2.3491211e-17,0.0020356386,-7.2766045e-20,0.0072506117,0.0007537336,0.00037368148,0.015769705,0.0007472028,0.002054756,0.004052609,0.0008867609,0.0139852585,-0.0010921832,0.0006515795,0.00035794204,0.0009942177,0.014829787,0.0073944237,-2.18183e-07,-0.050073046,-6.1840186e-15,-2.55943e-05,0.00020792031,2.8813438e-05,0.0868796,-0.008827025,0.010940023,0.00014081772,-0.0009823819,0.004068456,-0.0007190879,0.0034636632,0.0010853477,0.0006757517,0.0010458474,-0.028692387,-0.008378262,-0.0023951826,0.013466371,-0.0070059444,-0.009200343,0.0036619888,0.001978547,0.00044542438,0.0016042445,0.002715084,0.07625765,0.06036689,0.0020206093,0.028265392,-0.020046348,0.0005313455,0.053890623
neuron_32,-3.2928868e-34,-5.64095e-34,-1.7594609e-34,5.287263e-34,-2.363135e-34,-2.7387618e-34,1.8873709e-34,3.3706166e-34,5.907803e-34,-3.35797e-34,-6.809914e-35,-7.7707064e-35,-4.418785e-34,-2.1095628e-34,2.629909e-34,-5.2152497e-34,-5.454291e-34,-4.8705056e-34,1.262817e-34,2.3432e-34,-3.5065033e-34,-3.2384089e-34,5.385974e-35,-4.999356e-34,-3.660701e-34,3.9324667e-34,1.2107436e-34,-5.1443003e-34,5.624546e-34,-3.4138099e-34,-1.275923e-35,4.4765484e-34,2.1008424e-34,-2.1597952e-34,5.356479e-34,4.9214987e-34,2.3743622e-34,5.3826194e-34,-4.6793317e-34,-3.5407446e-34,5.0518183e-34,1.9189578e-34,-5.712355e-34,4.6404954e-34,2.835617e-34,-3.9373978e-34,2.8192354e-34,4.9634744e-34,-3.1132527e-34,4.0059805e-34,7.262677e-35,8.271418e-35,3.761778e-34,-1.9883363e-34,4.2110225e-34,4.5922583e-34,5.636663e-34,3.4986328e-34,4.9967133e-34,-5.1774226e-34,3.8558286e-34,4.8786586e-35,-4.885918e-34,-5.4361264e-35,1.614447e-34,-4.5892975e-34,-5.4446515e-34,-5.2328026e-34,2.3630008e-35,-9.36803e-35,-3.3600882e-34,-3.9866955e-34,-1.8848486e-34,-2.4029442e-34,4.856124e-34,5.186737e-35,-5.066988e-34,-1.0543372e-34,-5.7029797e-34,-4.350152e-34,1.4654288e-34,-4.5249645e-34,-4.1428214e-34,4.6995084e-34,4.5565146e-34,-3.9453677e-34,-2.515361e-34,-1.5400785e-34,4.0593213e-34,4.6078336e-34,-2.8654916e-34,-3.6776535e-34,-4.5124537e-34,-7.262677e-35,4.254486e-34,-3.812424e-34,-4.8868303e-34,2.6968972e-34,-2.020763e-34,-4.50071e-34,-7.6894986e-35,4.40772e-34,-3.6280986e-34,-1.9623994e-34,8.1058945e-35,-5.342808e-35,9.5947844e-35,5.4437373e-34,-2.0822046e-35,-6.2725297e-35,-5.082464e-34,5.696393e-34,2.2168917e-34,-4.0677253e-35,3.0207055e-34,2.682733e-34,-4.8251114e-34,5.8721774e-34,3.2565234e-34,4.113231e-34,-4.0351048e-34,1.1038565e-34,2.1321863e-34,-4.2837494e-35,-5.0113046e-34,-5.134897e-34
neuron_33,-5.4292558e-34,-1.9207284e-34,-6.762913e-35,-3.165261e-34,-3.6862033e-34,-3.0565939e-34,-4.0106857e-34,4.9652e-34,2.3550148e-34,2.8820256e-34,-1.0111015e-34,-2.4048337e-34,6.399632e-11,2.06887e-35,9.326409e-35,3.7570857e-34,-5.574176e-34,6.625472e-35,2.860503e-34,1.0788543e-09,2.842817e-34,7.874026e-35,-6.820494e-35,-5.281702e-34,3.8847452e-07,-2.6952756e-34,-3.4854363e-34,5.08315e-34,7.207452e-35,-5.06965e-34,-5.2443946e-34,2.0922564e-34,2.5049564e-34,2.961873e-34,5.082838e-06,-4.7344725e-34,-7.867905e-35,-1.4886396e-34,-1.43726e-34,-5.258254e-07,-3.3639374e-34,1.7884412e-34,-2.8387784e-34,3.4282558e-34,2.8833627e-34,1.8937026e-34,4.865889e-34,1.23099595e-11,-5.2779696e-34,-2.2857904e-08,1.1328166e-34,-4.1661926e-34,4.0903335e-12,5.116927e-34,2.4172866e-34,2.0452762e-07,2.9853883e-34,-1.2591014e-34,4.0994484e-34,-1.303491e-34,9.9777e-05,5.5872633e-08,3.9886663e-06,-4.615788e-09,-1.7802274e-34,3.2753093e-34,-1.1839717e-07,5.706239e-34,4.711668e-34,9.627074e-35,5.6195655e-35,-8.187171e-35,-5.266641e-34,-4.8856613e-34,-3.8763983e-34,5.670967e-34,1.3927992e-34,1.2683143e-34,4.452001e-34,9.471105e-35,-3.878044e-34,2.9104946e-34,1.4422145e-07,9.994992e-10,5.431431e-07,3.504369e-34,-2.509772e-12,-2.993793e-34,4.8674282e-34,3.3653228e-34,5.192423e-34,-3.4283752e-34,5.5113126e-34,2.1006323e-34,-6.6975444e-35,-6.5142453e-35,-5.3615326e-34,-5.2586695e-34,-2.834644e-34,-4.800528e-34,1.5406525e-34,3.2040272e-13,-9.028678e-35,-1.9431362e-34,1.6806924e-34,-2.4946782e-34,2.3134904e-34,5.2132072e-34,-1.8478136e-07,1.6880641e-34,1.2549596e-34,-9.600803e-12,-2.354089e-34,1.6499514e-34,2.488551e-34,1.5861827e-35,-1.4507217e-34,-5.4108446e-34,-6.2431974e-35,-2.0950563e-05,6.1357866e-35,-4.1317543e-34,-2.3421437e-10,-3.0159847e-34,3.2813998e-34,4.382473e-34
neuron_34,-3.642361e-35,-1.2395349e-34,-4.792314e-34,-5.1306517e-34,1.9931223e-34,1.3588422e-35,-1.5397095e-34,-2.2530296e-34,-5.004103e-34,1.4856552e-34,-7.3926725e-35,1.9156487e-34,3.2661104e-34,-3.878147e-34,4.635777e-34,-2.6041548e-34,-2.6182667e-34,4.0106765e-35,-4.0451617e-34,-3.8238418e-34,-7.38415e-35,4.041159e-35,-1.2981866e-34,1.0750865e-34,3.5384437e-34,3.252401e-34,1.5247895e-34,-7.8226205e-35,1.3198818e-34,1.0535655e-08,1.3199022e-34,-4.326128e-34,-4.828501e-34,2.3269305e-35,1.4344227e-34,-4.2104444e-34,1.9158427e-34,-5.3810844e-34,-3.3265776e-34,-3.176744e-34,2.0292573e-34,-5.551058e-34,3.1477817e-34,5.5370045e-34,-2.0498904e-34,1.3709491e-34,1.1931335e-34,-1.3075556e-34,-4.928701e-34,-4.8850538e-34,-1.6671302e-34,9.515897e-12,-4.8412514e-34,5.93355e-34,-3.8826285e-34,1.7355954e-34,5.372472e-34,-5.2351596e-34,-1.6161798e-34,2.351503e-34,-4.854057e-35,-1.6774892e-34,-3.3982003e-34,1.801064e-34,4.11473e-34,3.5982617e-34,1.9919521e-35,3.5931258e-34,-4.682631e-34,-5.6437247e-34,4.5053833e-34,4.479192e-34,-1.2939185e-34,5.323711e-34,2.8482155e-34,-7.4437523e-10,4.2711367e-34,-5.209791e-35,2.4527865e-34,1.0349171e-05,-5.9127e-34,5.942565e-35,3.8355058e-34,-2.108543e-34,-4.3259661e-35,-2.020234e-35,3.4016823e-34,-5.421233e-34,9.4048364e-35,1.6850418e-34,2.3859303e-34,3.5500756e-35,-2.504945e-34,2.9212316e-34,-1.484429e-34,5.7623403e-34,2.6172602e-34,3.630382e-34,2.6742496e-37,2.6270462e-34,-4.5987015e-34,-1.4552987e-34,3.3115145e-34,-1.6234808e-34,9.667706e-36,-2.8516758e-34,3.5862422e-34,4.9535185e-34,-3.4722524e-34,5.009222e-35,-5.500726e-34,1.8933836e-10,5.68632e-08,-6.502238e-35,3.128806e-34,1.1847514e-35,-2.3717156e-13,8.192755e-35,1.7479674e-34,-4.5480565e-34,-4.9064985e-35,-2.075196e-34,-2.075555e-34,-2.3947598e-34,1.4080751e-34,8.294582e-35
neuron_35,-0.017654499,0.00041482178,-1.2229259e-05,0.101847365,0.036187585,-0.065738425,-0.029734813,-0.01718302,-0.025015552,0.03942575,-0.044472888,-0.045321725,-0.0022108713,0.018599162,-0.006623302,4.1134095e-24,-1.7545692e-05,-1.2252523e-17,-0.011126878,-0.020550186,0.012221052,0.009743498,0.0025181205,0.027349258,-0.00021387302,-0.056117643,0.030732,-0.03756793,-0.0036945583,-3.761996e-14,-0.0036059322,-3.861818e-34,-0.0013131257,-0.0024889356,0.0015242846,4.118822e-05,1.2846469e-05,0.0011,1.7776282e-34,0.00046406343,-0.0015703201,0.015876532,0.01373427,-0.036673386,-0.07314111,-0.01940431,0.0047436627,-0.0058219247,6.956451e-12,0.00024354493,1.6282209e-07,-1.4187046e-34,0.0030713978,-5.3467012e-08,-2.6598556e-07,3.0935475e-08,6.463755e-08,-1.12411826e-07,-1.593533e-07,0.002125416,-0.0033296929,2.379654e-08,0.071815416,-0.104594685,-3.1651373e-07,-2.3519409e-09,-0.008187877,-0.04287634,0.068520494,-0.0019683389,1.9350832e-34,-1.5290011e-06,-0.0567747,5.6987617e-34,-0.0005666109,2.553678e-34,-4.4742606e-05,9.8955496e-08,1.6213092e-07,-5.1988522e-08,6.353326e-07,1.087815e-05,-0.0030862323,-2.5551546e-07,-1.6405141e-07,-1.00994804e-07,-1.0601984e-07,4.6644303e-08,6.5734716e-06,3.6597328e-07,-0.017182501,0.0006173514,-0.00034248657,-0.022605885,-0.0025832416,0.005566344,-4.889111e-08,-0.0067851283,0.009390382,3.3513977e-08,-6.9180786e-09,-0.016644044,0.071125254,4.9134567e-08,-0.00028054434,6.9511316e-06,-3.7373817e-07,-1.9196688e-07,0.0031011964,-2.3813229e-34,0.0025789973,-0.008043965,0.025483545,0.02644429,-0.022833114,-7.3987096e-08,-3.704104e-08,3.064202e-07,1.252885e-05,-0.0002996666,-0.013921938,-0.08258309,-0.015006031,0.0016107484,-0.0012883763,-0.018049192
neuron_36,-1.3960568e-35,-2.68443e-35,-1.5839058e-08,3.065801e-34,2.5892054e-34,-3.916447e-34,3.2161833e-35,6.884211e-36,-3.8217422e-34,1.4704975e-34,2.3800425e-34,3.1463413e-34,-4.217322e-34,-2.801646e-34,-3.6183718e-34,1.8817272e-34,3.2607619e-34,-3.8826454e-34,5.573737e-34,-5.9798683e-35,3.338723e-34,4.641838e-34,1.3053155e-34,4.1392614e-34,1.0327218e-34,4.2421405e-34,-1.7293478e-34,6.555064e-35,-1.9981884e-34,3.2519005e-05,-1.8392576e-34,-2.0513869e-34,-1.1875459e-34,2.122185e-34,3.5933852e-34,1.0440888e-34,2.499789e-34,-1.9842547e-34,3.6381476e-35,3.7015582e-34,6.168411e-35,2.2638708e-34,-3.968903e-34,-2.7870519e-34,-1.4706368e-34,-5.440859e-34,4.02807e-34,-2.5394409e-34,-1.0642556e-34,1.0871718e-34,-3.31737e-34,8.599182e-12,4.9119377e-34,-4.1662936e-34,-9.265026e-35,7.969131e-35,2.015118e-34,3.3186214e-34,2.1538333e-34,3.7655279e-34,-4.865445e-34,9.63254e-35,8.159014e-35,1.0885453e-34,-4.6597845e-34,2.413188e-34,4.1467267e-34,3.530353e-34,-4.175822e-35,-5.1123434e-34,-2.1858921e-07,-1.5328446e-34,-1.8723246e-35,4.628878e-06,1.7699767e-34,7.28915e-13,-2.6481546e-34,-5.818349e-34,-5.5524457e-34,4.7735926e-34,8.948772e-35,1.3976228e-34,4.716525e-34,5.584378e-34,4.21813e-34,-8.7811935e-07,-4.463668e-34,-3.9810247e-34,-3.4551627e-34,1.208691e-34,9.356873e-35,-4.0237934e-34,-5.1945054e-34,-4.750429e-34,-4.2997526e-34,-4.8447986e-34,-4.5845767e-34,-3.6663772e-36,-1.034789e-34,-3.2372522e-34,-5.1434756e-34,1.3648665e-34,2.0271804e-34,5.8120867e-34,-2.6545888e-34,-2.0108576e-34,1.3099824e-34,2.4222576e-34,-3.178702e-36,-3.2904548e-34,-1.8251717e-34,-2.2767259e-35,-5.469748e-34,5.0809173e-34,5.7690035e-34,-9.830733e-35,1.682103e-34,4.498572e-34,2.356702e-34,-5.2184446e-34,-4.6747886e-34,-1.6631296e-34,-3.256666e-34,1.2081664e-34,5.500733e-34,-2.2622458e-34
neuron_37,5.523002e-35,3.1483522e-34,-2.8862264e-13,-2.4128064e-34,-1.7629111e-34,1.0555076e-34,-3.6386383e-34,-3.7634367e-35,1.4656758e-34,-2.9884235e-34,-6.906016e-35,1.016408e-34,2.4965796e-34,5.603974e-34,-3.975642e-34,-1.3767236e-34,5.0125853e-34,-2.3380436e-34,-1.7313698e-34,-3.8515513e-34,-2.33258e-34,-5.8080023e-34,-1.4940487e-35,-2.1501555e-34,1.1317256e-34,1.5098749e-35,2.089087e-34,1.9513094e-34,2.2930701e-34,1.2053813e-34,2.2929854e-34,4.039416e-34,-2.8416873e-35,-6.647704e-35,-2.8243162e-34,-4.8377984e-34,-1.06723456e-10,-1.3646828e-34,-3.9522014e-35,2.8528366e-34,-3.91975e-34,-2.9439613e-35,-5.6423187e-34,1.2015079e-34,-5.0457576e-34,5.146856e-35,2.2019213e-34,-1.608687e-35,-5.1828574e-34,-2.2054662e-35,2.6237695e-34,4.0306825e-09,4.1062764e-34,-4.357227e-34,-4.1923877e-34,-1.7106235e-34,1.728491e-34,7.1609233e-35,3.1869607e-10,3.2765289e-34,2.1945605e-34,2.1912854e-08,3.3876567e-34,3.2086347e-34,5.300032e-34,5.3888775e-34,-3.5474698e-35,2.0788154e-34,4.15001e-34,1.1803286e-34,2.393655e-13,-5.1233738e-34,-3.3918172e-35,-8.126839e-13,-3.7007354e-34,-4.0761334e-13,4.037779e-34,-4.8326336e-34,-1.7963041e-34,4.6728257e-09,4.0277285e-34,-3.2884601e-34,-4.4092977e-34,-5.5824374e-34,4.589255e-34,-3.413878e-34,-4.2088575e-34,-4.521686e-35,2.2132116e-34,-5.06353e-34,-2.134023e-07,2.5216631e-34,2.5271971e-34,2.5404173e-34,4.782577e-34,2.037883e-34,4.5452546e-34,-2.8487618e-35,4.6123735e-34,4.1410315e-34,-2.4197551e-34,2.4933863e-07,2.9208697e-34,-4.4610075e-34,-2.021918e-13,4.5401706e-34,-2.7624117e-37,1.2895761e-34,-2.8054364e-34,2.7080672e-34,-5.9075956e-34,5.017091e-34,3.34724e-34,5.5710764e-34,-5.798495e-34,9.10942e-35,-4.1876766e-34,-8.021206e-35,2.568868e-13,5.0846656e-34,2.1935836e-34,3.3882052e-35,-4.796969e-34,-1.1059492e-34,-5.2802637e-34,-4.0774304e-34
neuron_38,-1.5207476e-34,1.1518607e-34,4.027579e-34,1.3614208e-34,-4.1722427e-34,3.7974891e-34,-1.4576256e-34,8.1570176e-35,2.8192696e-34,4.517649e-34,3.7637476e-34,-2.276757e-34,-1.1844704e-34,-4.4941596e-34,-9.183476e-35,-2.8431767e-34,3.5697435e-34,5.0266434e-34,-3.7276492e-34,-1.6348599e-34,-2.048162e-34,-3.2242478e-35,5.0817323e-34,1.219046e-34,3.3734576e-34,-1.0231452e-34,-6.751231e-35,1.1537064e-35,-4.725767e-34,1.0108223e-34,1.4798565e-34,-2.6704293e-34,4.2894276e-34,2.6290188e-34,1.3944933e-34,1.889992e-34,4.660914e-34,2.5737775e-34,5.5627207e-34,1.652189e-34,1.8111255e-34,1.4656206e-34,3.5179713e-34,1.6248149e-34,4.023245e-34,-1.0885583e-35,-1.7177621e-34,-1.2235183e-34,6.988957e-36,2.6773261e-34,2.0093515e-34,3.3629998e-34,5.1486653e-36,3.9387803e-34,-3.4884159e-34,-5.356245e-34,-1.8364482e-34,2.755509e-34,4.9405513e-34,-2.9344518e-34,-5.84341e-35,-4.2230884e-34,-3.914568e-34,-4.6480645e-34,-4.3766277e-34,1.2585919e-34,4.06652e-34,-2.2708002e-34,1.2271702e-35,7.307442e-36,4.650323e-34,4.920061e-34,-1.4859285e-34,-1.2211979e-34,3.7767554e-34,1.5784713e-34,-5.0963025e-34,-3.3976654e-34,2.5161732e-35,-3.6736035e-34,4.7044312e-34,2.5337345e-34,3.556708e-34,2.001606e-34,-1.4064831e-34,-1.1222151e-34,3.3502684e-34,2.5885782e-34,4.002277e-34,-2.7023513e-34,3.4215996e-34,3.9393846e-34,-4.671866e-34,-1.8245486e-34,1.562625e-34,-2.2270209e-34,1.5665813e-34,3.6693747e-34,2.6177573e-34,-5.1737914e-34,5.550268e-34,3.4035475e-35,5.908287e-34,-3.6286069e-34,4.290491e-34,-2.663189e-34,2.5827714e-34,1.527621e-34,-8.6971796e-35,3.5282982e-34,-5.1122617e-34,3.754929e-34,-1.3733144e-34,-1.7466331e-35,4.1954734e-34,-5.8822454e-34,-4.492023e-34,-3.683457e-34,1.0916655e-34,-8.4440305e-35,-1.760278e-34,-2.9979482e-34,-4.3304082e-34,1.2422096e-34,3.4779608e-34,-4.2823195e-34
neuron_39,-3.3052513e-34,3.405025e-34,-1.3886996e-34,2.4958606e-34,3.5079709e-34,-3.6729643e-34,-4.2767713e-34,3.938166e-34,-5.066309e-34,2.9141648e-34,-4.5015997e-34,-4.5084874e-34,3.4735858e-36,-3.6215952e-34,4.6034416e-34,-5.8112033e-34,-4.9503006e-35,-1.5673013e-35,-5.585567e-34,3.4759368e-35,3.3546529e-34,-5.275795e-34,3.5261772e-34,2.4189196e-34,-5.1784934e-35,5.192234e-34,1.7741619e-34,5.6971114e-35,4.6208196e-34,-5.5807156e-12,4.560772e-34,-3.8370918e-34,2.5616726e-34,-3.6949112e-34,-4.9200757e-34,-1.3044099e-10,2.2925887e-34,-1.6435835e-34,-5.2949144e-35,-5.028471e-34,4.480564e-34,5.7062353e-35,2.3643721e-34,-1.9064002e-34,3.188262e-34,3.966081e-34,2.495419e-34,3.4488912e-35,-3.6928302e-34,4.4842244e-34,-6.877083e-35,-4.682824e-34,2.0318238e-34,3.5863965e-34,2.964347e-34,1.39468e-34,-2.1418976e-35,3.3616108e-35,8.147425e-35,2.7708955e-34,-5.2183133e-35,-1.546845e-11,5.687275e-34,-1.7991529e-34,3.3560332e-34,-3.4041582e-34,-2.6027796e-34,-5.2916054e-34,2.5706225e-34,-4.463352e-34,-4.938172e-34,-1.6435257e-34,-1.7349162e-34,3.7395915e-34,9.685578e-35,1.1639782e-35,2.301741e-34,4.118675e-34,-2.1105129e-35,-1.2255148e-34,4.97431e-34,4.5375643e-35,2.5346964e-34,-2.6954122e-34,-1.1887995e-34,-2.4780837e-34,3.615159e-34,8.9352264e-36,-8.5021915e-14,-2.4543642e-34,-1.1346459e-34,3.3918573e-34,5.073889e-34,3.1720116e-34,5.1303937e-34,-4.891023e-35,8.832095e-36,4.7697713e-34,-1.8218923e-34,-1.3861815e-34,2.6190749e-34,5.486958e-34,2.362964e-34,4.3742716e-35,-2.985583e-34,2.1050165e-35,4.7780907e-34,-5.8258676e-34,2.9489333e-34,4.4941766e-34,-3.2333295e-34,3.0256398e-35,2.0470022e-34,-3.3181855e-34,-4.3141377e-34,4.3951734e-35,-2.8666193e-34,1.4199558e-34,2.386452e-34,-4.9214716e-34,-2.9808202e-34,-6.164104e-35,-2.3824185e-34,3.559441e-34,-3.0376083e-34,-2.0755263e-34
neuron_40,1.031792e-34,3.06156e-35,4.2442326e-34,5.752964e-35,-5.587919e-34,-1.1459689e-34,-2.419024e-34,3.6203509e-34,-4.9250242e-34,3.6700573e-34,-3.336058e-34,4.5130654e-34,3.2586728e-34,-2.2226578e-35,8.2226656e-35,5.0464804e-34,3.133822e-34,3.540635e-34,-1.0056665e-34,4.2982226e-34,3.742385e-34,-1.941272e-34,-2.4679256e-34,3.1679623e-34,-5.5128114e-34,-3.333412e-34,-1.6948473e-34,4.4277993e-34,-5.232657e-34,4.330813e-34,-5.1287278e-34,3.5210464e-35,-9.094798e-35,-4.188794e-34,1.7639321e-34,4.558883e-34,1.9182011e-34,4.6299986e-34,5.658945e-34,2.789933e-34,-2.6015022e-34,-2.9407682e-34,-2.3105292e-34,6.437902e-35,2.776653e-34,2.900183e-34,-4.8407535e-35,-2.407151e-34,3.2920578e-34,3.2811138e-34,5.391853e-34,-3.8401674e-34,-1.9648257e-34,-5.2411546e-34,-1.4176352e-34,-2.5182175e-34,2.8169234e-34,1.2630806e-34,5.850216e-34,-2.4086788e-34,4.2434106e-35,-3.0554322e-34,-3.8789706e-34,1.8291629e-34,3.41246e-35,-3.5676805e-34,-9.0508324e-35,2.271396e-36,7.6033506e-35,-2.305881e-34,-3.754191e-34,-4.5306767e-34,-1.0871879e-34,-3.78843e-14,-2.992096e-34,1.7278298e-34,2.447095e-34,4.9217508e-34,3.5114294e-34,-4.626136e-34,2.9986255e-34,1.2885512e-34,-7.3176544e-35,-2.582765e-34,-1.3637222e-34,1.2800178e-34,1.8347704e-34,-2.4195494e-34,-5.6569637e-34,6.835867e-35,-5.191935e-34,-3.1087408e-34,4.47415e-34,-3.8000334e-34,-3.1797122e-34,-3.154463e-34,-4.9868217e-34,-3.3130663e-34,-1.2950127e-34,4.357161e-34,3.4529963e-35,-3.5873103e-34,1.7076852e-34,5.775626e-35,3.7944976e-34,1.7539551e-34,-4.9910884e-34,9.4009977e-35,1.3177556e-35,-3.088876e-34,4.908063e-34,4.1463676e-34,-4.0991986e-34,-3.761923e-34,2.101355e-34,-3.3396566e-34,3.97489e-34,2.1636222e-34,-1.706568e-34,2.124877e-34,-3.0051534e-34,-2.5468153e-34,-1.501159e-34,4.723995e-35,2.3491713e-34,-2.5789722e-34
neuron_41,4.675328e-10,-4.281674e-34,-2.481645e-34,2.333214e-34,-1.0841511e-34,2.884384e-34,-4.4052973e-34,4.2540934e-34,-4.508344e-34,-1.1488115e-34,-4.855269e-34,5.022476e-34,3.3132925e-34,-4.396692e-14,1.9039842e-13,-4.847004e-35,7.6425266e-08,1.6533328e-35,3.5090306e-34,-1.7430671e-34,-2.1634796e-09,2.1425754e-34,-4.3859145e-34,3.0202867e-34,-4.4990178e-11,-4.7922333e-34,-4.13209e-34,2.4539473e-34,-3.3817411e-34,-4.4527506e-34,-3.3820524e-34,1.6655382e-34,3.4134887e-35,2.551563e-34,1.6643208e-11,-1.9444633e-08,-5.270946e-07,-2.6071767e-34,-4.057376e-34,-7.490503e-10,-2.2187203e-34,1.6538177e-34,-1.583795e-34,-5.885509e-34,-2.3407996e-34,3.1138258e-34,-2.1497983e-34,3.02872e-34,3.7152406e-11,-5.0682183e-34,-2.621095e-07,-2.7571342e-34,-4.7609054e-05,-1.7982993e-07,-2.7121042e-34,7.845941e-12,-2.120026e-34,-1.2662286e-13,-4.5998982e-11,-1.9457076e-34,-3.3611566e-06,7.942604e-08,7.1414955e-36,2.2816345e-34,-2.6801293e-13,-3.3683423e-34,-3.3626265e-34,-1.5956454e-34,4.934468e-34,1.2766721e-09,1.6670948e-12,-3.2447457e-07,-3.705572e-34,-8.853897e-35,8.0502996e-35,2.8407805e-34,-1.7717096e-07,-1.6804515e-05,-4.146325e-09,1.881171e-10,1.0223421e-34,-1.6740481e-34,-7.958084e-09,2.6540633e-34,-1.3352219e-06,2.0740687e-13,2.6184463e-12,-1.8627177e-35,-3.7064632e-34,5.0924412e-12,1.0308893e-10,2.7606669e-34,-1.8547e-06,-3.5444406e-34,-2.1204449e-35,1.9986563e-34,-2.9213477e-34,-1.927752e-34,4.1886023e-34,-3.260689e-34,4.8172493e-34,2.4073077e-34,-9.191484e-35,-5.867715e-34,6.2523444e-09,2.3658e-34,4.9128873e-10,-1.9518055e-34,-3.9339987e-08,3.4382122e-34,-2.6610758e-34,-7.2348294e-11,2.5886893e-34,-3.2059223e-08,2.3634558e-12,3.1201712e-13,1.419125e-13,-2.724076e-34,1.2180457e-05,-5.67608e-34,4.758313e-34,2.9858558e-34,-5.16906e-34,-1.9871732e-35,5.1760286e-34,6.0269065e-35
neuron_42,4.4754183e-34,3.8525836e-34,-5.8543384e-35,-1.0012207e-34,5.085732e-34,4.1891336e-34,4.0688777e-34,2.650513e-34,4.2668815e-35,3.7205877e-35,-5.10689e-34,2.034621e-34,4.1067424e-34,-3.6892156e-35,-3.440351e-34,4.822361e-34,2.1640197e-35,-5.4611567e-34,-4.724387e-34,-9.645643e-36,3.3089624e-34,3.4211638e-34,-1.9119921e-34,-5.5241536e-35,5.012475e-34,4.0345905e-35,-3.1569747e-34,-4.631411e-35,-1.708078e-34,4.7249317e-34,-2.674827e-34,-4.7673064e-34,-2.1741151e-34,9.4033866e-35,-3.6965642e-34,2.12698e-34,-2.7559897e-34,2.1550926e-34,-1.3182905e-34,-4.7403353e-34,-4.392153e-34,-1.9202837e-35,3.9402373e-34,1.4493158e-34,-3.5654277e-34,1.9359134e-34,2.5610844e-34,6.7701587e-35,-3.1571065e-34,-4.383719e-34,-4.660044e-34,-4.6795695e-35,2.3803522e-34,-2.6635517e-34,-1.4667323e-34,5.156547e-34,4.8858794e-34,-6.7192405e-35,6.8289564e-35,-5.2885537e-34,-4.316936e-34,2.3132572e-34,-3.9916317e-34,1.0996311e-34,3.2832597e-34,-9.312441e-35,1.071009e-34,1.7106561e-34,3.6201043e-34,-1.759834e-34,4.39747e-34,-2.0799326e-34,-5.1400814e-34,-5.7274034e-34,-3.1152529e-34,-2.3355658e-34,2.8809484e-35,2.7427332e-34,1.8619266e-34,3.3289927e-34,-2.2580902e-34,4.9155105e-34,3.5285337e-34,-2.8283877e-34,1.5873903e-34,1.1130646e-34,-1.9575535e-34,-8.810133e-35,2.7747328e-34,5.0619725e-34,-1.9983863e-35,2.5824086e-34,2.377334e-36,4.0103964e-35,-4.2403406e-34,7.507625e-35,-1.2669166e-34,-4.1393716e-34,-3.0154773e-34,-2.3791432e-34,-5.0995957e-34,-4.2147726e-34,-2.6339871e-34,-4.0840026e-34,7.383638e-35,-3.972763e-34,1.1356919e-34,-4.442137e-34,5.3337703e-34,1.4290788e-34,4.823552e-34,5.093123e-34,1.906684e-34,-1.9300187e-34,2.1614476e-34,-1.8061765e-34,3.0635256e-34,4.202732e-34,2.4696108e-34,-1.8326134e-34,-3.620734e-34,-3.9356804e-34,-3.2257218e-38,1.0896603e-34,4.7788107e-34,1.1233582e-34
neuron_43,-0.017471096,0.0046472466,4.0399204e-06,-0.09994613,-0.038728878,-0.0066730655,0.022353595,0.019057408,-0.031428695,0.009801364,0.0147355385,0.029844282,-0.009350177,-0.010396833,0.0031714204,0.03380002,-0.027254371,-0.008027227,0.005706245,-0.023317827,0.020452593,0.014491331,0.003433119,-0.0073869633,-0.00014730784,-0.028561236,-0.032123636,0.037942022,0.0012484791,-2.3860184e-34,-0.003835567,0.0026850014,0.011298446,-0.008073173,0.006453051,-6.9013906e-05,-0.010750706,0.003093683,5.4824616e-34,-5.317044e-05,-0.0044040754,-0.008479084,0.0018797586,0.013105003,-0.0024172687,-0.013893113,0.0020956686,-0.002419038,0.04654575,0.022950482,0.0006690993,-5.3734786e-34,0.009724573,0.0003932118,0.00044069375,-0.00070343434,-0.00040308086,-2.9974159e-05,-0.004064564,-0.0013731951,-0.012662759,-0.00032195912,-0.07999599,0.074238405,0.0017231688,-3.6495307e-31,0.011808953,0.028127015,-0.0700869,-0.00023101001,4.302346e-34,-3.188555e-06,0.008126971,4.5253814e-34,-0.0009806784,5.1242664e-34,-0.004471973,-0.019424183,-0.00086889206,-0.00022831319,0.00013487438,-0.0003406548,-4.052864e-06,-0.00010764457,-0.009815895,-0.0005610916,2.542139e-05,-0.00018864119,-0.00012915018,-0.013685052,-0.00041506236,0.010076558,0.023196923,-1.666473e-07,7.899972e-08,0.014984658,4.6584694e-34,-0.00494153,9.5557244e-36,-0.0071489834,-1.7699938e-05,1.6798098e-05,0.007448936,0.0008015177,-0.0021917094,-3.227003e-34,-5.5309747e-06,-0.00024233796,-0.03842486,-4.7650444e-20,-0.0026643944,0.017030623,5.2819323e-34,0.000116486364,-0.000614929,0.002762833,-0.00043866844,-0.013253407,-0.00092147454,-0.015808567,0.005742479,-0.0068811644,0.0023632778,2.663469e-05,7.2231387e-07,-0.014801068
neuron_44,-1.743199e-34,5.5180083e-34,5.0475066e-34,8.504918e-35,-4.567478e-34,3.815811e-34,-1.2210243e-34,-1.7457804e-34,-2.2477668e-34,4.9478233e-34,5.742236e-34,-2.2461436e-34,-3.6255327e-34,1.6685155e-34,-2.7897243e-34,2.403319e-34,-3.6322472e-34,4.662743e-34,-5.027949e-34,7.970917e-35,-2.7920617e-34,4.3993794e-36,-2.8762225e-34,-3.9758176e-34,-3.548621e-34,1.4930822e-35,3.8488357e-34,1.3241788e-34,5.541185e-34,2.776014e-34,7.557447e-35,2.6699403e-34,2.1005836e-34,-3.849013e-34,-1.1033193e-34,2.789254e-34,-2.9363697e-34,5.258806e-34,-5.0377656e-34,3.6645887e-34,2.5703084e-34,-4.497041e-34,-2.839811e-34,-3.6690207e-34,1.5765016e-34,-5.176713e-35,-1.7987839e-34,-1.1639212e-34,2.7703936e-34,-2.10366e-34,1.5913631e-34,-1.4727135e-34,-1.0978431e-34,2.501413e-34,1.0310431e-34,2.7115018e-34,-4.7959334e-34,-5.2143432e-34,4.441869e-34,-2.3598049e-35,5.68937e-34,-4.6743211e-35,5.4955435e-34,-3.018799e-34,-6.752143e-35,1.3023499e-34,-5.809417e-34,-2.7092084e-34,-2.998689e-34,3.5197393e-34,-1.3366565e-34,-1.8251735e-34,5.217088e-34,2.0462303e-34,3.773508e-34,-4.679828e-34,-2.0452885e-34,-5.5852347e-34,-4.1774532e-36,1.9721698e-34,3.1606692e-34,2.3036686e-34,5.4187107e-34,5.208477e-34,-5.040692e-34,-1.4127077e-34,1.3276383e-34,-3.5235687e-34,-2.084416e-34,-4.1517818e-34,2.8626819e-34,1.6405576e-34,-2.6574793e-34,-2.3421573e-34,5.565044e-34,-3.2608473e-34,-3.779137e-34,1.5878768e-34,-5.4670823e-34,7.235417e-35,6.570167e-35,1.6561254e-34,-1.9546848e-34,-5.070819e-34,1.2276682e-34,-2.760258e-34,-5.124877e-34,5.0316696e-34,-6.787548e-35,-2.0827987e-34,2.2183383e-34,2.8815896e-34,-2.9234636e-35,2.3802007e-34,3.3398563e-34,1.2819705e-34,2.098274e-34,-3.073612e-34,2.2807738e-34,-5.2532484e-34,4.458529e-35,7.28466e-35,4.984934e-34,5.7643754e-34,-4.2142377e-34,-1.4949525e-34
neuron_45,5.606688e-34,-1.2666355e-34,1.8346893e-11,3.5450634e-34,-5.5445676e-34,5.0058546e-34,-2.9183062e-34,1.0213419e-34,-3.7058412e-34,1.8910156e-34,7.5097323e-35,5.008672e-35,3.3624263e-34,4.9736686e-34,4.329107e-34,-2.1706562e-34,4.9471993e-34,-1.9911795e-34,-2.2783693e-34,3.8596338e-34,3.667027e-34,1.3675557e-34,-1.9483587e-34,2.9057414e-34,2.505215e-34,1.4352722e-34,1.5986046e-35,2.8207261e-34,6.701176e-35,6.8283e-35,7.1206213e-35,3.853566e-34,-1.6126231e-35,4.5068968e-34,4.358307e-34,-1.1879091e-13,5.4632445e-34,-3.5726983e-34,-5.771544e-34,4.3795393e-34,2.6362518e-34,-1.4473301e-35,2.0099723e-34,1.1732425e-34,5.2075766e-35,-7.125819e-35,2.8331425e-34,-2.3127023e-34,-6.597693e-35,-4.544138e-34,-4.2619954e-34,-1.245204e-06,-4.2585506e-34,-4.861896e-34,-9.490923e-35,3.4091448e-35,-9.5472916e-35,2.942974e-35,-5.122116e-34,9.3728157e-35,-2.6612164e-34,-9.080143e-35,1.7561904e-34,2.2101333e-34,-1.756262e-35,5.429601e-34,4.0236336e-34,4.813081e-35,-1.895329e-34,1.8283653e-34,8.1060283e-11,2.5853263e-34,3.1356066e-34,-4.733879e-05,2.3359718e-34,-2.146785e-09,5.1607205e-34,-8.9471283e-35,4.0328787e-34,-1.4388786e-34,1.5090409e-35,-1.9103583e-34,2.297366e-35,-2.0563804e-35,-3.1822138e-34,-2.2611111e-34,3.185149e-35,3.2080196e-34,1.0928493e-34,2.9248559e-34,7.610118e-35,-5.075407e-34,3.226815e-34,-4.479095e-34,8.0992264e-05,-4.3679974e-34,-3.6218083e-36,2.085243e-34,3.0063178e-34,6.605594e-35,1.9480802e-34,1.4891321e-34,4.9732287e-34,-2.9691316e-34,1.5355262e-35,-4.7118295e-34,-4.528616e-34,1.302468e-34,1.8232096e-34,1.3991974e-34,-3.1173536e-34,-2.0473723e-34,1.8017119e-34,1.4407028e-34,1.941429e-34,-5.7785374e-34,-6.139754e-36,-1.4253934e-34,-2.737708e-34,5.6615504e-34,2.9713035e-34,-3.5842538e-34,-4.4561714e-34,7.910214e-35,-2.7528902e-34,-3.6592804e-34
neuron_46,0.014023693,0.00869553,2.4578469e-05,-0.0816892,0.01043203,-0.103212416,0.05383009,-0.044917807,-0.06310327,0.08566243,0.04229791,0.014362585,-0.010509055,-0.0016321609,-0.007626688,0.054516062,0.04452882,-0.024211574,-0.040392324,-0.015240649,0.036446087,0.0037605092,-0.0019088902,-0.034467656,-0.00024280406,-0.12951669,-0.023056118,0.024879094,-0.00041290856,1.1918117e-34,-0.009188888,0.007985935,-0.0035861058,-0.0021166615,0.01235336,0.0037985481,-0.017391324,-0.0034124223,5.5047666e-34,0.0046658684,-0.014352144,-0.066758506,0.049714066,0.03008596,0.028341003,-0.02194591,0.04246907,0.009810112,0.091110066,0.01691154,4.90269e-08,1.32931565e-11,0.035442248,-4.9417257e-15,1.1129599e-22,-2.3169303e-15,-0.0014047064,-0.00062311575,-0.0034046671,-0.01907142,0.027717607,-0.006998484,-0.053783163,-0.014209261,-8.8119234e-10,-0.00014455288,0.0113391,0.012686903,-0.079864934,-0.002937724,1.2815607e-34,2.0256619e-09,0.013095793,3.5128913e-18,0.00028135238,4.9462437e-33,-0.014639227,-0.022399554,-2.6452058e-17,-2.8194206e-11,3.5827195e-09,1.4142374e-05,-0.0037832179,-0.0005133274,-0.012851532,2.6810287e-10,9.1117066e-08,-4.7968056e-06,-0.00017283739,8.391327e-15,-0.0017574272,0.023231952,0.055629913,-0.00071795663,9.375856e-27,0.021355532,-3.9488253e-13,-0.05366561,2.737214e-34,-0.012513132,-0.00033601566,0.0026840381,-0.00083596935,2.0178421e-15,-0.003652245,-0.00091622956,4.292034e-10,-0.00063994515,-0.0116868075,4.5331424e-35,2.8852555e-35,0.0038198733,6.921712e-35,-4.9414775e-35,-0.0044273916,-3.3207496e-05,-6.419585e-13,-0.012599253,-0.004145653,0.049132295,0.017459193,-0.06355089,0.006955232,0.024460455,-0.0007717188,-0.007276795
neuron_47,-5.4299702e-34,1.4909148e-34,1.4651204e-34,-3.610209e-34,1.5011807e-34,-2.8075934e-34,-4.9505003e-34,2.046886e-34,5.8196613e-34,-5.618894e-34,9.151701e-35,-2.4538803e-34,5.65351e-34,7.609651e-35,-5.1392227e-34,-2.3119035e-35,5.8850505e-35,9.844735e-35,4.2214206e-35,5.545511e-34,-1.8265832e-34,5.542603e-34,-5.1819354e-34,-3.3351238e-34,3.8095853e-34,-4.5772827e-34,-2.5591116e-34,-3.124182e-34,-1.5478586e-34,-3.9552547e-34,-3.876395e-34,-4.745287e-34,4.5404544e-34,2.000105e-34,-1.7806666e-34,4.0619012e-35,-2.8966954e-34,2.69522e-34,3.3920873e-34,-4.6123216e-34,5.718843e-34,-7.524204e-35,-1.3544762e-34,-5.954145e-35,-1.0822807e-34,-3.136573e-34,-5.1198496e-34,-4.38228e-34,-5.495357e-34,3.5252713e-34,-6.319228e-35,5.4213065e-34,-5.407801e-34,-3.1437678e-34,2.7918964e-34,-2.933316e-34,-5.011114e-34,-5.3164505e-34,-5.693698e-34,-6.617784e-35,3.4181511e-34,-1.3569969e-34,2.1061626e-34,3.7782253e-34,1.334355e-34,-3.351648e-34,-5.792377e-35,-6.932153e-35,-1.318397e-34,1.804152e-35,1.3047883e-34,2.1351351e-35,-3.9418077e-34,5.7751946e-34,4.588753e-34,3.0931047e-34,1.0857288e-34,5.1499473e-34,1.024062e-34,-3.0021905e-34,-4.873023e-34,2.7389765e-34,5.844236e-34,-3.1982106e-34,-5.304827e-34,3.0894012e-34,-5.05802e-34,5.4315112e-34,1.9565718e-34,1.380448e-34,6.8233865e-35,1.0524228e-34,5.1625333e-34,4.181165e-34,-1.9679277e-34,-2.033923e-34,-3.2326733e-34,2.0327945e-34,-5.0712893e-34,5.079497e-34,2.4220721e-34,2.1497124e-34,4.8819433e-34,-4.3244954e-34,-2.6790724e-34,3.3900132e-34,-5.5676197e-34,-3.778923e-34,-3.7743999e-34,3.1195345e-34,-2.2563582e-34,-2.1437488e-34,1.0060891e-34,2.993998e-34,1.9325455e-34,4.9819535e-34,-4.4883198e-35,-5.7507975e-34,2.6988712e-34,-1.3965957e-34,5.5897016e-34,-5.8511737e-34,-4.1510393e-34,-1.795378e-34,-6.322268e-35,-2.8639818e-35
neuron_48,5.5998654e-34,-2.282822e-34,4.19909e-34,-1.2355502e-34,5.484547e-34,-1.2015141e-34,-3.4014938e-34,1.9814395e-34,4.3463e-34,-4.1100246e-34,-3.9720175e-34,-6.861271e-35,3.5587182e-34,1.157566e-34,3.6560634e-34,-5.7346437e-34,-2.0456416e-34,-4.340288e-34,1.783292e-34,-4.3756703e-34,-2.2282878e-34,-1.6255269e-34,-2.4912192e-34,9.3907925e-35,7.092924e-35,5.1603353e-34,2.3315435e-34,4.0892363e-34,-5.35908e-35,-1.3245705e-34,-3.6237277e-35,6.298216e-36,-5.3306644e-34,-5.701827e-34,2.158203e-36,-1.7222246e-34,1.0937267e-34,5.3454343e-34,-1.0435736e-34,5.18061e-34,1.1551088e-34,2.0397284e-34,5.8362734e-34,3.509849e-34,-4.1972256e-34,-5.366305e-34,-4.112598e-34,3.1392045e-34,-4.9706984e-35,-4.5143676e-34,-7.840182e-35,-1.2560274e-34,-3.6001934e-35,1.803971e-34,-4.2070066e-34,8.316557e-35,-8.8793686e-35,2.814854e-34,4.1919e-34,1.2284357e-34,-1.1595648e-34,-3.6858636e-34,-2.2220948e-34,-5.5519553e-34,3.683878e-34,-4.9665224e-34,3.7379848e-34,4.5099347e-34,8.6729075e-35,-4.775141e-34,5.2329725e-34,-2.6054995e-34,5.2623677e-34,3.8607643e-35,-4.929001e-34,-5.451393e-34,-3.6193483e-34,-5.1404717e-34,-3.446503e-34,5.784086e-34,-4.489506e-34,4.0116054e-34,-3.7279267e-34,3.4248019e-34,-2.230932e-34,4.6712685e-34,-2.0236007e-34,1.6305131e-34,5.4742115e-34,5.4387116e-34,-1.3533301e-34,-4.5367346e-34,1.2687674e-34,-8.961428e-36,-5.3859425e-34,3.632223e-34,-5.543183e-34,-3.3436478e-34,-2.128302e-35,-5.3901885e-34,1.871274e-34,-1.9015697e-34,-2.7583283e-34,7.2525114e-35,-1.4292093e-34,-4.153954e-34,4.5194856e-34,-2.942035e-34,5.359662e-34,4.2343263e-34,-1.7408139e-34,6.3052e-35,-5.441854e-35,1.9628965e-34,-3.2924575e-36,-3.1037904e-34,1.4643973e-36,-2.3708968e-34,-4.505837e-34,-1.4047632e-34,-2.4790478e-34,1.6733496e-34,1.8154259e-35,-3.0860138e-34,5.2830334e-34,5.612688e-34
neuron_49,-0.0070786346,-0.0070586307,-9.8646215e-06,0.054965153,0.04048196,-0.06963283,-0.041242633,-0.031997625,-0.013949572,0.083105065,-0.06088826,-0.03879986,-0.005605672,0.014996165,-0.0011451358,-5.0681365e-34,6.009172e-06,-2.0215224e-34,-0.015064748,-0.018057745,0.010134129,0.0036230762,0.00072931807,0.031309776,-1.7833925e-07,-0.041990608,0.02513821,-0.017162913,-0.0018171923,7.5468925e-15,-0.001728587,-4.9786185e-34,0.0010278741,0.0016177052,0.001072848,7.009541e-06,-1.7203013e-06,0.0009355878,-2.9081758e-34,0.00038278778,-0.0006347488,-0.002449337,0.0063112713,-0.0049419985,-0.06655319,-0.012623762,-0.01095185,-0.011604458,-3.5744944e-25,0.0002534426,1.68099e-05,-2.1623398e-34,0.0049076267,1.0320525e-05,-3.3928586e-07,-2.308971e-06,8.4770045e-06,2.7828619e-06,-4.2445567e-06,0.0069517605,0.002315692,-3.0682397e-06,0.009754419,-0.05894175,-1.5121246e-05,-1.2160663e-05,-0.021226563,-0.036240987,0.068850845,-0.0017790243,-5.151313e-34,-9.88387e-07,-0.044666823,-2.9976217e-34,-3.2695898e-05,5.7965867e-34,-2.2688382e-05,2.4794814e-05,-2.667964e-06,6.5671993e-06,-1.572901e-05,3.3318604e-06,-3.9377832e-05,4.948941e-06,-1.2150595e-05,1.6731426e-06,4.2798265e-06,-3.035912e-06,-4.168107e-06,6.908107e-06,-0.0150288325,0.008921529,0.016274203,-0.022501238,-0.002029852,0.0025011005,-2.1910385e-08,-0.0019119903,0.020455072,-6.247338e-15,4.373909e-15,-0.01593153,0.05973081,5.006147e-06,-0.00024631308,-2.1555638e-07,-2.5023499e-05,-9.081668e-07,0.003144746,9.6475304e-14,5.788921e-07,-0.008842303,4.5173997e-06,0.03193237,-0.021237109,-1.6542458e-06,6.2332706e-06,-1.3598301e-05,0.0008628786,0.01299451,0.0094711315,-0.10430532,-0.012287671,0.0064848466,1.7553869e-07,-0.023346046
neuron_50,0.015330669,-0.0075723603,-8.047943e-06,-0.05340153,-0.041833956,0.005091587,-0.06938805,0.04835746,-0.037232447,0.1212986,-0.0035587894,0.04431804,-0.016688192,6.426363e-05,-0.0007391017,0.052479517,-0.00512344,-1.2187249e-05,-0.03102324,-0.009137813,0.0026808344,-0.0049477876,0.0057713534,-0.0014287994,9.75271e-06,-0.049526036,-0.0022032356,-2.7950684e-35,-0.0023800067,-4.2492302e-34,-0.0020359168,2.076712e-06,0.061317615,-0.060954094,-0.00523942,-0.0002386965,-0.006633296,-5.114789e-12,4.631742e-34,1.7576847e-06,-1.1132815e-18,-0.07769542,0.02155175,0.039310135,-0.025497833,-0.022222498,-0.00037938278,-0.018283663,0.0036740557,0.02003716,0.001137789,-2.5396262e-34,-0.0053592534,-0.0001299541,-0.00012728725,-0.00045542786,-0.0004312808,4.0721863e-11,2.0208296e-33,-6.224548e-06,0.017491732,-1.7276109e-15,-0.06005864,-0.018570129,0.0020107091,4.722475e-34,0.019094346,-0.013643634,0.04395768,-0.00018821696,5.0776654e-34,3.100761e-05,0.022002863,1.5565455e-34,0.00017403404,4.7633824e-12,-0.0009534714,-3.6340018e-05,-0.0010895713,0.00057416444,0.0006374583,-6.196054e-05,-1.1626447e-34,-0.00035050954,-0.019323504,-0.00095225265,1.44200385e-05,-0.00020144218,-4.0235267e-05,-0.017018354,1.7527769e-34,0.02218418,0.0026822528,-6.270787e-07,4.327782e-05,1.9809022e-34,-1.1893615e-36,-0.005033753,-3.2228108e-34,1.852976e-08,-7.425055e-05,-1.3556331e-24,-0.020064937,0.0016707415,0.0011815595,-2.172218e-34,4.645238e-06,0.00022167005,-0.022856237,8.621644e-12,4.0641588e-34,0.009357455,-6.850765e-35,-5.6984026e-34,1.1590342e-34,-0.0007914562,0.00064810226,-0.016581062,-4.3033768e-05,0.025141045,0.0073874444,-0.075199485,-0.015285278,-4.8920255e-34,-2.49943e-34,-0.0032423488
neuron_51,-3.481018e-34,-4.2198456e-34,1.7679114e-35,-5.7585958e-34,-2.8351835e-34,1.6433164e-34,4.4303914e-34,-4.5863166e-34,-3.7178868e-34,-1.2773911e-34,3.1637946e-34,3.025238e-34,1.0060716e-35,4.111868e-34,-2.2121977e-34,5.021094e-35,1.8617461e-34,9.19367e-35,2.1604698e-34,-4.7596547e-34,8.308378e-35,4.034047e-34,-1.908674e-34,1.738442e-34,-5.239877e-34,-4.3430935e-34,-4.1233513e-34,-3.9485898e-34,3.5066833e-34,4.615538e-34,3.7024982e-34,-7.172995e-36,-7.371599e-35,3.3354888e-35,9.5829055e-35,-4.5596246e-34,5.7910445e-34,-9.6787266e-36,3.5018597e-34,-1.9379126e-35,1.415477e-34,1.4783338e-34,2.9652013e-34,4.6848248e-35,-5.8263777e-34,2.5444011e-34,1.4077572e-34,2.1715536e-34,1.8332018e-34,-3.8922693e-34,3.5756256e-34,4.204656e-35,-3.4294726e-35,1.7756554e-34,5.698986e-34,1.1759352e-34,1.4750691e-34,2.961612e-35,-1.9334164e-34,3.5757386e-34,-2.6679428e-34,4.8011506e-35,-1.8662967e-34,5.0041437e-34,5.483079e-34,-1.2718899e-34,-3.7734953e-34,-5.241272e-34,3.535249e-34,-5.7000653e-34,-3.4593917e-34,-1.8189122e-34,-4.354545e-34,-3.2924926e-34,-5.865538e-35,3.1023337e-34,3.4113868e-34,-5.4035896e-34,-3.92639e-35,-3.4831147e-34,4.532215e-35,4.475524e-34,3.9664e-34,-1.3663685e-34,-8.262972e-35,-3.124723e-34,-5.8096163e-34,1.3619255e-34,4.9398212e-34,-2.9287662e-34,-3.7151228e-34,-4.716098e-34,-4.717198e-34,-4.513486e-34,-3.4093138e-34,-1.4553043e-34,-4.617799e-34,-8.281827e-35,5.371271e-34,8.206916e-35,4.7822784e-35,7.648152e-36,-2.9692556e-34,3.3798218e-34,-3.0442778e-34,4.5492366e-34,-3.0774966e-34,-1.9304813e-34,1.5454047e-34,7.657997e-35,-2.040199e-34,2.6262459e-34,3.033968e-34,-4.398821e-34,-9.6056164e-35,-5.555193e-34,3.7235538e-34,-1.189024e-34,9.159764e-36,1.4318949e-34,-2.190536e-34,3.0806341e-34,-9.11676e-35,-6.9120905e-35,1.7194002e-34,-2.503679e-35
neuron_52,2.123475e-34,2.8471162e-34,-1.9126044e-12,-4.1375338e-35,2.8504595e-34,-5.0718164e-34,-2.0575369e-34,3.2633505e-34,4.7918344e-35,-4.2881318e-34,-2.1691255e-34,-5.100122e-34,2.5958745e-34,7.54143e-35,-9.494295e-35,-2.0852246e-34,-4.62138e-34,7.334388e-11,2.8436285e-34,2.4888861e-34,3.417748e-34,3.1893476e-34,5.564026e-34,3.0196351e-34,5.726494e-34,-3.1072552e-34,-2.532709e-34,-5.2781446e-34,-3.772573e-34,-3.478343e-35,-1.2326354e-34,9.967787e-35,3.7374485e-34,-5.167915e-36,-5.326084e-34,4.7222988e-34,-5.1068833e-34,5.0128663e-34,5.6564725e-35,-1.4303823e-12,4.567163e-34,-7.99597e-36,-1.7818738e-34,2.7192692e-34,5.287855e-34,8.9057917e-13,-3.8816137e-34,4.855323e-34,-6.932183e-35,1.0252841e-34,2.6077975e-34,3.5015258e-34,-1.45574e-34,-5.4413413e-34,6.6732447e-35,5.605885e-34,-4.841472e-34,2.0152896e-34,2.5116898e-34,4.1971907e-34,1.7849239e-35,-3.371663e-34,-1.857963e-35,-2.4045954e-34,5.8588034e-34,-3.1152878e-34,-3.0561797e-34,-5.1520007e-34,4.0372457e-35,2.6847997e-34,-9.022874e-35,-3.6098256e-34,-3.5097483e-34,3.6670942e-34,3.320148e-34,-2.7677382e-34,-5.771223e-34,-5.8423024e-34,4.738954e-34,-3.2641935e-34,5.414812e-34,-2.8811367e-35,-2.4293868e-34,-7.785593e-35,-4.402792e-34,-3.0086227e-35,-1.4131628e-34,4.3019273e-34,-4.2818925e-34,1.507678e-34,-2.0340369e-34,8.978343e-35,-1.3620448e-34,-2.0585494e-34,-5.4527436e-34,2.293979e-34,2.0821853e-34,6.508471e-35,-5.1569314e-34,1.0906402e-34,2.490407e-34,-3.2466052e-35,-4.935738e-34,-2.7012346e-34,-1.5439788e-34,-5.6380382e-34,-2.9979588e-34,-2.5713425e-34,-1.6995747e-34,4.0124765e-36,-1.3986528e-34,2.5855072e-34,-1.3927239e-34,2.0085892e-35,4.03786e-34,-3.7500768e-34,2.905991e-34,5.21896e-34,-3.3630317e-07,1.5528611e-34,-2.7360673e-34,4.095699e-34,4.649795e-34,-1.3651097e-10,-2.0849817e-34,9.586386e-36
neuron_53,1.7513346e-34,1.5150368e-34,-1.5247429e-34,-2.7127101e-34,2.669274e-34,2.7678518e-35,1.7899794e-34,3.5204788e-34,5.446054e-34,3.3748686e-34,2.2769039e-34,-2.7893512e-34,4.75206e-35,4.8328503e-34,1.6457472e-35,5.4906147e-36,-4.2834335e-34,-5.181219e-34,-2.5557922e-34,1.2472222e-34,4.117452e-34,-3.4433747e-34,2.6096985e-34,2.9490324e-35,-2.034575e-34,2.8199434e-34,-2.6088405e-34,-2.6256453e-34,4.4557518e-35,9.2977195e-35,7.468744e-35,-2.0261555e-34,-5.127705e-34,-2.7529495e-34,2.5918851e-34,4.5219155e-35,-5.465733e-34,-7.0272476e-35,3.8000761e-34,-4.3378974e-34,3.9732793e-34,-4.23843e-34,9.98147e-35,-5.2428527e-34,-2.5350629e-34,4.2203287e-34,-5.490835e-35,-3.1222432e-34,-4.2522737e-34,2.797987e-34,-4.5787287e-34,-3.3520597e-34,2.4180038e-34,8.651505e-35,-2.0142904e-34,2.4421322e-34,2.0628796e-34,3.564654e-34,3.006301e-34,1.6618065e-34,-2.6868132e-34,-8.636899e-35,4.9942076e-34,1.2831795e-34,2.2153137e-34,-5.6834417e-34,-2.2631848e-35,4.3006747e-35,-1.239456e-34,-1.7825688e-34,4.579861e-34,1.3662514e-34,-4.014926e-34,-5.3533877e-34,5.3183084e-35,1.8089972e-34,-3.892005e-34,-3.5437665e-35,-1.5727967e-34,-2.6842285e-34,-2.1530437e-34,3.348886e-34,4.522189e-34,-9.6220825e-35,3.5343442e-34,-1.3273949e-34,-5.101146e-34,-2.6591776e-34,3.2545196e-34,-2.2375048e-34,-1.5532528e-34,-6.985467e-36,1.0762951e-34,5.5858895e-35,1.1332179e-34,-2.8305371e-34,-4.253629e-34,-1.585391e-34,5.6607032e-34,-3.574891e-34,-3.6258766e-35,-4.9467544e-34,4.7508174e-34,2.5690397e-34,-2.239448e-34,4.480742e-34,1.2493126e-34,8.9084197e-35,-4.3365846e-34,-1.9052284e-34,-1.554999e-34,-2.460195e-35,1.7016631e-34,-7.91723e-36,1.3141751e-35,2.1683573e-34,5.265436e-34,-3.6566286e-34,-9.264282e-35,1.1721309e-34,3.0201963e-35,3.0356914e-34,-9.474156e-35,3.0178834e-34,-5.307345e-34,9.94567e-35
neuron_54,6.458398e-35,-1.1059168e-34,-1.7421886e-09,2.6964624e-34,2.7393656e-34,-5.0939318e-34,-2.2635214e-34,4.2259545e-34,2.4013453e-34,-3.4906064e-34,1.9908303e-34,5.6527315e-34,2.5787208e-34,4.8304764e-34,1.0463094e-34,9.972336e-36,-2.9889855e-34,1.3188618e-07,-2.3303174e-34,3.6534913e-34,8.003794e-35,4.9186504e-34,-4.466331e-34,-9.998742e-35,-3.4043198e-34,4.670013e-34,-5.144309e-34,9.283952e-36,-7.972957e-37,-2.6959442e-34,-7.926393e-37,-6.70437e-35,-2.5419934e-34,-2.2672037e-34,-2.9138154e-34,-5.59046e-34,3.4037876e-34,1.980719e-08,5.817011e-34,-5.333894e-34,4.1634394e-34,4.6669867e-34,-2.0279192e-34,4.327528e-34,-2.3157868e-34,4.170823e-34,-1.2710411e-34,2.4150164e-35,2.2460572e-34,5.9460545e-35,3.5528435e-34,1.6311375e-05,3.7802383e-34,-2.6693273e-34,4.4693618e-34,2.601516e-35,2.065564e-35,-1.25083055e-08,-2.7353166e-34,2.2410524e-34,-5.7268395e-34,1.0854221e-34,4.435646e-34,-4.784482e-34,4.254555e-34,-1.4853978e-34,5.3453585e-35,-2.1146658e-35,-3.138076e-34,-1.8955792e-34,-1.11462654e-07,-1.5670657e-06,2.3930615e-34,1.3455149e-34,-8.9245275e-14,4.522465e-13,2.5224713e-34,-3.4366239e-34,3.879205e-34,3.6540977e-35,-2.3380583e-35,4.268333e-34,1.5337046e-06,-2.8054853e-34,-5.32489e-34,-4.890064e-34,-4.8659515e-34,2.3547503e-34,-3.1679352e-34,2.0672978e-34,-8.501255e-12,-1.6339583e-34,1.6373413e-34,-3.300512e-34,5.3421e-34,5.917468e-34,-1.4631019e-05,-2.4726505e-34,2.706741e-35,-7.609837e-13,-3.532251e-12,-2.1423127e-34,-3.2612543e-34,4.630037e-34,5.0591275e-34,1.7795019e-34,-5.2803243e-34,-1.7601757e-13,8.901183e-35,-5.534108e-34,1.5758787e-35,-3.2559945e-34,-4.61448e-34,3.2668219e-34,1.6962247e-13,5.6673466e-34,1.382003e-34,5.3193176e-34,-1.5842397e-11,3.0428495e-34,-2.3021724e-34,9.1171526e-35,2.616062e-35,-4.4726623e-34,1.1942389e-05,-2.8919517e-34
neuron_55,1.1467218e-34,1.4438675e-35,4.760473e-34,-4.3635135e-34,3.8476111e-34,-8.339439e-35,-1.9757218e-34,4.9869553e-34,3.40868e-34,-2.3186437e-35,-4.2780285e-34,5.128453e-34,5.8253533e-34,1.4193525e-34,3.997399e-34,-3.2931855e-34,5.0497346e-34,3.5887154e-34,9.94492e-35,3.7702427e-34,3.901144e-34,-5.133879e-34,-2.3739568e-34,2.367297e-35,3.1202102e-34,-2.8707668e-34,-1.8815254e-35,3.8263338e-34,-4.3237378e-34,2.418249e-35,-4.312444e-34,2.094157e-35,2.3841353e-34,-3.6699188e-34,-2.2416158e-34,-5.7466686e-34,-5.1627005e-34,3.089312e-34,-6.914104e-35,-3.3102876e-34,-3.1171034e-34,-2.4058742e-34,3.434655e-35,-9.283224e-35,-2.1253066e-34,-5.47932e-34,-1.2674322e-34,-5.3737265e-35,-6.463635e-36,-2.7838255e-34,-5.8739884e-34,6.042638e-36,7.4069e-35,-1.4255091e-34,9.252454e-35,2.4224239e-34,1.6552972e-34,-1.1022353e-34,-1.4108898e-34,3.828068e-34,3.424925e-34,2.4304365e-34,-2.1081208e-34,1.4622872e-34,-2.820426e-34,2.8281953e-34,-4.6332587e-34,4.9344254e-34,2.649325e-35,-1.6463804e-34,4.6918874e-34,4.235659e-34,-2.4760278e-34,3.4693733e-34,4.13639e-34,-3.653823e-34,2.9918884e-34,3.2874904e-35,-5.7729584e-34,5.814906e-34,-1.049879e-34,-5.0451556e-34,-3.3052917e-34,4.0051563e-34,-2.711994e-36,-4.8831743e-34,-2.89174e-34,1.2853572e-34,-5.895646e-34,-5.160861e-34,-7.307415e-35,-4.1623387e-34,4.6441566e-35,-3.3955628e-34,-2.1733945e-34,-1.4475083e-34,-5.3963346e-34,-6.568854e-35,-4.742534e-34,3.271906e-35,3.4666981e-34,1.610453e-34,-4.3497584e-35,-1.9060347e-34,-3.8890955e-34,1.6017984e-34,2.760619e-34,-1.6787731e-34,1.4707618e-34,-1.0711839e-34,1.8383216e-34,-1.9785113e-34,2.649703e-34,1.3392646e-34,1.4912248e-36,-1.7209862e-34,2.5675368e-34,2.1878485e-34,-2.0458083e-34,-2.0443706e-35,-9.941284e-36,-2.0194632e-34,-4.676e-34,-4.537329e-34,1.7528531e-34,5.7415566e-34
